{
  "activationFunctionFactory": {
    "activationFunctionMap": {
      "TANH": {
        "type": "basicneuralnetwork.activationfunctions.TanhActivationFunction",
        "data": {}
      },
      "RELU": {
        "type": "basicneuralnetwork.activationfunctions.ReLuActivationFunction",
        "data": {}
      },
      "SIGMOID": {
        "type": "basicneuralnetwork.activationfunctions.SigmoidActivationFunction",
        "data": {}
      }
    }
  },
  "random": {
    "seed": 206607927526201,
    "nextNextGaussian": -0.7884823873626846,
    "haveNextNextGaussian": true
  },
  "inputNodes": 45,
  "hiddenLayers": 2,
  "hiddenNodes": 16,
  "outputNodes": 8,
  "weights": [
    {
      "mat": {
        "type": "org.ejml.data.DMatrixRMaj",
        "data": {
          "data": [
            -1.177462642674557,
            -0.2696536482513436,
            -0.2489700568694979,
            2.0206041280395106,
            1.6983129233948708,
            0.2579387600763602,
            0.2958051138056964,
            0.08421424670910096,
            0.759799898869576,
            -0.02090465360483551,
            1.9756792964924432,
            -0.7141027187201763,
            -0.0362234865116246,
            1.9708447412977246,
            -0.5638988793390054,
            1.2160691957993892,
            -0.27866861711428204,
            -0.3495472161521159,
            -0.0390801311608851,
            -0.1627808694900607,
            0.18102196803492748,
            0.8223127821145555,
            2.108065687147928,
            -0.5762743228452325,
            0.12426220792585385,
            0.4879824668771624,
            -0.48868447747476257,
            -1.1027678045566653,
            -0.8360789856749158,
            0.06340779195873286,
            1.6024923359458467,
            0.8405795859079723,
            2.349609992416077,
            2.5228891350587466,
            0.2158628175150033,
            0.14244775861497105,
            0.5996845395460735,
            0.04271690973926778,
            0.1821901556894297,
            0.37435091131590276,
            -0.283016047917916,
            -0.4641804830542317,
            0.7848071505737921,
            0.9850749048903232,
            1.734539535188711,
            -0.10656663201594946,
            1.2381024962151221,
            0.17286026892923317,
            -1.5685215965004673,
            -2.848624181789259,
            -0.7885802024558191,
            -0.8272749529068357,
            -0.7735002478387638,
            0.44334208149436244,
            -0.6895194865898946,
            -0.693342357578805,
            0.3027095916877462,
            0.3172243757690114,
            -0.2509538553266698,
            0.06660525117649815,
            1.26764027439719,
            0.13192798025117847,
            -1.124586144610398,
            1.0628910116228438,
            -0.3341727676917872,
            -0.7495544450535173,
            0.8815048897206951,
            -1.53791980799443,
            -0.3831753844138043,
            -0.5774876559438193,
            0.33043449313484186,
            1.5350581559011203,
            0.6602867912904045,
            -0.4960958749317185,
            -0.745748021231762,
            0.9442515131078285,
            0.47193926953838444,
            2.6143001169036135,
            0.848846088293177,
            -0.15497020149602403,
            -0.9477288303382738,
            0.7614364953065126,
            0.5712112709718684,
            -0.5311551013383005,
            0.46287301616308874,
            -3.2485816517245345,
            -1.1148354612808042,
            0.988214681574882,
            0.8336470692192497,
            -1.3540371271813896,
            -0.4335472559282182,
            -1.3312849438236638,
            0.4817417603100121,
            -0.5662138848143435,
            0.08747987247954042,
            0.98155152584993,
            1.6273686954713769,
            -0.14968433731117914,
            -0.22622107895135202,
            2.3313422791746197,
            0.11983339929417125,
            0.9758978898233365,
            1.8337263137751392,
            0.5827583556971824,
            1.2020495461691088,
            1.4095652710121656,
            1.0525265983529584,
            2.5396489342602155,
            -0.8086055961270336,
            -1.2602767954179481,
            -0.9895139172255261,
            -0.22684673141605316,
            -0.8810723091472296,
            0.36761936463124556,
            0.5093553752459333,
            0.1637587777108077,
            0.4430611711682062,
            0.1215513188275068,
            -0.325992335573554,
            -1.0883713337225998,
            -0.3746098781297169,
            1.0369282325289144,
            -0.7265570320366692,
            -0.04484836654777974,
            0.44256124872830244,
            -1.7728007402244659,
            -0.9922424893205253,
            0.41591135650115485,
            -0.011016804235357558,
            -0.2878519153089123,
            1.468129493515086,
            0.08396121602903925,
            0.04849696860868724,
            0.011641818041641772,
            -1.4792806063913075,
            -0.7912236160058554,
            0.730732167940848,
            0.038401725005271836,
            -0.37649424086008587,
            -0.15798120629909274,
            0.7063790328953914,
            -0.21961106701618224,
            -0.4427886522619898,
            0.4193002408793822,
            -0.08641141789069973,
            0.7896859993276278,
            0.9261118047041453,
            0.7433705865133866,
            0.25690944230313995,
            -0.2824657274876018,
            -0.35819269698127465,
            -1.5588761958110218,
            0.7212116664894476,
            -0.3196316101642094,
            0.5317473541741969,
            0.053335028203092216,
            -1.0255066960236587,
            -0.2917632073943205,
            -0.8387747865360289,
            1.5738973829975855,
            0.4566962130454741,
            0.5189180051503507,
            0.4074993262928611,
            0.37655795781187684,
            -1.011504295020238,
            -0.9774410281260311,
            1.2818053566556629,
            -1.294948454483483,
            -0.6205621515031848,
            -0.4636853031639667,
            0.7459788376050265,
            1.9196128454221557,
            -0.030930364118814724,
            0.7093473853017118,
            -0.9215008643939469,
            0.7196241930371639,
            1.2723816943091886,
            0.1685087002171021,
            -0.5826258969531641,
            0.33223400622712396,
            -1.8047811005555776,
            2.5039073242697336,
            1.675248471413321,
            0.6401150855779141,
            -0.5014277463800125,
            1.7256348222926856,
            -0.7212383814990421,
            -0.08846621492817003,
            1.2697475616134821,
            -0.35924225283930455,
            1.2738366216865917,
            -0.194474544085035,
            0.2099846956609358,
            -0.42433889178189804,
            -1.4702265770972704,
            0.8180598604835858,
            0.5646402981996337,
            -1.330172929483371,
            -1.1644846680469605,
            -1.262889525824602,
            1.955228510365818,
            1.3414966228936342,
            -0.5425718600206515,
            -0.8082187266055381,
            0.3779676562930008,
            -1.1715752185871522,
            -0.9200788246974851,
            -0.2860936522435761,
            2.048136231069625,
            -0.02532241337519664,
            1.6553651213302745,
            0.3903025039909569,
            -0.6095933071946623,
            -0.9754019029250292,
            -0.31899041964717223,
            -0.2586881596421011,
            0.19597552979502125,
            0.42671581417178833,
            1.4899585168435854,
            0.517023793763483,
            -0.3327825534552725,
            -0.840069284444208,
            -0.5589278799819579,
            0.945187360533388,
            -2.1894867004803085,
            0.04272727343095295,
            -0.363812497154334,
            -0.8276559729432418,
            1.5504163038407413,
            -0.5658849463381224,
            0.7006711229871203,
            -0.08048848274352993,
            0.17055096853789364,
            0.2640167277779023,
            -1.1314533042999932,
            -1.2142962483778348,
            0.5592229621722052,
            -1.0487420816997866,
            0.13944967195623814,
            -0.9430799829827572,
            0.7186288890079239,
            -0.19587212145338828,
            0.4722007780455217,
            -1.5338109517472294,
            -0.5512357985587362,
            -0.4681990405592736,
            -1.14960828434099,
            0.7845000028456053,
            0.2741798470969157,
            0.1147372522478422,
            1.7582244192946037,
            0.5695970527875636,
            -0.45551954520466914,
            -0.22938218837899754,
            -0.42358226219326744,
            0.9958622493330904,
            -0.8711656607674005,
            1.0703624472739888,
            1.1731160545116879,
            -1.2018465467252906,
            -0.27526882020469934,
            -0.09515229914721257,
            0.03937767523243685,
            0.8996510008465005,
            -0.15329007239208875,
            -0.8992607743431016,
            0.3996579336332884,
            1.3614087888012447,
            0.9881158962790685,
            0.6390716574802802,
            -0.08405861091182401,
            0.5489015205183854,
            0.12690521526439474,
            -0.13722391468849832,
            -1.5392884827822997,
            1.9544128852832416,
            0.4107504285205418,
            -1.4664674806210878,
            -0.40025863475911516,
            -0.045932483979697396,
            -0.12090940053183596,
            -1.1146779345655244,
            -0.056884753287260725,
            -2.0326197096658563,
            0.7065347088475009,
            1.7387660287057443,
            -1.895894561407781,
            -0.8171252453059005,
            0.5343759741343715,
            0.9737758927694519,
            -0.40785401105218333,
            2.4467769993298263,
            -0.05272017386827099,
            0.5666903666875872,
            -4.907600011270494,
            -2.105823138239405,
            1.662760495671292,
            -2.9769650280880855E-4,
            -0.8280886136931866,
            -0.7692686858181614,
            -0.10658055352783974,
            1.1770044774056756,
            -1.1025050728758639,
            0.21535592615141275,
            0.8937654716167662,
            -0.08647817711431449,
            0.18223105848438614,
            -1.4777422278980772,
            -0.11200028084493568,
            -0.09420063098582507,
            0.8785048266493789,
            1.980199876195798,
            -0.15514673893702136,
            0.42602637072828575,
            -0.347083322634005,
            -1.1332625193268027,
            1.3508066874383988,
            0.8933684263141397,
            -0.5493315822373155,
            0.42809217609151345,
            -0.8799182558793954,
            -0.2691068999794976,
            2.2423374785276726,
            -0.3017783888928309,
            -3.038595476528117,
            1.3180820978594652,
            -0.10805752144368208,
            0.3914090646172638,
            -1.390793163228818,
            1.619342522192214,
            -1.022327020319219,
            0.5467681150989673,
            -1.1413455585728838,
            0.03310834541414265,
            -0.5059392391816553,
            -0.8865472990287415,
            1.3210734695191513,
            -2.3999101362608877,
            -0.4648338688012168,
            0.8485179539852914,
            0.9565187389473606,
            2.0055688267943474,
            0.7614197247258139,
            2.018521830419051,
            0.1716975134591589,
            0.6730550534060611,
            0.5368935617164396,
            -0.7357710378383037,
            -1.4404647984974503,
            -0.42700304601621725,
            0.038273566484257525,
            -0.4679674174764472,
            -0.4732789957670932,
            0.2854308129622032,
            -1.4275353514519322,
            -1.770289078109972,
            0.2863666879130898,
            0.2792711148505078,
            0.8660232341782321,
            0.6333489032467862,
            -0.11460006536044054,
            -1.1003886812378114,
            1.1350575053138128,
            -1.2667318032259676,
            -0.17522080651042382,
            0.23045659274817032,
            0.8877325416454623,
            -0.32568366709199237,
            2.3744933210484724,
            -0.24140946139360542,
            -0.3472072150470215,
            -0.7670628270723894,
            0.3949570531103244,
            0.3248816208331362,
            1.0815559986478596,
            0.6038251068256048,
            0.7774855026691654,
            1.1134698962370653,
            0.031924885236915945,
            -0.02271312187890115,
            -0.7920522727931603,
            0.14783449468669685,
            0.7777888992077413,
            -0.8753860012367802,
            1.089485037921672,
            -0.6537671212539655,
            0.7423230281037686,
            -0.8582396198758273,
            -0.11970403130181761,
            -0.25560567661007827,
            -0.626486510118812,
            0.8655524466494577,
            0.8823797514352572,
            0.9702103541586906,
            -0.718663755548278,
            -0.7607805134470951,
            -0.29065844056557005,
            -0.20224102901896768,
            0.3670871790781575,
            0.37141045331216127,
            1.954302699035274,
            -0.6449738374761371,
            -0.5367776328022809,
            0.3314533540058857,
            -0.33531081815250263,
            1.3962927102390614,
            0.1626574959883384,
            -0.6474682755053488,
            0.5812964945192926,
            0.697792498157007,
            -0.49869393010182006,
            -1.329817268964133,
            -1.4013200903195118,
            -0.9644907241286886,
            1.058801576745611,
            -0.3594664641018899,
            1.0498123170245472,
            -1.6535888053132712,
            -1.327847898359807,
            -0.701279746924411,
            -0.4303729188496051,
            0.4130929342356856,
            0.1445963571319322,
            -0.7951024169293618,
            2.040772971335017,
            -0.5386356549798398,
            1.9255066366404963,
            -0.4641140036244285,
            0.9399338718794485,
            -1.3850994623235942,
            0.16960539670548255,
            0.4105457370782556,
            1.265344100063371,
            -1.063829766875918,
            -0.450684940345025,
            -1.2648678196199619,
            -2.7901814038114217,
            1.3293582194476823,
            0.0375091792031394,
            0.8583286663248221,
            0.6944059760985136,
            0.6339775421080538,
            0.9707554384104291,
            -0.7223980166011814,
            1.6411973944963183,
            0.7981070800949884,
            -0.6526881315830413,
            -1.4488483524186733,
            0.28215531675596517,
            1.0401696414212038,
            -0.21206500488105617,
            -0.2643765877446528,
            1.1340233964915913,
            -0.5748755198792013,
            0.6797947935625628,
            0.6185676540094462,
            0.9022158563185194,
            1.4053852801119406,
            0.7497886764065682,
            -0.7899832822595639,
            -0.6659628055263473,
            -0.020181710813016895,
            -0.7382213600213108,
            -0.3838252908204762,
            0.8064208976977174,
            -0.6012701439537274,
            -0.024227001615359678,
            -0.010752718556339247,
            1.66366665096752,
            -1.485172143668625,
            0.2823905651743811,
            -0.6812142249991051,
            -0.10782358178789334,
            -0.7118424673827022,
            -0.4725033196263178,
            2.8123686241868997,
            0.6814294700699759,
            -1.2890465621083338,
            0.7222899933795222,
            -0.04721358657938454,
            -0.5421664109255633,
            0.9700652687771181,
            -0.5636139461485131,
            0.4348453776066718,
            -1.1120270257984612,
            0.1860130665866051,
            0.5597431895542593,
            -0.29686919221391517,
            -0.49066209724582294,
            1.1383357090258721,
            0.1923890916289526,
            -1.352406756033911,
            0.6635879998133829,
            0.282748723022508,
            0.7814326772477355,
            0.8295696397037606,
            -1.1953349510255922,
            0.5472680565265513,
            -2.805222805536329,
            -1.680747121122176,
            -0.47495255847269585,
            -0.7158777033070569,
            -1.5484585542143194,
            0.28941878392086223,
            -0.7032704914037577,
            -1.1636817981842102,
            0.3737814572116113,
            1.5433852348489756,
            -1.5835920506243137,
            0.09110882089624125,
            1.2290396592547617,
            -0.3093121054873746,
            0.6643296638965057,
            -0.5899933273307234,
            1.184554935565051,
            -0.07404535073335275,
            0.4033425731522794,
            0.6114644707139626,
            -0.40843588945823117,
            -2.3036647855047754,
            0.1926857464058673,
            0.8036022951916836,
            0.008440197300046137,
            0.1341946259231782,
            -0.30855040556889296,
            -0.043081984864694445,
            0.8102879822813938,
            -0.4263944265988751,
            -0.9821544693048545,
            -0.3289171470712738,
            1.099363982498473,
            -1.9045054521689515,
            0.6734435262069807,
            0.554067161817229,
            2.1755283412644126,
            -1.6303741471482294,
            -0.1526906883818644,
            -0.6631687301437938,
            -0.21997291198290675,
            1.5123956308565787,
            -0.033324189184036124,
            -0.24344304518404764,
            0.0822156078989292,
            -0.374900588659296,
            0.8463787052828071,
            1.8269240058802112,
            1.8428831201292146,
            1.1226005725817823,
            0.6612662935893474,
            -1.333960369835169,
            -0.541505217127948,
            0.17511371799942094,
            0.6899527152710334,
            0.522841899638465,
            -0.21352291568689397,
            3.1539460271861586,
            -0.04912911939366241,
            0.28124388496873587,
            -2.272036639541003,
            -0.8871054199518088,
            2.5682898987411016,
            0.14905340078049595,
            -0.038269702662789895,
            0.2813284313366196,
            0.40274476044915686,
            1.491677813130132,
            -0.7707260947751374,
            -2.901354165848913,
            -1.557638164578714,
            0.5008509063179362,
            -0.5976772080895962,
            1.2671660138353027,
            -0.9864833829716088,
            -2.0590704291242052,
            1.040391606278156,
            0.7461366951767827,
            -0.518664765362856,
            -0.7464473167917205,
            -0.5007349763718567,
            -1.237334868719504,
            0.1921656911088311,
            -1.4330837788085182,
            0.3576697909492244,
            0.29000352629435416,
            1.6415382973155872,
            0.6986682795281305,
            0.44311892973774963,
            -0.7641675813638471,
            1.6149522541790486,
            -1.4950586768332554,
            -1.1811788921217379,
            -1.092881325685234,
            -0.8686398739041934,
            0.876198431997669,
            0.88425329025854,
            0.3599403989666814,
            0.8122760094400514,
            -0.1939197755511115,
            -1.6216421768232603,
            0.08255509702651742,
            1.0639143925343506,
            -2.393708199514113,
            -0.47788959317873014,
            -1.5880459487186367,
            -2.6206739801369756,
            0.9975260656708034,
            0.15843256434792402,
            1.8852688956630117,
            0.8133839642595232,
            0.6190483154170179,
            1.0824457725902041,
            0.03763419646097782,
            0.7863053590795183,
            0.648189714388108,
            -0.5228040608659599,
            -0.6059903057147342,
            -0.42002396437679446,
            -1.2669038842612985,
            -1.5363597679217014,
            -1.4774242592960127,
            0.3628108435181868,
            -1.214373366545289,
            1.2190235287425204,
            0.1408886717864689,
            -2.4429440188837095,
            0.5767157339337874,
            0.6146637846353777,
            0.13374132920027015,
            -0.24724208770522316,
            2.0035578293034475,
            -0.2794654133320987,
            -0.25602088130825246,
            0.7933215458364051,
            1.4728223241982015,
            -0.6628864897193392,
            1.1724777680258236,
            1.6051369012054422,
            0.3564134552065432,
            2.143283702073279,
            -0.44284613129538547,
            -1.1821749228194773,
            0.451069910264791,
            -1.5583442678950248,
            -0.08779917318568727,
            0.5097848325482986,
            -0.05914189266346159,
            -1.253726926333997,
            -0.10068904890909236,
            -0.3233136084708752,
            2.3778846225001087,
            -0.17274259424049332,
            -0.6628778574347782,
            1.8491345767614815,
            -1.4490453744787473,
            0.39755939249380967,
            -0.3790809132779505,
            0.06054190854456254,
            1.300865890729761,
            -2.488938023116454,
            -0.912424984652398,
            -1.2201150527447464,
            0.7327475668056544,
            -0.42376715039860235,
            0.3582014367478988,
            -0.2696671402396543,
            -0.8941331301031796,
            1.2800466097269392,
            -1.898050161292891,
            0.611282985459534,
            -0.4810599226503578,
            -0.5387963891775154,
            1.191626725053719,
            -0.699358015746474,
            -1.872675000139112,
            -1.1963623059551516,
            1.2557268035798432,
            -1.0348453107251436,
            2.580929077012735,
            -0.3712675503145745,
            -0.48509159772230975,
            -0.7699585911693183,
            -1.9675978539180434,
            0.981555122928584,
            0.8541123869368782,
            1.2537939025936091,
            2.0976344204564006,
            0.8237182410534037,
            -0.329012243989647,
            -0.7121493015687106,
            -0.5887378527968224,
            -0.2193789154532142,
            0.43345700062909626,
            0.31847236271260293,
            0.023783191386511637,
            -0.020377043408362105,
            -1.6177053456805655,
            -0.3008021866129578,
            -1.5390774034047272,
            1.632534910491874,
            -0.5213981659541589,
            0.20637323413528375,
            2.7368296930701748,
            0.860027924503613,
            1.3520220185575125,
            0.057928910686256635,
            -0.7570783844575756,
            -0.003423350870158104,
            -0.9520473148797362,
            0.46773292641139785,
            0.47035297037305274,
            0.30529554918752344,
            0.23102314782617372,
            -0.9515398027875812,
            -1.0057495352330004,
            -1.337859937727261,
            0.04034850499659648,
            -2.401335115091759,
            -0.8631111629723618,
            -0.5784240362881501,
            0.4411954611863805
          ],
          "numRows": 16,
          "numCols": 45
        }
      },
      "ops": {
        "type": "org.ejml.simple.ops.SimpleOperations_DDRM",
        "data": {}
      }
    },
    {
      "mat": {
        "type": "org.ejml.data.DMatrixRMaj",
        "data": {
          "data": [
            1.2546946886567352,
            0.14460045203502592,
            0.5222219656128644,
            1.4544537014351966,
            0.801935708903289,
            -1.1344648925305214,
            -0.07123656999284583,
            -0.8128762436634123,
            -0.13499170940528105,
            -2.168705278510197,
            -1.707001411176618,
            -2.3981164169985476,
            -0.22540955643078747,
            1.6947466299658798,
            -2.479968123033152,
            -1.802264154776247,
            0.4168001974937201,
            -1.25281187622696,
            0.5463308036256042,
            0.9639523458352155,
            1.6603526161639521,
            0.4321873261477424,
            -0.08368920490821768,
            0.32332412516260817,
            0.7849986214404527,
            0.4525200924867588,
            -0.21505753794638152,
            1.026524531918848,
            1.0212486746338745,
            1.866136692016407,
            1.0491556860432008,
            0.6349085514341206,
            -0.33903163905896916,
            -0.6668152287944806,
            1.5036926557428352,
            3.2261683179974625,
            -1.7499457224871298,
            0.024676062801864074,
            -0.3845117960424953,
            0.995824485443733,
            0.7984455468818203,
            -1.1324817731442032,
            0.8401475117341191,
            -1.1468038224523216,
            0.9286458304389825,
            -0.7379934738348398,
            -0.458667497595327,
            0.2733524876387091,
            0.2764076307622541,
            -0.40433880940442724,
            -0.6033411691023287,
            1.3687327305358767,
            0.6518915590739306,
            -0.13867892129848652,
            -1.1276288325188544,
            -0.7855831714553593,
            -2.421222620003552,
            -1.3117344111747606,
            -1.239694777306861,
            0.7876910776478795,
            -1.4159716149505988,
            -8.57573610812179E-4,
            0.08529409187235228,
            1.0118045712090635,
            0.27238319668868255,
            0.052189504956698274,
            0.7545307941108137,
            2.3061392382553993,
            -0.2378987123874855,
            1.3324572503187335,
            -0.24189553180489065,
            0.9841384037548345,
            -0.41907353798957403,
            -0.5134708747257946,
            -0.8746757404646215,
            0.2038546717505998,
            -1.6892600898047359,
            -1.1165479649242775,
            0.21135411306357677,
            -2.2473959761864535,
            0.9795967082611672,
            -0.20635154532782168,
            -0.7600793204627062,
            0.3556303016035801,
            0.8085705593704433,
            0.11659118699163307,
            -0.955045926328471,
            -0.5129876810246332,
            -0.15080184444405187,
            -0.6983845932444692,
            -0.7217283332503392,
            0.7110272951452439,
            0.36256109260624403,
            -0.8994152713692299,
            0.11441843466840473,
            -0.6958336197519635,
            0.06556182001829813,
            -0.4549832023459538,
            -0.16221356345988214,
            -1.1343224846612965,
            -0.1574085152355652,
            -0.509195030068796,
            -0.07763198442881933,
            -1.0473097844130934,
            -1.184066746120035,
            -0.49994465188030235,
            1.7383384101746508,
            0.7613871998080596,
            1.3773456896302643,
            0.9368543978877554,
            0.55797016531809,
            -0.7177348712695749,
            1.0682355648707382,
            0.5971791040788317,
            1.1566118673891086,
            0.47043977839840967,
            0.21815774648653397,
            1.156207713890038,
            1.382530227273946,
            0.1359064242657244,
            0.8102020280961176,
            -0.00901711077895466,
            1.21077445652996,
            -0.6972055106521622,
            1.3357626337361703,
            0.571988813771408,
            0.6071210240056901,
            -1.387389753045129,
            0.3306547922225135,
            0.7503934327931988,
            -1.4001058328367673,
            0.24574204416309609,
            -2.9877383260665056,
            -0.6658607036909833,
            2.388732589586344,
            1.1339153171250518,
            1.8754260811586798,
            0.11810120281798187,
            0.32375479155062054,
            -0.030480827223900275,
            1.570007344149825,
            0.965671842837859,
            0.38766052512540394,
            -0.959885415475831,
            1.8803046760513331,
            -2.5330301416344088,
            -0.8031378942972314,
            -1.8015464734726359,
            0.8420447556808514,
            0.8538696623855799,
            -1.7228403508609091,
            0.5776984384231123,
            1.943166975905693,
            -1.2684542116790871,
            -0.15219009883924614,
            -2.7935081296466926,
            1.544903940292265,
            -0.8319559508261511,
            0.8160837476625475,
            -1.2681784619663483,
            0.08481445997460824,
            -1.2085327728246706,
            0.24328338145221898,
            0.10172114116091924,
            1.4963622618415646,
            1.7088402088737484,
            0.4280637011642996,
            -0.35585674438767323,
            -0.3395699837101859,
            -0.7134237841054217,
            -0.5505949675672404,
            1.9219832926105223,
            -0.44699410860189426,
            -1.227792399473431,
            1.0273114569231694,
            -1.2665681399856135,
            1.7091893814089398,
            -0.6891413437124911,
            0.5358000592520401,
            0.3832271069026997,
            -0.659574794768783,
            0.9910394739451598,
            0.6770952224416087,
            -0.7820056344975279,
            0.15771660507934304,
            0.8984380957455913,
            -1.7854201950279898,
            0.6329029219664337,
            -0.020282624430584595,
            -0.858780591113033,
            0.8328048739745912,
            0.9037302109076215,
            0.28026126544530927,
            2.153238794540452,
            2.2149926177970376,
            3.29930667655288,
            2.213769947112924,
            -0.09667496843645798,
            -0.8537728613624843,
            0.242166069201869,
            -0.2803916185312145,
            2.281082956758199,
            -0.9284588036740371,
            0.6590331399727216,
            -0.23914005240599534,
            -2.7327996420477296,
            0.892680689343624,
            -0.49558543183716913,
            0.29219821019400954,
            -0.9752448897706031,
            -0.8376244362254702,
            0.34548135879569253,
            1.2551601265334502,
            0.4946342139855753,
            0.18723392835279573,
            -0.3463400725910625,
            -0.6195194771676641,
            -1.176527024433393,
            -1.6934788455178114,
            -0.3759823485695478,
            -0.4441423094423378,
            1.6385889997255707,
            -0.7546379975926881,
            -0.23074099708127582,
            0.188796139976871,
            1.2089586944726582,
            0.30247366837521417,
            -1.0297619100708875,
            -0.04675117084371094,
            0.5938090725595653,
            0.6492135904334673,
            0.011136802984171745,
            1.19314557261489,
            -0.5423706509398905,
            1.1813870904007067,
            0.8220962603576577,
            1.467575944284896,
            2.7270114886017778,
            1.4044265821592474,
            0.3344594651912522,
            0.6284848211114341,
            -0.3747170915265451,
            0.3878007331085869,
            0.0456888168443802,
            0.23451872786488404,
            -0.7893445746391196,
            0.344119632649326,
            -0.6719076858305026,
            2.897942293814358,
            -0.13241154611689704,
            0.4321729885246729,
            0.9211050328433632,
            0.8619467278303434,
            0.07659854357640249,
            1.0440888682139695,
            -0.10925313867460415
          ],
          "numRows": 16,
          "numCols": 16
        }
      },
      "ops": {
        "type": "org.ejml.simple.ops.SimpleOperations_DDRM",
        "data": {}
      }
    },
    {
      "mat": {
        "type": "org.ejml.data.DMatrixRMaj",
        "data": {
          "data": [
            1.5589799896139067,
            0.2870956893571282,
            1.3390901779311613,
            -0.014487901167930667,
            -2.6116898268772926,
            -0.2748674889485275,
            -0.22376435588903332,
            1.1051340213244374,
            1.187618051483086,
            -0.5331561661656211,
            0.03510342839158209,
            -0.1626696843331572,
            -0.14198783113690122,
            1.1332658070268242,
            -0.2383241269175758,
            -0.015413850924214212,
            -0.9423337208138661,
            3.5832522183652977,
            -1.9575242699969362,
            -0.40596029071778483,
            -0.17361797181718136,
            -0.38837872608419444,
            0.9289232377346225,
            1.0208237156589168,
            -0.7214428710156818,
            -1.640101936722293,
            -0.1370917723269817,
            0.2851580980970428,
            -1.2027416593244207,
            -2.6808409382810368,
            0.04100606415131719,
            0.2989997060023899,
            0.5096852413904931,
            -0.19901609820709348,
            -0.08107394435697826,
            -0.5326921589008473,
            0.04203651324741586,
            -0.5168534528443418,
            0.7979579001910926,
            0.8966890513939181,
            2.253661601796617,
            2.4077508570341357,
            3.0795437808052175,
            0.8516512887898957,
            1.3542345473204556,
            0.8852720184055275,
            0.7891255467031909,
            1.9917402300701392,
            -0.19888004273851217,
            -0.17857931605059094,
            2.065460333629792,
            0.03598929424623504,
            -1.1234477529275382,
            0.261306425681718,
            1.4133976062337266,
            1.9344136719594371,
            1.787104079165481,
            -0.11450793878057802,
            0.4949299608040824,
            -0.07757126646849377,
            1.5677094396583815,
            -0.2570527889143192,
            -0.16165967226952205,
            -0.23986665362402726,
            -1.4182830160642388,
            -0.7831084408415816,
            -0.05546551018590974,
            -2.716036570741248,
            0.3178540198266493,
            -1.2246894568667896,
            -0.2243258153131497,
            -0.3222429134209609,
            -0.06718506323716278,
            -1.4517001940297507,
            1.444863027976598,
            -0.2860461797636092,
            -1.9185434514113395,
            0.3523655840948269,
            -2.663016391718884,
            -0.4357253176530232,
            1.6251611346718957,
            -0.018093588086216333,
            -0.7945717864244196,
            0.5856898725459246,
            0.814176669684079,
            3.0234753198005118,
            0.6876430619409499,
            -0.0056950062459574236,
            -0.3930735626855311,
            0.3767029423303885,
            0.4986190390445481,
            0.4973644399774303,
            1.6582356491792865,
            -0.018984215903854074,
            0.9349433632590085,
            1.3557412883776387,
            1.1626126818873355,
            0.9109930356321643,
            -0.5932554926243845,
            -0.039578607873914984,
            2.709353649001496,
            2.5646769301240293,
            0.2832251736617232,
            1.198723755118059,
            2.3884411962387864,
            -1.46186682161382,
            -1.0551549584894582,
            1.240221747830462,
            -0.23336881905106466,
            -0.6126265780894149,
            1.6649695898371615,
            -0.5097621627372831,
            1.248279112973438,
            0.4083462249545396,
            -0.9444438623214644,
            0.011249923855782995,
            -1.788254149701785,
            0.4929006625044574,
            -0.30629719918866427,
            0.3464826021414976,
            -1.038431169974605,
            -0.7137878073988608,
            0.5908742320263135,
            0.2858521642279327,
            -0.442584364999969,
            0.2325178216737686,
            0.23812739683320927,
            -0.575075146999607
          ],
          "numRows": 8,
          "numCols": 16
        }
      },
      "ops": {
        "type": "org.ejml.simple.ops.SimpleOperations_DDRM",
        "data": {}
      }
    }
  ],
  "biases": [
    {
      "mat": {
        "type": "org.ejml.data.DMatrixRMaj",
        "data": {
          "data": [
            -0.40669504940946,
            0.3737208248347749,
            1.5175124898813204,
            0.6093746897345873,
            0.07024182355647568,
            -0.19650498339284583,
            0.7254379800935631,
            -0.9349349890787262,
            -1.0926228141700327,
            -0.03275998208387823,
            0.9454643704963513,
            1.594808894969613,
            0.6672643781323064,
            -0.796557435488072,
            -1.8317731880089294,
            1.1344089920671243
          ],
          "numRows": 16,
          "numCols": 1
        }
      },
      "ops": {
        "type": "org.ejml.simple.ops.SimpleOperations_DDRM",
        "data": {}
      }
    },
    {
      "mat": {
        "type": "org.ejml.data.DMatrixRMaj",
        "data": {
          "data": [
            0.8627895981079552,
            1.6922984253318698,
            -1.1156524520974331,
            -0.6893598798663859,
            -1.2346343326336189,
            1.9483386067651778,
            0.19142734807088796,
            1.0259158654087288,
            1.5262861485889443,
            0.6139621180454173,
            1.6405631860473942,
            -0.6648596260357356,
            4.635932684706761,
            0.288848630315495,
            -0.5208212799442274,
            0.495084994809327
          ],
          "numRows": 16,
          "numCols": 1
        }
      },
      "ops": {
        "type": "org.ejml.simple.ops.SimpleOperations_DDRM",
        "data": {}
      }
    },
    {
      "mat": {
        "type": "org.ejml.data.DMatrixRMaj",
        "data": {
          "data": [
            0.23677551849874204,
            0.6132604547163774,
            3.6497621749198017,
            1.5812479873813952,
            0.3295233415973594,
            0.009509977524565283,
            0.8857395209049076,
            -0.8769194185963625
          ],
          "numRows": 8,
          "numCols": 1
        }
      },
      "ops": {
        "type": "org.ejml.simple.ops.SimpleOperations_DDRM",
        "data": {}
      }
    }
  ],
  "learningRate": 0.1,
  "activationFunctionKey": "SIGMOID"
}