{
  "activationFunctionFactory": {
    "activationFunctionMap": {
      "TANH": {
        "type": "basicneuralnetwork.activationfunctions.TanhActivationFunction",
        "data": {}
      },
      "RELU": {
        "type": "basicneuralnetwork.activationfunctions.ReLuActivationFunction",
        "data": {}
      },
      "SIGMOID": {
        "type": "basicneuralnetwork.activationfunctions.SigmoidActivationFunction",
        "data": {}
      }
    }
  },
  "random": {
    "seed": 240248424687829,
    "nextNextGaussian": 1.1028191565413075,
    "haveNextNextGaussian": true
  },
  "inputNodes": 45,
  "hiddenLayers": 2,
  "hiddenNodes": 16,
  "outputNodes": 8,
  "weights": [
    {
      "mat": {
        "type": "org.ejml.data.DMatrixRMaj",
        "data": {
          "data": [
            0.21578215319737348,
            -0.22144066655467842,
            0.4228068034878949,
            -0.2654914297372972,
            -0.0293463573621231,
            -0.6486873954805434,
            0.6019044452003248,
            1.0838744293802847,
            0.682444328739149,
            0.41927536658813,
            -0.840238115494266,
            -0.7714552886181992,
            0.5319988530632852,
            -0.1177804835020215,
            -1.0193906845204903,
            0.9929479461134247,
            0.4375448190360556,
            0.5563039156225198,
            -0.6350146012878948,
            -1.3282074049414434,
            0.3888885085197657,
            0.5145023956319683,
            -0.19949885592999506,
            0.07908811577865749,
            -0.6282499328317188,
            -0.949084117487065,
            0.5030561163076359,
            -0.39270246882077164,
            -0.09210117386291744,
            -0.5493333272289902,
            -0.7382635178326593,
            -1.2671701322115931,
            0.11655798060181533,
            -1.3022452244953011,
            1.3400759814850363,
            -0.9411294386588018,
            -0.6517287775734615,
            0.3981355095860647,
            0.8844879106702848,
            -0.39260990129736584,
            -0.5974552181606327,
            0.382747567222828,
            -0.31599154262015305,
            0.41738838942070755,
            -0.3731069612950877,
            -0.7866973607674058,
            0.3125018000768658,
            0.7937470718999605,
            -0.3937860326525324,
            -0.939358683212166,
            -0.024447938237101452,
            1.2630594931956822,
            0.7798960745378528,
            0.5853531027981889,
            1.2874725669012475,
            -0.27729321446853455,
            0.30901658543890287,
            0.12061633959327689,
            0.5667221965115474,
            -0.8114583808752065,
            -0.8231256565593932,
            0.6794800486913584,
            1.3082054938616774,
            0.9044791974716828,
            -0.13848348405235722,
            1.1718488785626209,
            1.2870212460820634,
            -0.406420473678662,
            0.9657235733862305,
            1.004427184165803,
            -1.6529089502603709,
            0.15409443558684893,
            0.7732660021332056,
            -1.0433290332636305,
            0.35989960008431665,
            0.19927440974907207,
            -1.1785966281850122,
            1.0689165927686213,
            0.24927012032015028,
            -0.4984364673007567,
            1.4185152540223123,
            -0.8777887970580309,
            0.4830906209156772,
            -1.5485586744891096,
            -0.20207133372512345,
            -0.11189262297240621,
            -0.5401761838829581,
            1.0132897244909764,
            -0.01143216815202952,
            0.408312593736708,
            -0.4550269946800947,
            -0.8253985316153869,
            2.0979178505249143,
            -0.5694025009104756,
            -0.4126385834489017,
            1.0110459967575929,
            -0.10131935168533035,
            -0.8873120968510334,
            0.09305082843454643,
            0.9881235180328196,
            0.7189225960387805,
            1.227236882592499,
            0.046120495390202354,
            -0.5298750278487689,
            0.36545578984259974,
            0.9759966495195709,
            -1.0128412122048935,
            -0.17628746287509722,
            -0.4500837445170802,
            -0.02857337022405715,
            -0.34809430774730554,
            0.38926140956240407,
            -0.8644404770685107,
            0.6966105208934663,
            -0.35628840382305393,
            -0.12837159097074707,
            -0.9396469283087493,
            0.9302966472468464,
            -0.9769708690844712,
            -1.0603321576264928,
            0.688456298053137,
            -0.23590455881228345,
            -0.5246036690192837,
            0.498557964782513,
            -0.7164143908419953,
            0.9792478311220043,
            -0.008550973357421388,
            -0.9085654871776118,
            0.6690870555958929,
            0.7601586620970634,
            0.043145168440834825,
            0.38362860134637655,
            -0.43613091100301765,
            -0.37891874673509796,
            0.32725095338511145,
            0.9016131211329916,
            -0.7230138582476369,
            0.5146929273348397,
            0.6540989711545317,
            0.32770788491741365,
            0.911862129048574,
            0.6911223513631866,
            0.17217000527363852,
            0.6072609984007872,
            -0.2674830253896678,
            -0.7038451447811562,
            0.7593774667374136,
            -0.5304985422951314,
            1.4006632490762,
            0.8633313993674412,
            -0.006896273425551325,
            -0.7424916699841302,
            0.7108063562667313,
            0.8279017225574536,
            0.06034577080205772,
            0.30054314068226473,
            0.6798889471899132,
            0.32696924098503666,
            0.7742197685846035,
            0.9156187916502545,
            -0.025247963469315553,
            -0.9133837831526976,
            0.40905023837027943,
            1.2763130995343976,
            0.5509329956728761,
            0.10052844718905862,
            -1.0789360758677728,
            0.5837932108073542,
            -1.1716499377066898,
            -0.253156318049381,
            -1.4977498374177909,
            0.07422797802704817,
            -0.3629559344307225,
            -1.309669497449043,
            -1.7403475910231634,
            -0.011382807544419837,
            0.41403849883392385,
            -0.7631282787263531,
            1.3676416351756782,
            0.2667295283561446,
            -0.05544080241217039,
            0.39199544512406825,
            1.083686151350872,
            1.47047714130472,
            -0.11986068537753583,
            0.4098086604716088,
            -1.5369130499177464,
            0.440219929623601,
            1.5274604591397865,
            -0.9442104459435618,
            1.0627672729532982,
            0.8718388886615521,
            -0.9266506393073437,
            0.3916894617451848,
            1.4528006621083631,
            -0.3783439024468067,
            0.11025561937151607,
            -0.5792807883460918,
            1.3862738383962159,
            -0.37522459697321064,
            0.7634484451777399,
            -0.021468304900856328,
            0.5485091705487021,
            -0.21502429590533428,
            1.662213129590285,
            -0.31004552700597765,
            0.8477884108974374,
            1.1118477629846146,
            0.1981557381786454,
            1.5224960274268309,
            1.0667133725257019,
            0.5244216103226073,
            -0.13724217746666456,
            -0.2005271836954208,
            0.20394674898285703,
            0.12493755467157508,
            1.1740827264837894,
            -0.9733910232169282,
            1.3933702252624527,
            -0.33482257084519085,
            -0.26789725828751054,
            0.6858558630422762,
            -0.4533963135304841,
            2.035392449049059,
            0.1870039695296688,
            1.0525329071599525,
            1.177226493395981,
            1.8043871852745477,
            0.7669712197826077,
            0.7432328702234048,
            1.3747723376954484,
            0.21456584258503458,
            0.08999181599877315,
            0.43649100188574874,
            -1.1337353993350305,
            -0.23305942580780858,
            -0.19571972026728307,
            0.32964671183383587,
            -0.4759775408138134,
            1.8131480315603516,
            -1.3937529568067426,
            -0.0176075702092251,
            -0.2658928974965463,
            -0.3978864889907514,
            0.7883883108631589,
            0.6541578337914118,
            0.10022851411220321,
            -0.3233021921353563,
            -0.8774327181125661,
            0.19847500240207694,
            -1.3660778827061522,
            0.9339825816883883,
            -0.3145259936816066,
            -0.012767800955845066,
            1.0419672353592195,
            -0.7916482888837847,
            -0.690020081487771,
            -0.32781859724681905,
            -0.2136604944917141,
            0.37908052454504465,
            -1.9251392122134479,
            -0.2751874435415394,
            1.7796620798484133,
            -0.3958498565584524,
            -0.14042044156355193,
            -0.3445239442773874,
            -0.3512457146957664,
            0.4402017353264135,
            0.7967574188987355,
            -0.03238025838194292,
            -3.2061107274753935,
            -0.5976603141705276,
            -0.016515143629008744,
            -0.8485731624115531,
            -0.39408172497458,
            1.4751207258543482,
            0.271630767692836,
            0.4819800705265467,
            0.37579300793807313,
            -1.5166064974331368,
            -0.6737085163611043,
            0.9310245639941135,
            0.2650093712909626,
            -0.3849972853809236,
            -1.3680137029577748,
            1.00961472948685,
            0.7209314630139908,
            0.8895558023227988,
            0.9746907999574432,
            -0.9602105491904976,
            -0.2508456735061996,
            0.6870300491116532,
            0.519884128828545,
            0.19287141006181607,
            0.7128381225050923,
            -0.4642050294039769,
            -0.5099081844405791,
            0.640042164072642,
            -0.6232271129666744,
            -0.6153408972009691,
            0.3437397553785606,
            0.017168685845970588,
            -0.07945084369242295,
            0.32551659436655944,
            -1.4516666693970497,
            -0.6885957220776835,
            0.8143437994684686,
            -0.4468650503185505,
            0.0027743183145783057,
            -1.098811662882654,
            0.6531551415810117,
            0.8245643205847837,
            -1.4243053702300732,
            -0.6520888310812218,
            -0.7722650223448335,
            -0.5751698394340925,
            0.5511664696946081,
            -1.6021619535488867,
            0.5444321106509931,
            0.9819997490365013,
            1.1753304226773276,
            0.7771150827616671,
            -0.8024635962759534,
            -0.5334814243295158,
            -0.06864275771261696,
            -0.2824385770845995,
            0.6849809692676632,
            -0.38338870023299987,
            -1.223270372517888,
            0.09696584942947964,
            -0.763226321054278,
            -0.48900489823020066,
            0.4239905805200268,
            -0.37142026348171164,
            0.05007058590815236,
            0.4401229513261955,
            -0.012031070607175343,
            0.2743871598738056,
            -0.06336820667208243,
            -0.2498008649278911,
            0.053229519093316136,
            0.6205787936069329,
            -0.5582539197217713,
            -0.06192744364141389,
            0.18634889063505475,
            0.7552057278123219,
            0.035534680349723735,
            1.4150172598479016,
            0.5518418497701465,
            0.39038210354598146,
            0.8781265863032719,
            0.6535638714823382,
            -0.1625278048943979,
            -0.553498497042767,
            -0.12292353223110619,
            -0.2912071533994981,
            0.07830362382139788,
            0.7338364842580758,
            0.22199017392096088,
            -0.0872359807912233,
            -0.5161024074163896,
            -0.08393320126859649,
            -0.05771876591789582,
            -0.6910129666796532,
            0.5490947407174012,
            -1.2392046181932348,
            -1.270847980858587,
            -0.44814867447003626,
            0.22217017308360387,
            1.6805759900414854,
            -0.33125006558486403,
            -0.4727868266363276,
            -0.8213189299022454,
            -0.27601844767312134,
            -0.788662950634899,
            -1.078745106288638,
            0.5708396011361389,
            -0.9238464609445873,
            -1.0254255538929957,
            0.8972060077856849,
            0.7007705161435152,
            0.5403148915574643,
            -1.1983801159539014,
            -0.17769428718973312,
            -0.12017296610307904,
            0.16811784472614638,
            0.38096986761458795,
            1.337712587258243,
            -0.9288740043396932,
            -0.7347149344614974,
            -0.4261851204241913,
            -0.15017429639607804,
            0.9621484743582218,
            0.8538726043714457,
            -0.010708301908629037,
            -0.6350517672947258,
            -1.6132315407098416,
            -0.18286723429909,
            1.113483374969168,
            0.2075966838600647,
            -0.9249439854195518,
            -0.8365719568002707,
            0.23186216957896957,
            -1.4954706254059928,
            0.21937064755141766,
            -1.735426819667421,
            -0.5265852001901685,
            -0.2683556882478344,
            -0.265736149135416,
            0.09049349109791549,
            -0.13716779636318877,
            -0.7295617683086231,
            1.3882662003728787,
            1.3589562114026437,
            -0.4499604986624203,
            -0.9134049724390437,
            0.33721297483810037,
            -0.2528718220593095,
            0.9347183363933096,
            -0.19058462701207457,
            -0.2880140431991156,
            1.5260868169355075,
            0.4032403213518858,
            0.8296352251782569,
            -0.4321067630161355,
            0.6694533557088675,
            -0.7679260488225468,
            0.9914149519672877,
            0.288712472520611,
            0.5523994369488843,
            -0.884621637235546,
            0.03891013782306052,
            0.6530378348203719,
            -1.0412433946363286,
            -0.06560275889342759,
            0.06843580953358974,
            -1.779446074586452,
            -0.3365937627409238,
            -0.26350176671165926,
            -0.3861662985105103,
            0.19598162255743234,
            0.23010506664388675,
            0.5178144745045148,
            -0.9718121680519255,
            -0.30554233899080707,
            -0.49796113261204,
            -0.7144802429463926,
            0.07337480320141854,
            -0.6090798028380024,
            -0.30983278496757594,
            -0.33428107983542044,
            0.7715934986393655,
            -0.03369663530170525,
            -0.9125372591361449,
            0.9854804877433931,
            -0.5680007133072267,
            0.17222682788597998,
            -0.3349032417024169,
            -0.2771174854074074,
            0.5157880829800356,
            0.06394140373687307,
            -0.9189087780016851,
            -0.30484786226717886,
            -0.06583368588146432,
            0.4389357052067992,
            -0.6085830898594485,
            -0.476081591338444,
            0.5907251434735481,
            0.07876759068593986,
            1.0955494675485622,
            -0.5398041471149428,
            -0.10217479668952956,
            1.3994680168807108,
            0.6000126551706993,
            1.0468654522347214,
            0.07847008456081017,
            0.2759467174840966,
            0.3012874633927557,
            0.49439742035958767,
            -0.4072872698077175,
            -0.7789769353491925,
            0.2639076328164469,
            -0.6602704859209036,
            -1.129693801452716,
            0.1895411371588671,
            -0.9579488772923977,
            1.0759544758493165,
            0.8308716470373725,
            0.36030265104321124,
            0.37229370939707485,
            1.396802935958417,
            -0.056797687416423104,
            -1.0408096478182731,
            -0.4800281282454248,
            1.3922589232867622,
            -0.4290159394217618,
            1.090542586270858,
            -0.1710346334736301,
            -0.9412666241573829,
            -1.8357827260478934,
            0.0724067062724254,
            -0.9306694326784529,
            -1.0880183654367102,
            -1.9457707961645718,
            -0.6242922528068846,
            0.49452448485394235,
            1.0963888889254556,
            0.005870068483827762,
            -0.5091150003583764,
            -1.2774540757835275,
            0.7122028901995869,
            0.6738084072802824,
            0.971843739725275,
            1.6850752678912144,
            0.34099768887663084,
            -0.36474125100099886,
            -0.5457332236279295,
            1.6429197553213117,
            0.2906161252358626,
            -0.025859780539881083,
            0.4508073261154796,
            0.638021426482199,
            -0.8646412693600114,
            0.580490631250743,
            0.025889555265617425,
            -0.20693201182439305,
            -0.816009084531364,
            -0.21928587534696467,
            1.1147657949609744,
            -0.34674134054291667,
            -0.5545552458357472,
            -0.23155624454787593,
            0.5243411203962766,
            -0.9790191457349788,
            -0.020547333985151184,
            -0.07294612412770984,
            0.5776115874334313,
            -0.755723175011838,
            -0.04544718447363616,
            -0.4938761537299128,
            -1.022813524426556,
            0.7399988211428269,
            0.9983013364045321,
            0.970771295299869,
            -1.1633152477381083,
            0.0906141096636841,
            -0.5199291928550256,
            -1.095136204752567,
            0.025538894618466035,
            -0.0963068861360259,
            -0.7453112094120993,
            -0.7072211119366557,
            0.23856480821349707,
            0.001385133970596364,
            -0.7398761072416764,
            0.19235352983457576,
            0.28000413007243097,
            -0.6539304146252688,
            -0.5754754975574172,
            0.6552564269182588,
            1.0151214269018976,
            1.16960730730719,
            -0.07260512817627168,
            0.5746928096608778,
            -1.7710482830787844,
            -0.23108752670061516,
            0.27242081324180895,
            -0.9591543448108597,
            -1.1287313652029725,
            -0.8568967533584281,
            0.2723256974201227,
            -0.13132377464971512,
            0.8600276106577275,
            -0.3650077544896116,
            0.31800290820147636,
            0.020129709155351727,
            0.5588840918800806,
            1.242831148104988,
            -0.798248533999175,
            -0.846113639467327,
            0.9530600809083623,
            0.33325473574391595,
            1.182184252922887,
            1.3306224966669855,
            -0.5397405002820685,
            -1.26352626495031,
            -0.5439763530768282,
            -0.16649783910876836,
            0.5707503139829793,
            0.5769101930428036,
            0.2655041482152953,
            -1.204612809686449,
            0.46559896103410015,
            -0.9171151350268244,
            1.8710056063813014,
            1.6111075458499275,
            -0.2857467410264527,
            -0.0055284474933365415,
            -0.9074509893899173,
            0.39686326274753575,
            0.8290657352584851,
            0.3880138193257379,
            0.402063717294596,
            -0.42821699697767,
            -0.4425839821185571,
            0.019332161371654166,
            0.4821840052048336,
            0.6928753845946664,
            -0.27335340763717597,
            0.7569086034761328,
            0.511283577446782,
            0.7721423876156912,
            -0.7838008490105295,
            -0.8414649199373943,
            -0.5379374867449596,
            0.4435343202426312,
            -0.3334433268635135,
            1.1657745505446635,
            -0.5555944360983107,
            -0.5664281128470833,
            0.8914460484157796,
            -0.7924131104867406,
            -0.0239571602507141,
            0.42321487098092975,
            0.6714463501533392,
            -0.10911603885634319,
            -0.19625942917899125,
            -0.585373140697175,
            -0.161977681191699,
            -0.10951684899043412,
            1.6653231933902655,
            -0.9207234851883549,
            -0.08568278488302083,
            1.1603355073774813,
            -0.7675345131794126,
            0.5594342326741799,
            0.9990445415516027,
            1.8303339525257338,
            0.25033530248720887,
            -0.6470595471292371,
            -0.1943704490613342,
            0.1708779942100918,
            -0.24467629875193822,
            0.35325187095097976,
            0.5507989173112666,
            -0.2936006177933057,
            -0.8432038632664915,
            1.0773387831339833,
            -0.028618800476571782,
            -0.057367246658627,
            -0.4732567519538192,
            -1.0922726668024927,
            0.9880927849950054,
            2.205966793427453,
            -0.6337041723660126,
            0.5939778444444853,
            0.19414882723596655,
            -0.5301140493587387,
            -1.3091419083655096,
            -0.5872093243757615,
            -0.7052745644709162,
            -0.43475649289904506,
            -0.8607354796978779,
            -0.5738795910345539,
            -0.21648768423153475,
            0.584421583263753,
            1.489087909706381,
            -0.8812478731876545,
            0.0539443932283854,
            -0.582228134057324,
            -1.0322615771159882,
            0.004581052081033682,
            1.4820336254838429,
            0.9670363566411264,
            0.9793394363689194,
            0.2889128118864715,
            0.9783175747124759,
            -0.6485909906563021,
            -0.05868656574881115,
            -0.8121801995509439,
            -0.5225956367809788,
            -0.6915969745882777,
            -0.4841539199040763,
            1.279315234917259,
            -0.2159251811901641,
            -0.47127175096209395,
            0.5842650238553275,
            0.4221798796815638,
            0.7831388393220358,
            0.08877158756198344,
            1.1833448838997054,
            0.3254327279768511,
            -0.8767804940757007,
            0.48997979692850313,
            -0.015554871598929987,
            0.9833163258980219,
            0.30169232358306874,
            0.5661737393209927,
            0.41697952209439154,
            -0.6126401709539504,
            0.20542490864603313,
            -0.7806752264737615,
            -0.5885388805654479,
            0.7419904614088126,
            -0.5901288170154124,
            1.037538842601047,
            -0.2898116388625044,
            0.005231563160518871,
            1.3828461361626418,
            -0.40307822502720403,
            0.10719466097213826,
            0.8056244042121792,
            1.8071568110214087,
            0.899264611846309,
            0.13509201845484187,
            0.13875066605655495,
            1.0625124975668985,
            0.5762057324775786,
            -0.3573208286970075,
            0.9615243183683948
          ],
          "numRows": 16,
          "numCols": 45
        }
      },
      "ops": {
        "type": "org.ejml.simple.ops.SimpleOperations_DDRM",
        "data": {}
      }
    },
    {
      "mat": {
        "type": "org.ejml.data.DMatrixRMaj",
        "data": {
          "data": [
            0.5740702298207578,
            0.474568743886461,
            -0.4546568533303296,
            -0.12363120195802679,
            0.7452938662375571,
            1.2282981346879187,
            0.31452853074048703,
            -1.252459991794057,
            -1.400079734218399,
            -0.19844201845187848,
            0.24929577276576387,
            -0.3809494053832538,
            -1.3471194848898174,
            -0.7579459555725899,
            1.4275446485133296,
            -0.8585700854628017,
            -0.4897074935752186,
            -0.8379214025153163,
            -0.11668536081398884,
            0.709649118856086,
            -0.2475315772007574,
            -0.29137704423500577,
            0.5184367735599944,
            1.518789312666731,
            -0.921222559297574,
            -0.6567486880302275,
            1.0453801812234382,
            -0.5426609802863815,
            1.027354193174973,
            0.5710862159864369,
            -0.5857278984351907,
            0.3051154331637608,
            -0.11650334600667117,
            0.3526301407592629,
            0.9615539589287401,
            0.6422752410012009,
            0.3025357387748153,
            1.3023908435553568,
            0.7079473405855982,
            -0.004676975646337456,
            1.320011881429765,
            0.026030729774156325,
            -0.027420410960313224,
            -0.4714520377871318,
            0.28925891994756614,
            0.9388617982795782,
            -0.043748440086333294,
            -0.22740889264891648,
            0.1353606792786926,
            0.380265056488087,
            0.672172964689443,
            0.5963815350685622,
            0.521271741750924,
            -0.38780103009677025,
            0.6373754690892349,
            -0.044966862037909616,
            -0.029856369621015455,
            0.005095470309788075,
            -0.6784500802808893,
            0.2833836627990999,
            0.30700888890320194,
            -1.2290860150244631,
            0.6295773119998639,
            0.7628403287241761,
            -0.3903409089903429,
            1.4729128751535905,
            -0.9870784433493913,
            -0.8858538649215377,
            -0.8057961864342748,
            0.4372709930213455,
            0.38471556198854345,
            -0.3719931966183585,
            0.7137736246842239,
            -1.8517723541849174,
            -0.24079688902475938,
            -0.8112519642747957,
            -0.39689445499491427,
            -1.2503527369639542,
            -0.09675247702184264,
            -0.44284568529256074,
            -0.6644426348053059,
            -0.6262377261109777,
            -0.31355015226945526,
            0.9781031471821277,
            0.2794682806282309,
            0.07254918608902278,
            0.9247845228883691,
            -0.9367019535977501,
            -0.9032130313175344,
            0.6451762312781946,
            -0.44612087536878997,
            -0.9513998240438652,
            -0.7560450104802015,
            0.12636549262472144,
            -0.7722042212211894,
            0.7871588353940391,
            -1.0056831366191168,
            0.059784059144354584,
            -0.2801936713656676,
            0.6447237343741472,
            0.6286072157279702,
            -0.653847646144303,
            0.9181399498648636,
            0.3339682119173095,
            -0.5549709463885913,
            1.510186668101253,
            -0.656986394826762,
            -1.2269590867409026,
            0.9038643664041264,
            -0.4211292387706893,
            0.04980828271682147,
            -0.8346913428837146,
            1.4435394161524242,
            -0.1578522576809807,
            -0.5300948708664013,
            0.8239933935562365,
            0.762172376947291,
            0.10124037662880092,
            0.31229446222439916,
            -0.46147725082922125,
            -0.15855304539885662,
            2.6784237284796784,
            0.39101035050171495,
            0.3992938707570096,
            0.5990434414062771,
            0.5925500307534839,
            -0.17700398813726442,
            0.927194667420809,
            -0.23605926386574977,
            -0.5918428044042362,
            -0.08631693170175078,
            2.2342051969216623,
            -1.544272598403509,
            -0.24481542013579666,
            0.2637028268473183,
            -0.4990551522062918,
            -1.442103948310105,
            -0.3813182991092541,
            0.5919448892397952,
            -0.7900361045534197,
            -0.1503520175451356,
            -1.5501914150386549,
            0.663847759271637,
            0.007316336795001294,
            -0.888555887086472,
            -2.1862753211912533,
            0.692424097971967,
            0.02081671755093112,
            -0.09610566165593504,
            0.32900805590660015,
            0.8790720731788217,
            -0.39672839049500885,
            0.47213791606856126,
            -0.22798959521126827,
            0.9933707068280293,
            -0.7971494918441789,
            0.6898299477930256,
            0.18848574931255224,
            -0.44418995916306175,
            -0.5526049694401418,
            -1.5201870974896667,
            0.9646751202124458,
            1.3526463296921651,
            -0.15058878503833228,
            0.20153764140363917,
            0.20074956736626537,
            -1.1236157123606474,
            -0.8075804718713997,
            0.11998426703609011,
            -0.7647275263075959,
            -0.949648543934168,
            1.2398836153175992,
            0.27985234014220384,
            0.4715224490898562,
            0.16773742521139645,
            -0.015175028167403237,
            -0.4482706901020068,
            0.8802459408186666,
            1.2012001116524558,
            0.17550679465388824,
            -0.47148343898194445,
            0.496949834994723,
            1.8663468885989873,
            0.8338409803458495,
            -0.3403296940539665,
            -1.505587811807221,
            0.09236911698671513,
            0.45675683602056993,
            -2.0294683943570684,
            0.44936895321566295,
            0.04618880072245812,
            -0.47176909019316193,
            0.7600354820861518,
            1.2177378221142923,
            0.6951282710415894,
            1.646501133202027,
            1.3975969152055467,
            1.3332116126524,
            0.007125159158180683,
            0.12072245961149286,
            -1.3678016776904043,
            -0.05107193378934836,
            0.11661691825968101,
            0.2430241049173245,
            1.0964578314799978,
            0.24050184306708602,
            0.02665705368716642,
            -0.619451843549042,
            -1.0477889813569272,
            0.5428084757211702,
            -0.5323442189919223,
            -0.8746452575517469,
            0.28752669906392825,
            0.658686505661086,
            -0.15908794123546047,
            -0.8622193083600964,
            0.01665736873028445,
            0.9179950603083,
            0.42203787359547085,
            -0.7273724606315538,
            -0.022462945746119234,
            1.9203399631257072,
            -0.28591971395506866,
            0.6427216268347551,
            0.6640691094505866,
            -0.6456046945772376,
            1.0688976458022448,
            0.5708045090408284,
            1.1228213957207465,
            1.2087881874995954,
            0.13535388725514724,
            -0.11052535709014932,
            -0.06286079429419633,
            -0.3352935673999411,
            -0.19232881946512873,
            -0.15152166227865232,
            0.6344026719857627,
            -0.5205152810189198,
            -0.5056390414527336,
            1.6155795070132655,
            -0.2496600927201908,
            -0.4104547920601658,
            -1.6927796656668748,
            0.9853967097656255,
            1.0770722048553387,
            0.2481716674373442,
            0.8928489494097704,
            0.6998145305545338,
            -0.004280524810873265,
            -0.16230661383944245,
            -0.4478188449635915,
            -0.4634927411856849,
            -1.008584045093619,
            -0.5912264960332912,
            0.4533841008873214,
            0.04608547957213957
          ],
          "numRows": 16,
          "numCols": 16
        }
      },
      "ops": {
        "type": "org.ejml.simple.ops.SimpleOperations_DDRM",
        "data": {}
      }
    },
    {
      "mat": {
        "type": "org.ejml.data.DMatrixRMaj",
        "data": {
          "data": [
            0.41478463567762197,
            1.0484125686011074,
            0.20562841050669078,
            0.7127670349760551,
            0.18712589333964214,
            0.9049181773794979,
            0.37632584551191894,
            0.45903248905265914,
            0.37696550934410045,
            0.7392112755411713,
            0.19939349478983254,
            1.3901527204049309,
            1.5844054342070693,
            0.20323347333099107,
            1.4732896740024826,
            0.4341269612626277,
            0.01739938797280538,
            0.9341233242253806,
            0.2857528524170949,
            0.43262598189593304,
            -0.18103327868178948,
            -0.09574045757669247,
            0.36941374296118124,
            1.191118489565865,
            0.8264165691439261,
            1.002612789292471,
            0.8234238656421533,
            -0.6217736659680542,
            1.208876144619141,
            0.10595895661772059,
            2.3278988801168308,
            0.3008867022511053,
            -0.05229402356955459,
            0.4161063819997901,
            -0.2845927753882709,
            -0.3020041454338986,
            -0.7884969451491364,
            -0.631133642606096,
            -0.11456477530294906,
            0.1774258230689374,
            0.10638827160781028,
            -0.025790411758178346,
            -0.2399081818023122,
            1.019840882534296,
            -0.37355072665234795,
            -1.0671682433154352,
            -0.5299791165042882,
            -1.6351766607714622,
            -0.09269074869383664,
            -0.5155502036489961,
            0.09495112837876118,
            0.003927935212430844,
            0.4695066173852602,
            -0.06534915978978148,
            -0.08036237551525072,
            -1.804429703060297,
            -0.984514882910302,
            -0.9485278841830448,
            0.19873581873074453,
            -1.3863648770062016,
            -0.35669965780333646,
            0.46751138180685814,
            -0.5955755334468487,
            0.22160452391604968,
            -0.8449478805387263,
            0.03629850237242355,
            -0.3111907974395165,
            -0.4008932180527344,
            0.798784882185148,
            -0.02787121340435022,
            -1.0097701029719315,
            -0.039937283308152965,
            -0.42990816767775225,
            0.05763875108006422,
            1.111430414464901,
            1.0898067482136504,
            -0.010469893552098486,
            -1.347450272960564,
            -0.4216845322206154,
            -0.9920874680964564,
            0.8673348944263664,
            -0.5683403262160502,
            -0.3382259065500419,
            1.5607463110771325,
            -0.6791501615559689,
            0.3962345098264899,
            0.6260944698829318,
            1.5222727936221578,
            0.06680753855273625,
            1.2187855364312101,
            0.022024938111013914,
            1.638127993213816,
            1.2389046757478444,
            1.6204626605592147,
            0.22200454878256282,
            0.4459689645627448,
            2.2768202512746063,
            -0.6067476855437466,
            -0.8178659604124666,
            1.8156097307493857,
            -0.073482807126418,
            0.7725904491413459,
            -0.2124389486266251,
            1.5540499143486666,
            -0.8405313070585019,
            1.3676028667378377,
            -0.8092924793835032,
            0.8022297310115089,
            0.5639538728408495,
            -1.7197288548369394,
            -0.3969879806415643,
            0.28620872516545093,
            -1.2956205705774115,
            -0.9912677047008965,
            -0.05678159028531582,
            -0.15762180627965233,
            0.5949394308999738,
            0.7546247415818093,
            0.8284212084590885,
            1.599440268781898,
            -0.6119029336213758,
            -0.5881463013597497,
            0.29891025653731185,
            -1.072444941524511,
            1.3376972721527003,
            1.198854966648012,
            0.35265598309511403,
            1.565553952272511
          ],
          "numRows": 8,
          "numCols": 16
        }
      },
      "ops": {
        "type": "org.ejml.simple.ops.SimpleOperations_DDRM",
        "data": {}
      }
    }
  ],
  "biases": [
    {
      "mat": {
        "type": "org.ejml.data.DMatrixRMaj",
        "data": {
          "data": [
            0.17550679644266265,
            0.7981224862169083,
            -0.48735809814102915,
            -0.7753011736710644,
            0.7641969399658131,
            0.6914334140698,
            -1.6797202824206983,
            0.46391380488740575,
            -0.6877059950570408,
            -0.18842919484670423,
            -0.6532007438172327,
            -0.38248079633493237,
            0.5271101873218016,
            -0.6471555124583053,
            1.1273293087851983,
            -0.12946779791194638
          ],
          "numRows": 16,
          "numCols": 1
        }
      },
      "ops": {
        "type": "org.ejml.simple.ops.SimpleOperations_DDRM",
        "data": {}
      }
    },
    {
      "mat": {
        "type": "org.ejml.data.DMatrixRMaj",
        "data": {
          "data": [
            0.11415814696963894,
            0.17360877245847628,
            -0.09199871780958324,
            0.4557251325722567,
            0.7881572727895079,
            -0.37188020605444594,
            -0.3190161432671814,
            0.7389144211190612,
            0.5402045772706207,
            0.8875439219423322,
            -0.9041462827641151,
            0.42693262086241274,
            1.9257380462561535,
            -0.07925852869205241,
            0.19954705719370247,
            -0.8186062306025123
          ],
          "numRows": 16,
          "numCols": 1
        }
      },
      "ops": {
        "type": "org.ejml.simple.ops.SimpleOperations_DDRM",
        "data": {}
      }
    },
    {
      "mat": {
        "type": "org.ejml.data.DMatrixRMaj",
        "data": {
          "data": [
            0.6999976941670112,
            0.42269194782303426,
            -0.6995333181857402,
            -0.5616484780963231,
            0.40909876042942717,
            0.009473028247354187,
            1.66992628914071,
            -0.6203345706822181
          ],
          "numRows": 8,
          "numCols": 1
        }
      },
      "ops": {
        "type": "org.ejml.simple.ops.SimpleOperations_DDRM",
        "data": {}
      }
    }
  ],
  "learningRate": 0.1,
  "activationFunctionKey": "SIGMOID"
}