{
  "activationFunctionFactory": {
    "activationFunctionMap": {
      "TANH": {
        "type": "basicneuralnetwork.activationfunctions.TanhActivationFunction",
        "data": {}
      },
      "RELU": {
        "type": "basicneuralnetwork.activationfunctions.ReLuActivationFunction",
        "data": {}
      },
      "SIGMOID": {
        "type": "basicneuralnetwork.activationfunctions.SigmoidActivationFunction",
        "data": {}
      }
    }
  },
  "random": {
    "seed": 138171015121341,
    "nextNextGaussian": 1.0739759421008803,
    "haveNextNextGaussian": true
  },
  "inputNodes": 45,
  "hiddenLayers": 2,
  "hiddenNodes": 16,
  "outputNodes": 8,
  "weights": [
    {
      "mat": {
        "type": "org.ejml.data.DMatrixRMaj",
        "data": {
          "data": [
            -1.177462642674557,
            0.6182931684757993,
            -0.25997186147462764,
            0.9725931328918295,
            0.8860692724143624,
            -0.07667377182155122,
            3.020514430251701,
            0.4231399761459725,
            0.2847743890494374,
            -1.0724445239210478,
            -1.612452149589974,
            -1.4078414498413614,
            0.15599937721246182,
            -0.036501188542153035,
            -1.7811834056686942,
            0.8741162639668587,
            0.5870216090153579,
            0.8666786290050645,
            -0.17464636083505497,
            1.8544286705391322,
            0.18102196803492748,
            0.8223127821145555,
            2.3716655387288426,
            -0.5762743228452325,
            -0.9102565787811225,
            0.6264987349766812,
            -1.5934497002296335,
            -1.4820020125788893,
            3.089009708422963E-4,
            0.03490358456502052,
            0.43049505660062704,
            1.1344211655707872,
            -1.4095561159263867,
            1.8749174857942739,
            0.8302958189691991,
            -0.34674356214964075,
            0.5996845395460735,
            -0.12418449172581603,
            -0.896972387325639,
            -0.7745652646778414,
            -0.11769818955431821,
            0.18784987474738965,
            2.690473555680735,
            1.9790118209679741,
            0.7777568935646798,
            1.33907781658362,
            3.1999249240028886,
            0.6706602118597748,
            -1.7267899860507467,
            -0.8141451633773864,
            0.29568462315362404,
            -0.9077751696122827,
            -1.2909948995440748,
            0.5383034032743126,
            -0.5203666552448014,
            -0.5088381190918458,
            1.9264341238366205,
            -1.4069169452962498,
            0.4266391876036525,
            -0.05488233296002512,
            2.0893627125502516,
            0.6514789258959751,
            0.16057008759839891,
            0.7867495654427354,
            0.501504726402076,
            -2.253254269275428,
            1.4508709324575888,
            -0.05704523296986952,
            -0.4742629695581139,
            -0.4138987309176826,
            1.7096719521060144,
            -0.7283591036005911,
            0.6712038820145823,
            -0.02079985464055706,
            -0.31892663222124606,
            -0.09278677285332687,
            0.47193926953838444,
            2.507474529932082,
            0.848846088293177,
            0.9591780762862483,
            -0.31949384810163334,
            1.481672371303791,
            -0.03398137191009766,
            -0.5110105750299453,
            1.608894393892138,
            -3.1467229132330057,
            -1.204790878931589,
            0.988214681574882,
            1.396478139381721,
            -0.6303918626760359,
            -2.078671787698936,
            -1.0404500671076304,
            1.0982745232320879,
            0.5325097793709165,
            -0.16571463813582277,
            0.5030390618194369,
            0.4653829534137892,
            -0.14968433731117914,
            0.8365423931440075,
            2.3313422791746197,
            -0.6412947971963063,
            -2.6234079607234095,
            1.994634752683304,
            1.1298067833172274,
            0.3893491014991609,
            0.6851907863254594,
            2.3227252817528217,
            3.6000680259668405,
            -0.18878087292212395,
            0.5363543459638247,
            -2.097474617011409,
            -0.22684673141605316,
            -0.326296639716327,
            -0.18537100766350817,
            -0.22848640618653726,
            -0.06916453908173217,
            0.20550888491227481,
            0.7547870675605481,
            0.317533189533752,
            -1.2152340434189388,
            -0.538288641439748,
            0.5977356966845238,
            -2.2785063705329565,
            -0.5493324314632857,
            -0.7348744241756735,
            -1.7728007402244659,
            -0.516179794190671,
            0.5987734546122953,
            -0.19455563765584885,
            -1.5777374265548634,
            0.9739053994775888,
            1.2271657178691144,
            0.23660794098619442,
            -0.04882580718975691,
            -1.790237447556048,
            -1.7535991975961027,
            0.998500394662033,
            -0.020237639047614553,
            -0.6164179902305861,
            -0.15798120629909274,
            1.492004773151616,
            1.0931556540258083,
            -0.744176743192763,
            0.23263733960349317,
            1.2445038871930416,
            0.8487097075487287,
            0.9502490591416826,
            1.3070312759000717,
            -0.2827771460279662,
            -0.057015964362200626,
            0.2084929525608613,
            -1.6384188111747837,
            -1.7318628523921749,
            -1.4316551021376838,
            0.2346022847155266,
            2.1763332330227545,
            -1.8695646577016516,
            -0.3879182557584642,
            -2.4296827453006467,
            0.9141205542017048,
            1.0109379558447444,
            -0.9666998757457651,
            1.0910411229724233,
            0.516477385610655,
            -0.5692603228166319,
            -0.781575717831999,
            2.013068334664556,
            -1.294948454483483,
            -1.248651060951187,
            -0.738035254419977,
            -1.1659014445660318,
            0.7609020510903595,
            0.015646079013404687,
            1.0941075538574638,
            0.5182598386079523,
            3.173064728956928,
            -1.022483017060163,
            0.11688463186578754,
            0.5549489699271404,
            0.33223400622712396,
            -1.8767303762418508,
            1.4505793871561954,
            1.6126542258759577,
            0.747329785712458,
            -0.4749519247575132,
            1.3172763257215017,
            -0.9508335917829565,
            0.890531777893659,
            1.1196363226771404,
            -0.5683425739802815,
            3.0174323545252513,
            -0.7687940410171978,
            -1.1700565431707997,
            0.2916657749144103,
            -0.09508149338754807,
            0.15002422884855326,
            0.18115532966959075,
            -0.17319068409234073,
            -3.6928321960043524,
            -0.6076247516905278,
            3.3623591679933944,
            0.7378175675235519,
            0.021903388493502374,
            -1.5879176122308714,
            1.6004964753532673,
            -0.8821062651565547,
            -0.9200788246974851,
            0.6442338260762945,
            0.20296608835664176,
            2.811282197099175,
            0.989009029678694,
            -0.29413574531416886,
            0.24707475656640338,
            0.10210320069084727,
            0.32748389580644055,
            -0.2586881596421011,
            -1.3124957621298932,
            0.41846538224696195,
            1.6852707948926888,
            0.7973216487593052,
            -0.9150237822184453,
            -0.1326490573745886,
            -1.283358918071854,
            0.6022087598980392,
            -1.7750213473905743,
            0.06500361160642411,
            1.0199926049948171,
            -0.8276559729432418,
            1.5504163038407413,
            1.015109200767564,
            1.6361544317730654,
            -0.3595942636061288,
            0.17055096853789364,
            -0.285187737383203,
            -1.9565355606042922,
            -2.6542405849223787,
            1.1069743714882083,
            -2.1978074912881276,
            -0.10131094431875516,
            -0.010614115090012255,
            -0.30160103145293105,
            -0.19587212145338828,
            -0.5951195487244588,
            -0.6587976816974701,
            0.04090327933814364,
            -0.30786190024592697,
            -0.9244197024388651,
            -1.3904489521986623,
            -0.26206285905063875,
            0.2152865574914054,
            0.904521474662343,
            -0.4515099944657044,
            -0.7976649463041723,
            0.9630233662370551,
            -1.3951798764403667,
            1.607415228369668,
            -1.1264061056519734,
            2.3805047061502203,
            0.47197149958708784,
            -0.6469736554209294,
            -1.6638614447843152,
            -1.6279611406745804,
            1.3068542587175647,
            0.5329852559351134,
            0.12322637237499989,
            -1.3083863292155948,
            -0.0574886523664265,
            1.6662233685804178,
            0.7663830083813508,
            -0.36117422819145645,
            -1.5869385436216517,
            0.6115188700947248,
            -0.2991545438991025,
            1.0389655588464835,
            -1.5392884827822997,
            1.8822171621856043,
            0.5168370115489836,
            0.2746085349422882,
            -0.24418980086664072,
            -0.39596194001183194,
            0.2582563162605358,
            -2.0208921550464036,
            -0.056884753287260725,
            -1.3414999415486504,
            0.8943991160926745,
            1.3047553342631673,
            -4.146958918479717,
            -0.8171252453059005,
            1.4288263195784532,
            1.653577165296765,
            -0.40785401105218333,
            3.6860257959118803,
            -1.4238689033802148,
            -1.1474232414614622,
            -1.8094633018367232,
            -4.338273726635917,
            -0.5104999899676768,
            1.7062479146881304,
            -0.7787229078824618,
            -0.6305654313562761,
            0.4030171879707584,
            0.5585453395902811,
            -1.6140483342438885,
            -0.7570405830010792,
            1.0600023977522093,
            -0.362458499771836,
            -0.008528044096420495,
            -0.7497761086577931,
            -0.11200028084493568,
            -0.3260214624720444,
            0.8785048266493789,
            -1.421363009565635,
            -1.0240817597797487,
            -0.6174198218574367,
            0.024270544655451143,
            -1.7444702455817878,
            0.8146791330706141,
            1.2414349089681522,
            -1.0797211451947561,
            -1.2990988139169977,
            -0.9212195503950246,
            -0.37337759422613936,
            -0.3180866190713157,
            -0.21185811498399165,
            -1.4074747529162195,
            0.2864820569891503,
            1.234781903274228,
            0.6718258646840969,
            -1.2647891315236564,
            0.011793931529258006,
            0.3542864805159288,
            0.18399593457547658,
            -1.3094117273129453,
            -0.26830273169670876,
            -1.8758708074724888,
            0.06084316929774625,
            0.9072507692328563,
            -1.4372183675583121,
            -1.1584775047542202,
            0.6388505035527268,
            1.3867521095681792,
            1.9115129703678073,
            0.3372136491761692,
            0.30441473445730916,
            -0.8628239914129918,
            1.2341884477177225,
            -2.0726943088042735,
            -0.7357710378383037,
            -1.5434904832435135,
            -0.674178254504382,
            0.02189833267536412,
            -0.5997334208936805,
            -0.22366163900359076,
            -0.04613227724371999,
            1.1803322079065113,
            -1.537624674763486,
            -0.029565541028432063,
            0.7876348681705346,
            1.4700532293596928,
            0.06870790565737517,
            -0.8734608258810631,
            -0.7649060920144924,
            1.167632635908198,
            0.5033192079972386,
            0.7561168269050615,
            0.9948531002343299,
            0.38250180004873435,
            -0.32568366709199237,
            1.467558464396575,
            -0.27522323932558096,
            -0.22111754506815573,
            -0.5996695193650821,
            -1.1642916798458451,
            1.1879515949955677,
            0.5964091674246094,
            1.217283313057791,
            -0.2530468068467968,
            1.1134698962370653,
            0.7894620454488513,
            0.41049449427048196,
            0.5278958467479361,
            -0.6880147690457683,
            1.4177580077817526,
            -1.082228967077394,
            -0.10424834891717538,
            -0.2553032478722959,
            -0.5831624215899682,
            1.2184785032770533,
            -0.2670275048210032,
            -3.1316044903170166,
            0.3045346972001178,
            0.8872744497597587,
            1.3144361771530764,
            -0.042651373320221175,
            0.5202233935028912,
            -0.7607805134470951,
            -0.3973478099591172,
            -0.9547971797310766,
            0.24089692847799904,
            1.7160544285616297,
            3.3604482129696223,
            0.47798965753750233,
            -0.5367776328022809,
            0.17635856859744764,
            -1.8062156000536354,
            1.507257704322633,
            0.0622197848586024,
            0.8020265762092276,
            1.4416384384763992,
            0.48150013448228807,
            1.3872923939634174,
            -0.5886917403373163,
            -1.18786152046968,
            -0.06718279946425021,
            1.0733559391014245,
            -1.127935943627036,
            1.0498123170245472,
            -0.91744233905753,
            -0.47303080081018445,
            -0.701279746924411,
            -0.6128584941934659,
            1.359126344398374,
            -0.17596422821207014,
            0.09696477665389958,
            2.6141352316752045,
            -1.1122898253452687,
            1.9255066366404963,
            0.033703800968174435,
            0.5181910328257813,
            -2.6885425356428376,
            0.18099190146235816,
            0.8178182195167385,
            1.3710427040697206,
            -0.9392160511323737,
            -0.2461397782286497,
            0.3699520808482649,
            -1.3572080874438506,
            0.49570817434756304,
            2.027270664499123,
            0.10362840841842219,
            1.9668452705829795,
            1.238681350155884,
            -0.12893947353828006,
            0.17756522330164368,
            0.31181587840731284,
            1.8438640196882403,
            0.27997808449511674,
            -0.754091063477808,
            -0.40439941735179585,
            0.5839681168170576,
            -0.21206500488105617,
            -0.33271476633693137,
            0.24678933457699892,
            -0.01673780245941814,
            -0.7020086195373335,
            0.05257328942053752,
            1.8827272754337385,
            1.8222114023622717,
            -1.8631674696496214,
            -0.7899832822595639,
            0.5104630467966226,
            1.9966162087449937,
            -0.14988045513422998,
            -0.026913792375213907,
            1.1836990415937128,
            0.11840936897929064,
            0.5035385985714969,
            -0.2490719193348325,
            1.170154941721356,
            -2.0580367102619053,
            -0.7605699038163145,
            0.23566817134035875,
            0.9039571003482515,
            -0.4154245237219199,
            -0.2372908227199128,
            3.5758991370449964,
            -0.9896225702287762,
            -0.46315278285533656,
            0.5311911863398745,
            -0.7638019168257785,
            -0.05261599712484427,
            -0.4986183581626338,
            0.5138108769292341,
            1.5725691433015876,
            -1.1939383034467088,
            -0.14282755304030725,
            -0.8388012216875853,
            0.33146353098078507,
            -1.1211524136289144,
            -0.7330591728503485,
            0.2139838452162905,
            -0.9495499465931746,
            0.851361570282473,
            -1.7755765291409882,
            0.9669756380723664,
            0.12089799410471475,
            -0.9769055495859116,
            1.484921972297867,
            -2.8277209325511925,
            -1.669158807239381,
            -0.39750794228358205,
            -1.0392422985388565,
            -1.8243595404254211,
            -0.4218952241128746,
            -1.3093570469947347,
            -0.9212114534878009,
            0.6455142189807807,
            0.1896692082925888,
            -0.9619671805824462,
            0.5281838098066748,
            0.38454088942401743,
            0.2749418576525592,
            0.47981056663806937,
            -1.0181825690295725,
            -0.6949893107897562,
            -0.07404535073335275,
            -0.7577029791864177,
            0.6114644707139626,
            -1.2726346205952996,
            -3.108809232345372,
            0.516063456830437,
            1.9109305810317878,
            -0.20722745366818196,
            0.23978703558009817,
            -0.9284812196996117,
            -0.3114090106151651,
            -0.09970810301930227,
            0.03153886037492665,
            1.2297834884252463,
            -0.6153826113465503,
            1.2978559663694562,
            -1.9888942347629812,
            -0.6321982845097454,
            -0.9893495059447716,
            -0.5495599569971121,
            -1.3323491379437824,
            0.3533455542741656,
            -2.139243033944816,
            -0.21997291198290675,
            1.6997342720279163,
            -0.22295680763886216,
            0.051709840339070834,
            -0.9781911595725237,
            0.7959564468177267,
            1.2546376598228588,
            0.4696361460314551,
            1.8056425775007414,
            0.14494539083037006,
            -0.3693025871392126,
            -0.8044069650289362,
            -0.8368773671128151,
            -0.4352532777902476,
            -0.035087335078147985,
            0.522841899638465,
            -2.0385093368558302,
            2.6696695407436613,
            -0.5086056291189741,
            2.0822690003756663,
            -2.351148669942659,
            -0.5459301880413139,
            3.081545360436342,
            -0.797347436674547,
            -0.47880030726941436,
            0.2813284313366196,
            0.7302162202774678,
            0.3651832439109442,
            -1.0823402699238294,
            -1.583003175998664,
            0.8940727861350527,
            0.5062645533183485,
            -0.4147482135407416,
            0.09012943951703545,
            -1.5541922263809353,
            -2.0147782338703126,
            0.7606053512261978,
            0.25279061402295444,
            0.6314387236055642,
            -1.0994999875504194,
            -0.8787229479965752,
            -1.3486434961673788,
            -0.4797353312015743,
            -1.4472741418121882,
            -2.690006397710367,
            1.1034612588254775,
            1.2753911628388024,
            0.7848833504564253,
            -0.07458300833865783,
            -0.36456033124974924,
            -0.07141634191994217,
            0.0025057935151672206,
            -0.6839962097172532,
            0.04312220288920883,
            -2.475391020749792,
            0.020041244268743208,
            -0.2899546694228632,
            0.3599403989666814,
            0.4241957576287495,
            0.0071413316337267385,
            -1.4542174538340937,
            -3.111376220094876,
            1.4274584207323509,
            -1.9680726648982398,
            -0.47788959317873014,
            -1.7026873087766712,
            -1.9247709996497813,
            1.6193633515010333,
            -0.8773381122480638,
            2.39931653346236,
            -1.294560406717546,
            -0.37775915933150706,
            -0.6874632705611197,
            0.03763419646097782,
            0.09960520606135162,
            0.31051920993564575,
            0.8868372194528725,
            0.26948199969685005,
            0.5646693011391868,
            -0.9163001687978998,
            0.5709429126139323,
            -1.7669550836260552,
            -1.014393509575202,
            0.9412452874422665,
            2.4586195471576247,
            -0.3678267110893453,
            -2.912026183795942,
            -0.5509576290733831,
            0.6556880410652093,
            -0.426523886511432,
            -0.8266101552770752,
            0.508900518751146,
            -1.2646544511727091,
            -1.3986336560273986,
            2.0005822605512176,
            0.9474255836766148,
            1.620624558732402,
            0.505157547995028,
            0.965251926710359,
            -0.5989191711001733,
            -0.44990803134656954,
            -0.5907613935493569,
            -1.8758954723801786,
            1.1690041573991794,
            -1.104430290737641,
            -0.08779917318568727,
            0.5981845013363905,
            0.25910568875963175,
            -1.6954238927340652,
            0.0554117484033301,
            1.3091738962481358,
            1.453549713416889,
            -0.6882202726254892,
            -1.3992270249864884,
            2.421882005186868,
            -1.4490453744787473,
            1.0956259442936929,
            -0.690316822096827,
            0.1996450773949019,
            1.462823468448078,
            -2.679751062698577,
            -1.3675710642361714,
            -1.2201150527447464,
            2.050228886995327,
            -0.42376715039860235,
            0.26230735704614433,
            -1.446555818661233,
            -1.550429005279244,
            1.4741631636945987,
            -1.0605253781802824,
            0.08567542388559679,
            1.5325554121876106,
            -0.037562533296933376,
            -0.3679999656031244,
            -1.9153797123550604,
            -1.5137118452591705,
            -1.0182276772071803,
            0.7613954820402901,
            -0.5189834441221213,
            3.021319311522315,
            -1.3636949633485977,
            -1.2330236526671399,
            -0.4803479863230512,
            -1.6514333396814713,
            1.8946293564238972,
            -0.8825342077816415,
            1.0433490493779836,
            2.335895847477411,
            1.4639639344942972,
            0.7819402853645224,
            -0.4427466668504244,
            -1.5472741580252665,
            -0.9848651379692425,
            -0.10850973743357079,
            1.5834013503028084,
            0.31724644736562513,
            0.03440075548424243,
            -2.3549117770145935,
            -0.7944939347683235,
            0.7443956405833482,
            1.1517860486995923,
            -0.7859391143743464,
            -0.7646258363910998,
            2.7368296930701748,
            1.7371964694836994,
            0.6480654676417222,
            2.4769511439770686,
            -0.27219129365227607,
            -0.003423350870158104,
            -0.9478848787649479,
            -0.1301255436453748,
            -0.6033976537225001,
            -0.29729402071694405,
            -1.0833723116738359,
            1.0028667976437968,
            -0.11401396774685446,
            -1.853933330604141,
            0.40322173578014553,
            -0.8869551596621973,
            -1.0498085734793596,
            -0.5784240362881501,
            0.2227861339297807
          ],
          "numRows": 16,
          "numCols": 45
        }
      },
      "ops": {
        "type": "org.ejml.simple.ops.SimpleOperations_DDRM",
        "data": {}
      }
    },
    {
      "mat": {
        "type": "org.ejml.data.DMatrixRMaj",
        "data": {
          "data": [
            0.42954915642243935,
            -0.45859114051174493,
            2.2595774836059404,
            0.4220255665600976,
            0.801935708903289,
            0.4948444110295905,
            0.057236721344121305,
            -0.6717974580632278,
            -0.13499170940528105,
            -2.168705278510197,
            0.511046214217539,
            0.8476122603297277,
            0.37099453796894605,
            0.9673238725634222,
            0.014471126665110912,
            0.02183565873339932,
            -2.1139521723693813,
            -0.8417122916906817,
            1.5059749873074528,
            0.5781569619201025,
            1.012814588871748,
            0.18349621557700524,
            -1.1448923682123373,
            0.19725241617535383,
            -3.061713189865646,
            -0.3171469370812611,
            -0.7360251727462213,
            -1.1379658051987098,
            1.098063340523027,
            0.8348918938537978,
            1.7788747674854142,
            0.8876905952445558,
            0.6910804493279645,
            -1.5466194236276751,
            1.9975406897970938,
            3.346463492142321,
            0.4868717284737475,
            -0.014249088570280899,
            0.4238485783332371,
            0.5197161827603091,
            -0.4207272691892107,
            -1.6076294713703327,
            0.9313953730192115,
            0.7590267040117907,
            1.3216403811627941,
            -1.5483821760924548,
            0.7038435067191728,
            0.34484935059926203,
            0.7332681393609555,
            -0.5733019725422228,
            0.8503348832208226,
            1.4826210303878675,
            0.3351714201718452,
            0.301238683229244,
            -0.35038695318375074,
            -1.8527330352814153,
            -2.421222620003552,
            -0.9703846720573446,
            -0.03702539987712808,
            0.7876910776478795,
            -0.9524842702588279,
            -0.7105608772665531,
            0.29229513645315597,
            0.4913823694273143,
            0.7362265187966149,
            0.052189504956698274,
            0.7545307941108137,
            0.9070785439466129,
            1.1106863430717235,
            0.6414284238639949,
            0.12942063242325308,
            0.45431252434132885,
            -0.05802203632334857,
            0.2754003895023007,
            -1.1829199212425654,
            1.2696189133810538,
            -1.7797088266659362,
            -1.1165479649242775,
            0.20278840823745095,
            -1.8817329875936524,
            -0.7943768172540249,
            -1.3865487332702047,
            -1.1847468219182629,
            0.35498524020270916,
            -0.11202008764939786,
            -0.04745663578494266,
            -1.457537610608199,
            -0.40817646394251317,
            -0.11737348949258808,
            -0.6983845932444692,
            0.6610730795358651,
            0.7079228807278534,
            -0.6327492480433093,
            -1.2892068224779574,
            -0.38393000303059704,
            -2.2953395884349628,
            -0.15662636076927838,
            -1.0950382101918135,
            0.026224390570987022,
            -0.586416049850373,
            -0.1574085152355652,
            -0.546077333601112,
            -0.03722983238440981,
            -1.0632510132513322,
            -1.822729365518314,
            0.5332261110938128,
            0.18485272013196297,
            1.0234694853091988,
            3.255436667659992,
            1.013335766702623,
            2.281208743259124,
            -0.0824377447789661,
            0.7388318147910333,
            0.5971791040788317,
            1.1566118673891086,
            -2.114796504138987,
            0.21815774648653397,
            -0.9855105734787444,
            1.5500074036854814,
            -0.308971918182364,
            1.1467098066526962,
            -0.4930667720926918,
            1.6338040566604288,
            -0.927810131846052,
            -0.04200751044785034,
            -0.06602042305225042,
            0.4324767486795793,
            -0.838852070863428,
            0.4846649645102478,
            0.22209932714583502,
            1.2213254235724522,
            -0.10321167447217539,
            -2.6832719981250004,
            -0.24873532091312633,
            2.6682735579722343,
            0.32702762194403145,
            0.9042677144268703,
            -1.7686829485613424,
            -0.961556622282419,
            -0.27372622495091925,
            1.8037139715889237,
            0.965671842837859,
            -0.5011763707747631,
            -2.09109447290704,
            1.021262938043209,
            -3.4954200932416,
            -1.7355675066291865,
            -1.6158833196566362,
            0.9382743915444999,
            2.166155455266485,
            0.7943797938851309,
            0.8535029415227139,
            2.22550472145177,
            -2.8147108981064957,
            0.08788686134545035,
            -1.067313010428962,
            1.7142305365579547,
            -1.0299954425432039,
            1.8751257794472815,
            -0.6180028164562912,
            0.08481445997460824,
            0.2204903499167452,
            -0.36933970274572625,
            -0.6326449134866153,
            0.40009060443995853,
            1.6584920212870087,
            -1.4118017596645849,
            -0.19629700624756696,
            0.44605152558470046,
            1.1159997236048114,
            -1.4845708208865775,
            1.159847646664449,
            -0.7676100113057989,
            -1.7447432412798105,
            2.2989751388767523,
            0.2873989669159886,
            -0.12657163844288455,
            -0.22966637843281762,
            -0.014444667310181458,
            0.7865191369239922,
            0.2512506828134955,
            -0.13760759164270622,
            -0.6937499340814273,
            -2.6309994506247714,
            -0.3058814932570754,
            0.3725235391731942,
            0.3047265832747686,
            0.7823210707618575,
            -1.0155693355417923,
            -1.0873251197530016,
            1.3388274832498168,
            0.8191884322455127,
            0.8530375223248345,
            -0.48569442619550557,
            1.8962660187549936,
            2.8021328267734398,
            -0.23249847990323314,
            0.15812444355544877,
            0.6273552825354775,
            0.35667125627574725,
            -0.23854951293951096,
            0.05256718952794415,
            0.5551499852585806,
            0.6955442661218894,
            0.670282909656079,
            -2.7327996420477296,
            0.52314783347879,
            -0.31417737713794014,
            0.390425655548749,
            -0.6900184138142962,
            -0.4310468162087988,
            0.34548135879569253,
            2.211937901738278,
            1.031074766566805,
            1.3592842752667367,
            2.0027969458125936,
            -1.1864560400177264,
            -2.1890487626551076,
            -1.6934788455178114,
            1.855791937304176,
            -0.40058395786386003,
            1.5514841851794952,
            -1.3012327944291178,
            -0.04248694673755171,
            0.7514041097806563,
            1.3741596544999335,
            1.280511725833335,
            -1.0297619100708875,
            -0.04675117084371094,
            0.1349510048066403,
            0.5049261944556842,
            0.47276995539815597,
            0.5067229346873224,
            1.1791569229547767,
            1.1813870904007067,
            1.2796611937793856,
            1.527276938619297,
            0.7581981338794502,
            1.8410482382180091,
            0.5448526551939611,
            -0.1673051890139109,
            -0.3747170915265451,
            0.953674569656656,
            0.6095756285543527,
            -0.9130592114550385,
            -0.10993647524547567,
            -0.0744959754667368,
            0.3645064954955642,
            1.094438374558496,
            0.5113039128700376,
            0.4321729885246729,
            1.2803324853475315,
            -0.8474586763521251,
            -0.043172995887976795,
            1.930931242302118,
            0.624379356607646
          ],
          "numRows": 16,
          "numCols": 16
        }
      },
      "ops": {
        "type": "org.ejml.simple.ops.SimpleOperations_DDRM",
        "data": {}
      }
    },
    {
      "mat": {
        "type": "org.ejml.data.DMatrixRMaj",
        "data": {
          "data": [
            0.3908166838021717,
            0.25771897046801584,
            1.067353855288766,
            0.7937511362523872,
            0.540789495199497,
            -0.769946201946857,
            -0.22376435588903332,
            0.48781146050112634,
            0.2873607514107849,
            0.4075187545147976,
            0.03510342839158209,
            0.223053060149547,
            -0.14198783113690122,
            -0.20630659233610482,
            -0.9044193946570254,
            -0.14560193234123714,
            0.25301478735105143,
            4.887313058279957,
            -2.7102690176523687,
            -2.5068718441190523,
            0.1749136714260034,
            0.18346021887759464,
            -0.1105630107787331,
            1.6532719225372203,
            0.7236191185952643,
            -2.9777417620575566,
            0.38612619596613407,
            0.8961360597133788,
            -0.7558877758481268,
            -3.198682709108439,
            -0.8422731306511084,
            0.6454701798902146,
            -0.5125904092711764,
            0.5116638412283394,
            0.12032263626636157,
            -0.6005706777215584,
            0.6869942203820726,
            -0.5168534528443418,
            0.4036453040848043,
            -0.6269768565547531,
            2.0130382306041397,
            2.405030270853778,
            3.0862213019453764,
            -0.22939373943805652,
            1.485420899658396,
            1.1565106562457657,
            0.006703257474431679,
            2.5735854845979675,
            0.16674686338684896,
            -1.829317868219513,
            2.1201009205114887,
            1.826681603453983,
            -0.4306149316885245,
            -0.37718343308466296,
            1.4133976062337266,
            3.210952559709053,
            2.103582183694021,
            -0.11450793878057802,
            1.2992683360745416,
            0.7323687131562847,
            -0.8029482064361004,
            -0.5944090696018589,
            0.29879421875920625,
            -0.03180998166909116,
            1.5223166223897686,
            -1.7989935641229164,
            -0.5871817314818715,
            -1.5926386701835504,
            0.20954850908134204,
            -1.252807793960139,
            -0.2243258153131497,
            -2.3639768185058068,
            1.2517050025103147,
            -1.1446407339968776,
            -0.23139787469732975,
            -1.221839047338795,
            -1.9185434514113395,
            0.2579934725185077,
            -2.663016391718884,
            -0.29779924623191245,
            -0.6121940867063351,
            -0.6657535420492812,
            -0.2545042429995218,
            -0.7204947185608326,
            0.22912780930596297,
            2.052597003927435,
            0.34785501501223476,
            0.10459202815278651,
            1.053680050115869,
            0.3767029423303885,
            1.6590800439025628,
            0.5752676164458563,
            2.5057444550078993,
            0.8887436199628533,
            -1.879723383253347,
            2.2166237350262006,
            1.0389958861391815,
            2.0357320739550744,
            -1.2174640002230357,
            -0.4836386482220779,
            1.3914323217685727,
            2.7505558459352755,
            -0.406081826634432,
            0.5678523787617002,
            3.3892947114420373,
            -0.7958154318848365,
            2.4706086797166833,
            1.1194123910842142,
            -0.9378015746839852,
            0.967639552893991,
            1.0780007026245615,
            -1.0046267957530874,
            0.42907842494736803,
            -1.482275402505476,
            -0.523041951212967,
            -0.1684335882657611,
            -2.1557683828794816,
            1.9144514982548062,
            -0.5108341434905493,
            0.3152781434104044,
            -0.4343779666263211,
            -1.2817817969306298,
            0.30698884512583335,
            0.2858521642279327,
            -1.2453592633914234,
            -1.313606549680249,
            -1.9585276118922939,
            -0.10236243540611657
          ],
          "numRows": 8,
          "numCols": 16
        }
      },
      "ops": {
        "type": "org.ejml.simple.ops.SimpleOperations_DDRM",
        "data": {}
      }
    }
  ],
  "biases": [
    {
      "mat": {
        "type": "org.ejml.data.DMatrixRMaj",
        "data": {
          "data": [
            -0.43273548705359166,
            0.3737208248347749,
            2.7026136422407463,
            0.8390836237680296,
            -1.5208017401623521,
            -0.5249723842901877,
            0.42235515511953203,
            -0.708668065051277,
            0.06133982122040238,
            -0.03275998208387823,
            1.1536286795736097,
            1.5875406917042694,
            1.4705732313097308,
            0.7305254974806552,
            -1.2188881709734953,
            -0.1480725804025944
          ],
          "numRows": 16,
          "numCols": 1
        }
      },
      "ops": {
        "type": "org.ejml.simple.ops.SimpleOperations_DDRM",
        "data": {}
      }
    },
    {
      "mat": {
        "type": "org.ejml.data.DMatrixRMaj",
        "data": {
          "data": [
            -3.3930488670736882,
            1.8536928338967915,
            -0.49163141134403743,
            -0.32820480750703285,
            -2.0835637506768743,
            1.8143010686279362,
            0.3629313794852671,
            0.9560489336240703,
            1.083397088062003,
            -1.2694001366558534,
            2.1842812252667905,
            -0.6648596260357356,
            3.466165357940869,
            -0.8620705930774892,
            -0.5388696223565073,
            0.495084994809327
          ],
          "numRows": 16,
          "numCols": 1
        }
      },
      "ops": {
        "type": "org.ejml.simple.ops.SimpleOperations_DDRM",
        "data": {}
      }
    },
    {
      "mat": {
        "type": "org.ejml.data.DMatrixRMaj",
        "data": {
          "data": [
            -0.31372584857793484,
            0.4836539289154672,
            2.5474731130227997,
            1.4465996519261695,
            0.3446414279676438,
            0.30965436677156516,
            1.118065594396729,
            -2.1402842520897054
          ],
          "numRows": 8,
          "numCols": 1
        }
      },
      "ops": {
        "type": "org.ejml.simple.ops.SimpleOperations_DDRM",
        "data": {}
      }
    }
  ],
  "learningRate": 0.1,
  "activationFunctionKey": "SIGMOID"
}