{
  "activationFunctionFactory": {
    "activationFunctionMap": {
      "TANH": {
        "type": "basicneuralnetwork.activationfunctions.TanhActivationFunction",
        "data": {}
      },
      "RELU": {
        "type": "basicneuralnetwork.activationfunctions.ReLuActivationFunction",
        "data": {}
      },
      "SIGMOID": {
        "type": "basicneuralnetwork.activationfunctions.SigmoidActivationFunction",
        "data": {}
      }
    }
  },
  "random": {
    "seed": 106595700973313,
    "nextNextGaussian": 0.440561464545708,
    "haveNextNextGaussian": false
  },
  "inputNodes": 45,
  "hiddenLayers": 2,
  "hiddenNodes": 16,
  "outputNodes": 8,
  "weights": [
    {
      "mat": {
        "type": "org.ejml.data.DMatrixRMaj",
        "data": {
          "data": [
            1.0062515691556535,
            -0.7160033625187842,
            -0.49970108670991303,
            2.4324740144215298,
            0.27205303431633376,
            -0.5368525275771152,
            0.9519019030163669,
            -0.7056222513084276,
            1.1187733059330527,
            -0.879640707787708,
            -1.8886140846063957,
            -0.4786278661904101,
            -0.1463005883351633,
            -0.2238201152065754,
            -1.112498403166096,
            0.866622375895312,
            -0.42261820418308516,
            2.3507774759229996,
            0.4987005320748358,
            1.058493562827242,
            0.9760210998927412,
            -1.186088826947712,
            1.3504708705341428,
            -0.5028688468221889,
            -0.09834311345107907,
            -1.5959266092128481,
            -2.043395616745622,
            -1.514328795325095,
            0.4086885628290659,
            -0.8381541740861678,
            1.1678125841893188,
            -0.8532507238280982,
            0.3088882938717728,
            1.1708723374658583,
            0.8229792602311461,
            0.7276713639862733,
            1.336045401684661,
            1.3730028355211743,
            -0.49110064848194795,
            0.31428900859285913,
            -0.02904510878184602,
            -0.31166624836312273,
            1.7391845122169562,
            0.7587987769628268,
            1.9853560714200391,
            0.641670547214692,
            -0.39699726208287534,
            -0.4232760158527472,
            -1.1686320483880677,
            -0.5544726921449293,
            -0.4564531680258302,
            -0.6236205278503402,
            -0.6425352610949688,
            0.2670245777421948,
            -0.3874817740501033,
            0.18507873368258732,
            0.26368763068944256,
            0.3210755895581021,
            -0.9393880111589503,
            -0.8389920724139462,
            2.8955878446150582,
            -0.18595883243590378,
            -0.7113445374986336,
            -0.8802120695785404,
            0.4776776247313129,
            -1.0067371653178177,
            -0.6206647937354425,
            0.026805893592015573,
            -0.6201285643012422,
            0.8344896282327956,
            0.025299883961699243,
            -0.31999774783284624,
            0.39518235705534793,
            -0.5875228333374105,
            -0.29131656249124604,
            -0.12790177899417302,
            0.47193926953838444,
            0.6313543587835011,
            0.24566140465713096,
            -0.03956365482670526,
            -0.21571896316294298,
            -1.0744421754667064,
            -0.3244633862189683,
            0.14989751265560036,
            -0.22737068286636036,
            -2.6588991009810106,
            0.40611348450610407,
            1.3205132379321758,
            -0.45731092214630215,
            0.7944561304763127,
            -1.1354525232412627,
            -0.5158830170081716,
            0.3025305647637457,
            -0.059854012438552706,
            0.4553933520223993,
            0.826194543260495,
            1.2844901526902386,
            0.456017433554889,
            1.3705594632466687,
            0.7618616673295674,
            0.504078491837483,
            1.3708203433446668,
            1.8337263137751392,
            0.46450496221583526,
            0.41978548421232276,
            0.9398469424034693,
            -0.9347124377807282,
            1.7743744025629764,
            -0.08407002858663884,
            -1.3354627202249771,
            -0.9895139172255261,
            -0.22684673141605316,
            -0.22947462999907295,
            0.517892043577514,
            1.243699831228525,
            -0.6606760163493736,
            1.0687313896784465,
            0.5855625763909985,
            0.5846901896414765,
            -1.2224410570423343,
            0.8851523790549354,
            0.9825145432258177,
            -1.6778620274146259,
            -0.42195267113982987,
            -1.2649804688502135,
            -0.6573973134393171,
            -1.242148228401733,
            -0.16536648141875698,
            0.8023528622686852,
            0.8348928861495062,
            0.7967695040845963,
            0.08396121602903925,
            -0.07569589181291775,
            -0.5845018344142361,
            -1.0905851811444418,
            -0.9410011389401829,
            0.730732167940848,
            0.038401725005271836,
            -0.46621700855816395,
            -0.3397990653986924,
            1.0369591734452481,
            -0.816625572257173,
            -0.18203802830891697,
            -0.1929781976637982,
            2.158970351792743,
            1.1821410170965856,
            0.4837687574163477,
            0.4906653076435876,
            0.4427764486267232,
            -0.5158810764172059,
            -0.4793591765985451,
            -0.37365649472094187,
            -0.6934556479381763,
            1.2429015271192672,
            0.20981184516901985,
            1.4098582345574684,
            -1.5965398116165468,
            -0.7388444395609206,
            -0.0832385059974623,
            0.594653841734587,
            -0.5918267100586383,
            -0.4486863474476057,
            -0.4492371371760048,
            -0.6245901298052131,
            -0.9593372888075524,
            -0.2284160769474941,
            -0.023246269840147216,
            -1.8281938225042282,
            -0.5211055782179737,
            -0.8318495839207293,
            0.9339326676814843,
            0.6655291549444154,
            -0.23552939276384838,
            2.181576648722648,
            -0.5129798374386618,
            1.6673134902307523,
            -1.034496538911565,
            0.21511961405692584,
            -0.8343021879716772,
            0.33223400622712396,
            0.0386336230743177,
            0.4645650215566235,
            1.9268090481833826,
            0.6401150855779141,
            0.11889844112257553,
            -0.4533039305141463,
            -0.5229415392749212,
            -1.2583192321008618,
            1.234893427262529,
            0.32087500621829707,
            0.17080661265283026,
            -0.41893120958239033,
            0.19852879971125825,
            -0.5993295299689296,
            0.8183410296441913,
            0.19718615023089042,
            0.29915423650887063,
            -0.927132902193514,
            -1.1788555386605521,
            -0.8064711390775636,
            1.3170798544657134,
            0.5259067887855381,
            1.0905356201344607,
            0.12859474673014182,
            0.06053258488039531,
            -1.1715752185871522,
            0.8447182455748017,
            -1.9159703110231419,
            -0.7484304330126852,
            -0.02532241337519664,
            -0.026067439465866593,
            0.48121795040020465,
            -0.08925976347749354,
            0.233299340941729,
            0.24629416867415913,
            -0.2586881596421011,
            -0.4519019739386265,
            0.5216118217525378,
            0.9044727389381152,
            0.3265516069713825,
            0.13026991698772447,
            -1.1925867070370937,
            -0.4600809747673995,
            0.7514291638391074,
            -1.8559882021591385,
            0.3750265933209155,
            -0.17281607273173394,
            -0.6598286016416619,
            0.2612006227586431,
            0.6512442420963207,
            -0.3210807201447098,
            -0.45539432810475844,
            -0.3323222740348976,
            0.6245336588780395,
            -0.10980785509351307,
            -0.7228495110532205,
            0.4342459218350586,
            -1.0620149356002349,
            1.0125049798480574,
            -0.7485821724069999,
            0.5437250608174053,
            -0.5918063328806948,
            0.46524286743806703,
            -0.14492593504629386,
            -0.5512357985587362,
            0.2679224284231323,
            -0.8947869524211788,
            -0.3773237230451057,
            -0.5008685916356319,
            -0.22138176975731869,
            0.904521474662343,
            0.5695970527875636,
            -0.45551954520466914,
            1.1617263240162958,
            -0.7989297307746438,
            0.9508422114011474,
            0.031060545474038734,
            2.1031797345272722,
            0.7608501050257432,
            0.6953484589903345,
            0.25179491437963986,
            0.5135180909831385,
            0.1759110239662696,
            0.39328449164472157,
            -0.7224326321676351,
            -0.8115403367185248,
            0.3291050179042663,
            1.1291236721714055,
            0.6418342854092116,
            -0.02455512649270375,
            -0.05719259271769661,
            0.5489015205183854,
            -0.18583978816977204,
            -0.3208219052145154,
            -1.5392884827822997,
            -0.3150239857915617,
            -2.0001079392825307,
            -0.49780931925871796,
            -0.5143656958141634,
            -1.0588782100794165,
            1.052344234934632,
            -1.1146779345655244,
            -2.3125245636468845,
            -0.9523071917621567,
            0.6971684758446199,
            1.0469786893452504,
            0.503682915779607,
            0.3287240069967423,
            0.8065262603252815,
            1.4712327673945167,
            -1.31224897585352,
            -0.24552891804989735,
            0.435807269748711,
            -0.08893425435436919,
            -1.7648170322025925,
            -1.1805061728789947,
            0.9428212488452983,
            0.24113323349905746,
            -0.032982311608109924,
            -0.7382433742432204,
            -0.2657312995336165,
            -1.255182352864239,
            -1.0074909400123822,
            -0.18266132898784881,
            0.6970158041385766,
            -0.08647817711431449,
            0.30606654990167304,
            -0.9650353916304775,
            -0.3237437314493429,
            1.026573548716211,
            0.862777426204242,
            0.3562376030336019,
            -0.26043858906113576,
            0.17137996629590796,
            -0.347083322634005,
            -1.7444702455817878,
            1.4139147006848534,
            0.16214033891865162,
            -0.5515575527197238,
            -0.16990108142168786,
            -0.8171044925684705,
            -0.2538737657916079,
            0.39553554243155487,
            -1.7688961806872467,
            -0.750712003316272,
            0.6730254432878195,
            1.5447744359610156,
            0.014029419673546428,
            -1.2647891315236564,
            -0.3503472042103515,
            -0.5389738538419347,
            -0.011423185129185165,
            -1.4133820169705853,
            0.7475552400136343,
            -0.7503265941971029,
            -0.5417242918448788,
            1.0130237837401828,
            -0.8053548219960989,
            0.5736661095537138,
            -0.530511049442186,
            0.9565187389473606,
            0.04612365155420184,
            0.6979877377551691,
            1.6550239599430459,
            -0.16266563754033792,
            1.2003417807651933,
            0.27598028550240367,
            0.22348742839828784,
            -0.29945642664358346,
            -1.1479049397918064,
            0.050557582718775196,
            0.5782650481120113,
            -0.3211782087114221,
            -1.128177949027596,
            -0.8972689758891249,
            -1.8877133585374914,
            0.02434676933615995,
            -0.3828588871021219,
            1.7691722400727554,
            -1.124380883579079,
            -0.8079035972132933,
            -0.9116859708930573,
            1.3689285765518173,
            -0.43040236384981934,
            1.4537444885967896,
            0.9718184416661131,
            0.0632966609001783,
            -0.14685134164943,
            0.4330883390735061,
            -0.054068460427426177,
            0.14606922621772256,
            -0.6046266683939632,
            -0.2608128066629149,
            1.1168283761663582,
            1.8924359100652743,
            0.4455019943750964,
            -0.30308906720313344,
            -0.03241258386789034,
            -0.6604014101025244,
            0.08758054313451001,
            -0.06715285654135639,
            0.051363852298492274,
            0.5743774895743532,
            -0.8753860012367802,
            -0.6212320887793221,
            0.4899705772217526,
            0.9437201853880286,
            -0.06820921881274197,
            0.4282354392648683,
            0.5167991762691425,
            0.17820228558458542,
            -0.9620571278160022,
            0.6629870444191905,
            -0.0022095411176136226,
            0.036381230788286034,
            -0.7607805134470951,
            -0.29065844056557005,
            0.3553759111684095,
            0.8298675154439021,
            0.1292547932997503,
            0.4061336029656657,
            -0.2526711129240175,
            -0.5367776328022809,
            0.2225408112337906,
            -0.21629193467763824,
            0.726554385285305,
            0.10961402096194806,
            -0.553552987835853,
            -1.1347244626930302,
            1.2494476158656243,
            1.0884142345833476,
            -0.4830788408611948,
            -0.5955647110626722,
            -0.6093579883278637,
            0.5694904013328775,
            -0.9203655530771679,
            -0.7478412657379733,
            -1.2757470370786168,
            1.0313956137304845,
            -0.701279746924411,
            0.4441838184816725,
            0.4130929342356856,
            -0.17596422821207014,
            -0.7951024169293618,
            0.5843605858991159,
            0.7291905688015701,
            0.9917648424731527,
            0.08324799101144487,
            0.14982624275010253,
            -0.6184308584594498,
            0.7620184906749852,
            2.060149618022617,
            0.6705873155536219,
            -1.9200909285542684,
            0.3560586695409971,
            -1.1099725314911852,
            -0.5541257915984444,
            1.4373713707326887,
            0.4876250446318726,
            0.47343306302515603,
            0.7015712169785278,
            -0.9609836521825752,
            0.6076349994288373,
            -1.3329524609837407,
            1.1982717689783835,
            0.8232482070193305,
            0.20205312316712265,
            -0.9886392453908143,
            -0.05455007346504995,
            -1.228959903889513,
            -0.006793402667230941,
            -0.44413164972527164,
            0.7844314170582092,
            0.8896600835460202,
            -0.23235782901732538,
            1.0519655987860046,
            -0.34616976457512516,
            1.8222114023622717,
            0.24565335164405128,
            -0.9280567425647366,
            0.7668577693976331,
            -0.020181710813016895,
            0.1266108408595169,
            -0.1989982259817371,
            1.0169533967635027,
            -0.4405869352850765,
            0.36287834380351597,
            -0.010752718556339247,
            1.1507823874059269,
            -0.9671471468161292,
            2.9774847106860913,
            -0.41220427846905144,
            0.4444847640419916,
            0.38145931883639705,
            -0.5061752809071973,
            1.262630952716549,
            -0.9896238914014813,
            -1.072727002493031,
            0.26129336722408425,
            0.1422642167561876,
            0.5335921232377904,
            -0.8420905860764141,
            0.5099607768654393,
            -0.35037518444511123,
            -0.9486865712397214,
            0.35998594667754646,
            -0.6645756846301486,
            0.183405631967427,
            -0.8696791927074383,
            -0.18207559921115823,
            0.5091356092150434,
            -0.3244526020100803,
            0.5421080381768808,
            0.4133372144544563,
            0.6694134249296979,
            0.7062463469948006,
            -1.0082699471541385,
            -0.5402440169063176,
            -0.7970429346504898,
            -0.9856704305450199,
            -0.194423209338892,
            -0.8392819362650599,
            -1.1552035968514764,
            -1.1292197420935879,
            -0.7032704914037577,
            -0.7962512046970458,
            0.39992126053717936,
            1.063885310310289,
            -0.6081927368097334,
            0.09110882089624125,
            0.5171931225518185,
            0.3885823138097747,
            0.8132648662142263,
            0.28405795497931263,
            -0.6970996663096999,
            -0.8429144495775087,
            -0.14186918991253972,
            0.5238194363233115,
            -0.40843588945823117,
            -0.1428772833648207,
            0.431638595695534,
            0.5406404722221837,
            -1.483222312730022,
            -0.5645132991977804,
            0.003864066510013142,
            -0.392565925522015,
            1.5127409372682497,
            -0.1678092656004344,
            1.0328318069749578,
            -1.202186100115742,
            1.2978559663694562,
            -0.637907818963039,
            -0.9693329976711444,
            1.167488511830187,
            -0.047126224709451714,
            -0.9934001173544988,
            -0.1526906883818644,
            -2.0999532638856606,
            1.728786233270287,
            0.7617279104155472,
            0.9912731880413855,
            -0.24344304518404764,
            -0.03393145529576724,
            -0.77671058083679,
            2.031838932152769,
            1.1824323878673062,
            -1.1193994721871536,
            1.1350913539413674,
            0.5021956492993822,
            -0.5772945487056677,
            -0.11312701069961334,
            0.32502350728007606,
            0.260275551056703,
            0.024863581789088762,
            -0.3901634528947144,
            1.7231841770331633,
            -1.0536272822722832,
            0.8467664325900175,
            -0.6319842202363068,
            0.05689421160844493,
            1.6851920446503261,
            0.14905340078049595,
            0.14182431658367212,
            -1.2547405311746482,
            0.5444412695933378,
            1.2414229542403732,
            -1.068175719576275,
            -0.9554834263209373,
            -0.26616430349601505,
            -0.15313081119136307,
            -0.890323824735033,
            1.206934856479786,
            -1.6845190464323068,
            -2.359951472215512,
            0.7606053512261978,
            0.5389319123627203,
            -0.23358450062044617,
            -0.6210151325604711,
            -0.5007349763718567,
            0.150095582121879,
            0.22850118358621097,
            -1.697854707881966,
            1.2106140444980165,
            -0.8091235175329143,
            1.1233250295121433,
            0.6560853426315724,
            0.41193837829677166,
            -0.47677144094180995,
            -0.3178314072142284,
            0.6295536993997872,
            -0.9008562866226973,
            -0.9821015064373799,
            0.20228824150132185,
            -0.5041410691946706,
            -0.12447257462555589,
            0.3848873631945007,
            0.1626698122634744,
            -0.8949746165610695,
            -0.9430638705341976,
            -1.001378471409063,
            -1.0204193396579346,
            -2.6934223521683807,
            -1.044679421416311,
            0.061381062480396986,
            -1.5975748193374684,
            0.17795441187150374,
            -0.21139763542858447,
            2.1175513767643706,
            0.5913532050888102,
            0.18280832195649568,
            -0.264299297493111,
            0.0771104435459308,
            -0.8634147422416486,
            0.869565030492699,
            -0.39098995008940196,
            -1.1789836488095364,
            0.23793272663459436,
            -1.9627349575130948,
            -0.7291280721906866,
            0.3480770963932822,
            0.47722367934906,
            -0.10829167557809438,
            1.2190235287425204,
            0.6382685285817545,
            -0.6588446794318259,
            0.8455141495873705,
            0.33893734879348103,
            0.24989660513152484,
            -0.04832169627872884,
            -0.13497858465025425,
            0.2531453536724914,
            0.17742161131186407,
            -1.013472806169368,
            0.5167440122199412,
            -0.5333684831758629,
            0.6388402626091343,
            1.1586996222516897,
            -0.5315046215848831,
            0.46677248703546936,
            1.1783312718830377,
            -0.3175149766090558,
            -1.2284947446855414,
            -0.5337795399072802,
            -0.45453377901644043,
            0.8433941421653963,
            0.5546797902867182,
            -0.7656080057700321,
            1.1113022527088643,
            1.0332328713872285,
            1.1110553381595485,
            -0.6465937468961183,
            0.20544313189290636,
            2.3295699512004684,
            -0.6276440406727744,
            -1.1956960723384844,
            -1.199386841020237,
            0.06054190854456254,
            1.0096233530701997,
            -0.6802381200434116,
            -0.4705729974959679,
            -0.9644499443108734,
            -0.06915960997170734,
            -0.10345131248727779,
            0.1683720097597987,
            -0.2696671402396543,
            1.498318558285181,
            0.9573395820678587,
            -2.097577988263888,
            0.3210680343427137,
            0.2452450994004165,
            -1.2498039885884196,
            0.7925025255463279,
            -0.5059065105423233,
            -0.7865714458903672,
            -0.684429966990562,
            0.6222578675671093,
            -1.3642634566572611,
            2.580929077012735,
            0.28341740731181964,
            0.2542379360698097,
            -0.15402226653557222,
            -1.2248014023143077,
            0.2140798332851117,
            0.903180448394199,
            0.9048918461849595,
            1.5087284066411075,
            1.1047436459626407,
            0.2927711682667156,
            -0.2273330061034713,
            -0.7479211367318699,
            -0.32292230946735223,
            0.27213775705791815,
            0.6240836876127869,
            2.119104646358372,
            -0.2955609314241977,
            -1.6561625685341523,
            -1.6127764970603362,
            0.15419945545107488,
            1.9292579077187735,
            -0.14742372806780601,
            -0.36723468750605076,
            0.9557700913874043,
            1.193601938065417,
            -0.6367964901836864,
            0.9129943305618512,
            0.4574616181913169,
            0.7228823249102116,
            0.4332720931189048,
            -0.029385677796591958,
            -0.342068311708927,
            0.06579879456197779,
            0.13537142011837677,
            0.36794696968192553,
            -1.0057495352330004,
            -0.4350473740097427,
            0.7729267284281405,
            -1.9313544442557862,
            -0.8631111629723618,
            0.571880806921798,
            0.2780030109419302
          ],
          "numRows": 16,
          "numCols": 45
        }
      },
      "ops": {
        "type": "org.ejml.simple.ops.SimpleOperations_DDRM",
        "data": {}
      }
    },
    {
      "mat": {
        "type": "org.ejml.data.DMatrixRMaj",
        "data": {
          "data": [
            0.65528693410594,
            1.7184192518983716,
            1.5628092517822951,
            1.4544537014351966,
            1.5709043163369758,
            -0.4250401046045311,
            0.052191544366028575,
            -0.5029398519460173,
            -0.4199451590304528,
            -2.248230731350473,
            0.607846807923133,
            -0.01379574936980521,
            -0.48446286409339223,
            -0.5202779724220915,
            -2.0610488254053387,
            1.248229593440255,
            -1.0280926539203585,
            -1.25281187622696,
            0.5463308036256042,
            0.757009400072149,
            1.2541181530841463,
            0.4233081304971872,
            -0.08368920490821768,
            0.8643852121892327,
            0.9198429014766708,
            -0.7632225552524095,
            -0.7360251727462213,
            -0.14392647142458953,
            0.338591346832919,
            -0.9141584969582649,
            0.9439261593524819,
            -1.0489144147562555,
            2.467228537326167,
            -0.39030780045329744,
            0.6099065640067911,
            1.4611423426266057,
            0.995823394100165,
            -0.27386719723733627,
            -0.9935177735765285,
            2.107087794869228,
            -1.5774685786854343,
            -0.6507856896290181,
            0.8401475117341191,
            0.5345043685908041,
            -0.8405489540635196,
            -0.7379934738348398,
            0.17471716342341226,
            0.3896505704844294,
            1.2534399003435799,
            0.46545010372350015,
            -0.1510620885936893,
            0.7014897471756008,
            1.3726770543677924,
            0.2628090403598998,
            -0.9361489858652853,
            -0.9485449579082614,
            -1.2682200703427315,
            -0.9703846720573446,
            -0.0011579689765924828,
            1.3660742271161226,
            -1.3307231835755382,
            -0.062454828882428426,
            -0.6668709259202983,
            -1.8114318238385623,
            0.6283052958678343,
            0.052189504956698274,
            0.48430743249233554,
            0.15555807315868686,
            1.0913794488764923,
            2.8580759505548565,
            -0.24189553180489065,
            0.2509228276399067,
            0.08435660971665335,
            -0.9808565846245079,
            0.05093420559474471,
            0.9065801025013862,
            -0.7307890063033642,
            -0.3814972500742666,
            -0.9873218660115249,
            -2.1890542050534227,
            0.9635905884850494,
            -0.5747852192400527,
            0.8091849312159483,
            0.4122228492838622,
            0.9659746587938444,
            -0.026050868401467975,
            0.18423988773131977,
            -0.40817646394251317,
            -0.8904953759901407,
            -0.10197880960763181,
            -0.06188683442541504,
            0.5385169723850647,
            0.1864041263541121,
            -0.6561764544793727,
            0.7561053511471773,
            -1.0676793752122196,
            -0.11774520124834897,
            -1.3433974448226988,
            -0.9441559495325194,
            2.4145790558554436,
            -0.2999199421459601,
            -0.509195030068796,
            0.16186197354092285,
            -0.297230358935306,
            -0.4850460696293584,
            -0.9840878744479827,
            2.009295482997592,
            0.2614812591745831,
            0.11895849252081361,
            -1.2037658022902868,
            2.583841462467398,
            -0.24964921750388552,
            -0.14331736827486907,
            0.7798272372945321,
            0.9101989416463578,
            -0.5275582371677122,
            -0.5523586029274486,
            1.781176022797231,
            0.1336538971210171,
            -0.6889761562220935,
            1.8621647848224039,
            0.6111875364234505,
            0.7195152058128438,
            1.4097640006078187,
            -0.309634759684295,
            -0.6556680546380695,
            -0.004802346850132158,
            -0.013113835391627582,
            0.9057172426082702,
            0.41913271033301264,
            -0.9853183604172243,
            0.3676197409540479,
            -1.1750558927642243,
            -1.1630185073931338,
            -0.47504882488425426,
            1.3452252999856913,
            0.9848634176207105,
            0.9438738879576012,
            0.3565916532982616,
            -0.030480827223900275,
            0.99745156681985,
            0.3090680717276605,
            1.0299831364852448,
            -1.3187246597722608,
            0.6793825797975381,
            -0.16487374264649943,
            0.0033858698138411747,
            -0.05925611182825136,
            1.7541008570561016,
            0.02465594492736284,
            -1.370494485884713,
            -0.0556647828074443,
            1.8607084179934228,
            -1.207351392565747,
            -1.5986765446728888,
            -0.26295130053238847,
            0.8904262080312311,
            -0.5794135630789485,
            -0.2954611677051229,
            -2.090316587738895,
            0.31227644881750255,
            -1.8482027181060166,
            0.2643714000194122,
            -1.0867038908814415,
            -0.5128246466964453,
            0.9846343921684485,
            0.4280637011642996,
            -0.19629700624756696,
            -2.5400268697310198,
            -0.4916452921995875,
            -0.20903244396900847,
            1.0866966565690328,
            0.5431678767369925,
            -1.456394673595254,
            0.2755968623335845,
            0.1419941780777036,
            0.033628379944333875,
            0.5111753008840138,
            0.6117899460093845,
            1.2443631467817013,
            -0.47093969620471,
            -0.7876505926974244,
            -0.29401871263227286,
            2.076688943303062,
            0.35331160168416065,
            -0.11234444161047893,
            1.0463983649386703,
            0.9527749773871205,
            -0.2752788896634305,
            -0.9392216327201948,
            1.0577049093777717,
            -0.8346633941602295,
            0.8501143891385604,
            0.0324430359666244,
            1.0608497174198952,
            1.6199664649469883,
            1.1363511790482987,
            -0.10402861473591458,
            0.20433056252981352,
            1.5074426269216017,
            0.26031502487228936,
            0.28650448069255985,
            -0.2542073968661923,
            0.5567474871032206,
            1.5024164769852626,
            -0.11813780479352753,
            -0.9435671296384911,
            -1.4180291257223945,
            -0.2768885899444781,
            -0.9084968699216427,
            -1.683963980560323,
            0.2158873062770288,
            1.6791131987857555,
            0.12869069243190157,
            0.18723392835279573,
            0.6079512532242912,
            -0.6195194771676641,
            -1.6192185292683705,
            0.3671748754173898,
            0.34051420412213007,
            0.10022956401021377,
            0.6983481878329179,
            -0.68943679207446,
            -0.04248694673755171,
            -0.30446971270701684,
            0.6860886288243981,
            0.13692087744136894,
            0.10641699842611674,
            0.6252375638813925,
            -1.6637067423187148,
            0.219110129469619,
            1.5588966831505275,
            0.42070761505016363,
            1.4689389664868868,
            0.4781168923065005,
            -0.032212347928613314,
            1.913698525687685,
            0.7518134628845046,
            0.030409661654810183,
            0.8160032493158613,
            -0.025773583351090257,
            -0.433296670947241,
            0.8176755697503164,
            0.5475825718882195,
            0.5660118307044241,
            -0.36817310665668124,
            0.07756811426082966,
            -0.5057954718094483,
            0.6381099249926383,
            -0.5667844868891062,
            0.35315462371392203,
            0.9211050328433632,
            0.2795135454530622,
            0.023152390475456697,
            0.5682554519167295,
            2.0269111394148256
          ],
          "numRows": 16,
          "numCols": 16
        }
      },
      "ops": {
        "type": "org.ejml.simple.ops.SimpleOperations_DDRM",
        "data": {}
      }
    },
    {
      "mat": {
        "type": "org.ejml.data.DMatrixRMaj",
        "data": {
          "data": [
            0.9953878196911365,
            0.4247636225442142,
            0.5856080070605179,
            -1.3355066040076546,
            0.8536740740454142,
            -0.5679949304895847,
            -0.14525814703712223,
            1.1193629398931402,
            1.187618051483086,
            0.9146587795706689,
            1.055813967239637,
            0.06440113701082106,
            -0.14198783113690122,
            0.7705896720704293,
            -0.2671182734356611,
            -0.23500372565093944,
            1.3651721363178626,
            -0.11422436604959602,
            -1.7822185878403611,
            -0.4803964488192698,
            -0.17361797181718136,
            -0.4512392099083936,
            -0.021878519565212917,
            0.13638620348196173,
            0.06360575676775893,
            -2.243769315201231,
            -0.5867645085119637,
            0.2708940020435595,
            0.14356965037956004,
            -1.6249116163308444,
            0.8995663600009967,
            0.4975992908536495,
            0.8975190235006294,
            -0.14863109828549279,
            0.22977641911588548,
            -0.5268841979242382,
            0.5123417064013808,
            -0.5168534528443418,
            0.7923663227435508,
            0.27523257790405314,
            1.3229353107475879,
            1.4878968624523798,
            3.046131025516321,
            1.0077338958969873,
            -0.025397939210642373,
            0.3872010886247505,
            0.9035575868091799,
            0.8883803821864745,
            0.05410826281716857,
            -0.17857931605059094,
            0.729652450735656,
            0.4291894678458945,
            -0.5852423464476293,
            -0.4982629714202137,
            0.23101672203934043,
            1.2081042702852154,
            -0.05183595162799881,
            -0.8172019014136431,
            0.4949299608040824,
            0.7729180129121702,
            0.6432355232187127,
            -0.14243385408297782,
            -0.38449964706665674,
            -1.299975417467989,
            1.7039115978597248,
            -1.132713230220653,
            -0.16807439051899076,
            -0.375557861373209,
            -0.22265584876968458,
            -0.6305939864005266,
            -2.3562268207483337,
            -1.318884069758551,
            -0.7315392153328579,
            -0.8089684681142755,
            -0.23139787469732975,
            -0.1009513972922948,
            -0.5484063700635264,
            0.16165458868809238,
            -0.24097259049635167,
            0.008648827063844178,
            1.585705198367906,
            0.7744766726959256,
            -0.2545042429995218,
            -0.14087947131915968,
            1.7682077537984093,
            1.267025342281115,
            0.11940579480392255,
            -0.3326025021778132,
            -0.1275400406305338,
            -0.5997347246164186,
            0.29173906332443933,
            0.961308936770273,
            -0.1625248597149198,
            0.2777408894014177,
            -0.7232886263318011,
            0.5324437061312157,
            1.8931726217914395,
            1.1484142321262345,
            -1.1408703339664081,
            0.13055355935988328,
            0.5436717858829677,
            -0.0638330376620648,
            0.6445327674551171,
            0.661914397386309,
            1.3011624044072643,
            -0.5509140672636101,
            1.4388665317793279,
            0.8262508947258886,
            0.37189250566777315,
            1.13898252594082,
            1.6613306324982478,
            0.14263904119692336,
            1.5565734091172818,
            0.2745115999657256,
            0.7202239712919232,
            -0.33052072848489644,
            -1.3836505754577,
            -0.28548928777820953,
            -0.13955538099917592,
            1.119704707616249,
            -0.6827162021837543,
            -0.5264512533031003,
            -1.151344549949463,
            0.5117828855832502,
            -0.1689931467068353,
            -0.26793854022364344,
            0.4318875302367221,
            0.42347518204190454
          ],
          "numRows": 8,
          "numCols": 16
        }
      },
      "ops": {
        "type": "org.ejml.simple.ops.SimpleOperations_DDRM",
        "data": {}
      }
    }
  ],
  "biases": [
    {
      "mat": {
        "type": "org.ejml.data.DMatrixRMaj",
        "data": {
          "data": [
            -0.609593321928853,
            0.06284163232117707,
            1.263243906688221,
            1.1348492254868328,
            0.34406052310089086,
            -0.5249723842901877,
            -0.4476752876107937,
            -1.0520877669903304,
            -0.07615341875806081,
            0.18340899571305674,
            0.30562990143820334,
            -0.29177386530137583,
            0.7718122150546616,
            0.7305254974806552,
            -1.3930396164137897,
            0.6304830927871671
          ],
          "numRows": 16,
          "numCols": 1
        }
      },
      "ops": {
        "type": "org.ejml.simple.ops.SimpleOperations_DDRM",
        "data": {}
      }
    },
    {
      "mat": {
        "type": "org.ejml.data.DMatrixRMaj",
        "data": {
          "data": [
            0.19959150206348453,
            1.6922984253318698,
            -0.8294838745624882,
            0.6550853915390695,
            0.16228540585135304,
            1.01731143581517,
            1.08576162132243,
            0.13252184276776058,
            2.0321117482364945,
            0.9382403714977047,
            1.6405631860473942,
            -0.696290274900784,
            1.624078294038806,
            0.5545997255840933,
            -1.8392373475399388,
            0.05413979256885365
          ],
          "numRows": 16,
          "numCols": 1
        }
      },
      "ops": {
        "type": "org.ejml.simple.ops.SimpleOperations_DDRM",
        "data": {}
      }
    },
    {
      "mat": {
        "type": "org.ejml.data.DMatrixRMaj",
        "data": {
          "data": [
            0.5089041033628868,
            -0.41762734699552806,
            2.138887082189237,
            0.3188151129637435,
            0.5723318747921631,
            0.5202325898046607,
            0.8857395209049076,
            0.850877211241533
          ],
          "numRows": 8,
          "numCols": 1
        }
      },
      "ops": {
        "type": "org.ejml.simple.ops.SimpleOperations_DDRM",
        "data": {}
      }
    }
  ],
  "learningRate": 0.1,
  "activationFunctionKey": "SIGMOID"
}