{
  "activationFunctionFactory": {
    "activationFunctionMap": {
      "TANH": {
        "type": "basicneuralnetwork.activationfunctions.TanhActivationFunction",
        "data": {}
      },
      "RELU": {
        "type": "basicneuralnetwork.activationfunctions.ReLuActivationFunction",
        "data": {}
      },
      "SIGMOID": {
        "type": "basicneuralnetwork.activationfunctions.SigmoidActivationFunction",
        "data": {}
      }
    }
  },
  "random": {
    "seed": 130657192819477,
    "nextNextGaussian": -0.0453791491553342,
    "haveNextNextGaussian": true
  },
  "inputNodes": 45,
  "hiddenLayers": 2,
  "hiddenNodes": 16,
  "outputNodes": 8,
  "weights": [
    {
      "mat": {
        "type": "org.ejml.data.DMatrixRMaj",
        "data": {
          "data": [
            0.9836910065655342,
            0.3918152682301492,
            0.1702634645420915,
            0.32969861298276637,
            -0.44380440540015487,
            -0.19687588498565556,
            0.15190105661702935,
            -0.3256729381535617,
            0.7221823815943889,
            0.9989776698737758,
            -0.1724687989493363,
            -0.14759850727374846,
            -0.3180106968687142,
            0.47903585784013347,
            0.12313442713414813,
            -0.5588928988566277,
            -0.808700604986806,
            0.5618424383846894,
            -1.5391175685812077,
            -0.37416192177417207,
            -0.8869863912338694,
            0.5008099520513012,
            0.09572622839856493,
            -0.651559474185756,
            0.8598725137788394,
            -0.5537695873955357,
            0.5249749269687618,
            0.6772438163295667,
            0.9031810681631496,
            0.5717313546797735,
            0.5926415451947262,
            0.7964025104822696,
            0.7436935278452053,
            0.857426625167242,
            0.09951912375715888,
            0.4671485583549977,
            0.523918559787619,
            -0.7416616598066161,
            0.39461594235843345,
            0.3311323260431145,
            -0.19319167335603593,
            -0.44715641740560713,
            -0.6245740316664639,
            0.006108507495177218,
            -0.046002280196028256,
            0.3884349126770754,
            0.24256531257883007,
            -0.03858716739696966,
            0.007463241072196203,
            -0.048311537710926,
            0.4839329839008111,
            0.7088643438905913,
            0.011674942309206626,
            0.2041074151203499,
            -0.3719915986533564,
            0.6614166048845354,
            0.30901658543890287,
            -0.1112208097016194,
            -0.06714981877036474,
            -0.2562608907855144,
            -0.6679122917149871,
            -0.8474405514875858,
            -0.25622807411969195,
            -0.33664119571287193,
            -0.5238707235527429,
            -0.21189966147907446,
            0.9889627027615029,
            -0.864912526883493,
            0.5769175089685332,
            -0.3024242361723368,
            -0.8484123991841093,
            0.0728154867037889,
            -0.02345432807364256,
            0.24613304354455012,
            0.8242270460673402,
            0.37660956104089416,
            -0.48401323389143025,
            0.034429254504111606,
            -0.22199556151702482,
            0.11690648642480483,
            -0.19122177673273955,
            0.5434382598416652,
            0.3710740824993852,
            0.8133411296768729,
            0.15679915804340583,
            0.09104232344502461,
            0.13249550557495154,
            0.1933984066399621,
            -0.4239926624032,
            0.5887507269017938,
            -0.6678694553960072,
            0.5501335824818814,
            0.55470607326552,
            0.6982159623848119,
            0.39199369241529913,
            0.9512961057256137,
            0.626510356568351,
            -0.8389540094857477,
            -0.7103275783494061,
            -0.8555648504007127,
            -0.031477479879921555,
            -0.6882613925890184,
            0.3648466923845084,
            -0.901313115019831,
            0.5809306156693737,
            0.08239405073532247,
            0.36012198154792285,
            -0.15881323068530295,
            0.512445960492135,
            0.1691871697100642,
            0.4452271216735777,
            -0.6799544086516736,
            -0.9332998816041338,
            0.4544114879901615,
            -0.6610985140262828,
            -0.3923555724937997,
            -0.04207714682856012,
            -0.7357665770836119,
            -0.4006680933468285,
            0.29098876153267184,
            0.9799282644085161,
            -0.4088753585339935,
            -0.21904437008661426,
            -0.27405899950566903,
            0.9106372090546981,
            -0.9787327032345654,
            -0.6551035638855012,
            0.7247280641342417,
            -0.9049315178105317,
            -0.2189435487938607,
            0.9622555787187541,
            0.20119955146217827,
            0.4329339214003167,
            0.0531503329364551,
            0.1639316094864225,
            -0.6841108116578132,
            0.3426759056690747,
            0.5113494635553646,
            -0.8324031127978748,
            -0.25698865063115006,
            0.6819887775339153,
            -0.11508865547559854,
            0.15191078175431194,
            0.8241016416122278,
            0.5755684668821841,
            0.9405449718594535,
            -0.7499961986522676,
            -0.4219099610139172,
            -0.3659614440304215,
            -0.9738027778985372,
            0.09871939251006867,
            0.8051709929971187,
            -0.8562965436614316,
            0.6761786725719237,
            0.9070527188941429,
            0.24974336212239462,
            -0.5350174061955262,
            -0.7247092361045082,
            -0.3033196279634425,
            -0.002352807594526274,
            -0.9019171678621178,
            -0.28003889368479906,
            0.619426787829048,
            -0.12282001948692889,
            0.6576695114738815,
            -0.3624912736346493,
            0.07096642802465758,
            -0.12739945284434318,
            -0.6560009238059934,
            0.33009605265868336,
            0.6970147617767044,
            -0.013153502531206174,
            0.40618052442774477,
            -0.2592079229914117,
            0.32771306578539083,
            -0.6455816844511633,
            -0.4360656429414669,
            -0.18319095557117637,
            -0.6221339235816992,
            -0.75036344775759,
            0.3874227158913943,
            -0.8686989354638059,
            0.31514414590991646,
            -0.7795656518059064,
            -0.7695742039139579,
            -0.8260580957087589,
            0.4253149530011322,
            -0.19424445913576438,
            -0.5296558973970831,
            -0.6681720921862975,
            0.29302265504811253,
            -0.8127959635448965,
            -0.06127532924509993,
            -0.7439211757267399,
            -0.8314140449871494,
            -0.9193297490183054,
            -0.5669166240485015,
            0.04583907795346742,
            0.7057391047061452,
            -0.8087623604987784,
            -0.487049605683215,
            -0.5197915729699427,
            0.43219346134996606,
            -0.36524930811155376,
            0.2583666719498503,
            -0.610039592908951,
            -0.2456498109697398,
            0.8720037873964894,
            0.3058889023508333,
            -0.8152655052303093,
            0.2994476757719675,
            0.9065886242256551,
            0.07746402894763671,
            0.5377163574806056,
            0.9628803399946189,
            -0.2349839918080321,
            -0.32031495724808545,
            0.2786477313773117,
            0.15537941245281184,
            -0.3921945824713271,
            -0.666982187986797,
            -0.34266252579622436,
            -1.1395767652966549,
            -0.7871849251672698,
            -0.17919532446380382,
            0.3136712585549888,
            -0.045603558666070354,
            0.027161632824399318,
            -0.7689442818129613,
            0.526447221016487,
            -0.009220467196288773,
            -0.4983410679398623,
            -0.39025882867587036,
            -0.3878078331860324,
            0.15798382680559042,
            0.001780794539824715,
            -0.9474991647506275,
            -0.2935588055519358,
            0.8956748659203619,
            0.23173355046370325,
            -0.7676088999341315,
            0.5837918072346304,
            0.2877605814847768,
            0.6607881097977928,
            -0.605508706300474,
            0.6593716591129235,
            -0.6510167619184837,
            0.42869642315968437,
            -0.5561039871360691,
            -0.13681281046553861,
            0.5392052623315078,
            -0.23324001938630068,
            0.9118220590952282,
            -0.3098511950750178,
            -0.5448436799197081,
            -0.5956342606736833,
            -0.6947377729833277,
            0.40239579983025786,
            -0.5986366773899212,
            0.7100461601073953,
            0.6288211511297805,
            -0.9031273920517717,
            -0.14356209660813213,
            -0.1256323495725853,
            0.7130716941472872,
            -0.8500630960105355,
            0.7278478485593605,
            0.2516951004486081,
            0.3919730899150127,
            -0.587893617350814,
            0.7277543378774436,
            -0.659446096604974,
            0.5425960552569984,
            0.5048367566780192,
            0.20444734364480888,
            -0.06512308940853839,
            0.5336017813421097,
            -0.8820942566280414,
            0.328367305304726,
            0.2460024503179601,
            -0.2753734099618781,
            -0.20643815389694908,
            -0.34134809386572895,
            -0.8746330807515672,
            0.3169255078778068,
            0.7174147035515084,
            -0.1943981274234321,
            -0.08958619935479972,
            -0.9236675823945903,
            -0.9432411962120295,
            0.093518962448467,
            -0.1286803213803338,
            -0.7672033908029412,
            0.5458416917127027,
            -0.5540374922109399,
            -0.246284945101237,
            -0.13079697288537068,
            0.8551695595072253,
            -0.6685631016588844,
            -0.5073434563081116,
            -0.28156209193793114,
            0.20362794292768505,
            0.06894879601664017,
            -0.18431524156595236,
            0.3151831226334836,
            0.15097846602875853,
            0.8923594853601327,
            -0.8421194792867812,
            0.368489225808009,
            -0.005379148935995115,
            -0.24111570209525723,
            -0.9205895304612488,
            0.2089259805094854,
            -0.25666279516540214,
            0.7530570573673485,
            -0.7938698810525255,
            -0.7913245084976495,
            -0.747935423416711,
            0.6300704518803275,
            0.6063922251118785,
            -0.6495452455557538,
            0.7755686475965413,
            0.7314631482273273,
            0.47228496054110924,
            -1.6659141275042337,
            0.9352206889379848,
            0.8205781136946193,
            0.9911034256848947,
            0.26456749166925864,
            -0.10809268034370767,
            -0.7378304488052259,
            -1.2600805125950991,
            -0.13935768951368965,
            0.3794310638201579,
            -0.5900108145486336,
            0.14282293397415224,
            -0.8803160036842526,
            -0.6087547194384291,
            -0.9318646510267863,
            -0.9889690810071767,
            0.12527200013567974,
            0.58243562059477,
            0.4564014493755868,
            -0.0974504638023832,
            -0.1943472921076561,
            -0.49190450773129135,
            0.23681487819588076,
            -0.942987225583596,
            0.5964258551776471,
            0.9097577311190321,
            0.8480077918774096,
            0.5028124262345695,
            -0.6719147751099621,
            0.46138900243121306,
            -0.35398264757168585,
            -0.3357451436364216,
            0.6739263168487919,
            0.6019690657163976,
            -0.8354360982585392,
            0.37818932379730863,
            0.8395319110069999,
            0.3909109179046164,
            0.18481004077770313,
            -0.917070515948875,
            -0.9167459141269243,
            0.9666473780590374,
            -0.7559443273001181,
            -0.6656547540564048,
            -0.8721891035518148,
            0.8271956471242183,
            -0.2852217522508731,
            -0.11409037836519431,
            -0.4436788785256822,
            0.6378385029890459,
            0.649879544853242,
            -0.4165955777326229,
            -0.11819705678316961,
            -0.18011086298599266,
            0.21695409574185542,
            0.5971404502032094,
            -0.862634746379944,
            0.7858363223519589,
            0.733847745354332,
            -0.3465325656766176,
            0.555024293137663,
            -0.640008244175915,
            0.06972665547128098,
            -0.6118239239067264,
            -0.8157201726370704,
            -0.33990756519116916,
            -0.5096682030704462,
            0.6800865613614309,
            -0.8527093023141656,
            0.5141376261669546,
            0.9030462154711922,
            -0.5807127633477109,
            -0.3643101017523356,
            0.3480679286947823,
            0.8968554648913452,
            -0.9124883635565197,
            -0.2752153857490587,
            0.40372273654007773,
            0.9742348932352509,
            0.7576629910840893,
            -0.38591131922813826,
            0.13284052870986796,
            0.9364510327569981,
            0.1675188436762851,
            -0.0011616940258485364,
            -0.33830633956680334,
            -0.48928378476039014,
            0.46250429781191205,
            -0.06465460366036035,
            0.3322786363416679,
            0.9970904794586637,
            -0.43636513505918617,
            0.7837450235028964,
            -0.5001897903143764,
            0.96497606212063,
            0.7007291277098304,
            -0.40510194121644405,
            0.002595639113576409,
            -0.15649563952486578,
            0.1685695072058837,
            -0.34608859186750673,
            0.019194491941929126,
            0.6270676807554392,
            -0.056232345250158966,
            0.8009432826670175,
            -0.6109035891104508,
            -0.1432990059496846,
            0.4426683396386428,
            -0.04897688296277508,
            -0.1030218657506965,
            -0.4600269149865164,
            0.4057051830560663,
            -0.37506440553984044,
            -0.49307123261833086,
            -0.26350176671165926,
            0.6611984865005209,
            0.14901429846120195,
            0.08186075359263345,
            -0.8368665275789866,
            0.35166407165051305,
            -0.16029120626260518,
            0.734652022608711,
            0.3623803805867565,
            0.09828019282604927,
            0.3347214495744424,
            0.631392345381399,
            0.7294608741985171,
            0.5342376799444319,
            0.015532068007037214,
            -0.196563889193357,
            -0.9920068638546631,
            0.6552760422744648,
            0.5619194221488983,
            0.587559936761421,
            0.7411439192327949,
            0.5157880829800356,
            0.4444129463852029,
            -0.9352976980478453,
            -0.39541171235422956,
            0.9414507868782096,
            -0.5383325583620895,
            -0.8228880612259315,
            0.5495602125657435,
            -0.8655785711571986,
            0.9629599000325173,
            0.419019198917566,
            -0.7512686840381584,
            -0.6852857209741514,
            -0.508291639854433,
            0.5085717192903536,
            0.4646071807814196,
            -0.12854860915190036,
            -0.7558827740911989,
            0.7890662514122655,
            -0.3504156160454319,
            0.8902598842582308,
            1.1763200780208827,
            -0.33314629117079075,
            -0.6612350869464199,
            0.3781654660908811,
            -0.3719159766135407,
            0.5194768207001401,
            0.711076616613215,
            0.02491082051193172,
            0.7966261351129056,
            -1.2004128906618914,
            -0.775444373758057,
            -0.08029523332274224,
            -0.937269250356064,
            0.5863737604050396,
            -0.05572527925806492,
            0.28498708551086627,
            0.941514303477992,
            -0.3169314471707618,
            0.5376835291202395,
            0.9938710866512377,
            -0.7761749409281675,
            0.9994100093297404,
            -0.09473329818085552,
            0.4055053136319824,
            -0.4102522195305045,
            -0.4357097341164131,
            -0.5315143607386348,
            -0.11732725969836721,
            0.38537974206079406,
            -0.7208735685564502,
            0.3538700722004884,
            -0.7514757015482714,
            -0.8066901945984188,
            0.6193307798839465,
            0.9889386600732806,
            -0.38601131005552375,
            -0.8895645928230802,
            0.3924393840628535,
            0.32847836627495286,
            -0.7315517608228568,
            -0.5075430211843037,
            -0.8103225129182192,
            0.6524070723014406,
            -0.44579968346416443,
            0.3325899025299368,
            0.02907109874593994,
            -0.16764253894689585,
            0.4921008793019346,
            0.4127397191647151,
            0.6120397137058187,
            -0.4734838199184699,
            0.5004907301943038,
            0.8985876716828554,
            -0.39826534442817807,
            -0.673295212359885,
            -0.47861780663995157,
            0.1457380661392882,
            0.38021581520632886,
            0.008642405006716425,
            0.3458126281849241,
            0.14228084619324965,
            -0.14711382661160277,
            -0.27421636757286616,
            0.5663211328437945,
            0.23382664810859022,
            -0.9575661276641183,
            -0.7609227443647861,
            -0.9208491829778465,
            -0.4397247447662753,
            0.45085729310069134,
            0.08944536013391557,
            0.01633577423464927,
            -0.02072040123863972,
            0.46697881554289467,
            0.9967355520278558,
            -0.472013145056851,
            0.1595731692828688,
            -0.5418202727816666,
            0.7083513850072438,
            0.5575145441265767,
            0.998029374529886,
            -0.3910823496857272,
            0.5033194058621366,
            -0.14220257645346224,
            0.547525973235417,
            -0.9450850621681495,
            -0.2227916369420122,
            -0.656270031301887,
            -0.7616089225533125,
            0.41073646030962974,
            -0.7829456648391817,
            0.6667367807105191,
            -0.6655915481875256,
            0.39980090995202566,
            0.3513281783215909,
            -0.7706016904113278,
            0.28506535584804005,
            0.9697003989874025,
            0.6538987439275794,
            -0.3665873944980562,
            -0.08107204287367176,
            -0.9879709921239019,
            0.7818258234958002,
            0.5716969059643493,
            0.2687319197077702,
            -0.3952495193242045,
            -0.1394416831748484,
            -0.7444905322134594,
            0.2269808416352772,
            0.556463224241758,
            0.32476735888804176,
            -0.3899476386887428,
            -0.7984536593158891,
            -0.044251752321581295,
            -0.6944013765375385,
            0.6770915862177767,
            0.47396783191875524,
            -0.5848858015148897,
            0.11958079670651389,
            -0.06928867976412945,
            0.0588529336222694,
            -0.1763314153047076,
            -0.4586202744858088,
            0.5423951655282235,
            0.5209822017231407,
            0.9276807464972274,
            0.23204178170301715,
            0.024207167525510664,
            -0.5725742809567596,
            0.35404802497103893,
            0.9463221166039744,
            0.1339222036892216,
            0.8951817789585916,
            0.68397105467805,
            -0.042852473850799155,
            0.4435343202426312,
            0.04055033786732665,
            0.7880134811515174,
            -0.4877837635792026,
            0.5526488888504271,
            0.044658868614721126,
            0.751016533502,
            -0.9228098302003298,
            0.5708435494141741,
            0.020259171222637207,
            0.2611840996706192,
            0.6218885066855191,
            0.19816040211923025,
            0.8981188133510665,
            -0.7823095609094248,
            0.27034375298053126,
            -0.4995302214277646,
            0.14703231306960607,
            -0.06422152790821012,
            -0.7374634241859028,
            -0.6934748284141747,
            0.2996814674452597,
            -0.06035623383202515,
            -0.6349243692698892,
            0.04610563179453542,
            0.9772770508231596,
            -0.9927724099005073,
            -0.3799543976926527,
            0.8037209747992031,
            -0.6108833216161147,
            -0.13262883835504602,
            0.6356958157758552,
            -0.620066852923586,
            0.12889786095363798,
            0.7486103273123772,
            -0.500401274350178,
            -0.7675750632779499,
            -0.502172946598868,
            -0.1597808315081375,
            0.8343568813146416,
            0.31152557167717276,
            0.5552699770794534,
            0.6499377778138073,
            -0.48210592371172534,
            0.009980759142977691,
            0.6308903122442826,
            -0.770850584964385,
            0.15481589972375343,
            -0.28566725694274386,
            -0.8720714773685683,
            -0.714901719501744,
            -0.48771958451014896,
            -0.22464517375728366,
            0.1054736541049568,
            -0.6889309257572926,
            0.8232720763498738,
            -0.8924386388985193,
            -0.6517136896947009,
            -0.9607235142989183,
            -0.8878755429949483,
            -0.9171056714224002,
            -0.5840673960920713,
            0.7575413422334805,
            0.5115919568346936,
            0.9012637893552577,
            0.5086921662718136,
            0.3296583379136777,
            -0.08227787475162085,
            -0.799300577293995,
            -0.10409268276060457,
            -0.8793119033230314,
            0.26823477933973217,
            0.3124469740910807,
            0.12314265784358214,
            -0.5477653096984194,
            -0.7679338388282186,
            -0.7285776249940215,
            0.2477278703333632,
            0.6990977078289575,
            -0.8378095687257543,
            -0.5399854026084216,
            0.947959633911031,
            0.6875161847867441,
            -0.20921723732251674,
            0.5933056324039065,
            -0.4905579938636522,
            -0.33345003085251257,
            0.33524286501088607,
            0.6463547534209868,
            0.6135857650206604,
            -0.20202834852442542,
            0.4355495068325399,
            -0.7207278291061856,
            -0.47022246657868894,
            -0.15362886485041027,
            -0.3421290893476543,
            1.5020294029084684,
            0.7819337258639842,
            0.5500025866881237,
            -0.8236923867392643,
            -0.9481204271711694,
            0.17207623886574075,
            -0.9857688026437301,
            0.6840995340487435,
            -0.17912926244889582
          ],
          "numRows": 16,
          "numCols": 45
        }
      },
      "ops": {
        "type": "org.ejml.simple.ops.SimpleOperations_DDRM",
        "data": {}
      }
    },
    {
      "mat": {
        "type": "org.ejml.data.DMatrixRMaj",
        "data": {
          "data": [
            0.8672309021073747,
            0.393266514712999,
            0.5875799764102998,
            0.4319510497539536,
            -0.23756109429027927,
            0.11219601346048913,
            0.10061367184408487,
            -0.8651800481142216,
            0.6112906866488559,
            -0.06983881840421824,
            -0.01579100535146516,
            -0.9213039312442899,
            0.8093090384045856,
            0.25684703151276866,
            0.36544717021090833,
            -0.8662178620354852,
            0.04850166174824694,
            -0.6917173307924267,
            -0.6781749870657774,
            0.5391319960573397,
            0.7475756691942026,
            0.9242806431138835,
            0.7315596892083502,
            -0.6591511114512727,
            -0.8359659416853096,
            -0.8313308456159587,
            0.26735930271077546,
            -0.835379257961558,
            -0.32153033157579003,
            -0.8051999286779561,
            0.35061342887048785,
            -0.4908226307580954,
            0.8690064932886088,
            0.28264410173616383,
            0.3849133047418316,
            -0.5476682232957653,
            0.8010213734772202,
            0.44011214018841227,
            -0.3477370289061352,
            -0.5711534048529483,
            -0.5838384580781477,
            0.5100697953591773,
            0.8822966131196235,
            0.5694444119985962,
            -0.3559846880087772,
            -0.6641587495169305,
            0.6942698997159629,
            -0.017141114808127078,
            -0.9277125512196005,
            0.21182495333744278,
            0.8635467523711655,
            -0.6820981028222293,
            0.972855431705391,
            0.5821736088798575,
            -0.3212444922453088,
            0.9600997444184485,
            -0.029856369621015455,
            -0.2506817607574332,
            -0.4672573850550159,
            -0.7024700594831508,
            -0.7577416564744688,
            -0.7845566055877258,
            -0.6700966116889011,
            -0.36693205813138996,
            -0.24061279432934524,
            -0.7961492560297572,
            0.2944245364976237,
            0.5253316224206168,
            -0.9287927205352415,
            0.8934740733816269,
            -0.6715751842259627,
            0.49505109054621627,
            0.6912153686421383,
            0.948639118002693,
            -0.8040666916036658,
            0.2687719539608131,
            0.33836870719483403,
            -0.9625128127204516,
            -0.5019004666071603,
            -0.043477416122029044,
            -0.042963801407996494,
            0.20631285957585432,
            0.656980285293302,
            0.3508638521962977,
            -0.080422211252555,
            0.2133907073189918,
            0.939703766071978,
            -0.8673183614425573,
            -0.8371735531734842,
            -0.7753028144815508,
            -0.06823790581811062,
            0.6848686819900407,
            -0.29277156406503724,
            -0.3647401089165787,
            0.8076390132269218,
            0.6897673489546636,
            0.8300650953234134,
            -0.7963049054497915,
            0.24893101500547687,
            -0.7035767600124401,
            0.5577116143237857,
            -0.8261765945594364,
            0.9245730680261246,
            0.2981402846916006,
            0.031826571262137504,
            0.606080094509877,
            -0.9252648796253422,
            -0.40909365462811853,
            0.02718018442907466,
            0.7527661164108364,
            0.9294063857246941,
            0.07583613622318475,
            0.3372273171718534,
            0.9850128009689105,
            0.44463916995757935,
            0.12385686835616894,
            0.5359641747499435,
            0.5156624277239092,
            -0.8461237542075339,
            0.7384393053315061,
            -0.9683431718797266,
            -0.038906212327666445,
            0.9550517512818293,
            0.6322562269186389,
            0.5162432186986156,
            -0.35364844614764834,
            0.9231110109781764,
            0.5762272099623851,
            -0.35516543994374583,
            -0.5182353703360392,
            0.33628685300183014,
            0.5844876148745886,
            -0.8467806130329256,
            0.22556796850589023,
            0.4754470323205786,
            -0.23360250428137608,
            0.03642884413958236,
            -0.004129452282424895,
            0.12462457719068776,
            -0.9932157681690681,
            -0.32969069258137385,
            -0.9933610044794821,
            -0.803179064618128,
            -0.9718091991903417,
            0.2982043477182921,
            -0.3238035391791845,
            0.2578627381618521,
            0.8439798062981885,
            0.9283247751811561,
            0.4930624702015942,
            -0.23962526990306598,
            0.12872157969630216,
            0.7930099697253383,
            0.32278924438575696,
            0.16059305596480344,
            -0.3876272562678307,
            0.20929755829719165,
            -0.7992232192181188,
            -0.4218060846929168,
            0.2473292895035928,
            -0.8490795335738199,
            0.07987840326429096,
            -0.8080387070637685,
            0.6025174739023675,
            0.8750547725031186,
            -0.5120645419055605,
            0.7101295298452173,
            0.7062626381555279,
            -0.4571564686236773,
            -0.400791670228686,
            -0.07459133749303803,
            -0.6102450298907729,
            0.9309262632073441,
            -0.16500019968693969,
            -0.8547884636054555,
            -0.9244904589685885,
            0.051905521212249006,
            1.4355301194259331,
            -0.9406053768125855,
            0.9102949268625298,
            0.7848865799817231,
            0.9579607322846788,
            0.588225389785821,
            0.15958478474301785,
            0.46292777465220114,
            -0.2634887011593392,
            -0.5955867471601404,
            0.8606622688976531,
            0.7724438969993628,
            -0.362496688199357,
            0.872999692756194,
            -0.12591167204564213,
            -0.7096936561987832,
            0.07154049468484258,
            1.0319450913628112,
            -0.32167971557315855,
            -0.48241137226731845,
            0.6469262297206901,
            0.007125159158180683,
            0.5198467295815772,
            -0.6353924827294444,
            -0.8205354891664163,
            -0.9516427329134547,
            -0.13871675078266166,
            0.700114042641353,
            -0.33837143109290224,
            -0.6642371181660176,
            0.4624498147309002,
            -0.2018083289161443,
            0.38288611493243824,
            -0.11403947966826866,
            -0.11546924011228277,
            0.29962144444891714,
            0.5329763029933099,
            0.7054935091608541,
            -0.27500446935184963,
            0.6501779609906084,
            0.2558875652634154,
            0.6450432034658109,
            0.47103603206664935,
            0.8865224630574302,
            0.8093616195083699,
            -0.7751947832043105,
            -0.4981445244332108,
            -0.8889375929395509,
            0.2513928080555612,
            1.4507171520879283,
            -0.5247786496190763,
            0.030350950193126724,
            -0.11273347979865833,
            -0.15056179333640407,
            0.10127293514091451,
            0.5273014520451822,
            -0.40336366317587347,
            0.5737809027596312,
            0.13665252358560598,
            0.3956967527104034,
            0.6751443642323323,
            -0.37394597209042346,
            0.3246069673326073,
            0.08617442355054616,
            0.2609589668965031,
            -0.5091533596548343,
            -0.03821478112123455,
            -0.4039256338122572,
            0.1529309113824313,
            0.7895429095740996,
            -0.20996582327503255,
            -0.5187638380592297,
            0.6258983264776237,
            0.4426557906420656,
            -0.008424539152669164,
            0.3760383752138543,
            0.7099979200015689,
            0.4092811101110232,
            0.20852110818262481
          ],
          "numRows": 16,
          "numCols": 16
        }
      },
      "ops": {
        "type": "org.ejml.simple.ops.SimpleOperations_DDRM",
        "data": {}
      }
    },
    {
      "mat": {
        "type": "org.ejml.data.DMatrixRMaj",
        "data": {
          "data": [
            -1.1787457712188405,
            0.3246685348198144,
            -0.8180450975340252,
            0.7127670349760551,
            0.19185869689881008,
            -0.525258003853565,
            0.7796510115726587,
            0.11987951177867018,
            -0.9951220745778984,
            -0.8781994477613291,
            0.10860922850343013,
            -0.6293320231419774,
            -0.2389324808927049,
            0.7059587505164939,
            -0.7498635446812398,
            0.09671736420631105,
            0.6755443059987689,
            0.9657564988378358,
            0.4864776636788042,
            -0.05877118746713195,
            0.6511914714893912,
            0.06680166728391201,
            0.6903056149405502,
            -0.07590226531857591,
            -0.41338603099750704,
            1.1308332323040013,
            0.08033182213593215,
            -0.479764657961246,
            0.4779800118351769,
            -0.3991728088502271,
            0.28499433539024177,
            -0.23728184296311094,
            -0.6223431916680532,
            0.5966450276556481,
            0.15813142559095428,
            -0.612572128354945,
            0.783444176776178,
            0.8562490934620401,
            0.8550019508851059,
            -0.19657706125841434,
            0.9559895284377944,
            0.2515664025927016,
            0.30396883891457693,
            -0.4966402386424018,
            -0.835983067320315,
            -0.39677143803285664,
            -0.6013877427431973,
            -0.5791387377399662,
            -0.10210107757907427,
            0.13033291845366923,
            -0.013005208410167723,
            -0.30319222569130155,
            -0.2808517822234671,
            -0.6603254156403664,
            0.04925235166960307,
            -0.6658969822527636,
            -0.41281307698975245,
            -0.7587721065149957,
            0.3316382848163122,
            -0.6994530394866145,
            0.39064696935080123,
            0.6379864963456015,
            -0.8553983273484898,
            0.7820251479889027,
            0.07144542171911161,
            0.1620970692778121,
            0.03443285701740817,
            -0.5066984367737397,
            0.2630830631192551,
            0.7155513987615771,
            0.6024635808328787,
            0.2212811747385086,
            0.4603169227094879,
            -0.9774712662772214,
            -0.12723840342607606,
            -0.8943139934162736,
            -0.11049274195142689,
            0.1118092153458603,
            0.2987122156678923,
            0.5546662254253738,
            0.5180711065005681,
            -0.2784933226082156,
            0.7508340133137466,
            -0.8520528005537082,
            0.2551774544875802,
            -0.1453026344528987,
            0.6426270132369831,
            0.3976897972515392,
            0.0805228702466867,
            0.12492876022270141,
            0.7282064572263676,
            -0.1826789034614027,
            0.32247844537486237,
            0.9992879282752061,
            -0.9550724839025757,
            -0.6088306325868347,
            -0.8833965880185854,
            -0.40525008972821275,
            0.9761593002400684,
            0.2428161972145051,
            -0.06077749709731983,
            0.9214297627177093,
            0.4738207857743688,
            0.06765668413288695,
            -0.24510290403416524,
            0.8257212773523679,
            -0.8927573261613113,
            -0.2747639264212882,
            -0.031231365490939078,
            -0.7507921190186007,
            0.7943740339584138,
            -0.7204899292437408,
            0.11359368398801989,
            -0.7827269060529043,
            0.8233042018732115,
            -0.26974598937642646,
            0.3393977000277857,
            0.815032702595115,
            0.08652497671705173,
            0.6964240262557666,
            0.12720999818119783,
            -0.6813814363518682,
            -1.0368136550896307,
            0.3923514179789356,
            -0.9591188177561538,
            -0.4888281120351534,
            -0.36295772553365135,
            0.38022994613385075
          ],
          "numRows": 8,
          "numCols": 16
        }
      },
      "ops": {
        "type": "org.ejml.simple.ops.SimpleOperations_DDRM",
        "data": {}
      }
    }
  ],
  "biases": [
    {
      "mat": {
        "type": "org.ejml.data.DMatrixRMaj",
        "data": {
          "data": [
            0.5712680163237418,
            0.13673237398303995,
            0.44427290127265073,
            -0.21256656133964302,
            -0.35539070685003415,
            -0.5684632301305454,
            0.8007488749345979,
            -0.05522044000718629,
            -0.029548583588082877,
            0.7210695864803878,
            -0.10340118929855913,
            0.7319336081286194,
            0.9175914398895506,
            0.18253642281484694,
            0.426320368544548,
            0.30872400079221696
          ],
          "numRows": 16,
          "numCols": 1
        }
      },
      "ops": {
        "type": "org.ejml.simple.ops.SimpleOperations_DDRM",
        "data": {}
      }
    },
    {
      "mat": {
        "type": "org.ejml.data.DMatrixRMaj",
        "data": {
          "data": [
            -0.15465638179145746,
            -0.953742165794776,
            -0.3208348124648235,
            0.3662202588890149,
            0.6006410685430517,
            -0.25418862556623556,
            0.7447823405021919,
            -0.45099928699075464,
            0.2371849084613573,
            -0.17442428615462635,
            0.9794431121602059,
            0.2801172839025201,
            -0.0789424329836026,
            0.7756600434524992,
            0.496340391404148,
            0.8628410104145274
          ],
          "numRows": 16,
          "numCols": 1
        }
      },
      "ops": {
        "type": "org.ejml.simple.ops.SimpleOperations_DDRM",
        "data": {}
      }
    },
    {
      "mat": {
        "type": "org.ejml.data.DMatrixRMaj",
        "data": {
          "data": [
            0.4579204831827224,
            -0.6119698523292108,
            -0.4120242082801897,
            -0.5616484780963231,
            -0.08988211406159374,
            0.7139696252896346,
            0.24989174620062404,
            -0.8538893454083498
          ],
          "numRows": 8,
          "numCols": 1
        }
      },
      "ops": {
        "type": "org.ejml.simple.ops.SimpleOperations_DDRM",
        "data": {}
      }
    }
  ],
  "learningRate": 0.1,
  "activationFunctionKey": "SIGMOID"
}