{
  "activationFunctionFactory": {
    "activationFunctionMap": {
      "TANH": {
        "type": "basicneuralnetwork.activationfunctions.TanhActivationFunction",
        "data": {}
      },
      "RELU": {
        "type": "basicneuralnetwork.activationfunctions.ReLuActivationFunction",
        "data": {}
      },
      "SIGMOID": {
        "type": "basicneuralnetwork.activationfunctions.SigmoidActivationFunction",
        "data": {}
      }
    }
  },
  "random": {
    "seed": 168009328772389,
    "nextNextGaussian": -1.5511173848587905,
    "haveNextNextGaussian": true
  },
  "inputNodes": 45,
  "hiddenLayers": 2,
  "hiddenNodes": 16,
  "outputNodes": 8,
  "weights": [
    {
      "mat": {
        "type": "org.ejml.data.DMatrixRMaj",
        "data": {
          "data": [
            1.4079311991694987,
            0.3097526653780557,
            -0.43702995508524145,
            0.9763395286250849,
            -0.5923779173692213,
            0.4323389834597035,
            0.5642392973600752,
            0.09722733717920673,
            0.8430283604198603,
            -0.37058088473821504,
            -0.5843657472518144,
            -0.3175315390222645,
            0.19434653943347135,
            -0.2238201152065754,
            -0.8421102768409536,
            0.8671415262215856,
            0.06232134499087194,
            -0.20042332966019805,
            -0.06930564538740236,
            -0.5496909016740774,
            0.277793143837475,
            -0.16703286403820305,
            0.48310565184663634,
            -0.2637675713402923,
            -0.16400933308978605,
            0.4271494780831816,
            0.6052672388946254,
            -0.8017860910099941,
            0.5823409474210675,
            -0.874249989642585,
            0.3529385206060874,
            -0.2997084955102798,
            0.5291010310101607,
            1.1934287911008918,
            -0.36582476633471983,
            0.6592632249583055,
            -0.27444049629289513,
            -0.12955331555741645,
            0.3254857811912959,
            0.31428900859285913,
            0.26060541345559873,
            0.164929797934543,
            1.703100940200756,
            0.19021670358308085,
            0.3994091122122094,
            0.15126049969896507,
            -0.7417753273949141,
            0.49774647368393055,
            -0.3046127893431978,
            -0.6993810440331276,
            -1.1579363110516563,
            -0.49559517118051066,
            0.20201483286126298,
            -0.9935102361416563,
            0.17410386586382054,
            0.4809467489105095,
            -0.1957222532873346,
            0.028427075724664297,
            -0.9393880111589503,
            0.8597346018522406,
            1.1184020182866714,
            -0.5840414587722276,
            0.005744339324557424,
            0.7525036041184764,
            -0.20293733467438896,
            0.17347420668058358,
            0.86566457455077,
            0.3919695915053792,
            0.9511660111728197,
            1.6473604290940296,
            0.8446912182440114,
            -0.6612601155008635,
            1.1842532737065596,
            0.5463048470260725,
            -1.3016438448820558,
            0.43743741405224235,
            0.4936653372058478,
            -0.4380386778891425,
            -0.025085820649543455,
            -0.18902595095587738,
            -0.9224630727288399,
            -1.1232278514967549,
            -0.3244633862189683,
            -0.5311551013383005,
            0.3296034355642789,
            -1.9421505117336588,
            -0.4847512894351502,
            0.5933998709015565,
            -0.33377150322757365,
            -0.7612679965489044,
            0.7045731216763504,
            -0.5888804200449682,
            0.4049414676262627,
            0.5508359557397249,
            0.7523416277056041,
            0.8538467075504832,
            0.6789788628946731,
            0.5861630622418937,
            -0.5588259073795947,
            -0.0055896779534190255,
            0.18613765819603884,
            -0.6925068520551774,
            0.11298751840392485,
            0.6198402756989858,
            0.7961261258921386,
            -0.4489393746128758,
            -0.7939661263882138,
            -0.8744144246999813,
            0.017237839940200866,
            -0.18011930574692525,
            -1.3398924677374502,
            -0.22684673141605316,
            -0.9379261590358903,
            1.0129088006865257,
            -0.01426633914580444,
            -0.19114024684808673,
            -0.2615367634086021,
            0.1215513188275068,
            0.31878122181019153,
            -0.7544194027380944,
            0.3453295478255202,
            0.9022273141089003,
            -1.7023037181573497,
            -0.03313579145026235,
            -0.17956736625483116,
            -0.7681663467662257,
            0.14190545938588228,
            -0.16536648141875698,
            0.9753795386282591,
            -0.3537278126370116,
            1.1048013273910033,
            -0.9455484437862665,
            -0.2019548865369677,
            -0.6310986064440594,
            -1.0905851811444418,
            -0.720242005592953,
            0.730732167940848,
            0.9591693333802402,
            0.3647799767852653,
            -0.3397990653986924,
            0.9040535938133738,
            -0.2842010511244148,
            -0.6484756017728611,
            0.43553409132801746,
            -0.8803198841852473,
            1.1821410170965856,
            -0.5972415507329307,
            -0.8636607968203187,
            -0.14641294134778465,
            -0.5158810764172059,
            -0.3930774573727267,
            0.09363910022697519,
            0.7212116664894476,
            0.4496553028797777,
            -0.9517513053483522,
            -0.0032395499324493204,
            -0.9072171194381502,
            0.03588119610597351,
            -0.24878477610931404,
            0.594653841734587,
            0.8079039220739996,
            -0.7702217244792617,
            0.07980939805823706,
            -0.12307968283761661,
            1.2954431446436634,
            0.8647170139796447,
            0.4181022468279122,
            -0.0068161080648194705,
            -0.9897940714681517,
            1.1791171537653657,
            0.2010552359294271,
            0.6368767765404403,
            -0.061614186352447975,
            0.6309008687175282,
            0.009990197431163472,
            0.7196241930371639,
            0.5796482135728485,
            -0.5055206450655547,
            -0.7743764338403673,
            0.5767146156165237,
            -0.47221673307311574,
            -0.20447976762221465,
            0.9193291001081282,
            0.6401150855779141,
            -0.03432627463151405,
            0.09486245172725266,
            0.5210980986778336,
            -0.5739137121875928,
            0.8808200736334322,
            0.30552777047627755,
            0.8059148729484622,
            0.5565020913863739,
            0.5668339707302694,
            0.825673136967819,
            1.4336285451429718,
            0.6458715004687892,
            0.4329967807771784,
            -0.927132902193514,
            -0.6939473979035208,
            -0.7364327711570944,
            0.7909882107257749,
            -0.2503723357223646,
            0.34744476312027717,
            -0.21537738904625164,
            0.06053258488039531,
            2.0765377129728413,
            -0.2663246788765028,
            -0.8845281510161789,
            0.057553012844510976,
            0.9490720964624821,
            0.052788709167836845,
            0.20247935445723456,
            -0.5123139584509069,
            1.7885860640917497,
            0.2027774739799859,
            0.30125629090123884,
            -0.35738297299789723,
            -0.16964622204266955,
            0.9011751581798169,
            1.1231633198490032,
            0.8544242740247292,
            1.3528078603491491,
            -0.27534948293808914,
            0.6549925566835285,
            -0.8559182961514222,
            -0.21954859162859736,
            0.9983022390771426,
            1.718713915374298,
            -0.8334120921230446,
            -1.0958057718635081,
            0.9660530966541342,
            -0.20740082200455467,
            0.7177989637970528,
            0.6229697812184367,
            0.48767551222005956,
            -0.028764201950156387,
            1.26995781424087,
            0.8529810926495446,
            0.9861191853903539,
            -0.16711793855082657,
            0.7923462619475359,
            -0.5843454196135094,
            -0.23607886603336103,
            -0.35818267559288114,
            0.7509568958812909,
            -0.20981045561565126,
            -0.8947869524211788,
            0.22589922779902738,
            0.011890517205980222,
            0.4335529364217358,
            -0.07641769379166785,
            0.9316148900108066,
            -0.45551954520466914,
            -0.3282176279228161,
            -0.386188093349042,
            0.9508422114011474,
            0.8150036409665955,
            1.233095222057955,
            0.7608501050257432,
            0.6953484589903345,
            -0.9567635371574478,
            -0.3563782007501165,
            0.04331100612762179,
            0.7416469378321449,
            0.41612200359020035,
            -0.8115403367185248,
            0.4667457540735548,
            0.12497841198449344,
            0.6418342854092116,
            -0.3289585018874306,
            -0.06557715095729452,
            -0.8172309689023698,
            -0.6574656112124546,
            -0.8063753491855102,
            0.37222389812820633,
            -0.7410625037879259,
            0.4073596021992482,
            0.8769636418445145,
            -0.9659441250350249,
            -0.4804809696887169,
            -0.3739604279298664,
            0.43041655066834056,
            -0.9509859164123053,
            0.4024319034403596,
            0.1508603275893857,
            0.9384128918495453,
            -0.005768961758224875,
            0.4533450998310016,
            -0.8799501180213395,
            0.6509739692575802,
            0.03109476090433636,
            -0.4955037660148761,
            0.17822452124744514,
            0.5021892689875398,
            -0.03698560523773797,
            -1.6928169140897522,
            -0.5176431504228347,
            0.24113323349905746,
            0.06692458508852805,
            -1.5112964885439413,
            -1.1965812020611328,
            0.4707157014948173,
            0.7238130944519189,
            -0.7523874666126804,
            -0.010269863739448104,
            0.26303926675822353,
            -0.3007575627815309,
            0.5394663928369691,
            0.32300811453413886,
            0.40538357207278275,
            0.862777426204242,
            -0.14667943150190524,
            -0.1943151045592253,
            0.19676202468597936,
            -0.5844666427679923,
            0.16425569829804476,
            1.2848788483881894,
            0.04265658452441201,
            1.4448917124025735,
            0.08903706412177867,
            -0.8171044925684705,
            -0.3772467201004284,
            -0.8606793939014888,
            -0.021038548505132315,
            0.7288808898193848,
            0.5939434589750762,
            -0.0065762843996144404,
            2.6061337464899768,
            -0.02297640683293589,
            0.2726615702725449,
            -1.3761619212757292,
            -0.31752822351857185,
            -0.5176164058032049,
            0.8150653795608722,
            -0.7908586895759863,
            -0.5417242918448788,
            0.9758703899912706,
            -0.13047637332295953,
            0.6939496467787702,
            -0.530511049442186,
            0.43750428122533225,
            0.08374792431797765,
            0.6979877377551691,
            0.26634945154498624,
            0.4124956602438039,
            1.2003417807651933,
            0.7486413740745854,
            0.17779819880484338,
            1.1607044842477023,
            0.24822407077808228,
            0.058803546557057884,
            -0.49302754447259484,
            0.853645628013084,
            -0.7726476387809205,
            -0.9004238625480978,
            -0.27500660363576723,
            1.3896461663525739,
            0.53531738429073,
            1.7691722400727554,
            1.069747438226877,
            0.19197042495617989,
            -0.7728791224939902,
            0.2659107608168221,
            -0.8091274338314597,
            0.8382752133400573,
            -0.4912854041494805,
            -0.8113899216849301,
            -0.09378485129032654,
            0.4330883390735061,
            -0.785110219433043,
            0.24136106026632942,
            -0.9601158096449708,
            0.007370633242145097,
            0.07980100662419648,
            -0.004372895694924717,
            0.8623214157922603,
            -2.1404752290074742,
            1.1782017603318626,
            -1.0885451620669744,
            -0.8120060263121012,
            0.40602386938663937,
            -0.5825080431292341,
            0.15316453369161692,
            -0.8753860012367802,
            -0.8423672056613178,
            -1.8946606062230582,
            1.4732357201294222,
            -0.30198703017687367,
            0.5304391334951615,
            -0.33366159774343385,
            -0.2282787432364517,
            -0.7628295779316276,
            0.721225967290841,
            -0.024706749496789138,
            -0.134708609049643,
            -0.013270407031262366,
            -0.3473960751135363,
            -0.7343264558648406,
            -0.6237848093957639,
            0.1292547932997503,
            -0.7195820006964708,
            0.26247349747076537,
            -0.595008802378781,
            0.4319787078667885,
            0.283709603615539,
            0.09673610386630471,
            0.29914305562733445,
            -0.653464099684371,
            -0.8481347740199398,
            -0.35920400228791904,
            0.21160354665347025,
            -0.4830788408611948,
            0.10593075034251609,
            0.4033630347781591,
            1.4298662763667558,
            -0.500895414691184,
            0.8710494062477949,
            -0.6926396617955253,
            1.5645309137461219,
            0.4192177400312411,
            0.3996360328048663,
            0.6042742971564772,
            2.489804102612257,
            -0.1939565362939505,
            0.7122185504975305,
            0.21531417846255785,
            0.9917648424731527,
            0.9581792015572013,
            1.053616436596208,
            -0.7654359715980396,
            0.7450923616710153,
            0.25316461125987544,
            -0.5736308214165604,
            -1.0299883560554381,
            -0.21980085369131108,
            -1.4207390083436424,
            0.29014372001744526,
            1.006806335437044,
            -0.46269586325567086,
            0.15189150630030607,
            -0.8595435059968461,
            0.8217425733940833,
            0.14105818093402256,
            -0.047284044285692106,
            0.432872794683552,
            0.012556423698137364,
            -0.8838531191173222,
            -0.1932354759028465,
            -0.4899534289936742,
            -0.9105172101223008,
            -0.5698313729819837,
            0.05194024547568099,
            1.308755375225636,
            -1.278098097374913,
            0.10921075793973983,
            0.5512293408940987,
            0.9995838648956639,
            0.27081226144449533,
            0.11061723947398644,
            -0.0621529196681182,
            0.9950048019353729,
            -0.027400716325150842,
            -1.2886359972655779,
            0.10343567680766674,
            1.3267603438593447,
            -0.4405869352850765,
            -0.09743993319740207,
            -0.18373692839191058,
            0.8368800455418439,
            0.42925965912955055,
            0.5633238844577281,
            0.7585537136838636,
            0.00521403901123807,
            -0.32495495795912754,
            0.24171223526691002,
            0.530117616795559,
            0.4084546999458556,
            -0.11458422147297465,
            -0.4951788805562052,
            -0.10981180934886492,
            0.2951376182848471,
            -1.8506450503674383,
            0.4920836101602142,
            -0.0405185800794165,
            0.6012604485632793,
            -0.6116397580154358,
            -1.067840610469034,
            0.38143392443255025,
            -0.8696791927074383,
            0.8597956397772306,
            0.5091356092150434,
            -0.48526661065841814,
            0.17121511062779593,
            -0.01643808652034373,
            0.5183369776296803,
            0.413034039822492,
            0.7576357832478448,
            0.5177259784237036,
            1.4002970664630527,
            0.19190757760842506,
            -0.5778977167721473,
            1.1064222961448542,
            -0.6968226814053298,
            0.3711653391606231,
            -0.7032704914037577,
            -0.040230795023983745,
            -0.042808577032230816,
            -0.5514970719797845,
            -0.9170433466814303,
            1.0563912617002937,
            0.6040428528026947,
            -0.47770884782388334,
            -0.35877711958773206,
            0.35769559890403685,
            0.3892015363905694,
            -0.3846716988745551,
            -0.7484259059393308,
            -0.3024477712167388,
            -0.7929037098472764,
            -0.023204737982950918,
            0.41285005116291085,
            0.5285634345482753,
            -0.580653988479789,
            -0.4005953247480079,
            0.7131850379517666,
            -0.3385157234902023,
            1.0601095286220166,
            -1.8326056685621968,
            0.8522698157692754,
            -0.43236106465367163,
            0.6602280019425969,
            -0.36999870343251295,
            0.036617422262817945,
            -0.955626756631353,
            0.9733764119506012,
            -0.856869495077488,
            -0.1526906883818644,
            0.9160315489600845,
            -0.7558413313872994,
            0.7617279104155472,
            0.47970782331265793,
            -0.9466021592712612,
            -0.03393145529576724,
            -0.9029781790651922,
            -0.9402659269739093,
            -0.6987086233345907,
            -0.9180252335372132,
            -0.6142406119557491,
            0.09450242971405753,
            -0.1572351337154746,
            0.2505509921016482,
            -0.9642839209069876,
            -0.022312837736127616,
            0.49264873350505656,
            -0.40328415981485305,
            0.7894764177853163,
            -0.514382972642328,
            0.26423220388561197,
            0.2229383615999196,
            0.9807934815785365,
            1.5651246689917526,
            0.22110126272742253,
            -0.9153016531598761,
            -0.31230871425558526,
            0.3397863744291185,
            -0.2961150841924658,
            0.19294787415125492,
            -1.4548378717201267,
            0.9895483159571874,
            -1.4420900464913675,
            -0.45313940980966805,
            -1.0479724243015713,
            -0.9107179079759367,
            -1.0500143385263438,
            0.7606053512261978,
            0.5389319123627203,
            -0.7999448275115681,
            -1.4175409801990864,
            -0.91300394800272,
            0.7563357539500395,
            0.22850118358621097,
            1.1324951400551042,
            0.08540661496128046,
            0.3231061766884159,
            0.693768082401516,
            -1.0818840772291551,
            -0.7874086134183551,
            -0.7641675813638471,
            0.642465418180564,
            0.3353236056044862,
            -0.9995544232940505,
            -0.3731844167304924,
            0.20228824150132185,
            0.35666219438828367,
            0.41293051295205124,
            0.3848873631945007,
            1.7710820246352685,
            -0.3710064160001738,
            0.2414347990103698,
            -1.1858105234831615,
            1.0356668450725666,
            -0.5029543128417203,
            -0.4131462294682283,
            1.5471757245995381,
            -1.184855274380949,
            1.0835672229820552,
            -0.14944331743928774,
            0.590931538105429,
            0.5913532050888102,
            -0.4715801008194388,
            -0.13114075778687773,
            0.2142243650020949,
            -0.8634147422416486,
            0.40035245461508545,
            -0.26133446176006625,
            -0.022380810744879076,
            -0.001872680725528597,
            0.34139261448406555,
            0.46685752041607165,
            -0.6456347412219281,
            -0.766070730803661,
            -0.5654700589462858,
            1.5783114508924936,
            -0.11121719024113233,
            -0.6588446794318259,
            1.1258986375450362,
            0.5363743639779632,
            0.19670308615054444,
            -0.6569631020296933,
            0.7870155437040105,
            0.14903965322969048,
            -0.8441218754035678,
            0.638743775629748,
            -0.5592837516111024,
            0.5780380105695657,
            0.05594855190388559,
            -0.16458007158652266,
            -0.2056146317414167,
            0.1448376077807193,
            0.3484344457341261,
            -0.5072290354613023,
            -0.09102895846836012,
            -0.8851438141677677,
            -0.24672520174311696,
            -0.6642991249009544,
            -0.08538638880280613,
            -0.47584672758263885,
            0.3485057760703938,
            1.536363632528897,
            0.09144075379500938,
            0.12412133944054154,
            -1.511903541277382,
            1.8531064148902499,
            -0.2718992295942717,
            -0.9482157105993148,
            -0.11348776862629784,
            0.5573079966445835,
            0.023273787004387536,
            1.2422215228805464,
            -0.6469608231114584,
            0.31909635010336523,
            -1.2691614958759634,
            -0.5659333975524732,
            0.1683720097597987,
            -0.03001613801393721,
            0.03675181258750049,
            -0.27391320308031,
            0.9902598395412348,
            0.05871210597130072,
            -0.7105008358428311,
            1.7989377644928721,
            0.9722412821673383,
            -0.5627876065307438,
            -0.6839125084525426,
            0.3353110706053266,
            1.0837887193405606,
            -0.7244859725539436,
            0.6500060404839623,
            0.5150255957131887,
            0.5601678229632253,
            0.5257538637132194,
            0.3766663547307454,
            0.028723873806450806,
            -0.1480484173063294,
            0.9048918461849595,
            0.9273671743611824,
            -0.9667862803143138,
            0.21275730504992563,
            -0.40446113623737,
            -0.7479211367318699,
            0.39863501868333606,
            -0.8165490773564468,
            0.26668674561320294,
            0.8019637451607652,
            0.502706388539411,
            -0.052153742184122054,
            -0.5979435784612116,
            -0.9037979525567192,
            0.5062416986086836,
            -0.5213981659541589,
            -0.41544700195902506,
            1.2901770301407938,
            0.361928602072909,
            0.8448757695815953,
            -0.037168555782112644,
            0.4574616181913169,
            -0.3662044040533694,
            -0.07475042344711769,
            -0.6291940355006505,
            -0.24292474694190802,
            -0.12005454443047503,
            0.36792566893155937,
            -0.8304848930754525,
            0.2041345432397108,
            -1.5830467839532911,
            0.43605875011263695,
            -1.0185803627239272,
            0.1553526978724229,
            -0.5784240362881501,
            -0.3508250396170558
          ],
          "numRows": 16,
          "numCols": 45
        }
      },
      "ops": {
        "type": "org.ejml.simple.ops.SimpleOperations_DDRM",
        "data": {}
      }
    },
    {
      "mat": {
        "type": "org.ejml.data.DMatrixRMaj",
        "data": {
          "data": [
            -0.13606092261085329,
            -0.08629784351398051,
            0.8336696796230969,
            -0.588306827108009,
            0.8535694376889078,
            -0.43429705387855116,
            0.052191544366028575,
            -1.0105256572408805,
            0.376727610813844,
            0.26169327455691116,
            0.1887966979936977,
            0.2767613747191655,
            -0.804876032806132,
            -0.5677006621514693,
            0.433969446668995,
            -0.44444969398678547,
            1.1668511277140234,
            0.43369646889944047,
            0.5463308036256042,
            0.12298235032738236,
            0.5885260631201201,
            0.7408501374313736,
            -0.7541688945853918,
            0.9315648472268769,
            0.7235189498682184,
            0.017215728462594004,
            -0.2307393862040661,
            0.49992326698356515,
            -1.350885032357605,
            -0.951121134540291,
            0.8893493613280472,
            0.6349085514341206,
            1.4731275708001403,
            0.7215164284694946,
            0.06885955722845227,
            -0.046248679268890314,
            -0.34273977013315315,
            -1.357159093568048,
            -0.7807761051975564,
            0.9276099437560299,
            -0.5441524981562924,
            0.08469386020760883,
            1.0949160149004524,
            0.19747885248588584,
            -0.6080973451689169,
            -1.925796468368199,
            -0.19098236093139065,
            1.0747573209469048,
            1.1844795511789747,
            0.8731765434881735,
            -0.1510620885936893,
            0.813300544050009,
            -0.380847644470629,
            0.5123294395544769,
            -0.3372097318138667,
            -0.7391707851812608,
            -0.8798152887174844,
            -0.5691475823740215,
            -0.06592060571326537,
            -0.42393841845885927,
            -0.6382507443908254,
            -1.298785556498472,
            0.5435935673998662,
            -0.24107223370070385,
            0.6283052958678343,
            0.41479070694604814,
            -0.7651913822511762,
            -1.1536941983745024,
            0.7695560112086943,
            -0.32815949319923243,
            0.7892292722936851,
            0.7094757692477152,
            0.7869900070388909,
            -0.11088807438455073,
            0.05093420559474471,
            -0.5890088015162729,
            -0.9581029425668512,
            -0.3814972500742666,
            -0.42874508729756955,
            0.27273216631879027,
            0.6857426657991894,
            0.5713183816270249,
            0.7810225683261971,
            0.8775866201626816,
            -0.32016618152368936,
            0.4915121911678706,
            -0.041041547423881775,
            -2.111811304888196,
            -0.40917141385803135,
            -0.13369956751422146,
            -0.965766005418266,
            0.5385169723850647,
            0.16669682991803536,
            -0.8510757196136107,
            0.528333946564838,
            0.1299827366942423,
            1.0835815553033898,
            -0.4367856935069469,
            -1.2287107511362767,
            2.119379501018884,
            0.9557836254940064,
            -0.18664338582696405,
            -0.29781789609393794,
            -0.297230358935306,
            -0.6425993762138973,
            -0.8833815744232383,
            -0.18494345295320702,
            0.22091707574063352,
            -0.08289226965851565,
            0.5115021476225479,
            1.437041813909106,
            0.24604629208028417,
            0.45892518930960713,
            1.7993747931897919,
            0.42924745001996684,
            0.36680550080030294,
            0.9632212792795114,
            -1.141034230741801,
            0.294662891827824,
            -0.9394265384432934,
            0.7619859092450463,
            0.40674702959619646,
            -0.7097320917344356,
            2.351093859590229,
            -0.45061052594535494,
            -0.3901774491724139,
            0.9596533276245125,
            -0.2192126925134843,
            0.9924713891261403,
            -0.8672378620210854,
            0.44583660974044903,
            -0.3127951334406307,
            -1.0295547841847896,
            -1.1307290967582981,
            1.6565447982693375,
            -1.4706742403741813,
            0.9691057310349287,
            -1.3858273863836528,
            0.28265844711461074,
            -0.8072129076394684,
            1.4214956276856745,
            0.21355584838166528,
            0.6701033085538988,
            -0.8081040961873226,
            0.057217236373145824,
            0.6357306911191449,
            0.13966354737079373,
            0.12883244013765482,
            0.8420447556808514,
            1.1436826995570246,
            0.7835074081212561,
            -0.3142640287774232,
            1.0296683275713603,
            -0.5037872998755022,
            -0.08981876846657348,
            -0.9557558689989327,
            0.0596318234907951,
            -0.8664884215847122,
            1.1419851649386172,
            -1.4174776260899327,
            -0.7204750434041569,
            -0.6253194016688914,
            0.4160531287853893,
            0.11974124105624873,
            0.529524956041231,
            -0.4092445022613884,
            -0.38222289483803673,
            -0.7733135299636134,
            -0.41020573790933623,
            0.18497082497005368,
            -0.01897035537152103,
            0.34523221558440276,
            -0.07390599034289635,
            -1.039061082433894,
            1.1448573597472582,
            0.5310155846219751,
            0.24069727501485416,
            0.5111753008840138,
            -0.9430820496055656,
            1.2443631467817013,
            0.6424084553581155,
            0.8804350667922797,
            0.15127644518702715,
            -0.8432323206851945,
            0.4986585585439982,
            -0.04497212706503363,
            0.19865819396036155,
            0.9527749773871205,
            0.326796449730149,
            0.34889640081063195,
            0.9964492011586232,
            -1.771354558860249,
            0.8973964370612719,
            -0.5967014735448115,
            0.07556878365262376,
            0.741699981589617,
            -0.29605522544546253,
            0.5514293771458809,
            0.6778634659676473,
            -0.7068481491943022,
            0.02960198256686697,
            -0.9110197196929202,
            0.3088619747799353,
            1.0325387310334984,
            0.37257465603007367,
            -0.9975773616118759,
            0.8518245702240701,
            -1.4180291257223945,
            0.5445420271784174,
            -0.5340642877999403,
            -1.4698538687809193,
            0.7286620542638396,
            0.8637909184346001,
            0.6390345209890038,
            -0.6934733792968413,
            -0.15533005702687885,
            -0.8599846411310916,
            -1.6192185292683705,
            -0.5055006241684449,
            0.36100744288929776,
            0.2916552367962128,
            0.5006583568449059,
            -0.13579515403825276,
            -0.04248694673755171,
            -0.30446971270701684,
            -0.15535654156405376,
            -0.054666738564029815,
            0.45106574376148334,
            -0.04675117084371094,
            -1.0019843436446596,
            -0.21583926286316946,
            -0.658581710300333,
            0.188305614613955,
            -0.9397260784541962,
            0.4781168923065005,
            1.0886226875055969,
            0.507455098009941,
            0.6023026676868566,
            -0.05038897516011692,
            -0.7446591462242007,
            0.4525979384341663,
            1.3840945630814556,
            -0.1539567583944598,
            0.6607360740740844,
            -0.21732585477669902,
            -1.1094475368094177,
            -0.2036462553228937,
            -0.5267667200391498,
            0.6381099249926383,
            -0.9712615701262792,
            0.5715143803193239,
            0.42291210905499943,
            -0.2292087576316839,
            0.023152390475456697,
            -0.26183533835380746,
            -0.8048865216793233
          ],
          "numRows": 16,
          "numCols": 16
        }
      },
      "ops": {
        "type": "org.ejml.simple.ops.SimpleOperations_DDRM",
        "data": {}
      }
    },
    {
      "mat": {
        "type": "org.ejml.data.DMatrixRMaj",
        "data": {
          "data": [
            -0.3662097734669121,
            -0.056502889765889325,
            0.5856080070605179,
            -0.7678723455069902,
            0.9983585178574974,
            -0.8530947099337173,
            1.4385619505800962,
            -0.005628341750236715,
            0.3574836528597538,
            0.7964209310235533,
            0.819661839913628,
            -1.0791932270157047,
            -0.3905707235594302,
            0.7395928097066813,
            -0.004805590426588124,
            0.7647135326254748,
            0.7521481704710604,
            -0.3960135554426836,
            -1.7822185878403611,
            -0.515230630609984,
            -0.6251370469720717,
            -0.18994709048903924,
            0.5492836828803889,
            0.7348484731842726,
            0.43787930035126077,
            -1.1395455690317804,
            -0.33048388607845913,
            -0.8779614754362977,
            0.14356965037956004,
            -0.34715865337924234,
            0.053251103515249205,
            -1.0801790544827077,
            0.10422007626639712,
            6.759071294837882E-4,
            -0.5808280160871314,
            0.02887605808569449,
            1.0899740231965778,
            -0.5168534528443418,
            0.7923663227435508,
            0.5091917773579842,
            -0.08244171861775673,
            0.9133867856387341,
            2.8335071422912996,
            -0.9917284131250652,
            -0.419554789453221,
            0.20115492023123205,
            0.9035575868091799,
            0.6038911448565738,
            0.5596957967631935,
            -0.31358224423817616,
            0.5998232005057957,
            0.5472147644042569,
            -0.5852423464476293,
            0.09495706841907348,
            -0.011045856340734572,
            1.3040121916460126,
            0.4102246688318745,
            -1.0024336686332964,
            -0.19853757124008306,
            0.4731854525083626,
            -0.04292878876406425,
            -0.09848904110346024,
            1.0815337936457645,
            -0.7917056256631281,
            0.9624100170230157,
            -0.8133355113359411,
            -0.9189464949238817,
            -1.260134861742664,
            0.636749428878897,
            -0.13578721373890246,
            -0.5121969286858332,
            -0.17804959574718296,
            0.12170417228317798,
            -0.8089684681142755,
            0.5804423066148414,
            -0.5183145086888927,
            -0.978128971669098,
            -0.053217299716984745,
            -0.9038594674789084,
            -0.5732620006096509,
            0.9894614722568527,
            0.4556356942702212,
            0.16140489020105686,
            0.47886005513223096,
            1.4543308956509886,
            0.324522600047656,
            0.5064817683648868,
            0.7486345383209823,
            1.6144053169135506,
            -0.8804505468918362,
            -0.32238469980055645,
            0.8553016102953981,
            -0.15611957596982146,
            0.2777408894014177,
            0.48672074833948864,
            -0.1482366785983369,
            0.911577769061467,
            1.2031793536779771,
            0.639521179610048,
            -0.16728557909609193,
            0.5523735298085257,
            0.03315875609720198,
            -0.16812233654973113,
            -1.1218280381756718,
            0.29831812307204536,
            -1.0699571143608733,
            -0.8933228197757009,
            -0.07445462575519346,
            0.37189250566777315,
            0.9974377066227724,
            1.3691003998526967,
            0.1430464209553255,
            -0.29376093584480373,
            0.47906452538183353,
            -0.6442043262140498,
            0.3452674998868106,
            0.015494369490942322,
            -0.28548928777820953,
            -0.9422944611970121,
            -0.9178767416810141,
            0.2106996128630394,
            -0.3758320412728835,
            -0.7095504580209963,
            0.9174939011028291,
            -0.442584364999969,
            0.687192585234515,
            -0.2138063139007372,
            0.41915530111452115
          ],
          "numRows": 8,
          "numCols": 16
        }
      },
      "ops": {
        "type": "org.ejml.simple.ops.SimpleOperations_DDRM",
        "data": {}
      }
    }
  ],
  "biases": [
    {
      "mat": {
        "type": "org.ejml.data.DMatrixRMaj",
        "data": {
          "data": [
            -1.4101770280303274,
            -0.8438670026225732,
            1.1444890340717735,
            0.5380928491876591,
            -0.7061720732585219,
            -0.24388492435701825,
            -0.6393227214625548,
            0.09778451683991163,
            -0.9472311109358382,
            -0.26765893914891437,
            0.30562990143820334,
            -1.5445779474173098,
            2.111396408409024,
            0.7305254974806552,
            -0.24543343584921573,
            0.4946283475055968
          ],
          "numRows": 16,
          "numCols": 1
        }
      },
      "ops": {
        "type": "org.ejml.simple.ops.SimpleOperations_DDRM",
        "data": {}
      }
    },
    {
      "mat": {
        "type": "org.ejml.data.DMatrixRMaj",
        "data": {
          "data": [
            -0.21334561878084723,
            1.6982222271383876,
            -0.339973920102002,
            -0.6832585444480972,
            -0.022526149965931497,
            -0.1740593576307249,
            0.34647951331685545,
            0.06055135305509207,
            -0.17248039001743004,
            0.6664656181237043,
            0.8340282829844587,
            -0.6648596260357356,
            1.0257136497339086,
            -0.08452471738227266,
            -0.3232608952071081,
            0.495084994809327
          ],
          "numRows": 16,
          "numCols": 1
        }
      },
      "ops": {
        "type": "org.ejml.simple.ops.SimpleOperations_DDRM",
        "data": {}
      }
    },
    {
      "mat": {
        "type": "org.ejml.data.DMatrixRMaj",
        "data": {
          "data": [
            1.520077288989053,
            -0.1316828815035496,
            2.138887082189237,
            0.2996187577228129,
            0.9303756457721726,
            0.14949964281480077,
            -0.024384769952038532,
            0.359969700751149
          ],
          "numRows": 8,
          "numCols": 1
        }
      },
      "ops": {
        "type": "org.ejml.simple.ops.SimpleOperations_DDRM",
        "data": {}
      }
    }
  ],
  "learningRate": 0.1,
  "activationFunctionKey": "SIGMOID"
}