{
  "activationFunctionFactory": {
    "activationFunctionMap": {
      "TANH": {
        "type": "basicneuralnetwork.activationfunctions.TanhActivationFunction",
        "data": {}
      },
      "RELU": {
        "type": "basicneuralnetwork.activationfunctions.ReLuActivationFunction",
        "data": {}
      },
      "SIGMOID": {
        "type": "basicneuralnetwork.activationfunctions.SigmoidActivationFunction",
        "data": {}
      }
    }
  },
  "random": {
    "seed": 188917140917181,
    "nextNextGaussian": 0.1476163605473689,
    "haveNextNextGaussian": false
  },
  "inputNodes": 45,
  "hiddenLayers": 2,
  "hiddenNodes": 16,
  "outputNodes": 8,
  "weights": [
    {
      "mat": {
        "type": "org.ejml.data.DMatrixRMaj",
        "data": {
          "data": [
            -1.5965553525979348,
            1.5473870207747644,
            -1.1050060340273415,
            1.9582084476837394,
            1.3956757763398289,
            1.1812111507678846,
            2.595986520647141,
            0.2713996279466474,
            -1.474345845839744,
            -0.2617395945422647,
            2.030432297475291,
            -0.4786278661904101,
            0.15599937721246182,
            0.19685906270312964,
            0.37332277168672423,
            0.6176282311885681,
            -0.27866861711428204,
            1.3088226517871449,
            -0.23335752912487115,
            1.6005684766138752,
            0.7804041530550294,
            -0.31755224771193136,
            2.132083379130582,
            -0.25480453689936733,
            -0.6015858156002517,
            -0.2978780232184043,
            -1.877930264931481,
            0.7309426393159215,
            -0.256603749711044,
            0.03490358456502052,
            0.43049505660062704,
            2.201133299759795,
            -1.2581808998152413,
            1.5940282706526536,
            0.6479642432459105,
            -0.40533567726252784,
            1.336045401684661,
            0.689996749792462,
            -1.1295259944776188,
            0.37435091131590276,
            -0.5958088879765975,
            0.18784987474738965,
            2.690473555680735,
            0.9850749048903232,
            1.734539535188711,
            0.8419534938710638,
            2.5637780094471023,
            0.6706602118597748,
            -1.6645214785877775,
            -0.8642226293960741,
            -0.6978324486778456,
            -0.8575114868710809,
            -0.6944956327150762,
            0.39253086063261605,
            -1.0485475870609018,
            -0.3970391493673502,
            1.7283608562237094,
            -0.20187140872255627,
            0.7769346897832028,
            -0.5324040395532452,
            0.8130129297541633,
            -0.38369917166400236,
            0.16057008759839891,
            0.7867495654427354,
            0.7863690413143734,
            -1.2004100929861123,
            1.03920516171561,
            -1.1341114031913146,
            -0.4742629695581139,
            0.36325247341599975,
            0.364692256862424,
            0.4954695559664222,
            1.860171028010883,
            -0.21567606092835523,
            -1.4115551343161108,
            -0.09278677285332687,
            1.1430800026411816,
            -1.4770099132597851,
            0.848846088293177,
            0.17711023987105945,
            -0.5964281432266291,
            0.7486897115372633,
            -0.03398137191009766,
            -0.5311551013383005,
            0.4414801660363853,
            -3.1467229132330057,
            -0.8106739109422696,
            2.223219065463134,
            1.396478139381721,
            0.038811810585306195,
            -1.428640802412117,
            -0.7980508262553512,
            0.24822189987489646,
            0.5508359557397249,
            0.08747987247954042,
            -1.2288316718679426,
            0.8236033652908625,
            -1.244848433787202,
            0.5722033348875316,
            2.837350063813467,
            -0.6412947971963063,
            -1.5771301552542747,
            1.994634752683304,
            0.6267452705738457,
            -0.1389182395608067,
            0.4660261246216938,
            2.3227252817528217,
            2.1400433813176893,
            -0.18878087292212395,
            -1.2602767954179481,
            -2.097474617011409,
            -0.22684673141605316,
            0.6409076766475577,
            0.2803842977855228,
            0.5093553752459333,
            -0.06916453908173217,
            0.7970541231170568,
            1.4770796857469675,
            -0.12325589675383458,
            -1.7298309843809354,
            -0.3746098781297169,
            0.5977356966845238,
            0.06621270641892263,
            -0.4464379574331228,
            -0.7348744241756735,
            -1.4215325919023505,
            -1.068301072972832,
            0.5334348512156518,
            0.24895216863197842,
            -0.1557843976533167,
            1.2990366542698477,
            1.5393678496055052,
            0.04849696860868724,
            -0.5859736379512144,
            -2.016909372252391,
            -1.3743109049232034,
            -0.010632888835966137,
            -0.020237639047614553,
            -0.7847030283959933,
            0.22981889898328628,
            0.3938273025890602,
            -0.22643374163912214,
            -0.037948242872406085,
            -0.0659074147380061,
            0.6961390957798624,
            0.18031614198520962,
            0.9502490591416826,
            -0.8113483037390837,
            -0.04420512040022262,
            -0.3200115429638098,
            0.2084929525608613,
            -1.2398137547637271,
            -2.4658581540285485,
            0.3345605320016199,
            0.2346022847155266,
            0.053335028203092216,
            -1.144634766225133,
            -0.2917632073943205,
            -0.8387747865360289,
            0.9141205542017048,
            0.4068957138342648,
            -1.0793045570820907,
            1.364379469773256,
            0.20331260976210785,
            -0.5692603228166319,
            -0.1898220964662605,
            -0.906566947101482,
            -1.294948454483483,
            -1.3765385631658693,
            -0.738035254419977,
            -0.2788901391390115,
            1.0789641773453074,
            -0.030930364118814724,
            1.7712069921895093,
            -0.45830562463590885,
            0.2569326834703833,
            -1.022483017060163,
            -0.7556696292723872,
            -0.12463445399457218,
            1.1933207425146621,
            -2.1605569494798544,
            1.6445826850002336,
            0.87991725871352,
            1.2559046595548347,
            -0.3129616395136013,
            1.1144825652582289,
            -0.9400737786435935,
            0.3382963336877223,
            2.559881922873546,
            -0.9143198859015248,
            1.215206954911274,
            -0.6796507899974158,
            -1.1700565431707997,
            -0.42433889178189804,
            0.11159405721421803,
            0.4578164923391038,
            0.7719444553044204,
            -0.8079700537658814,
            -2.8565693496711386,
            -1.1535296024290038,
            0.49130323167949125,
            1.393041442152667,
            0.021903388493502374,
            -1.3590109856344652,
            1.7063767847792615,
            -1.440380538615856,
            0.08303202938135312,
            0.2525618448972502,
            0.20296608835664176,
            1.564194635139216,
            0.9025158528698028,
            0.3903025039909569,
            0.5626161630521576,
            -0.3606572232282621,
            0.3968191936726104,
            -0.2586881596421011,
            -1.3124957621298932,
            0.41846538224696195,
            1.4378785043905813,
            -0.754523879207097,
            -0.9150237822184453,
            -0.15581997103519757,
            -0.2104140862974769,
            0.6022087598980392,
            -0.7870491964858936,
            0.06500361160642411,
            1.6823676657079683,
            -1.0008661282827955,
            -0.06543535854121646,
            -0.8470762248538771,
            1.023538627628013,
            -1.4878754088750359,
            -0.4347585706306235,
            0.38295654210102426,
            -1.6466400810480228,
            -2.6542405849223787,
            -0.10365462155311522,
            -1.8579915739806063,
            -0.04764034812433238,
            -0.500884748700801,
            1.517337220848328,
            -0.03353245200215216,
            -0.5951195487244588,
            0.3950047078110274,
            0.5615602923297522,
            -0.4681990405592736,
            -0.815714632125049,
            -1.392744812899143,
            0.09189131205384754,
            0.12362508773223303,
            1.205526149477357,
            -0.4515099944657044,
            -0.7976649463041723,
            -0.22938218837899754,
            -0.26078605632229246,
            0.9958622493330904,
            -0.14662380717792228,
            1.7752074174627779,
            1.4221012388895202,
            -0.061867980745688,
            0.38895026966997376,
            -1.9100421412552997,
            0.42112970751940715,
            1.7562526163902001,
            0.12322637237499989,
            -1.3083863292155948,
            0.11692297908959046,
            1.6662233685804178,
            0.7663830083813508,
            0.19728404056315735,
            -1.05191528609573,
            0.5173664252379453,
            -0.2991545438991025,
            0.8413057344092277,
            -1.5392884827822997,
            1.9544128852832416,
            0.4107504285205418,
            0.12188324269476103,
            -0.843227500091552,
            1.1073099188235376,
            -0.40114051727841676,
            -1.0107173652092631,
            -0.056884753287260725,
            -1.6387785573744615,
            1.32429678689558,
            1.7387660287057443,
            -2.423185030472057,
            0.06573852430278504,
            1.930500548714651,
            1.653577165296765,
            -0.9318984437882418,
            2.431438720546985,
            -1.4238689033802148,
            0.8831637344039196,
            -1.734137817356764,
            -1.6276714115525992,
            -0.5104999899676768,
            1.9048314297227091,
            -0.45715808800380264,
            -0.7692686858181614,
            -0.10658055352783974,
            0.8463928301546456,
            -1.1025050728758639,
            -0.7570405830010792,
            0.2589611801862304,
            1.5779108782389835,
            1.141413434715668,
            -0.02247558846861422,
            0.4010419170402193,
            -0.0717164554781764,
            0.27183487149260394,
            -1.3898953038166482,
            -1.0240817597797487,
            -0.6174198218574367,
            0.024270544655451143,
            -2.6090727053892966,
            1.6008586240302463,
            2.194902956570935,
            -0.7006297578828944,
            -0.11240119459446168,
            -0.7626175128215704,
            0.5190495256205938,
            -0.3180866190713157,
            0.128207332959958,
            -2.088951702643813,
            0.6730254432878195,
            1.192737413368909,
            0.3914090646172638,
            -1.2647891315236564,
            -0.12915247485902911,
            -0.3472385273981653,
            0.03562337461215645,
            -1.161397428986895,
            0.28264555840419975,
            -0.19067658828012213,
            0.9753929708693966,
            0.9072507692328563,
            -1.06105718650517,
            -0.9985426308508825,
            0.8485179539852914,
            1.9990627551220412,
            1.5617635981553932,
            0.526747554199953,
            0.16875160850423526,
            0.006750210155450659,
            1.1733146621667883,
            -1.2068871381796895,
            -0.7357710378383037,
            -1.4404647984974503,
            -1.2247246595649364,
            -0.2441934333050657,
            -0.4679674174764472,
            -0.5678333810907709,
            0.26456393247886073,
            -0.5181333632467857,
            -1.537624674763486,
            -0.029565541028432063,
            0.8452706016182625,
            0.8660232341782321,
            -1.6764428781696292,
            -0.4245637686193601,
            -1.0210020022297246,
            1.3689285765518173,
            0.7050859151501703,
            0.3199262170024707,
            0.5458758664082215,
            0.5739390854500981,
            -0.33455047562642076,
            1.467558464396575,
            -0.27522323932558096,
            -0.22111754506815573,
            -0.29072450916117054,
            -0.6667337191704898,
            0.415451143022859,
            0.840641975374552,
            1.217283313057791,
            -0.2530468068467968,
            0.6506682125007365,
            -0.08864352615619767,
            0.044748393571137135,
            0.5278958467479361,
            -0.6880147690457683,
            1.6454146535341883,
            -2.3939118658319165,
            1.1182041107240717,
            0.020112507525299805,
            0.28667310031176463,
            1.0975678841881575,
            -0.2670275048210032,
            -2.6002288902610364,
            0.9436677254866657,
            2.2424312209762034,
            1.3144361771530764,
            -0.042651373320221175,
            0.5202233935028912,
            -0.7607805134470951,
            0.10567837334775587,
            -0.2042589923816545,
            0.6676434898533803,
            1.5096778677242582,
            2.7091212271903546,
            -0.0020362975352388735,
            -0.5367776328022809,
            0.17635856859744764,
            -1.8062156000536354,
            1.507257704322633,
            0.07112230283296839,
            0.17989572722011804,
            1.2913852908027446,
            0.4797638101299131,
            0.14579786789700583,
            -1.5963801155907946,
            -1.18786152046968,
            -1.7358823493836955,
            0.3227593488866941,
            -0.9177762210945328,
            0.7539483518764076,
            -2.435270519726611,
            -1.2157792025583067,
            0.08856191423888926,
            -0.6128584941934659,
            1.0189697439648566,
            -0.34318766987899973,
            -0.17491737231199633,
            -0.3172128406233054,
            -0.5386356549798398,
            1.9255066366404963,
            -0.6669897313807398,
            0.5181910328257813,
            -1.5525564696728014,
            0.18099190146235816,
            0.4105457370782556,
            -0.2074975253019024,
            -1.1515862870115305,
            0.2885172667318908,
            -0.759415535099133,
            -1.3572080874438506,
            0.49570817434756304,
            0.08213378037242391,
            -0.4555360947118473,
            1.9047218027148065,
            1.238681350155884,
            0.13073383136952665,
            0.3457842017903976,
            0.24121765684086485,
            0.9245675732572806,
            0.27997808449511674,
            -1.0608945343013265,
            0.24244776450141223,
            1.0308187859434126,
            0.5122432865887665,
            -0.2643765877446528,
            0.24678933457699892,
            -1.7518659006409358,
            0.025598222629807266,
            0.1629760716161266,
            0.6333265132899267,
            1.8222114023622717,
            -1.8631674696496214,
            -0.7899832822595639,
            -1.3872604026902051,
            0.9011430858918432,
            -0.48084596707535615,
            0.22373431655121398,
            0.7475923662767726,
            0.33286871168428556,
            -0.4216539829103964,
            -0.2490719193348325,
            1.7529818080566222,
            -2.0580367102619053,
            -1.6181464748403211,
            -0.35760461740187255,
            2.5037607591184865,
            -0.7490075676909762,
            -0.5061752809071973,
            3.6323550439356627,
            -0.1344547102333793,
            -0.46315278285533656,
            0.5311911863398745,
            -0.1881316400847,
            0.5335921232377904,
            -0.4986183581626338,
            -0.5636139461485131,
            -0.6621942473297033,
            -1.038960963358091,
            0.35265090144941036,
            -0.6645756846301486,
            0.33146353098078507,
            -0.49066209724582294,
            -0.18207559921115823,
            0.2139838452162905,
            -1.352406756033911,
            -0.02620808970819699,
            -1.7755765291409882,
            0.2529585015185994,
            2.643444104646757,
            -1.2814736158663793,
            1.4107924397748324,
            -2.8277209325511925,
            -1.6580192561461773,
            -0.39750794228358205,
            -1.6930123816489973,
            -1.8243595404254211,
            -0.4218952241128746,
            -1.3458483184980037,
            -0.9212114534878009,
            -0.7880151916148281,
            0.1896692082925888,
            -1.1553608388357037,
            0.4992291497827289,
            1.1302754017646297,
            -0.3093121054873746,
            0.3566020535063789,
            -1.0181825690295725,
            1.5258037492721945,
            0.7052956520302804,
            -0.7577029791864177,
            1.4409263566020531,
            -0.09460190098254292,
            -2.50973361364286,
            -0.1295248472931818,
            1.6874855816201906,
            -0.7806626350009093,
            -1.1682112300247063,
            -0.06146039219748439,
            -0.3982093846931644,
            0.49838291428145937,
            -0.4263944265988751,
            3.2706552342430406,
            -0.19976655301072788,
            1.5006778817626156,
            -0.9059338614875284,
            -0.6321982845097454,
            0.505535287708199,
            -0.5495599569971121,
            -1.1318277893023203,
            0.24002413197283917,
            -2.139243033944816,
            1.9240624350577022,
            1.9178011411519376,
            -0.40448336413805674,
            0.051709840339070834,
            0.17566892660140543,
            0.1528262912436843,
            -2.472265473471658,
            0.4696361460314551,
            1.8056425775007414,
            0.2407417899529703,
            0.36958588943931076,
            -0.5253616522111006,
            -0.541505217127948,
            -0.09333283716417386,
            -0.035087335078147985,
            -0.08625201926481907,
            -1.0835955749443993,
            2.6696695407436613,
            -0.5086056291189741,
            2.482164194934443,
            -1.1893219331766824,
            0.37468188467850905,
            2.7663391887770112,
            -0.8221071241347524,
            0.7620574137769658,
            0.2813284313366196,
            1.0802289896474246,
            1.7451910433565234,
            -1.2244714672356936,
            -0.82617779365882,
            0.8508421364786601,
            0.8394951591412418,
            -0.4147482135407416,
            1.9059931790839157,
            -1.4926204843063227,
            -1.6335562257550458,
            0.7606053512261978,
            0.8637335523251117,
            -0.518664765362856,
            -1.771996862041931,
            -0.8787229479965752,
            -2.390648122768898,
            -0.16430152312705576,
            -1.4472741418121882,
            0.3576697909492244,
            0.19328105042628624,
            1.9116846635480713,
            0.7848833504564253,
            -0.11571342667420825,
            -0.09414351326027359,
            0.7631251102416627,
            -1.4018635081939639,
            -0.98166882432214,
            -0.5354780943338255,
            -0.8686398739041934,
            0.020041244268743208,
            1.7864306060921713,
            0.45741865264349096,
            2.5302382809193906,
            0.32565485617569967,
            -1.4542174538340937,
            -0.43775009768518264,
            1.0356668450725666,
            -3.436382520378709,
            -0.3739789425251351,
            -1.5880459487186367,
            -2.6206739801369756,
            0.05132933816060822,
            -0.21139763542858447,
            0.4114676761999827,
            -1.5871749009398002,
            -0.37775915933150706,
            -0.264299297493111,
            1.3370623736265337,
            0.09960520606135162,
            0.31051920993564575,
            0.8803708700938423,
            0.3171475367054142,
            0.21044458106496364,
            -1.9420782048885141,
            0.5709429126139323,
            -1.2177463808455882,
            -0.15070717054453187,
            -1.0533724234678004,
            1.9527035968779771,
            0.7220515986402568,
            -2.912026183795942,
            0.1050286844604123,
            1.656480671336436,
            -0.5408934314577754,
            0.10480779386633662,
            0.508900518751146,
            -1.866087202984425,
            -0.737820660782954,
            1.9357544635632882,
            1.4728223241982015,
            1.0494945354531628,
            1.035198898826825,
            0.0718988642220566,
            -0.09351919094993799,
            -0.6838501789992351,
            -0.8297781416658302,
            -1.1258087776041448,
            0.9300585887845494,
            0.24065562038170274,
            0.7657821764680101,
            0.4561790386826938,
            0.5463224583391562,
            -1.5418974766174165,
            2.223225003168804,
            1.3091738962481358,
            1.453549713416889,
            -0.3921093057704653,
            0.5578189616375235,
            2.0726258550037917,
            -1.4490453744787473,
            1.0956259442936929,
            -0.3790809132779505,
            1.0753524587803218,
            1.462823468448078,
            -0.2893977684574044,
            -0.14588985164236137,
            -1.2201150527447464,
            -0.2874895148587072,
            -0.42376715039860235,
            0.18485085880617796,
            -0.015906642555656547,
            -1.550429005279244,
            2.4560948111325476,
            -1.898050161292891,
            0.7272654233315579,
            0.4017959618585144,
            -1.2635156141966566,
            0.5104861009365071,
            -0.9687060480233369,
            -1.872675000139112,
            -0.6924125065638435,
            1.290487851553086,
            -1.4519885718813539,
            3.048568289679191,
            0.52901661197248,
            0.4507083094160851,
            -0.6947539351255734,
            -1.198087094901358,
            2.813082710466506,
            0.9935050401694305,
            0.9790977742069624,
            2.008925080403848,
            1.4639639344942972,
            0.5257429316643649,
            -1.0431810835462623,
            -0.5139131785344826,
            -1.5240229086218384,
            -0.10850973743357079,
            0.22153280189172003,
            0.591543689454225,
            -0.4273001128273536,
            -1.3998201084527673,
            -0.3008021866129578,
            0.7443956405833482,
            0.701443426090591,
            -1.7141501047002463,
            -0.7646258363910998,
            2.7368296930701748,
            1.7371964694836994,
            1.5699197177830007,
            2.0362597160765907,
            -0.568481218082857,
            -0.003423350870158104,
            -2.3569673160269726,
            -0.8858942897871399,
            -0.9001765978603529,
            -0.17337926355041167,
            -1.0833723116738359,
            0.8881224762818836,
            -0.42015027799058013,
            -1.853933330604141,
            0.43605875011263695,
            -2.1776294853883353,
            -0.4361655944066983,
            -0.002208001207441912,
            -0.48817610594472577
          ],
          "numRows": 16,
          "numCols": 45
        }
      },
      "ops": {
        "type": "org.ejml.simple.ops.SimpleOperations_DDRM",
        "data": {}
      }
    },
    {
      "mat": {
        "type": "org.ejml.data.DMatrixRMaj",
        "data": {
          "data": [
            0.5469402127617494,
            0.46131798947378777,
            1.5628092517822951,
            1.4094278461917953,
            0.41603060533552627,
            -0.12994205733833425,
            -0.3620076940080314,
            -1.0710856272756386,
            -2.572472720070193,
            -1.3092457115824645,
            -1.273481336786343,
            -1.647178130097764,
            0.37099453796894605,
            0.9673238725634222,
            -0.5047561601867667,
            -0.4259990225850703,
            -2.1139521723693813,
            -0.8417122916906817,
            1.2219610960846468,
            0.3979896523634708,
            0.9651854342570977,
            0.7714237183668213,
            -1.1448923682123373,
            0.19725241617535383,
            -2.180557384101718,
            0.4525200924867588,
            0.05555555756796535,
            -1.5771133735412939,
            1.098063340523027,
            1.7849772607123517,
            1.7788747674854142,
            2.165972119062208,
            0.5810200836417209,
            0.16766433747510878,
            1.0741796350035315,
            3.7386217967739235,
            0.4868717284737475,
            -1.163129511025257,
            0.9209134427294852,
            0.5197161827603091,
            0.7984455468818203,
            -1.6005390966636155,
            0.6372944694437394,
            0.4902644692606862,
            0.21217459365573632,
            -1.116912775049651,
            1.2871800251874808,
            0.34484935059926203,
            -0.14446362268126908,
            -0.8690277342165756,
            -0.48269801142625995,
            2.9457722417540837,
            1.1767639992507093,
            -0.31035256030935243,
            -0.35038695318375074,
            -1.8527330352814153,
            -0.4432307998897339,
            -1.133987234172939,
            -0.03702539987712808,
            0.7876643145856558,
            -1.2935601779592334,
            -0.08626768982280451,
            0.13571531176129517,
            0.6931822252012909,
            -0.8058407753108002,
            -0.8312344666941877,
            0.7545307941108137,
            2.52203253669374,
            -0.2378987123874855,
            -0.3263742918680278,
            -0.012675187478308314,
            0.2697983939564755,
            -0.05802203632334857,
            0.4784455345789867,
            -0.8746757404646215,
            2.4636123998423374,
            -1.903841123224763,
            -0.7100560352962819,
            0.25251499611187767,
            -1.8750885056651398,
            -0.7943768172540249,
            -1.7328815202205106,
            -0.2284142447432646,
            -0.0981224256492666,
            -0.1362742842498322,
            -0.1800918727694857,
            -0.5124965038055407,
            -0.8347949556368484,
            -0.8286912381578039,
            -0.6983845932444692,
            0.6610730795358651,
            0.7110272951452439,
            -0.6327492480433093,
            -1.2892068224779574,
            -0.38393000303059704,
            -1.7959327273909516,
            0.6367765991891413,
            -1.0740901939830687,
            0.5266145847746252,
            -1.1343224846612965,
            -0.6196845866739034,
            -1.0096147358586278,
            -0.03722983238440981,
            -0.9017376936725046,
            -0.10369115923972438,
            0.19917542964892895,
            -0.19833110147620292,
            0.9651482363279715,
            2.2282956104098055,
            0.9368543978877554,
            1.1141178706777208,
            -0.5393044783156051,
            0.7388318147910333,
            0.9360933475607118,
            1.1566118673891086,
            -2.114796504138987,
            -0.6571352354492971,
            0.6176269136482332,
            1.5500074036854814,
            -0.7786735472426051,
            0.8759529383159543,
            -0.1257090841598817,
            1.21077445652996,
            -0.5424747053641582,
            0.5282705077670867,
            -1.673457853281087,
            0.4324767486795793,
            -0.40102179009657263,
            0.3306547922225135,
            0.22209932714583502,
            0.6825618477954241,
            0.23272870304244495,
            -2.41821508959273,
            -0.24873532091312633,
            2.253042443541074,
            0.9507336188408924,
            0.9042677144268703,
            -0.7879236312957366,
            0.0364533744149948,
            -0.030480827223900275,
            1.2505379792837021,
            0.965671842837859,
            -0.5011763707747631,
            0.317961841891784,
            0.9011032733682165,
            -3.471523690831616,
            -0.8031378942972314,
            -1.6158833196566362,
            1.3247108558955827,
            1.1857579278701535,
            0.5877733228690429,
            -0.7616959407972568,
            2.282761583259092,
            -1.6109260792310967,
            0.1974137249522265,
            -2.194866892789171,
            1.7142305365579547,
            -0.4364716015648336,
            1.8751257794472815,
            -0.6180028164562912,
            -1.2104534133451799,
            -0.5815563082715617,
            0.5325968547137048,
            0.14688067251396086,
            1.6156914691416424,
            1.0403737098410688,
            0.23388916198269688,
            -0.7137153994155596,
            -0.5702810266834206,
            0.014658991499444995,
            -1.672757832959734,
            1.850203841225597,
            0.32243248009940384,
            -1.4591367756307094,
            2.2989751388767523,
            0.06306951180662242,
            0.255421297550483,
            0.7047341238214679,
            0.27265117254427973,
            -0.06492157396565146,
            -0.3765328012246901,
            1.3812613343427156,
            0.5149131715572419,
            -2.0903664806894287,
            0.5195068849847039,
            0.5209694030041367,
            0.3047265832747686,
            1.3638573008219153,
            0.8925536253131378,
            -1.0873251197530016,
            1.1985562152664864,
            1.0827036595614774,
            1.2853799234137226,
            -0.48569442619550557,
            1.8962660187549936,
            3.1006975513448736,
            -0.20274903423292018,
            -0.09667496843645798,
            0.6273552825354775,
            0.242166069201869,
            0.0966188191698692,
            0.2955935292014937,
            0.4161288191018398,
            1.1471968573512996,
            -0.3707337152628396,
            -2.7327996420477296,
            0.17444947371572994,
            -0.4200616563408578,
            -0.1869120895717308,
            -0.9084968699216427,
            -0.4310468162087988,
            0.8683053030364098,
            2.211937901738278,
            0.04491371143006467,
            0.08120165217991909,
            2.2783392578768082,
            -1.1864560400177264,
            -2.1890487626551076,
            -1.0205512713781781,
            0.9507226800331998,
            -0.6837172465361991,
            1.4170970580495557,
            -1.7511459084419045,
            -0.11255923967989176,
            -0.3788797037853765,
            0.9751763957316809,
            1.280511725833335,
            -1.0297619100708875,
            -0.36943283567597474,
            0.7864618953388023,
            0.8234558494321013,
            -0.0648093857576599,
            0.5324786094752043,
            1.0359657924838803,
            0.46429131264518636,
            1.2796611937793856,
            0.13197718858663787,
            0.7581981338794502,
            -0.888947728699248,
            0.6734754463692134,
            0.6284848211114341,
            1.0036176742481167,
            0.953674569656656,
            0.0456888168443802,
            -0.6959970611010261,
            -0.10993647524547567,
            1.1281546810193697,
            0.6920891997799634,
            2.823621995733356,
            0.5113039128700376,
            0.4321729885246729,
            1.2803324853475315,
            0.01610648788595348,
            -0.18390837707567656,
            0.8015322927816511,
            0.624379356607646
          ],
          "numRows": 16,
          "numCols": 16
        }
      },
      "ops": {
        "type": "org.ejml.simple.ops.SimpleOperations_DDRM",
        "data": {}
      }
    },
    {
      "mat": {
        "type": "org.ejml.data.DMatrixRMaj",
        "data": {
          "data": [
            1.0384664144061002,
            0.25771897046801584,
            0.8963937520390214,
            -0.06010239718412269,
            0.27797647144779825,
            -0.6992906048774556,
            -0.22376435588903332,
            0.6708990266335328,
            0.774330929867679,
            1.3996809286371041,
            0.03510342839158209,
            -0.2265711660517985,
            0.20320592703619622,
            0.9868873915126002,
            -0.022533121929329214,
            0.19340475662695783,
            0.25301478735105143,
            4.676372464664894,
            -2.0812707727561857,
            -2.5068718441190523,
            -0.17361797181718136,
            0.3260899614196041,
            -0.1105630107787331,
            0.5380451754925141,
            -0.746699600108738,
            0.06799169352915735,
            0.38612619596613407,
            -1.1274697984259001,
            -0.9656293719966577,
            -3.198682709108439,
            -0.6977641516764945,
            0.6454701798902146,
            -0.5125904092711764,
            -0.023275282419599863,
            0.0650340228762831,
            -0.6005706777215584,
            0.296931583418446,
            -0.2480236368516442,
            0.0633241083939404,
            -0.6269768565547531,
            2.253661601796617,
            2.752314372289729,
            2.5165421236457584,
            1.4414239867531158,
            -0.6808532651133136,
            0.9209857628823557,
            -0.5431734125558557,
            2.2030582819927553,
            0.16674686338684896,
            -1.829317868219513,
            2.1201009205114887,
            0.9612301416764937,
            -0.8289343454810112,
            0.06578933054444147,
            1.5379352534210518,
            3.9066298886417257,
            2.103582183694021,
            -0.11450793878057802,
            0.4949299608040824,
            0.5896583027937102,
            1.0987164204872641,
            -0.6028993567832882,
            0.3032906340955454,
            0.13499054227743185,
            -1.6381059905782758,
            -1.9165315704965995,
            -0.3148189186582445,
            -1.430874822942608,
            0.20954850908134204,
            -0.9083500078156286,
            -0.4836638452016607,
            -2.289805566601675,
            1.2517050025103147,
            -1.0296330851122772,
            -0.2132054599143302,
            -0.5183145086888927,
            -1.9185434514113395,
            0.22471024052779803,
            -2.663016391718884,
            -0.5192241517604377,
            0.8981397926659214,
            -0.18828507786612553,
            -0.2545042429995218,
            0.23163650029638283,
            0.5292976915274727,
            1.5794496242292944,
            0.34785501501223476,
            0.5744638360609211,
            0.8905768002676695,
            -0.38390043549128267,
            0.6828333103776147,
            -0.15086345751841734,
            2.5057444550078993,
            1.4474695261575823,
            -0.9745166057865807,
            2.2166237350262006,
            1.151458634677374,
            2.1214908767895273,
            -1.2174640002230357,
            -0.9101597244527084,
            1.9696114037142711,
            2.8024839904657215,
            -0.630970277750283,
            1.4325237194415354,
            2.4405904210024696,
            -0.7793132932209424,
            2.4706086797166833,
            0.7980673989532712,
            -0.5335658731519632,
            -0.8239166319394798,
            1.819836962210532,
            -0.45769661585525456,
            0.7484020834380857,
            0.2745115999657256,
            -1.1857033370651477,
            0.685106557633403,
            -1.7002539166184123,
            1.7935757369434326,
            -0.02896478203331232,
            0.23563838220951633,
            -1.296047457779415,
            -1.4013334795719614,
            0.5908742320263135,
            0.26847285252574826,
            -0.442584364999969,
            0.597573820318836,
            -2.143188889761558,
            -0.10236243540611657
          ],
          "numRows": 8,
          "numCols": 16
        }
      },
      "ops": {
        "type": "org.ejml.simple.ops.SimpleOperations_DDRM",
        "data": {}
      }
    }
  ],
  "biases": [
    {
      "mat": {
        "type": "org.ejml.data.DMatrixRMaj",
        "data": {
          "data": [
            -1.2698630129234059,
            0.3737208248347749,
            1.675084923571085,
            0.8390836237680296,
            -0.28513720723564995,
            1.6212540855681625,
            0.42235515511953203,
            -0.708668065051277,
            -0.18540767490342192,
            -2.0570742675596154,
            1.1536286795736097,
            -0.03510228564591143,
            1.4705732313097308,
            1.8002821188854239,
            -1.8317731880089294,
            -0.1480725804025944
          ],
          "numRows": 16,
          "numCols": 1
        }
      },
      "ops": {
        "type": "org.ejml.simple.ops.SimpleOperations_DDRM",
        "data": {}
      }
    },
    {
      "mat": {
        "type": "org.ejml.data.DMatrixRMaj",
        "data": {
          "data": [
            0.8627895981079552,
            2.674071335572456,
            -1.0950707715832682,
            -0.8975488555564686,
            -1.5355650807682466,
            1.8903057740336369,
            0.3629313794852671,
            1.0259158654087288,
            1.111304406678599,
            -0.19768662185816405,
            1.6405631860473942,
            -0.6648596260357356,
            3.1952009193472506,
            -0.5645291123851653,
            -0.524444425858929,
            -0.06533455471510216
          ],
          "numRows": 16,
          "numCols": 1
        }
      },
      "ops": {
        "type": "org.ejml.simple.ops.SimpleOperations_DDRM",
        "data": {}
      }
    },
    {
      "mat": {
        "type": "org.ejml.data.DMatrixRMaj",
        "data": {
          "data": [
            0.275181614921312,
            -0.16674539065507427,
            2.782606625502171,
            1.322720729457904,
            -0.20363116101410222,
            0.30965436677156516,
            0.4428841018148163,
            -2.7686528248946196
          ],
          "numRows": 8,
          "numCols": 1
        }
      },
      "ops": {
        "type": "org.ejml.simple.ops.SimpleOperations_DDRM",
        "data": {}
      }
    }
  ],
  "learningRate": 0.1,
  "activationFunctionKey": "SIGMOID"
}