{
  "activationFunctionFactory": {
    "activationFunctionMap": {
      "TANH": {
        "type": "basicneuralnetwork.activationfunctions.TanhActivationFunction",
        "data": {}
      },
      "RELU": {
        "type": "basicneuralnetwork.activationfunctions.ReLuActivationFunction",
        "data": {}
      },
      "SIGMOID": {
        "type": "basicneuralnetwork.activationfunctions.SigmoidActivationFunction",
        "data": {}
      }
    }
  },
  "random": {
    "seed": 52965166090469,
    "nextNextGaussian": 0.18374480969406234,
    "haveNextNextGaussian": false
  },
  "inputNodes": 29,
  "hiddenLayers": 2,
  "hiddenNodes": 16,
  "outputNodes": 8,
  "weights": [
    {
      "mat": {
        "type": "org.ejml.data.DMatrixRMaj",
        "data": {
          "data": [
            -0.3850883473413911,
            0.3385935513467302,
            -0.25864718174260326,
            0.2715392035988737,
            0.7129839085259843,
            -0.41763622705099124,
            0.9702819513074541,
            -0.28956713191945216,
            0.21281085085646345,
            -0.588063028302442,
            -0.41079891389104106,
            0.11702690781091563,
            0.6973818458121623,
            1.47321767567812,
            -0.7252676225844701,
            -0.671137276227437,
            -0.19882927509474024,
            0.8167011030831306,
            -0.4946301877895294,
            -0.837993222594803,
            -0.4209326443069522,
            -0.4434181331165512,
            -0.11152778703365596,
            0.8926822065023217,
            -0.5612860767168164,
            -0.5401130703707562,
            -0.6386739688484344,
            0.03634585668130175,
            -0.8656620752661053,
            0.9442830810777274,
            -0.1733745115060632,
            0.4185375372151128,
            -0.6912675088255944,
            0.9951938678516408,
            -0.7544637573722659,
            0.9347922582240418,
            -0.6711104867002933,
            0.5364648755194867,
            0.6067914984127436,
            0.41967258239699334,
            -0.38135055820961894,
            -0.07627406526599545,
            -0.3588560810414738,
            -1.1978765150156254,
            -0.8293841154741484,
            -0.4977279665959004,
            -0.05889144296356954,
            0.12999222232320373,
            0.33245599048064456,
            0.3800868042863259,
            0.7571085496884078,
            0.6528425492699983,
            0.31027527211506145,
            0.8918048863583214,
            -0.769718550147646,
            -0.4382751518223509,
            -0.1483830899514289,
            -0.2281485664324321,
            -0.05988658325881846,
            -0.5008308896350067,
            -0.7960722810731455,
            0.9897187811421269,
            -0.08738933465242216,
            0.16309665049774325,
            0.9767696463048059,
            -0.4036102056698543,
            0.25080632006393877,
            1.2412826742619256,
            -0.4915918787556133,
            -0.3547702222255116,
            0.06987666970928941,
            -0.34429773763060334,
            0.47203677916068365,
            -0.10093568727251623,
            -0.10262796645576855,
            -0.5289208264944536,
            -0.5531539274747779,
            0.9046709370507835,
            -0.862940993522828,
            0.7176341886782369,
            -0.9992469256503611,
            0.16981343914999214,
            0.034702295890232326,
            -0.20913176401794464,
            0.5030372635555977,
            -0.09655236718680693,
            0.05449269932982648,
            0.15752567636156511,
            -0.4186439947121398,
            -0.024118219711493305,
            0.5986587269680155,
            0.09530242814424383,
            0.891398725645596,
            0.6002917956232592,
            0.6531163657957404,
            -0.2944917991096201,
            -0.7353362315885084,
            -0.6628557408543525,
            0.7908402453998387,
            -0.06960912738067315,
            0.10610280835201524,
            0.9333373396959381,
            0.19699879911588103,
            0.36409694350096883,
            0.2929445280589007,
            0.747884332998273,
            -0.6703540923323335,
            0.6778675777809258,
            -0.9053838566441734,
            0.5238238060151348,
            -0.4472055728621155,
            0.342564425578177,
            -0.9504062862909468,
            0.7194865144126528,
            0.031445599728719076,
            0.10305586129779354,
            -0.5241918129827623,
            -0.9124646860705441,
            0.0676165677883136,
            0.5520674655372664,
            -0.748605179665494,
            0.10442540119007337,
            -0.8792585319604278,
            0.37506119366975477,
            1.047969102199725,
            -0.5761539443135424,
            0.8663697359907976,
            -0.5045523932079905,
            -0.21361330917045285,
            0.5788408950555493,
            0.10812826813526155,
            -0.6934713460670647,
            0.9469624821412483,
            0.5785246853670121,
            0.7004673399086027,
            0.8702039607182639,
            -0.7114214467201871,
            -0.6006104793116139,
            -0.3288286353325438,
            0.7257705681374773,
            0.4487841590546282,
            0.47112955125270584,
            0.18182418940981449,
            -0.893557125229798,
            0.9213826214880492,
            -0.7251736060378451,
            1.232729144882442,
            0.6393459199428009,
            -0.2167900077162157,
            -0.5412214655092278,
            -0.9218183817544214,
            0.6302525664371834,
            0.6669511540339674,
            0.6716504759030801,
            0.7395094922998351,
            0.37606664209325324,
            0.32151064001821084,
            0.46003745728548484,
            0.5755922502513482,
            0.17277435692081555,
            0.871988894281359,
            0.3518274092763174,
            0.3992166797681336,
            -0.9352038738756658,
            -0.22983948753312067,
            0.43590356093939897,
            -0.9006248673763635,
            0.9961203189057959,
            0.48764236431213903,
            0.5643511190034955,
            -0.8774782946277049,
            -0.019497196195146005,
            -0.9404524749960639,
            -0.6339593985767431,
            0.8725410378254101,
            0.01686409415898016,
            0.9658635345108963,
            -0.3476672047668363,
            -0.37641410003981957,
            0.6823642177811802,
            0.9425389098980128,
            0.7043519055173981,
            0.4465856886737053,
            0.3726346524784898,
            0.8727005815938333,
            -0.3748319601577683,
            0.1695454473205087,
            -0.7510032611436825,
            0.810259264742502,
            -0.8790868362436939,
            -0.852135733797114,
            0.8504562829722935,
            -0.38158070071026307,
            1.636895409970732,
            -0.027116731069223743,
            -0.3728165704975317,
            -0.21314116965262597,
            -0.6814680635475536,
            0.9274221587105052,
            0.44351189908793576,
            0.5139791710770525,
            0.33882155088000787,
            -0.20833049315084096,
            0.6078801994493552,
            0.019314073686421462,
            0.3225084135713143,
            0.6802807091084311,
            0.9516865415173863,
            -0.8856327420311023,
            0.209804436157921,
            -0.794951554127783,
            -0.032119868890240655,
            0.07295440327223252,
            0.640505853617201,
            -0.7098398990264813,
            -0.5811037098949394,
            0.14725561143664073,
            0.43488805322645274,
            0.24229258545412602,
            0.45542425755970384,
            -0.5773583632229633,
            0.6260726864263195,
            -0.5123386218626771,
            0.24041953283191275,
            -0.28977247846541476,
            0.34235581173307317,
            0.6580247124445922,
            -0.5466805918173328,
            0.6249919150868444,
            0.5831284201811604,
            0.8729388411905459,
            -0.04639170295350392,
            1.1615437170694711,
            0.3592522239802176,
            0.5247241377909162,
            0.9702851797683575,
            0.9814968164884719,
            0.8238717687639197,
            -0.6474786236768295,
            -0.9633559214422962,
            -0.9979408835096679,
            -0.10436338429206393,
            -0.9689490682406263,
            -0.8200386142544271,
            0.38648520499089534,
            0.7972851045695604,
            1.0256899132774848,
            0.9261563702005062,
            -0.946277571030842,
            1.4929896482852256,
            -0.9725490789956259,
            -1.097388454421264,
            -0.9329924398529701,
            -0.360990832255879,
            -0.7648563693713535,
            0.6552643769373563,
            0.14924075751999633,
            -0.850479335609561,
            0.3734955961158781,
            -0.04903204182959975,
            0.5037302829721422,
            0.4281532123290783,
            -0.37384896926177547,
            -0.10318822606101241,
            0.34180985410412346,
            -0.7407956807121472,
            0.6475050878556579,
            -0.0767947575702117,
            0.8805927399716382,
            -0.31673786230062717,
            0.3975387439332161,
            -1.0375021899762125,
            -0.5005456224933931,
            0.8697753584866634,
            0.5417100260616183,
            -0.9943954629780143,
            -0.7020786912767583,
            -0.32199194301470313,
            1.2086716313074528,
            0.2326863475989085,
            1.014595813693582,
            -0.11780260179118462,
            0.6533170517867946,
            0.13628579291140874,
            0.8759853974927503,
            -0.2627004929580057,
            -0.018400776849961664,
            0.11275608569494588,
            -0.8229862855045937,
            0.4537375673436159,
            -0.7196464108674466,
            0.7825626932481177,
            0.4354515641547103,
            0.8848562744764912,
            0.3249081102718283,
            0.1337469716341677,
            1.142953087949016,
            0.2823136380656368,
            0.5806508477385328,
            -0.7101412994541687,
            -0.44332298697577976,
            0.7110722043493205,
            -0.66702496936953,
            -0.4061105371149045,
            -0.09464650693599386,
            0.7787215118710749,
            0.7479677632188577,
            -0.13058031851248386,
            -1.7444691470814848,
            -0.3348821028141953,
            0.5168275775498654,
            0.12372090351377762,
            -0.020480719134063907,
            -0.7097936221131373,
            0.8549177137142896,
            0.9759007514701667,
            0.810229776632371,
            0.9952622828948102,
            -0.17279597295064053,
            0.19938556100903004,
            -0.902189724979849,
            0.052265171295715396,
            -0.339014731589363,
            0.499624877790773,
            0.8998803300587002,
            0.8236695011006567,
            0.18713479436967287,
            0.45859799044120786,
            0.9203532301639916,
            0.9629501634093494,
            0.17390151203990412,
            -0.6834821059135145,
            -0.019205639536524988,
            -0.4437545195496002,
            0.3635399477179816,
            0.18311098854775731,
            -0.4074555806922533,
            0.1571666052566716,
            0.5584350290714184,
            -0.7378536276314689,
            0.4237716083195311,
            -0.893916519193074,
            -0.8840008254497833,
            -0.6671381465729561,
            -0.5289849382387533,
            0.9323498918626045,
            -0.6559762890650502,
            -0.35191468081945,
            -0.17200854565430723,
            0.8712493961648835,
            -0.9950390551723769,
            0.33944221712441136,
            0.6176993388784386,
            1.4703114282444423,
            0.1335061386700893,
            -0.3483571013852176,
            -0.6014628396347554,
            -0.047259513381060714,
            -0.5071588583241851,
            -0.8555084761028349,
            -0.8318261232695598,
            0.17826935192227866,
            -0.6413780511865521,
            0.2963549995717596,
            -0.25663267875633466,
            0.6768699756590648,
            -0.7649057274040287,
            0.12115259527308408,
            0.14235185091628821,
            -1.2344996070280008,
            -0.19189463225521242,
            0.6296318351797023,
            0.9718419032692422,
            2.1009210096297686,
            0.14047958994426196,
            -1.4175273453849946,
            0.3115750080037669,
            -0.2882168223015229,
            0.06153230917646102,
            -0.1209119772816114,
            0.3714381935554336,
            0.014686344477843338,
            0.2520571656763635,
            0.2151825053617773,
            -0.37941627673186207,
            0.408464044446737,
            0.6986292294881042,
            0.029543904547791655,
            -1.3387378316030922,
            -0.579525443680879,
            -0.3106029132430719,
            0.04066540333228663,
            0.4798198393386499,
            -0.5209840395791163,
            0.7996575478409222,
            -0.422093106766257,
            -0.3630665576746741,
            0.5618712788995752,
            -0.7923619700002045,
            0.8203630983886134,
            -0.053405237607487166,
            0.707561556979702,
            -0.6783064798314393,
            -0.6951641683756291,
            -0.004079418163938753,
            -0.3814928681055507,
            -0.6337697998783041,
            0.7303203869722941,
            0.9417168989370839,
            -0.7417235828505495,
            0.3904313632687344,
            0.45493333823155546,
            -0.5597348214741427,
            -0.3428448712554888,
            0.7158487382739394,
            0.18369300846358683,
            0.20851582405249247,
            0.36819541920443966,
            -0.7122692969354276,
            0.28304317315620287,
            0.7313437132628406,
            0.08010119332449683,
            -0.4694874399083282,
            -0.9296124279315108,
            -0.8176952328428686,
            0.8851742103163558,
            0.6818897763706377,
            -0.09307605125665619,
            -0.24667190949550943,
            -0.5133708242666077,
            0.3813633519152395,
            -0.07026860525274703,
            0.13333973922008102,
            -0.2132622172662384,
            -0.5337218560003122,
            -0.916739368880654,
            -0.6740174396921825,
            0.9056127019569606,
            0.23332252729582503,
            -0.908065079215356,
            0.13891328095026934,
            -0.38992281847472854,
            -0.9591675041480621,
            -0.03585141863398578,
            0.3844922800510588,
            -0.6943573768455578,
            0.7010729177727182,
            -0.2775141805681156,
            0.24706760108999526,
            -0.8979416294624947,
            0.684933354114885,
            0.9577927769564385,
            -0.23630463884610609,
            0.736192941255059,
            0.4657316235290587,
            -0.7561054643302987,
            0.5640557235534569,
            0.9514339854156586,
            -0.5407557874530866,
            -0.37830798197077997,
            0.37783069533771485,
            -0.3002348275644904,
            -0.1833307931742545,
            -0.12623105772748988
          ],
          "numRows": 16,
          "numCols": 29
        }
      },
      "ops": {
        "type": "org.ejml.simple.ops.SimpleOperations_DDRM",
        "data": {}
      }
    },
    {
      "mat": {
        "type": "org.ejml.data.DMatrixRMaj",
        "data": {
          "data": [
            0.6506465824196044,
            0.9565279922937449,
            -0.9517861293190164,
            0.9848811556554482,
            -0.9133783683329137,
            0.28209709577582287,
            0.821122863314036,
            -0.7417289366038284,
            -0.8832744103606636,
            -0.08773598346350298,
            -0.27921201816600294,
            -0.22367577131286714,
            -0.4645010984582154,
            -0.3177230979923087,
            -0.569074366130949,
            -0.6342161471956831,
            0.3149642956145122,
            0.7978935249373367,
            0.008302001178614571,
            1.1334132494483153,
            -0.5758754824294496,
            0.38784159590885947,
            -0.5814515647959245,
            -0.18839786561919802,
            -0.9204373706811058,
            -0.6918012381083462,
            -0.9037765231062751,
            0.7352062508286956,
            0.6079450276348277,
            0.2259250249070861,
            -0.44085701455878024,
            -0.9880808621998065,
            -0.2689948744090198,
            0.08928701076278389,
            -0.9445551850246448,
            -0.48551178492404357,
            0.08561842828578237,
            -0.2601719197039135,
            0.6175456909392912,
            -0.15698515830197435,
            0.6624299754419808,
            -0.15073414732250134,
            -1.3206662944587653,
            0.21037737733667594,
            -0.627125318980637,
            -0.30852629608131577,
            -0.5280231531882966,
            0.7203014123434903,
            0.02412607821625823,
            -0.5923388607053149,
            -0.7341540091206749,
            0.917313829273205,
            -0.17284578029191655,
            0.46449425880048567,
            -0.1963878261755807,
            -0.4197268450057712,
            -0.5428574369977233,
            0.285286536811435,
            -0.5270583161582936,
            0.48192505000977426,
            -0.01826441147019242,
            -0.19945628408652505,
            0.6359455906654119,
            0.6869549645520373,
            -0.5101163296790745,
            0.2723887731890853,
            -0.6895395962399427,
            -0.2713838687932457,
            -0.055571943032620696,
            0.36048213585790423,
            0.26814006033435644,
            -0.7102074780572811,
            -0.42879973856284903,
            -0.7842808002261343,
            0.7595286092803064,
            -1.5647336202691906,
            0.9011657399035586,
            0.6114150367997495,
            0.8192794399233445,
            -0.06674529858317091,
            -0.3815972714245044,
            -0.909159359419405,
            -0.8278599421966295,
            0.727871779089821,
            -0.44596596078753675,
            0.7326700224208806,
            0.2957714348239435,
            0.30160073226268924,
            -0.38333179868194023,
            0.3291543507391965,
            -0.9235273841147913,
            -0.00475988280647302,
            -0.25605978376968586,
            -0.23472585046346928,
            0.9021259818110079,
            -0.1760213518235989,
            -0.0965532389168775,
            0.3907538563744888,
            -0.32377765260748426,
            -1.1773240748624214,
            1.2324268181977827,
            0.031276248865714736,
            -0.39202900110434746,
            0.09555378856426167,
            0.9743775449142904,
            -0.40033498443079285,
            0.8365317019873981,
            0.1702061593442199,
            0.9637311041221361,
            -0.8977574510298216,
            -0.27623937960909317,
            -0.9003315682844195,
            0.15681089889588384,
            -0.07707650169508695,
            -0.6991853101648771,
            -0.5649078025291081,
            -0.6309903077797328,
            -0.028296512514791816,
            -0.784093953547556,
            0.7163230423677369,
            -0.28949295247477447,
            -0.7168234733321913,
            0.06959515475139422,
            0.16609143204875143,
            0.27482758085820813,
            -0.08634190983814483,
            0.6987646560468805,
            -0.11072267861387886,
            0.6040101594185858,
            0.28963783049420133,
            -0.3143096064501405,
            -0.04901055475067073,
            0.6295799169168343,
            0.9877692029545506,
            -0.6005021560029391,
            0.719172656607891,
            -0.3596212257102167,
            -0.2309487234061638,
            0.19942943479114195,
            0.25722476085501367,
            0.9247047638840398,
            -0.6646471225600419,
            -0.7458203286651022,
            0.09256186640876574,
            -0.9239972831056673,
            -0.7188710794885191,
            0.6560649788760406,
            -0.23296070522358736,
            -0.6406725267444868,
            0.3173924499178562,
            -0.6585616516748427,
            -0.4956981614328073,
            -0.8639404752188014,
            -0.3258676777663756,
            -0.8709373436044976,
            0.5602612800670788,
            0.6938558819050373,
            -0.5803539853518125,
            -0.9402210015525598,
            0.8994137322684657,
            0.6651996256764225,
            0.5645396647259353,
            -0.6779922028860339,
            -0.6117502365535274,
            0.24154321537940837,
            -0.8968998696425119,
            0.9625686483580163,
            -0.2788068788962046,
            -0.7174870028441804,
            -0.6013786163446306,
            -0.7225051619232414,
            -0.14086304061750346,
            0.685070273486303,
            -0.8091448781634656,
            0.3680393790334022,
            0.203204265241975,
            -0.0024449117293641187,
            0.6101044039927896,
            -0.24926202671180542,
            0.6459070946928214,
            0.4364806169099824,
            0.9996544236773122,
            0.42886697228538817,
            0.6497158637173959,
            0.34131272259081147,
            0.4169172649778101,
            -0.6849324186778476,
            0.08522082426865984,
            -0.6184630749470983,
            -0.6932520100518573,
            -0.46265024901496754,
            -0.037537018106244435,
            -0.223357307265579,
            0.9910025215501839,
            -0.23393918272748593,
            0.24646280784980878,
            0.4638030013489813,
            -0.5034211883286457,
            1.3103891720057081,
            -0.3510571575062582,
            0.5488288450999108,
            -0.10062564689543407,
            0.8098129060688358,
            -0.7913557467569512,
            0.09992585198536941,
            1.5624870764682,
            0.2507993016218417,
            0.5202162228114491,
            0.5202153396951814,
            -0.10701754844427946,
            -0.15199275895681025,
            -0.8634338090737601,
            0.9019172623828031,
            0.12759289696042853,
            0.21687253196045808,
            0.45776250305855326,
            -0.052051567718065295,
            0.6888533666646115,
            -0.761472456216119,
            -0.23429383450141605,
            -0.8018601320353316,
            -0.6276829320323061,
            0.1838164339209294,
            -0.10488302312425013,
            -0.4310247313652136,
            -0.7546274847137459,
            -0.8483757241488119,
            0.11983324202909473,
            0.07930351369809441,
            0.6357251331079654,
            -0.26003827501977206,
            -0.6570719796306133,
            0.9218560222685588,
            -0.9814551722761016,
            -0.08384422312139317,
            -0.8185136026844733,
            0.07490431889724278,
            -0.71591419484206,
            -0.16204055179767107,
            -0.6511118199706687,
            -0.7218143528906933,
            0.9270034778159825,
            0.5041175730219922,
            0.04690566436154869,
            0.3800074364674362,
            0.565732171948619,
            -0.463145938053249,
            0.8578121867464705,
            0.5031555229845543,
            0.8857460757490794,
            0.5546980936202068,
            0.8367922057229793,
            0.359279441056539,
            -0.9314510152663591,
            0.41413795146781207,
            0.6216485206419557
          ],
          "numRows": 16,
          "numCols": 16
        }
      },
      "ops": {
        "type": "org.ejml.simple.ops.SimpleOperations_DDRM",
        "data": {}
      }
    },
    {
      "mat": {
        "type": "org.ejml.data.DMatrixRMaj",
        "data": {
          "data": [
            -0.6946205837757402,
            -0.37823832905994936,
            0.9361460176943777,
            0.5244492549900297,
            0.9550280695328515,
            -0.6477492542013934,
            -0.06344369521173365,
            -0.05129100734597758,
            -0.5262471048540833,
            -1.1134268731821637,
            -0.2724387886867199,
            0.8882644845495355,
            0.6128066790495708,
            -0.4560591123411304,
            0.412206554598189,
            0.5337377963409882,
            0.4246330082302543,
            0.798325353836252,
            0.5792873979057114,
            0.6836175252996515,
            0.4791202071033047,
            -0.5726333004309232,
            -0.11353891600952881,
            -0.008214952559092659,
            0.796680626317835,
            0.21522470623772083,
            0.07667209311129977,
            -0.8123681725012275,
            -0.23669147106731847,
            0.5981285183384744,
            0.18737828435621973,
            -0.7004500934841453,
            -0.15066848792783838,
            -0.9343131039842698,
            0.8572291389760511,
            -0.1923438713955603,
            0.4041637701297047,
            -0.3699350892496102,
            0.4322814611081267,
            -0.016113216698336874,
            0.38489596431437634,
            -0.46817673122472314,
            -0.09928196512281295,
            0.41358425951197875,
            -0.7251701504834682,
            1.1070068198478276,
            0.3755735105424991,
            -0.30283025192401714,
            -1.4572371216590447,
            -0.8715268205835838,
            0.8889359299558441,
            -0.7806786038235443,
            0.26363811170130025,
            -0.9510059057280136,
            -0.26440242567311656,
            0.396948430067964,
            0.47190391908096974,
            -0.7387718148415863,
            -0.04304825535896706,
            0.7737070324387327,
            0.8025255614466343,
            -0.5239074267113633,
            0.7045343165648839,
            0.9099722387505551,
            -0.3419335469559437,
            0.4833542271593336,
            -0.5924191772227712,
            0.6462873220567915,
            -0.07089850799030395,
            0.8429318972703634,
            0.7574438990108878,
            0.7599239347262332,
            0.31046729604566914,
            0.018226701611056217,
            -0.7400789760122819,
            -0.9378748775770605,
            0.5356417939754685,
            -0.03574322620406889,
            -0.05289638474973879,
            1.3323729078344133,
            -0.2118783008168521,
            -1.0016886033489736,
            -1.3838924362610066,
            -0.2042279465724477,
            0.5998870304283672,
            0.9447955170427422,
            -0.2492748307886523,
            -0.628302954420342,
            -0.02827186710550178,
            -0.3068234742114333,
            1.334738236629316,
            -0.28400927534612963,
            0.848072649468858,
            -0.1492956025513963,
            0.8009053606597538,
            0.7526020263463378,
            -0.7603894037900869,
            0.913361193701687,
            -0.5298714720043407,
            0.12486704551459415,
            -0.44119837613197865,
            0.722680573871604,
            0.2750792843323322,
            0.11228254784840175,
            -0.2692984079498675,
            -0.43435681607249266,
            0.7446247945541546,
            0.0026517711557845214,
            -0.9473786161092508,
            0.20738394041945774,
            0.8678722552906726,
            0.39204111819095067,
            1.1477519557744513,
            -0.8363496491258533,
            0.8077235226482966,
            0.5343137703171985,
            -0.393126201678067,
            -0.4671808011441487,
            -0.5082932081068641,
            -0.756524447489568,
            0.5740194112677575,
            0.25920456575993067,
            0.4879217085272718,
            0.12973451291282234,
            0.2905062180580602,
            -0.12957948322057766,
            -0.8763516011354853,
            -0.2801908233832278
          ],
          "numRows": 8,
          "numCols": 16
        }
      },
      "ops": {
        "type": "org.ejml.simple.ops.SimpleOperations_DDRM",
        "data": {}
      }
    }
  ],
  "biases": [
    {
      "mat": {
        "type": "org.ejml.data.DMatrixRMaj",
        "data": {
          "data": [
            -0.10812352100851402,
            0.6469505745442556,
            1.154930480029217,
            0.5666765706695811,
            -0.3276596340806619,
            -0.4384928267804442,
            -0.11581740905833626,
            -0.23419137017372704,
            0.7116908746637558,
            0.6365843447679806,
            0.8025400213418514,
            -0.2668268421289477,
            -0.4036528080696533,
            0.7429287764522197,
            0.32576397037775556,
            -0.8537523057988553
          ],
          "numRows": 16,
          "numCols": 1
        }
      },
      "ops": {
        "type": "org.ejml.simple.ops.SimpleOperations_DDRM",
        "data": {}
      }
    },
    {
      "mat": {
        "type": "org.ejml.data.DMatrixRMaj",
        "data": {
          "data": [
            -0.4729194146012965,
            -0.1207601426197571,
            -1.0193145324258892,
            0.6967502430515524,
            1.5411578746119936,
            0.40819957485581004,
            0.13686752199997554,
            -0.37484030608847574,
            -0.019811115605296026,
            0.10892825492170964,
            0.9481819683426438,
            0.9582587890674263,
            -0.1516952065705519,
            0.5873231798833563,
            -1.2411495610391103,
            0.14064354388931655
          ],
          "numRows": 16,
          "numCols": 1
        }
      },
      "ops": {
        "type": "org.ejml.simple.ops.SimpleOperations_DDRM",
        "data": {}
      }
    },
    {
      "mat": {
        "type": "org.ejml.data.DMatrixRMaj",
        "data": {
          "data": [
            0.7108812210252633,
            0.7681403821292672,
            0.10842799815576054,
            -0.6814960041416152,
            -0.04577086101224137,
            0.13302563933424083,
            -0.42334653559393964,
            -0.49289387179053645
          ],
          "numRows": 8,
          "numCols": 1
        }
      },
      "ops": {
        "type": "org.ejml.simple.ops.SimpleOperations_DDRM",
        "data": {}
      }
    }
  ],
  "learningRate": 0.1,
  "activationFunctionKey": "SIGMOID"
}