{
  "activationFunctionFactory": {
    "activationFunctionMap": {
      "TANH": {
        "type": "basicneuralnetwork.activationfunctions.TanhActivationFunction",
        "data": {}
      },
      "RELU": {
        "type": "basicneuralnetwork.activationfunctions.ReLuActivationFunction",
        "data": {}
      },
      "SIGMOID": {
        "type": "basicneuralnetwork.activationfunctions.SigmoidActivationFunction",
        "data": {}
      }
    }
  },
  "random": {
    "seed": 25788557512201,
    "nextNextGaussian": -0.5657925089088927,
    "haveNextNextGaussian": false
  },
  "inputNodes": 45,
  "hiddenLayers": 2,
  "hiddenNodes": 16,
  "outputNodes": 8,
  "weights": [
    {
      "mat": {
        "type": "org.ejml.data.DMatrixRMaj",
        "data": {
          "data": [
            -0.39289312104649027,
            0.3823291982291698,
            -0.8317218216394227,
            0.2115858565979245,
            -0.0293463573621231,
            -0.6486873954805434,
            0.5576521696804048,
            0.21985064724823428,
            0.8020824132018258,
            0.7510118936548833,
            -0.11448824264710572,
            -0.7714552886181992,
            -0.02644714250195468,
            -0.29303655906587256,
            -1.0583038070037993,
            1.095314117275895,
            0.6319408405638998,
            -0.6450551381614599,
            -0.6350146012878948,
            0.7346310587194393,
            -0.3241443041795369,
            -1.524545403934675,
            -0.9829210051890461,
            0.960714459608035,
            0.3563363442175953,
            1.0652197707173579,
            -0.05549614923007512,
            -0.8066290237921596,
            -0.6731476482059482,
            -0.2704034586498984,
            -0.7382635178326593,
            -0.9990530659821989,
            0.35850373114831213,
            0.8541486005584469,
            -0.6030079203399039,
            -0.6250635448702311,
            -0.818567135704849,
            -0.016107239971011378,
            0.17412721815429988,
            -0.39260990129736584,
            0.8250481830739855,
            0.35728055289455823,
            -0.39050383681366796,
            -1.1629304063537025,
            -0.09603673860481493,
            -0.4003929132258355,
            1.5415026014617876,
            0.7937470718999605,
            -0.3937860326525324,
            1.2175969936908844,
            0.28789645811769105,
            -0.19876266298669304,
            0.7279089740912558,
            0.5853531027981889,
            1.2874725669012475,
            0.6166937215959655,
            -0.6787515636905168,
            0.12061633959327689,
            0.8142635357618817,
            0.7445656445700538,
            -0.8231256565593932,
            0.3288288485070631,
            0.26414380906072266,
            0.25049841408595575,
            -0.5044900513683618,
            0.18678191498140828,
            -0.8731532375387465,
            -0.3345071308629349,
            0.33482449701144357,
            1.079845905221502,
            -0.26496842019400935,
            -0.9161043759168477,
            0.7732660021332056,
            -0.5160270564109528,
            0.4509550419592204,
            0.40363281256111005,
            -1.610365715546129,
            1.0689165927686213,
            0.2077209026388105,
            -0.24674973016646665,
            -0.8594139818880169,
            -0.8777887970580309,
            -0.4477998679775541,
            -0.9025987228731159,
            -0.3301529343277205,
            0.9532036626344487,
            -0.8730814379727752,
            0.38880045314869993,
            0.48052446556297035,
            1.2831872549434151,
            -0.167554404875621,
            -0.04364106485038732,
            0.474853951959209,
            0.3699693536111902,
            0.1661830285793473,
            1.0996135824970936,
            0.004470354794271492,
            -0.8873120968510334,
            -0.37416942434264133,
            0.7533663117582894,
            0.8280993934359597,
            0.5062553512541087,
            0.046120495390202354,
            1.1288345476913042,
            -0.3023607345662276,
            -0.9306374037028975,
            -0.2844550026082676,
            -0.15881323068530295,
            0.5370860472005499,
            -0.02857337022405715,
            0.9772110206494808,
            0.8515706754983754,
            0.21493461010877102,
            1.2756228857967806,
            -0.4964249395411955,
            0.9566860709193747,
            0.2562437084923588,
            1.4951231121030677,
            -1.0718303416833674,
            -0.6230830101030864,
            0.688456298053137,
            -0.23590455881228345,
            -0.26002863384559516,
            0.9110551142837646,
            -0.5559192546717695,
            0.8578585943941053,
            -0.008550973357421388,
            1.2683714442004421,
            0.33822672387470987,
            0.5679385784255837,
            0.5885714142703788,
            -0.7025286225737494,
            0.3564703715893821,
            -0.10343514284912625,
            0.9840946067961058,
            0.6010839039109808,
            -0.5196296791986417,
            0.3420684826000929,
            0.36481249781684255,
            0.27127626963866525,
            0.5075617401902179,
            -0.30566347139631683,
            -1.3896049650067235,
            0.9265037144223143,
            -0.8089238633671731,
            -0.7038451447811562,
            0.43478348213117013,
            -0.5304985422951314,
            0.6671665588433378,
            -0.44084561863341576,
            0.2673785587834352,
            -0.48121519446737615,
            0.2741375942688821,
            -1.036247543023479,
            0.26842673239871,
            -0.3032694677543504,
            0.9483074500009383,
            0.5772938314849687,
            -0.5854413095199428,
            -0.29944426305518046,
            -0.025247963469315553,
            -0.46210623066444456,
            0.9706758080555993,
            0.34802875798395894,
            0.5140322302918946,
            0.2820277825186467,
            -0.9766040383797328,
            1.1425528694351765,
            0.869555601485795,
            -0.23906577872248858,
            -0.23083240836703056,
            -0.8109932296211009,
            -0.3629559344307225,
            -0.4216390412668749,
            -1.4348438467503282,
            1.0843381125576297,
            -0.9824908055733855,
            0.2826073025985183,
            0.903230214314078,
            0.19456478443367275,
            -0.004302678468569354,
            -0.6045105969602445,
            0.3727421721511221,
            0.4443799976254246,
            0.4496991678917389,
            -0.3962588168165819,
            -0.8851924085443745,
            0.3256118359007407,
            1.326393417423335,
            -0.9442104459435618,
            0.34549642468483666,
            -1.0393033241504823,
            -0.19234181421870866,
            0.9765581629009846,
            -0.5527282990777336,
            1.0071855797436138,
            -1.3521238961999391,
            -0.8607755897996218,
            0.7698001911671115,
            -2.243746707691183,
            -0.7671532300209476,
            -0.12030362600862898,
            -0.28480619218333236,
            -0.6258176055839029,
            0.2489436392554445,
            -0.31004552700597765,
            0.8477884108974374,
            0.39939005853123305,
            0.1981557381786454,
            0.4342578782705508,
            0.7740645478346544,
            0.6288418237292236,
            0.814008694640374,
            -0.24964908515732126,
            0.3889987105731124,
            0.11454057341410984,
            1.2150725404022489,
            0.683459822352187,
            0.5059667553902836,
            0.417443527132967,
            0.2641688616165718,
            0.6858558630422762,
            0.49423902236545647,
            -1.769910558698374,
            0.531224094482927,
            1.501128245815389,
            -0.46500661133597654,
            0.7054107396859146,
            0.14200768906420236,
            0.7432328702234048,
            0.9348288644735163,
            0.6044185798551587,
            -0.2048640247031841,
            -1.6685863952466529,
            -1.1029330860049291,
            -0.9219061239101303,
            -0.07193418656233219,
            -0.6984846828148057,
            -0.9333165441467263,
            0.7706513100884911,
            -1.3418596281650697,
            0.4327233810497466,
            -0.2658928974965463,
            0.8183264084261768,
            1.3592475041880214,
            -0.009111607214964623,
            -0.6875706403353625,
            0.2714304653092736,
            -1.0970206029432799,
            0.631031420198199,
            -0.7142606768717972,
            0.10638833746706022,
            0.10762044345391386,
            0.8069029050364462,
            0.3831830863941834,
            -1.2261097300195938,
            -0.5904614501666714,
            -0.3416955884809525,
            -0.06637507787752692,
            -1.4690793249934155,
            -1.551935047073733,
            1.1626773274756905,
            -0.18881587759680407,
            0.5888311829435795,
            -0.08865931971180996,
            0.45466632360984427,
            -0.3512457146957664,
            0.21163240517167559,
            -0.3013738410806792,
            -0.17511221064618954,
            -1.0390999753390138,
            -0.4517937067330078,
            -0.016515143629008744,
            -0.8485731624115531,
            0.4732676970018094,
            1.4751207258543482,
            0.7390888496094373,
            -0.518355313024847,
            0.37579300793807313,
            -2.7031510495166318,
            0.16259109710874553,
            1.0276440429198213,
            0.23853330460321454,
            0.4588903789736424,
            0.7570457554731842,
            0.7931380419640439,
            0.46242246787554153,
            0.8895558023227988,
            -0.7816483240029259,
            -0.9602105491904976,
            0.7932598826888072,
            -0.5105244533522291,
            0.08403067487333304,
            -0.12111955742348435,
            1.2185489677969739,
            -0.4642050294039769,
            0.46013564481101016,
            -0.4851211341744981,
            -0.8987284583367234,
            -0.6153408972009691,
            1.3434901717664327,
            0.0870971643226563,
            -0.5521278495343547,
            -0.6764874246781489,
            -1.4516666693970497,
            0.9448173360082972,
            0.8143437994684686,
            -1.1826747887118567,
            0.0027743183145783057,
            -0.7262177378298036,
            0.6531551415810117,
            0.49447106301136834,
            0.971968785444404,
            -0.6520888310812218,
            -0.23292810007428782,
            -0.7877878436117189,
            0.7533018035151283,
            -0.5578942787565632,
            -1.1021635648896424,
            0.9819997490365013,
            0.7205037880811274,
            0.7409651508043469,
            -0.8024635962759534,
            -0.6357278282797609,
            -0.6929398705580759,
            -0.2824385770845995,
            0.7803010817069598,
            -0.12142844073767822,
            -0.793280251510299,
            0.6673330159950456,
            -0.763226321054278,
            0.8587009197561066,
            0.4239905805200268,
            0.85265135253761,
            -0.1629986335997653,
            -0.5233090828745497,
            0.7469523178007574,
            0.695480147592388,
            -0.06336820667208243,
            0.29541726283888503,
            0.21273695292637684,
            -0.061328433841371766,
            -0.5582539197217713,
            0.983937014676245,
            0.010111022676188644,
            0.522942504952206,
            0.1650838526284159,
            -1.4189121535624616,
            -0.7262399101751211,
            0.19627927447796134,
            0.8781265863032719,
            0.4862898803366418,
            -0.1625278048943979,
            0.2854188381601991,
            -0.7913896309403936,
            -0.2912071533994981,
            -0.7527608264766348,
            1.1547341189354547,
            0.9014261706727569,
            -0.5645498733968674,
            -0.9937098042657464,
            -0.20901853805015225,
            -0.4078209613078403,
            1.2950493124314595,
            -0.043946783675203216,
            -1.2392046181932348,
            -1.270847980858587,
            0.4122114763201507,
            -0.5226428400453691,
            -1.264363073127665,
            -0.7020398271954995,
            0.7896924439640027,
            0.9297265576964133,
            -0.41108151570554075,
            -0.0702357322924565,
            -1.1952701154885454,
            -0.055612072142358415,
            0.19099929256442277,
            0.8713058445834865,
            -0.5332229169830849,
            0.19017757530386506,
            -0.720603728102645,
            -1.1983801159539014,
            0.02208138287187511,
            -0.12017296610307904,
            0.16811784472614638,
            0.7616164371271947,
            1.337712587258243,
            -0.8873462782634136,
            -0.7347149344614974,
            0.09710781680467215,
            -0.9667017780215834,
            0.9621484743582218,
            -0.3318273398563404,
            0.15593050539789377,
            -0.9350335318427836,
            0.12956484042806604,
            -0.3859583349030826,
            1.1162099540091472,
            0.24126571079102696,
            -2.6311570182690653,
            0.8182624129044356,
            0.35161075512109474,
            -1.121002184138479,
            0.7441477551011333,
            -1.735426819667421,
            -0.685452349268346,
            -0.006053654421896093,
            0.8682463428048866,
            0.901454698723684,
            -0.13716779636318877,
            -1.0298011473600066,
            0.6206506322957132,
            -0.06724407540471461,
            -0.7581467755540767,
            0.9969782327660996,
            -0.5814223691691025,
            -0.417161968528756,
            -1.2124711165513489,
            -0.4803000316456131,
            -1.2518953103596044,
            1.1843840890840815,
            0.6470910448493981,
            0.6742679764175965,
            0.32506624047027044,
            0.6694533557088675,
            1.3004139361832214,
            0.32910249655187096,
            1.609557567316152,
            -0.17855440686704904,
            -0.5738115954817894,
            0.03891013782306052,
            1.1714977960816046,
            1.066422458140803,
            -0.06560275889342759,
            0.06843580953358974,
            -1.184007247912713,
            -0.13452153347926565,
            0.228060253579792,
            -0.3861662985105103,
            0.6068995857990924,
            0.21015079990049693,
            0.15273486560272054,
            0.4435181196330406,
            -0.7468657431907046,
            0.008208392595015601,
            -0.7228385238505994,
            1.2619467689476442,
            -0.6090798028380024,
            -0.11987641118668005,
            0.04704563200296724,
            0.6275429352104062,
            0.165367772610593,
            -0.9125372591361449,
            0.3265605879639244,
            -0.5680007133072267,
            0.17222682788597998,
            -0.14803089051357698,
            -0.41059134841359146,
            -0.7645302571196908,
            0.06394140373687307,
            -0.04230589716043176,
            -0.30484786226717886,
            -0.296631609222574,
            1.2844553130650946,
            -0.7542194141682739,
            -1.6317447954430455,
            0.9370355048153387,
            0.5465040402539787,
            -0.5744015980641268,
            -0.5398041471149428,
            -1.154272190327837,
            -0.2531883632046856,
            -0.3970869205895817,
            0.04660154502086544,
            0.40013673669425603,
            0.7224348441682973,
            -0.04597416371367094,
            -0.005667809037320115,
            -0.6160390802505367,
            -0.7694666952874489,
            -0.8494735821602353,
            -0.6602704859209036,
            0.048473334732258344,
            0.3187229745110738,
            -0.45916729926164856,
            1.0759544758493165,
            -0.04767643824397701,
            0.36030265104321124,
            0.927680272784902,
            0.07151932669679129,
            0.557955997918779,
            -0.7984360199934468,
            -0.22988813293917953,
            1.01414542720911,
            -1.201512864779775,
            -0.46990469201181984,
            0.647088837333558,
            -0.519007840536871,
            0.6576290063400458,
            0.28523086193183333,
            0.41465766213369126,
            -0.6073071177813825,
            1.6690527346924158,
            -0.48031748289453546,
            1.9080743569028633,
            -0.26180703323500065,
            0.005870068483827762,
            -0.35525332165375145,
            -0.5581781812110114,
            0.5953646096723414,
            0.6859774731371746,
            0.971843739725275,
            0.6797103945181002,
            0.6119650708988755,
            -0.36474125100099886,
            0.015476355578511125,
            0.38652626737116313,
            -0.4584864999992986,
            0.13343877918482894,
            0.36600029091533326,
            -0.9872163200976842,
            -0.5460822886964215,
            -0.09737914726997388,
            0.025889555265617425,
            -0.7529594337276218,
            -0.9626942787076531,
            -0.21928587534696467,
            0.6370515214372479,
            -0.9258990113893248,
            -0.7566262011746734,
            -0.5042029040089829,
            0.3699765498190423,
            1.005357788630112,
            -0.020547333985151184,
            -0.061877646665580266,
            0.9544942720960192,
            -1.1676989940721665,
            -0.04544718447363616,
            -0.9608655611124197,
            -0.6874913136153802,
            0.5371805669228924,
            0.9447288614428628,
            -0.16189659861726935,
            -0.40148089106289564,
            0.0906141096636841,
            -0.6203142004927243,
            1.6948054416557097,
            0.6550834409357131,
            -0.34183788247910774,
            1.45518035584568,
            0.24109724067191207,
            0.35940323525082507,
            -0.6010354433190099,
            -0.04191171265786697,
            0.19235352983457576,
            0.10903435559272512,
            -0.658541484515036,
            0.4002173886053734,
            -0.7479769633236197,
            -0.7384629623706405,
            0.18069016268831706,
            -0.21353396365442012,
            0.6265487642347711,
            0.24622505662848437,
            -0.2174637395896855,
            0.4181736624421071,
            0.08344791279489588,
            -0.3648898487026796,
            0.6970463896046559,
            0.2723256974201227,
            0.08057346627333217,
            0.8600276106577275,
            -0.2432118712220068,
            0.4971716196366859,
            0.30645480034047057,
            -0.016258304320118433,
            0.9600228045689302,
            0.572215225903311,
            -0.060570811452768075,
            -0.5831999393137492,
            -0.35869073496035664,
            0.2268124412752994,
            0.2665229882773863,
            -0.17171213518378697,
            0.6699636974794365,
            0.46345389861514935,
            1.2482337461263406,
            -0.5846050882549978,
            -0.7819753770397105,
            -0.2245971576426522,
            -0.9582053654265935,
            0.2805020480080649,
            -1.557891062519789,
            1.0304529015047137,
            -0.18969667443627553,
            -0.2857467410264527,
            -0.1773447154278947,
            -0.48705687909527384,
            0.3030621340696158,
            0.8290657352584851,
            0.3880138193257379,
            -0.4138764193854318,
            0.34277961570942583,
            -0.4425839821185571,
            0.788241948968456,
            0.4821840052048336,
            0.6569450746653496,
            -0.765431656398287,
            -0.2822553790797395,
            0.4424445512437445,
            0.7721423876156912,
            -0.9072504127976161,
            1.6467808977605312,
            -0.2702326514549023,
            -0.8069537985151289,
            -0.3334433268635135,
            1.1657745505446635,
            -0.9872454701315285,
            -0.06166041769405406,
            1.189543893828796,
            1.3457012205497938,
            0.48494418730880573,
            0.06416676121879689,
            0.6563754472901742,
            1.0999191476336487,
            0.4412688568941656,
            0.8457867707853803,
            0.9049054778907151,
            0.8821147549635115,
            0.9811329245335365,
            -0.8661162876127289,
            -0.8031502304349385,
            0.4479059212185932,
            0.04333033045405488,
            0.5594342326741799,
            0.4446158967981637,
            0.6944869254040527,
            0.6150681822143567,
            -0.941250491166843,
            -1.0549675004844072,
            1.3965178100115412,
            -0.3722994261288526,
            -0.3267200070540682,
            -0.17953993326514428,
            -0.13262883835504602,
            -0.7570266920026048,
            0.28556457426713905,
            -0.3187846448580865,
            0.15865725764133765,
            -0.7842791640677973,
            -0.5292667045953295,
            1.0505661006706803,
            -0.2735084331817841,
            -0.5721574009903345,
            0.9057440629939102,
            -0.4270950903342805,
            0.49471555699549397,
            -0.049462665298841024,
            -1.2943619765193588,
            -0.7052745644709162,
            -0.8905468064866952,
            0.15481589972375343,
            0.8870516750401987,
            0.1195221082241944,
            -0.3701089002294262,
            0.1270651569554316,
            -0.886069898189906,
            0.0539443932283854,
            0.6892138658513429,
            -0.5862132772508306,
            -0.7030966621392362,
            0.4347444909626715,
            0.906909335298334,
            0.6881244973724828,
            0.27364582401298165,
            0.9783175747124759,
            -0.6015630169538899,
            0.44638848382828167,
            0.6894042049059164,
            -0.19674171346181363,
            -0.824100025645074,
            -0.4841539199040763,
            0.8387581189615791,
            -0.2159251811901641,
            0.3838663390838372,
            -0.5743422690642787,
            0.4837218765217344,
            -0.7285954252891591,
            0.5462873594366882,
            -0.282775307287223,
            -0.07155362251048053,
            0.5962675201181051,
            -1.6603553946378669,
            0.7178000417568846,
            0.6280569755953058,
            0.8060131372847035,
            -0.30481409209623656,
            0.7270323870978577,
            -0.6126401709539504,
            0.20542490864603313,
            0.17270690473746797,
            -0.5885388805654479,
            -0.3794998827621713,
            -1.689996735410994,
            0.8247407076643696,
            0.14811030032141426,
            0.005231563160518871,
            1.3828461361626418,
            0.7373991335939596,
            -0.7296185342371782,
            1.7889848245274715,
            -0.3786752792778023,
            0.05420508041012262,
            -0.5789400695174718,
            0.13875066605655495,
            -0.19832359769086438,
            0.5305680457539258,
            0.09861254028744015,
            0.6484032507020248
          ],
          "numRows": 16,
          "numCols": 45
        }
      },
      "ops": {
        "type": "org.ejml.simple.ops.SimpleOperations_DDRM",
        "data": {}
      }
    },
    {
      "mat": {
        "type": "org.ejml.data.DMatrixRMaj",
        "data": {
          "data": [
            -0.2747905474251725,
            0.1862291711038111,
            0.410640764274942,
            -0.4429034757170356,
            0.14661945495514164,
            -0.16907733941948613,
            -0.2513411529481193,
            0.8050516701347321,
            -0.9870326608809235,
            -0.5626510581991935,
            0.07494726570724863,
            -0.045362135428487244,
            -0.6855848636371678,
            0.17963456892020568,
            -0.7502961483653409,
            -0.08389084388110102,
            -0.4897074935752186,
            -0.8379214025153163,
            -0.11668536081398884,
            0.8770549379379359,
            0.5282164400632331,
            -0.6812080069632629,
            0.9781943176378123,
            1.518789312666731,
            -0.921222559297574,
            -0.8815554011690827,
            0.954690445382514,
            -0.5426609802863815,
            0.7201670489802905,
            0.4048887997205434,
            -0.26940773944542507,
            -0.1069699897483356,
            0.015333364763399498,
            -1.0215343357698086,
            0.5406599522754603,
            -0.5825167934705116,
            0.9408039553882939,
            0.44011214018841227,
            0.5021796246063182,
            0.2500334050420334,
            1.5218331366939335,
            0.8605479052379374,
            0.227322981155196,
            -0.1630124072107486,
            -0.2375572576628786,
            1.1707842219259268,
            -0.21596998875598222,
            -1.238913649899966,
            0.03948065999437933,
            0.16182240299639564,
            0.1801365568622395,
            0.1245934370269357,
            0.0018271178069775296,
            0.4253812840031572,
            0.491040830386986,
            -0.5205365792158876,
            -0.029856369621015455,
            0.005095470309788075,
            -0.6044484791096669,
            -1.200286290596765,
            -0.3156974304921638,
            0.9843998446129935,
            0.8069289077518296,
            -2.0983683858298394,
            -0.5410768904326293,
            0.7516282363487501,
            0.12111666909142982,
            -1.0688428604040179,
            -0.09963400964455649,
            -0.6874833396419486,
            0.38471556198854345,
            0.5124740465219901,
            -0.4533515554780456,
            -0.5482004972735621,
            -0.7522136986718893,
            -0.8112519642747957,
            -0.39689445499491427,
            -1.0974765213422104,
            -0.6204183916235083,
            -0.6593034918075331,
            -0.6644426348053059,
            0.5916880786329675,
            -0.31355015226945526,
            1.82357848479157,
            0.6627730753044787,
            -0.17772886260221843,
            -0.2019775325706763,
            0.4486009588820336,
            -0.8188759693160459,
            0.42949785948985464,
            0.7078563106531891,
            0.7053780292086052,
            0.6435618680508914,
            1.0843511292179624,
            0.9707004032426387,
            1.0917236886703277,
            0.04021952553415309,
            2.316061533609357,
            -0.07445525544185094,
            0.6447237343741472,
            0.6739981939403143,
            -1.5979524236377078,
            0.016970207300136986,
            -0.7639116015323852,
            -0.5910582996430211,
            1.6031227121958758,
            -0.8819470911325609,
            -1.1594163216874482,
            0.13141060582093989,
            -0.2526658036571554,
            -0.1695518203969324,
            -0.10531682553475874,
            -1.181473790913497,
            -2.2724206538168286,
            -0.9765031125988022,
            -0.6023786992077627,
            0.762172376947291,
            0.5329483522792856,
            0.5760754815511656,
            0.6865775456041141,
            -0.15855304539885662,
            1.0524593336308592,
            0.55991330991109,
            0.1320622809028677,
            -0.40293357929893325,
            1.4714261878340256,
            -0.022846614911510965,
            0.3449439096948217,
            -0.712334996211063,
            0.7802205428991428,
            -0.7325667122688362,
            1.859561316106236,
            -1.482762585520052,
            -0.5146257738018325,
            0.1799220178107761,
            -0.7942622272711258,
            0.7382942087008655,
            -0.004129452282424895,
            -0.12287813723761654,
            -1.4139246146829805,
            0.1338836935290818,
            -0.4798271249167829,
            0.46665043736211087,
            0.17191256802501265,
            1.3086717841578661,
            0.47544978698911183,
            0.9376109358340083,
            0.3448717845954967,
            -0.09610566165593504,
            0.5583973164317393,
            0.6195394475762035,
            -0.39672839049500885,
            0.3570051627750237,
            -0.8750178071946813,
            0.31795200143577707,
            -0.186001300753031,
            -0.08611534137449972,
            -0.6360329830725955,
            0.0033771447675772226,
            -0.07351984339195383,
            -0.5590930892468827,
            0.8305878444322501,
            1.3061090604163403,
            -0.50527089037069,
            -0.685924346524549,
            0.20074956736626537,
            0.8374818137328424,
            0.7120335748329549,
            -0.5186338096999069,
            0.6645637123483337,
            -0.949648543934168,
            0.3359108758235776,
            0.15217866107053601,
            0.3638011913523984,
            -0.4678060599510081,
            -0.574870526171988,
            -0.16712156501120745,
            -0.17800169246322248,
            -0.8470696633194922,
            0.17550679465388824,
            0.7482776833298949,
            1.4299457809411775,
            -0.3136883911069269,
            0.2518266892896284,
            -0.3403296940539665,
            -0.06313565269394328,
            -0.7637944341399776,
            -0.8543325474744528,
            -0.47021474835117694,
            1.4188434771697749,
            -0.523697129757013,
            -0.47176909019316193,
            -0.8037593805724108,
            0.7103342875304938,
            0.3394890105537822,
            0.7848868438530303,
            -0.6527685390801246,
            -0.031385141082477086,
            0.007125159158180683,
            0.6286269842266035,
            0.8979305919638754,
            0.16796249586394885,
            -0.25853994645770495,
            0.02454045393715165,
            0.9603580311251654,
            -0.9813327345489345,
            0.02665705368716642,
            0.1257982001505067,
            -0.10502976881159065,
            0.4574011476676444,
            0.2096959093452921,
            -0.11546924011228277,
            -0.507920667353012,
            -2.0482590518064208,
            0.7656652832196915,
            -1.016804788435659,
            -0.04331550456718847,
            0.7433893388568902,
            0.42203787359547085,
            -1.0880667863997466,
            -0.2893226416875485,
            0.7914048593357246,
            0.21003144200703755,
            0.9191474634696757,
            1.082040867861422,
            -0.6456046945772376,
            0.760153475298175,
            0.7341661321038311,
            0.7149212495778403,
            0.7680964835171387,
            0.30670049042621383,
            -0.15127655592092337,
            -0.03348667748232259,
            -1.0667131940598715,
            -0.19232881946512873,
            1.4336814342856377,
            -1.384513826515894,
            -0.5205152810189198,
            0.8364961086933715,
            -0.9918919856174462,
            -0.6198918660847441,
            -0.4104547920601658,
            0.3650776460401626,
            0.9853967097656255,
            -1.2682280670448254,
            0.2685594776745499,
            0.8928489494097704,
            0.4425517325085512,
            -0.004280524810873265,
            -0.16230661383944245,
            -1.0409858284077302,
            0.2863522493817096,
            0.6632219516174309,
            -0.14700388811037712,
            -0.8424164946410806,
            0.21326240292594356
          ],
          "numRows": 16,
          "numCols": 16
        }
      },
      "ops": {
        "type": "org.ejml.simple.ops.SimpleOperations_DDRM",
        "data": {}
      }
    },
    {
      "mat": {
        "type": "org.ejml.data.DMatrixRMaj",
        "data": {
          "data": [
            0.7803558331022626,
            -0.2677512359154226,
            0.7142627967897167,
            0.9048926953582432,
            0.9155239830896145,
            1.7116930121094873,
            0.37632584551191894,
            0.8452425261168295,
            -1.8158226830804751,
            -0.2852854012703531,
            0.8704960082470421,
            0.5093921710877558,
            0.9730851094452027,
            0.7586208275199082,
            0.807532394193875,
            0.4843103353624447,
            -0.41624519853096587,
            -0.39975755667128166,
            1.299213205940394,
            -0.14497711311130757,
            -0.3212380335806555,
            0.04175794230467733,
            0.9574486807137998,
            1.191118489565865,
            0.9274770146847285,
            0.8821909086217956,
            0.96050225556197,
            0.049220471767035034,
            0.9055768228421204,
            0.20102618713729148,
            1.2198598982191542,
            0.24112386880072645,
            -1.2636253522160188,
            0.4161063819997901,
            -1.693436647878898,
            -0.18588152051379558,
            -0.9868756979780466,
            -0.18761477206615304,
            -0.11456477530294906,
            0.1774258230689374,
            0.21123993453177636,
            -0.4081505272828303,
            -0.15562435234157335,
            1.9388041500238526,
            0.33840436289558506,
            -0.5235876277077197,
            -0.5299791165042882,
            -1.1433538345562106,
            -0.09269074869383664,
            0.8272736256865929,
            -1.9476299907250825,
            -0.591695040388734,
            -0.9274476248893491,
            0.1375616473310186,
            -0.5669777478630282,
            -1.1408277902707686,
            -0.9492274343784697,
            0.2974904561849973,
            -0.7575859900031436,
            -1.522733554223107,
            0.18512237478139426,
            0.41684274776641217,
            -0.27495605959773606,
            -0.4873548655063018,
            -0.7228614601234165,
            -0.9248594191169217,
            -0.7929853825783333,
            -0.1352998946927761,
            -0.4861047260195922,
            -0.855046166944454,
            -1.0097701029719315,
            -0.35137119407628475,
            0.07463413511241462,
            -0.07020618308894955,
            0.5267517663803143,
            -0.3739485600990652,
            0.34282555952529736,
            -0.2126461443543508,
            2.2400744217822393,
            -0.5481286991730661,
            -0.39420619331029655,
            -0.5683403262160502,
            0.7170082244165914,
            0.21109275992505216,
            -0.6791501615559689,
            -1.4374647023926714,
            -0.043715818414118646,
            1.2450220176755695,
            0.6453614669895429,
            0.7691202565911905,
            -0.39076806219269766,
            1.2528798546700561,
            -1.2001729350953636,
            -0.24830022834217336,
            0.22200454878256282,
            -0.28570507665283196,
            0.016321217446109038,
            0.3272621276830592,
            0.2060488945517307,
            2.2142820865861905,
            -0.6186650941020808,
            0.9221989225416791,
            0.07707390698936986,
            0.7227177917790666,
            -0.7093796962276511,
            0.8055664128077362,
            0.566804030007759,
            -0.31945753655870557,
            -0.0876434295561237,
            0.4744594599137329,
            0.6210757460296141,
            -0.21077947607097913,
            -0.31579346439940625,
            0.7368824757072143,
            0.09713863430147462,
            -1.0277382212886559,
            0.8502229947785609,
            0.7546247415818093,
            -0.039722086483567676,
            -0.37428276442498337,
            1.1728561191584894,
            -0.28661496375352713,
            0.608362386547227,
            -0.7024132563169402,
            0.8421475323884342,
            -0.12313057055235588,
            -0.466433372735113,
            -0.6090191543576546
          ],
          "numRows": 8,
          "numCols": 16
        }
      },
      "ops": {
        "type": "org.ejml.simple.ops.SimpleOperations_DDRM",
        "data": {}
      }
    }
  ],
  "biases": [
    {
      "mat": {
        "type": "org.ejml.data.DMatrixRMaj",
        "data": {
          "data": [
            -0.0919227244569003,
            0.3790151388532583,
            -0.14970900946078203,
            0.880008803872255,
            -0.6059613912799271,
            -1.7099512880349668,
            0.918132765817985,
            -0.27044718185115624,
            -0.6877059950570408,
            -0.36210083439424395,
            1.2376461469682847,
            -0.38248079633493237,
            0.5271101873218016,
            0.42072277450966034,
            0.3255916372380297,
            1.0685498284892196
          ],
          "numRows": 16,
          "numCols": 1
        }
      },
      "ops": {
        "type": "org.ejml.simple.ops.SimpleOperations_DDRM",
        "data": {}
      }
    },
    {
      "mat": {
        "type": "org.ejml.data.DMatrixRMaj",
        "data": {
          "data": [
            0.8361898947409989,
            0.17360877245847628,
            0.003692141801449944,
            0.03944959383397073,
            0.6678606598925871,
            0.30741500130766086,
            -0.3190161432671814,
            0.8970235226920285,
            0.9299090534966463,
            0.3930783676794152,
            -0.9041462827641151,
            -0.7616497530414525,
            1.4933702940110134,
            -0.013350667799649885,
            -0.07822569697514481,
            -0.1388527501874961
          ],
          "numRows": 16,
          "numCols": 1
        }
      },
      "ops": {
        "type": "org.ejml.simple.ops.SimpleOperations_DDRM",
        "data": {}
      }
    },
    {
      "mat": {
        "type": "org.ejml.data.DMatrixRMaj",
        "data": {
          "data": [
            0.6999976941670112,
            1.7240516628257718,
            -0.9899351260485163,
            -0.9319876847487729,
            0.40909876042942717,
            0.3687173689939849,
            0.6841937604920734,
            0.9124222646695468
          ],
          "numRows": 8,
          "numCols": 1
        }
      },
      "ops": {
        "type": "org.ejml.simple.ops.SimpleOperations_DDRM",
        "data": {}
      }
    }
  ],
  "learningRate": 0.1,
  "activationFunctionKey": "SIGMOID"
}