{
  "activationFunctionFactory": {
    "activationFunctionMap": {
      "TANH": {
        "type": "basicneuralnetwork.activationfunctions.TanhActivationFunction",
        "data": {}
      },
      "RELU": {
        "type": "basicneuralnetwork.activationfunctions.ReLuActivationFunction",
        "data": {}
      },
      "SIGMOID": {
        "type": "basicneuralnetwork.activationfunctions.SigmoidActivationFunction",
        "data": {}
      }
    }
  },
  "random": {
    "seed": 203766843578557,
    "nextNextGaussian": 0.26151243725381834,
    "haveNextNextGaussian": false
  },
  "inputNodes": 45,
  "hiddenLayers": 2,
  "hiddenNodes": 16,
  "outputNodes": 8,
  "weights": [
    {
      "mat": {
        "type": "org.ejml.data.DMatrixRMaj",
        "data": {
          "data": [
            0.22181323177391044,
            0.534510900189969,
            -0.2489700568694979,
            1.7203354278133285,
            1.6920181059454942,
            0.8369651810514684,
            0.8815023561939881,
            0.8501388640571815,
            0.759799898869576,
            -0.37058088473821504,
            1.9756792964924432,
            0.6337953203111785,
            0.6604272822759234,
            2.2858244300233923,
            -1.2390161425589281,
            0.866622375895312,
            0.20798925725676232,
            0.06345062513202804,
            0.5596121158053493,
            0.6042302565583859,
            0.18102196803492748,
            0.8223127821145555,
            1.8443431754003439,
            -0.2544951382718894,
            -0.09834311345107907,
            -0.8134305421646371,
            -1.8046496606376092,
            -0.8878253677407492,
            3.089009708422963E-4,
            -0.12421346153995971,
            1.1678125841893188,
            0.028799559175125777,
            -1.5266043439742405,
            2.5228891350587466,
            -0.24009602469693014,
            0.7276713639862733,
            1.275272820505523,
            1.3730028355211743,
            -0.852882410902473,
            0.13478710321558754,
            -0.283016047917916,
            0.15284483107909133,
            0.7848071505737921,
            0.9455454897568651,
            0.753136795284994,
            -0.10656663201594946,
            -0.9405097034251119,
            -1.2096292367367938,
            -1.4268737397673987,
            -2.337067184138979,
            0.30672659043400025,
            0.5215241660995802,
            -0.9283693131707007,
            1.818334810544928,
            0.842722903526996,
            -0.06321639407922228,
            0.3027095916877462,
            -0.47633451295439944,
            -0.6339030255790779,
            -0.8389920724139462,
            4.139981989298496,
            0.009700599031937013,
            -2.3879272729699164,
            -0.3683417191788242,
            -0.3322986567758276,
            -0.891426263980881,
            0.86566457455077,
            -1.53791980799443,
            -0.5804123152855756,
            -0.10397211372319776,
            0.025299883961699243,
            1.5350581559011203,
            0.7460055160868649,
            -0.5875228333374105,
            -0.8235733509146205,
            1.0200584311842873,
            0.21818987002770623,
            0.696717490199329,
            0.814485475761192,
            -0.2147035747668915,
            -0.9477288303382738,
            -0.6520285087747588,
            1.041939429968029,
            -0.5311551013383005,
            0.4739638031355219,
            -2.3172908922124194,
            -0.06517568896283749,
            1.965610828026152,
            0.5359997946377812,
            0.2318915769289066,
            -0.21832991163268867,
            -0.5158830170081716,
            0.3025305647637457,
            -0.060523304845381154,
            -0.2616976338682454,
            0.8538467075504832,
            -0.6105978323533457,
            -0.8024072070560975,
            1.6037472289991703,
            2.313153129411624,
            0.3386470290116249,
            0.9758978898233365,
            1.8337263137751392,
            0.11744053888256692,
            0.09478605075252394,
            0.8212048683396675,
            1.019656352852106,
            -0.9955611281807614,
            0.18401384818681252,
            -1.3354627202249771,
            -1.1434913961917161,
            -0.08375766061285167,
            -2.375335666371154,
            -0.4359853089938206,
            -0.7230944545884246,
            -0.3570453910738972,
            0.2303498178997867,
            0.1215513188275068,
            -0.325992335573554,
            -1.3874640042136706,
            0.712847647180137,
            0.9825145432258177,
            -2.146244410235741,
            -0.6301135909172342,
            -0.7318993303044855,
            1.5017483694226303,
            -1.010742791779173,
            -0.16536648141875698,
            0.378626599224159,
            -0.35747342272548743,
            1.2990366542698477,
            -0.11934689448429397,
            0.04849696860868724,
            -0.7601020731894211,
            -1.2829419070141368,
            -1.9349439589736315,
            0.730732167940848,
            -0.0192261156492465,
            -0.7172640043426824,
            -0.28643813255476014,
            0.8198628629128859,
            -0.040035320242778116,
            -0.6922665306830738,
            0.3031436444980905,
            0.6961390957798624,
            0.863501852496378,
            0.5089566875275832,
            0.7433705865133866,
            -0.3253879635179026,
            -0.2824657274876018,
            -0.35819269698127465,
            -0.18363225690630125,
            -0.8799197283172215,
            0.4142411649911499,
            0.5776386204137763,
            1.8999730461144955,
            -0.9072171194381502,
            0.2887420678146931,
            -0.8387747865360289,
            0.594653841734587,
            -0.4675215031914121,
            -0.4486863474476057,
            0.26181582672206816,
            -0.6848285868640668,
            -0.04431119633372879,
            2.2725914306399475,
            0.6394303727618159,
            -2.118178069145811,
            0.1737284423862695,
            -0.3409407506356885,
            0.6718816504899502,
            1.1496132038934204,
            -0.030930364118814724,
            2.880102904037061,
            -0.45830562463590885,
            0.7698536077201678,
            -1.022483017060163,
            -0.005453550027413545,
            -0.4286945663581128,
            0.49727263763326335,
            -0.07873440982600029,
            1.3891337974207838,
            1.3892689826839728,
            0.2940406011375067,
            0.11889844112257553,
            0.30717551566911216,
            0.1687463814521681,
            -1.367196788953266,
            -0.08887656286021267,
            0.20756435914087268,
            2.0049269389077367,
            0.0745414093941199,
            -0.2632146348950215,
            -0.5993295299689296,
            0.23862410992963462,
            0.8180598604835858,
            1.1921945111085623,
            -0.927132902193514,
            -0.7109424577023012,
            -1.3304718998964657,
            0.4672082648910144,
            1.3414966228936342,
            0.021903388493502374,
            -0.3114571391001427,
            0.06053258488039531,
            -1.1715752185871522,
            -0.9237690606951579,
            -2.1486476814496447,
            0.24635031599628476,
            0.8749317475856555,
            0.3511584926749125,
            0.3903025039909569,
            0.1643354555830565,
            -0.9754019029250292,
            -0.5185154214645686,
            -0.19790435712643845,
            -0.39837662636894683,
            1.5955175512467976,
            0.9044727389381152,
            0.3265516069713825,
            -0.45684571414019204,
            -1.1357867556503836,
            -0.4600809747673995,
            0.945187360533388,
            -0.7870491964858936,
            0.23087446453458468,
            0.49471983176307266,
            -0.8276559729432418,
            -0.8167619363775522,
            0.7190028241419686,
            -0.26039870315170904,
            -0.7507247218480858,
            0.21785809067267345,
            0.38295654210102426,
            -1.7012167686548931,
            -0.7228495110532205,
            1.3703843797177677,
            -1.532251032757947,
            0.3943168907569053,
            -0.9430799829827572,
            0.5437250608174053,
            -0.4676043716106221,
            0.46524286743806703,
            -0.4228302030803035,
            1.798124475877372,
            -0.3078670315181674,
            -1.0851610956934814,
            0.5581684713039716,
            0.10791114129121653,
            1.2490297433886128,
            0.7189443202394878,
            0.10245278312278208,
            0.24321723915227095,
            -0.270993727029319,
            -0.41839560087489347,
            0.9508422114011474,
            -0.05948773447146394,
            1.65213343597769,
            0.7608501050257432,
            0.010698477201618317,
            0.04105568544741248,
            -0.7243833221269741,
            -1.3233405537548102,
            0.5490938674553132,
            -0.6853568757042341,
            -0.5992242982649273,
            0.1515731116689474,
            0.12497841198449344,
            0.9477926463421349,
            0.6390716574802802,
            -1.2115384695591114,
            0.6115188700947248,
            -0.6574656112124546,
            -0.19889953692199314,
            -1.5392884827822997,
            1.9544128852832416,
            0.22122488044224187,
            -0.2573257284088496,
            -0.9430620349582517,
            -2.150553645997241,
            -0.12090940053183596,
            -1.9253743289102436,
            -0.18694706571739966,
            -1.2551630812434211,
            1.1887370725293116,
            1.4085405628162064,
            -2.2360109986293875,
            -0.8171252453059005,
            0.14679894096505156,
            1.1505562320576506,
            -0.8005549176186656,
            3.371322886878996,
            -0.021775971028211494,
            -0.6994032114933282,
            -1.7648170322025925,
            -3.562838621684111,
            0.977568075581005,
            -0.057872732895723256,
            -1.3665888447636225,
            -0.36580109344083644,
            0.3098749808396314,
            0.5066712346293178,
            -1.2547253056742038,
            -1.425412535005897,
            1.1763098299517227,
            -0.08647817711431449,
            -0.03274868676931937,
            -1.9864921259827284,
            0.5460037360117362,
            -0.3323316496326565,
            0.7844113227992,
            -0.054615580469069,
            -0.26043858906113576,
            0.5127090344776307,
            -1.14265711159395,
            -0.03198721842435262,
            0.8158187591194848,
            2.4381553088550962,
            -0.8030827133010194,
            -1.0173289683331999,
            -0.8171044925684705,
            -0.758718886287779,
            0.7499672357726044,
            1.1181783621749775,
            0.4688016566290236,
            0.6730254432878195,
            0.6199318868630154,
            -0.08553700075017417,
            -1.8105474116858011,
            0.9048166407659582,
            -0.5389738538419347,
            0.5467681150989673,
            -1.161397428986895,
            0.436724928249604,
            -0.5059392391816553,
            -0.1819628078054804,
            0.6674351618128503,
            -2.0631055919668397,
            0.2892980352249633,
            0.334086489591644,
            1.1872731075477805,
            1.2607188103932367,
            0.4095070187790887,
            1.8373244770521253,
            0.23736454412480393,
            0.28524810082626056,
            -0.06700975091160077,
            0.22348742839828784,
            -0.19274209476364068,
            -0.42157219124776796,
            0.038273566484257525,
            -0.4679674174764472,
            -0.3211782087114221,
            0.1920073130945582,
            0.123017035874037,
            -0.8842117146331749,
            0.7152853996024762,
            -0.3828588871021219,
            0.8660232341782321,
            0.6333489032467862,
            -0.8159122578196413,
            -0.7492042399622106,
            2.2369961949813284,
            -1.2667318032259676,
            0.12394147381937415,
            1.5778722118922697,
            0.16577493333161525,
            -0.32568366709199237,
            0.3318552136155931,
            -1.1243270608733313,
            -0.3472072150470215,
            0.60336153593973,
            0.007370633242145097,
            -1.970314502473956,
            0.650749451457063,
            -0.3312084241742272,
            0.18488694884097007,
            0.616505952063447,
            -0.6604014101025244,
            0.43790407559373495,
            3.7552384575401865,
            1.0463560467921407,
            0.7237672311898098,
            -0.8753860012367802,
            -1.4752066141970925,
            0.8328907679003021,
            0.9437201853880286,
            1.6191305605332575,
            -0.5003609738207955,
            -0.25560567661007827,
            0.5300493422606567,
            0.12904380245642022,
            0.8174543847930769,
            0.09073872158798478,
            0.5202233935028912,
            -1.2311918992420035,
            -0.22919397390478025,
            -0.04500026231667409,
            -0.13510341513511398,
            0.07805364462901895,
            2.7200239373068267,
            -0.0020362975352388735,
            -0.5367776328022809,
            0.3314533540058857,
            -1.1399390383535892,
            1.378133323671347,
            0.07112230283296839,
            0.17989572722011804,
            0.23762630441985239,
            2.771004959858342,
            0.6195469297808365,
            -0.640199417047973,
            -0.5955647110626722,
            0.1897196632036472,
            0.8703609162321031,
            -0.3767189405334537,
            0.47864707366976045,
            -1.1239692729708397,
            1.9733144040100243,
            -0.701279746924411,
            0.24823697503280323,
            0.9913394172398006,
            0.21513850280612368,
            -0.7951024169293618,
            2.3647963495601627,
            0.21531417846255785,
            0.7265955579490192,
            -0.048439361552987115,
            0.00753823111909048,
            -0.45461224769469205,
            0.7620184906749852,
            0.5059432856623349,
            1.4797385846979174,
            -1.063829766875918,
            0.261542317803116,
            -1.0341184004543824,
            -2.7901814038114217,
            1.959408391031702,
            0.8566595870529227,
            -0.215667836188347,
            1.7515206888828605,
            0.9820013244719493,
            0.6076349994288373,
            0.3457842017903976,
            0.24121765684086485,
            0.8232482070193305,
            -0.6526881315830413,
            -0.03518324385493643,
            0.7174266128686453,
            -0.4648792829529844,
            0.772790712422939,
            0.05148243484812276,
            0.6777813249951649,
            0.5838005348625757,
            0.8851798622128835,
            1.449544508643529,
            1.1636746186855613,
            1.7221610777737484,
            0.6361508058884757,
            -0.3222741604345891,
            -0.30381782020214154,
            -0.020181710813016895,
            -0.5954884696115028,
            1.0006657852675256,
            0.8064208976977174,
            -0.5522815008158515,
            -0.08221468494020356,
            -0.010752718556339247,
            1.261563371092869,
            -1.694838202463202,
            -0.8241084013416982,
            -0.6746597823188122,
            1.0318679802077835,
            0.3577273325490964,
            -0.5182186628905386,
            0.3298104285364825,
            -0.08639244840879916,
            -1.1211641036060347,
            -0.06456852595610862,
            -0.10981180934886492,
            0.5335921232377904,
            -0.8420905860764141,
            -0.5636139461485131,
            -1.5507399100317398,
            -0.6657632552589567,
            -0.39286443291903417,
            -0.6645756846301486,
            0.183405631967427,
            -0.32082070781465377,
            0.3466315553426137,
            0.034337081985959694,
            -0.3244526020100803,
            0.5421080381768808,
            0.27721346340006475,
            1.3624514884432415,
            0.8295696397037606,
            -1.3160507375458323,
            0.5472680565265513,
            -2.805222805536329,
            -0.9856704305450199,
            -0.09576414256862815,
            -0.779684878000994,
            -1.3806165504625516,
            -0.3582061005230722,
            -0.7032704914037577,
            -0.4784280002769668,
            0.39992126053717936,
            0.9845986021952553,
            -1.5835920506243137,
            0.23680042481794109,
            1.1652985217644312,
            -0.9614091321695377,
            0.6692206989391853,
            0.5835161694062866,
            -0.8784519331716117,
            0.5087736227254807,
            -0.797554848814235,
            1.3906957199570953,
            -0.40843588945823117,
            -1.9799621647209902,
            1.1795248150102635,
            0.5406404722221837,
            -0.35753790177004247,
            -0.9281485186873937,
            -0.6247252227868857,
            -0.4791332280341779,
            0.8432900624949109,
            0.06330210547607032,
            0.2848820967975725,
            0.9790349405016789,
            1.2978559663694562,
            -0.637907818963039,
            0.036617422262817945,
            1.3506953084131594,
            -0.29240084529887345,
            -1.4428169219001508,
            -0.1526906883818644,
            -0.6631687301437938,
            1.728786233270287,
            1.1344236609214728,
            0.6957324402604687,
            -0.24344304518404764,
            -0.12053496820541632,
            0.22384143290574463,
            0.8463787052828071,
            0.9551438790069462,
            -0.37890723272741933,
            1.1350913539413674,
            0.8832523742384766,
            -0.7373045013008026,
            0.2502608407081008,
            0.17511371799942094,
            -0.035087335078147985,
            0.8470582120486922,
            -0.6855888476596971,
            3.1539460271861586,
            0.8922289966321629,
            0.27970834006253065,
            0.6578251666708652,
            0.2713913333224326,
            3.16296022384491,
            0.14905340078049595,
            -0.6690125977690469,
            0.26630267173946987,
            0.40274476044915686,
            0.12487094152203249,
            -0.1788705860874521,
            -1.4403002345449765,
            0.8940727861350527,
            0.8394951591412418,
            -2.0393242481414706,
            1.1573327071090178,
            -1.6829370579042193,
            -1.8851754670996046,
            0.7606053512261978,
            0.6840061092682809,
            -0.5835453674282979,
            -1.7828280519106614,
            -1.71500523212442,
            0.150095582121879,
            -0.05059464767023836,
            -1.5778284381938357,
            0.3576697909492244,
            -0.6632916852173886,
            0.17106368513417247,
            0.6560853426315724,
            0.3208447712792317,
            -1.4406757808237458,
            -0.5399666373468721,
            -0.8530381447596267,
            -1.1444876801849269,
            -0.14619153709206623,
            0.30903815314287914,
            0.08773164169944964,
            -0.12447257462555589,
            0.5275796212841289,
            0.1626698122634744,
            -1.6191032379506118,
            -1.6216421768232603,
            -1.001378471409063,
            -0.913126352060482,
            -2.1441277219251584,
            -0.47788959317873014,
            -1.5880459487186367,
            -0.9630108849004739,
            0.035318461936924006,
            -0.21139763542858447,
            -0.2423045033027813,
            0.8133839642595232,
            0.669629947218717,
            -0.264299297493111,
            0.2572745276285185,
            -1.1073490105037815,
            0.7912870762406743,
            0.13283657141213773,
            -0.6166090224156777,
            -0.42002396437679446,
            -1.579866340430798,
            -0.8193777091500078,
            -0.9997959098421131,
            0.242989720739047,
            -0.7436557212786193,
            2.136162784533152,
            0.1408886717864689,
            -0.6588446794318259,
            0.4333620987803811,
            0.4409067190523629,
            -0.5894438336414916,
            -0.5856352102249746,
            1.564356119627969,
            -0.32005434620205175,
            -0.8276463149328115,
            2.049541137327924,
            0.7607490775267477,
            0.5780380105695657,
            1.6936083941674238,
            1.364100273969807,
            -0.13725454750284355,
            1.4906454183201496,
            0.059527814788245606,
            -1.1821749228194773,
            0.6127889056541211,
            -0.5337795399072802,
            -0.8137337950885981,
            0.1722869115265449,
            0.7730546983199176,
            -1.480768500177393,
            1.6949611124805912,
            1.4085500884460964,
            -1.652747271678467,
            -0.17274259424049332,
            -0.5444551350101564,
            2.3295699512004684,
            0.34360206229181545,
            0.44488351616610233,
            -1.3610731115015513,
            0.06054190854456254,
            1.1446188312941818,
            -0.6285020621319144,
            -0.912424984652398,
            -0.9644499443108734,
            0.6064465319039192,
            -0.5659333975524732,
            0.6127128742902306,
            -0.2696671402396543,
            1.6223118675390285,
            1.1046454391937988,
            -2.0403375179944927,
            0.3210680343427137,
            0.1267546534102802,
            -2.16115720929431,
            0.9976509413990367,
            -0.699358015746474,
            -1.16808477713617,
            -1.1963623059551516,
            0.6222578675671093,
            -1.9607613907124661,
            1.9655094122324153,
            0.20750541019078728,
            -0.22610955953812192,
            -0.15402226653557222,
            -2.209754469397856,
            0.2140798332851117,
            0.9935050401694305,
            1.1311462613995786,
            1.804751656175135,
            1.526436633571622,
            0.7907438813554264,
            -0.2273330061034713,
            -0.7479211367318699,
            -1.149502813359184,
            0.20997307852668814,
            0.6240836876127869,
            2.5617185768978956,
            -0.020377043408362105,
            -1.413510309915042,
            -0.7944939347683235,
            -0.8393530835027494,
            1.2427354361136167,
            -0.5213981659541589,
            1.5228370741435757,
            2.3128375641036447,
            1.479296779789477,
            -0.6766887017456902,
            0.9092540284248113,
            -0.7570783844575756,
            -0.003423350870158104,
            -2.1218887616866424,
            -0.08322071452688304,
            -0.6892351151037587,
            -0.3259114070464907,
            0.23102314782617372,
            -0.8304848930754525,
            -0.6442501614337706,
            -1.4577127588553087,
            0.6760306804937586,
            -2.7531934481445033,
            -0.11242215120770532,
            0.8430278971694821,
            -0.3780700528400008
          ],
          "numRows": 16,
          "numCols": 45
        }
      },
      "ops": {
        "type": "org.ejml.simple.ops.SimpleOperations_DDRM",
        "data": {}
      }
    },
    {
      "mat": {
        "type": "org.ejml.data.DMatrixRMaj",
        "data": {
          "data": [
            0.1432792346393702,
            0.3991929888624968,
            1.5628092517822951,
            1.2648626052679044,
            0.5091599351149887,
            -0.6948069703982834,
            -0.3620076940080314,
            -0.8128762436634123,
            0.13131513370182946,
            -1.3092457115824645,
            0.1887966979936977,
            0.8476122603297277,
            -0.30407941704626973,
            0.7331288083168979,
            -3.178414144003985,
            0.6530891013669244,
            -1.0280926539203585,
            -1.25281187622696,
            0.19516954247248403,
            1.5360911887758535,
            -0.007026043379131597,
            1.4571371065336622,
            -0.08368920490821768,
            0.19725241617535383,
            -0.635456473665337,
            -0.6512663926324503,
            0.07797442331978877,
            -0.29153233210583385,
            0.45235105642490864,
            -1.1479143519452872,
            0.8007175386728429,
            0.9043893088098516,
            0.05708842498417832,
            -0.6776639349981268,
            0.9547419677155234,
            3.2261683179974625,
            -0.134093697620615,
            0.3188643368387762,
            0.7739397849504595,
            2.107087794869228,
            -0.4207272691892107,
            -1.2542507195267087,
            0.6045470275702328,
            0.5319770445168119,
            0.22742332045446612,
            -0.7379934738348398,
            -0.06656315878863377,
            0.15999170692229442,
            0.3667971403768835,
            0.46545010372350015,
            -0.1510620885936893,
            0.813300544050009,
            0.8236343425440407,
            -0.13867892129848652,
            -0.3372097318138667,
            -0.30213040984601847,
            -1.0583612503596018,
            -1.1710310074733616,
            -1.1119384957021554,
            0.7876643145856558,
            1.5376231242317087,
            -0.09878179339251825,
            0.4190636906201274,
            1.9189069510983907,
            0.21112380351483492,
            -0.6485781224940743,
            0.9967092454262141,
            0.15555807315868686,
            1.0913794488764923,
            1.1687682447310523,
            0.31634663219674203,
            0.2509228276399067,
            0.41776743910638126,
            -0.9600226393821096,
            0.6015838432371968,
            0.2038546717505998,
            -0.7307890063033642,
            -2.063917265434425,
            -0.6288237287969136,
            -1.2410068032461876,
            0.5276533077701924,
            -0.20635154532782168,
            -0.21010222951101792,
            0.4122228492838622,
            -0.15298700703691215,
            0.11659118699163307,
            0.712346675461863,
            -0.5129876810246332,
            -0.5585727466268625,
            -0.13369956751422146,
            -0.36272177302575415,
            0.5385169723850647,
            0.7615453148030887,
            -0.9969185467842068,
            0.28028817155781366,
            -1.6971938951694856,
            0.06556182001829813,
            -0.022068616941884833,
            -0.9314667661629308,
            -0.36480430634553374,
            -0.03434207344204382,
            -0.509195030068796,
            -0.6071622993113479,
            -0.297230358935306,
            -0.5593702511518484,
            0.18551754973879048,
            1.5343904149738834,
            0.1949723613685206,
            1.3773456896302643,
            1.050819278597054,
            0.55797016531809,
            0.8378663291515346,
            1.2089862032750325,
            0.5971791040788317,
            0.632390877467256,
            -0.18615929749786897,
            0.6453300842576943,
            1.156207713890038,
            0.9636525412798622,
            0.40164914216192765,
            1.7670245118287484,
            1.7302549228766826,
            1.21077445652996,
            1.161912806240829,
            1.3357626337361703,
            0.33032365157436594,
            -0.004802346850132158,
            -0.40102179009657263,
            0.4816374589439638,
            0.7503934327931988,
            0.5859031218475773,
            0.017801715923342037,
            0.2611743434722592,
            -1.1630185073931338,
            -0.42958190876400904,
            2.078076315968876,
            0.9042677144268703,
            -0.8834493243950587,
            0.32375479155062054,
            -0.08133356729293012,
            0.9408375753226034,
            0.4370651288926462,
            0.21334534659029764,
            0.24076476870268815,
            0.11298862733611736,
            0.20898175465027102,
            0.15383827709606596,
            -1.0013581840586814,
            0.8420447556808514,
            0.02465594492736284,
            3.094356754957374,
            -0.0556647828074443,
            -1.1193932534528708,
            -1.5188732775130704,
            0.1827654382010562,
            -2.2558067375884736,
            0.8904262080312311,
            -0.8664884215847122,
            1.2597065232753182,
            -1.777280114076576,
            -1.5336000420981064,
            -0.8521583658697467,
            0.2643714000194122,
            -0.622852399393608,
            0.9390245748501413,
            0.9846343921684485,
            0.4280637011642996,
            -0.19629700624756696,
            -0.3395699837101859,
            -0.0380365110148706,
            -1.5139843350191153,
            -0.48918463032717047,
            0.8335120928356816,
            -0.9432567687454737,
            0.1372368981973909,
            -0.015154473795314732,
            0.033628379944333875,
            -0.6891413437124911,
            0.43955517491193996,
            0.8259317039935649,
            -0.1827427987836333,
            0.6744189884540981,
            0.979363664515543,
            0.07491079342108098,
            1.3224553396875731,
            0.33736000726205395,
            -2.3351503420300963,
            -0.30080503521044266,
            1.9302514749652742,
            0.14903107624741918,
            0.9964492011586232,
            0.15017869704021614,
            -0.050715616770947214,
            0.9556698283246473,
            1.7204629546968537,
            2.6601882150671647,
            0.3620775047523466,
            -0.09667496843645798,
            -0.12308479375245518,
            0.242166069201869,
            -0.22518418031282356,
            -0.04522308622292581,
            -0.2542073968661923,
            0.16777659291771607,
            1.0604309074797673,
            -1.7912799733744857,
            0.5497340295627607,
            -2.028457300956809,
            -0.07295744608288768,
            -0.9084968699216427,
            -1.6909310265003663,
            -0.32222313073295183,
            1.7828340874672906,
            0.4946342139855753,
            0.18723392835279573,
            0.6079512532242912,
            0.26629961966460114,
            -2.978655434784793,
            -1.592971349007609,
            0.36100744288929776,
            -1.303690325760054,
            1.2048543802980767,
            0.3235231221376021,
            -0.0942467842407115,
            0.07623306575897049,
            1.0368666576950987,
            0.13692087744136894,
            -0.13375754782272117,
            -0.04675117084371094,
            -0.14805827647185454,
            1.7757798025420202,
            -0.7161114136387918,
            -0.8369314000015698,
            0.10380570169819181,
            1.1813870904007067,
            -0.7626895945747816,
            1.467575944284896,
            0.7518134628845046,
            0.7198438479639007,
            0.6734754463692134,
            -0.6180346693611416,
            -0.3747170915265451,
            0.3022500750754862,
            0.0456888168443802,
            -0.2936044889914626,
            -1.2331921430809347,
            0.4859812417617111,
            1.5216506575888555,
            1.6839305435114755,
            -0.9737863700364247,
            0.35315462371392203,
            0.9211050328433632,
            0.28614474762161607,
            0.3470261334447985,
            1.0440888682139695,
            -0.0525620876285528
          ],
          "numRows": 16,
          "numCols": 16
        }
      },
      "ops": {
        "type": "org.ejml.simple.ops.SimpleOperations_DDRM",
        "data": {}
      }
    },
    {
      "mat": {
        "type": "org.ejml.data.DMatrixRMaj",
        "data": {
          "data": [
            0.9953878196911365,
            0.7211639834823387,
            0.3744489555803605,
            -0.9344902515927529,
            -0.5423043243469606,
            -0.5679949304895847,
            -0.4690607258088981,
            0.6376401974537624,
            1.187618051483086,
            0.7045405599139029,
            0.03510342839158209,
            -0.19866309343520533,
            -0.026461662005854425,
            0.7705896720704293,
            0.4220013521731485,
            0.7865160023677817,
            0.25301478735105143,
            3.7999954704755643,
            -1.9575242699969362,
            -1.5423298933784113,
            -0.8212811725890989,
            -0.286975933157519,
            1.1545278734039897,
            1.0208237156589168,
            -0.2794652433851016,
            -1.245070240854039,
            -1.2395673506415616,
            -0.13930002114352497,
            -0.35652007436472116,
            -1.6249116163308444,
            -0.08249468311833417,
            0.21183480529908116,
            -0.4795308861853759,
            -0.32358352913386734,
            0.22977641911588548,
            0.20646327812761014,
            0.8952114986053847,
            -0.8555826589742053,
            0.7923663227435508,
            0.27523257790405314,
            1.3229353107475879,
            0.9688165266005021,
            3.593810158065141,
            1.0077338958969873,
            -0.025397939210642373,
            -0.7431386699433198,
            0.49992705460482795,
            2.1219802993875057,
            0.310329921626656,
            -0.46489746782597774,
            0.5286489808834596,
            0.7534044980557434,
            2.1245360437598855,
            -0.5319681362853025,
            0.7348514882537514,
            2.3087308651294185,
            1.5665312260769313,
            -0.11450793878057802,
            0.4949299608040824,
            -0.33323972962468973,
            0.1471932150156117,
            -0.14491418694939548,
            0.22300996991673777,
            0.5832623130910661,
            1.2493410604217512,
            -0.956945527109731,
            -1.1935705883775973,
            -2.716036570741248,
            0.01069661075428896,
            -0.5730139259521263,
            -0.2820575703294011,
            -0.036854563103277345,
            -0.06718506323716278,
            -1.0535538611867736,
            -0.23139787469732975,
            0.1784224183962937,
            -1.1891320856065892,
            0.08902180909536696,
            -1.849869579156918,
            -0.6264532516228646,
            1.4295211262152936,
            0.5496569438412249,
            -0.2545042429995218,
            -0.14087947131915968,
            1.4390379483895153,
            0.7560660173872755,
            0.5167111112065474,
            1.0419055387959828,
            -0.3930735626855311,
            0.20046181119790454,
            0.2080443519653111,
            0.4973644399774303,
            0.5083920778341264,
            0.9668834486227548,
            -1.495821632427633,
            0.6555189319576687,
            1.9649264510024165,
            1.8306332458950312,
            -1.7313053796670248,
            -0.20312672916597388,
            1.9696114037142711,
            1.2539947387667272,
            0.17262583586328795,
            1.1315571266006905,
            1.4430361091251382,
            -0.5509140672636101,
            1.3001770470828125,
            0.8482571542499621,
            1.2695616482011458,
            -0.9163252680851939,
            1.4718022120651377,
            -0.09737128670336404,
            1.2473232026856906,
            -1.7280736935692549,
            -0.4948098185017741,
            -0.8108853187065247,
            -2.013644096592989,
            1.0434707815499202,
            -0.9422944611970121,
            1.119704707616249,
            -0.5787849677875141,
            -0.0152435336945137,
            0.3046818550414872,
            0.9704472637085799,
            -0.442584364999969,
            0.09173916661377046,
            -1.2731522389914525,
            0.17966986441954577
          ],
          "numRows": 8,
          "numCols": 16
        }
      },
      "ops": {
        "type": "org.ejml.simple.ops.SimpleOperations_DDRM",
        "data": {}
      }
    }
  ],
  "biases": [
    {
      "mat": {
        "type": "org.ejml.data.DMatrixRMaj",
        "data": {
          "data": [
            -0.40669504940946,
            0.5505958476298048,
            1.675084923571085,
            0.38342562581195105,
            0.34406052310089086,
            -0.07358523882120904,
            -0.31958194439107007,
            -1.016051408951424,
            -0.18540767490342192,
            0.46132405349876965,
            -0.20165740562114767,
            -0.29177386530137583,
            -1.1400263283476553,
            0.37980130930406214,
            -1.8317731880089294,
            1.2697241713356018
          ],
          "numRows": 16,
          "numCols": 1
        }
      },
      "ops": {
        "type": "org.ejml.simple.ops.SimpleOperations_DDRM",
        "data": {}
      }
    },
    {
      "mat": {
        "type": "org.ejml.data.DMatrixRMaj",
        "data": {
          "data": [
            -0.21545792862196408,
            1.3503530405306825,
            -0.5034978569248502,
            -1.0872305751681077,
            1.1018790583993199,
            1.6999197222619056,
            0.24704169980851465,
            2.2992911480301785,
            1.568249404663531,
            0.6139621180454173,
            1.6405631860473942,
            -0.6648596260357356,
            3.0983467680940544,
            0.06652380425045418,
            -0.3900650613173183,
            0.495084994809327
          ],
          "numRows": 16,
          "numCols": 1
        }
      },
      "ops": {
        "type": "org.ejml.simple.ops.SimpleOperations_DDRM",
        "data": {}
      }
    },
    {
      "mat": {
        "type": "org.ejml.data.DMatrixRMaj",
        "data": {
          "data": [
            0.5089041033628868,
            -0.41762734699552806,
            2.5474731130227997,
            -0.37219462829683037,
            0.9742384691233201,
            1.431631916171486,
            0.8857395209049076,
            0.21337897438992887
          ],
          "numRows": 8,
          "numCols": 1
        }
      },
      "ops": {
        "type": "org.ejml.simple.ops.SimpleOperations_DDRM",
        "data": {}
      }
    }
  ],
  "learningRate": 0.1,
  "activationFunctionKey": "SIGMOID"
}