{
  "activationFunctionFactory": {
    "activationFunctionMap": {
      "TANH": {
        "type": "basicneuralnetwork.activationfunctions.TanhActivationFunction",
        "data": {}
      },
      "RELU": {
        "type": "basicneuralnetwork.activationfunctions.ReLuActivationFunction",
        "data": {}
      },
      "SIGMOID": {
        "type": "basicneuralnetwork.activationfunctions.SigmoidActivationFunction",
        "data": {}
      }
    }
  },
  "random": {
    "seed": 128555452713761,
    "nextNextGaussian": -0.17155589050592351,
    "haveNextNextGaussian": true
  },
  "inputNodes": 45,
  "hiddenLayers": 2,
  "hiddenNodes": 16,
  "outputNodes": 8,
  "weights": [
    {
      "mat": {
        "type": "org.ejml.data.DMatrixRMaj",
        "data": {
          "data": [
            -0.387295547010278,
            -0.22144066655467842,
            -1.7402965450828838,
            -0.2654914297372972,
            0.8771839400301522,
            -0.6486873954805434,
            0.6019044452003248,
            0.9370332572854836,
            1.1104771114911172,
            0.029574995368100154,
            -1.0426957161916182,
            -0.7714552886181992,
            0.5319988530632852,
            0.4305572787424317,
            -1.0193906845204903,
            0.9929479461134247,
            0.14879163870971673,
            0.5563039156225198,
            -0.6350146012878948,
            0.4920535093797609,
            0.3888885085197657,
            -0.8823609450216108,
            -0.19949885592999506,
            0.47173191149089244,
            -0.6933576127089538,
            0.47832182493904774,
            -0.1213490080529247,
            -0.39270246882077164,
            -0.09210117386291744,
            -1.3881785002135056,
            -0.6719304975647932,
            -0.27654973112939507,
            1.180081903192277,
            -0.0742589948669168,
            -0.6030079203399039,
            -0.9411294386588018,
            -0.27854101840519885,
            0.6089783907133146,
            0.8844879106702848,
            -0.39260990129736584,
            -0.7149134890048562,
            0.382747567222828,
            -0.8201286464418964,
            0.13021398019633112,
            -0.21525519632989215,
            -0.7866973607674058,
            1.2435226531210364,
            1.8859450624401322,
            -0.9797792546439305,
            -0.939358683212166,
            -0.024447938237101452,
            -1.5902014699883096,
            0.7798960745378528,
            0.38153237696540837,
            1.2874725669012475,
            -0.42631730608080853,
            0.30901658543890287,
            -0.09999246778467064,
            1.0455045758092414,
            -0.8114583808752065,
            -0.8231256565593932,
            0.20429972759594073,
            0.01985663095854251,
            1.7773944574993294,
            0.0905550147140792,
            0.5030959607533041,
            1.2870212460820634,
            -0.4598806078620491,
            1.1012476475196609,
            0.20303847194548785,
            0.2941697347440687,
            -0.9161043759168477,
            0.7732660021332056,
            -1.0433290332636305,
            1.1140672752199658,
            0.6300612289471696,
            -1.610365715546129,
            1.0689165927686213,
            0.24927012032015028,
            -0.07415583570337936,
            0.34333670838061203,
            -0.8777887970580309,
            0.6527223594178502,
            -1.5485586744891096,
            -0.35215528579189576,
            -0.11189262297240621,
            -0.5401761838829581,
            1.0132897244909764,
            -0.4359751864114726,
            0.408312593736708,
            -0.7392262438948762,
            0.6620710161094974,
            0.6922585525456386,
            -0.004541759502603299,
            -0.4126385834489017,
            1.0996135824970936,
            -0.03762082095545045,
            -0.7325720511629215,
            -0.38436000180965046,
            0.10135039876255814,
            0.8016261129627085,
            -0.09697378802472623,
            -0.7413015401773873,
            0.8722379069044252,
            -0.5755759580218236,
            -0.8987171247173003,
            -1.0128412122048935,
            -0.17628746287509722,
            0.9171308392523426,
            0.21032281463043076,
            -0.34809430774730554,
            0.38926140956240407,
            0.21493461010877102,
            1.2756228857967806,
            0.08996781797844705,
            -0.12837159097074707,
            0.2081991466605191,
            1.2261549283486697,
            -0.9769708690844712,
            -0.9460173848391189,
            0.6162820890904048,
            -0.1287615642967282,
            -0.5246036690192837,
            1.4495484484522192,
            0.8602436333068908,
            -0.8952319264635493,
            0.2489661427900478,
            -0.0931634421441756,
            1.4143067722065616,
            0.5679385784255837,
            0.043145168440834825,
            -0.7025286225737494,
            -0.43613091100301765,
            -0.37891874673509796,
            0.9840946067961058,
            0.7529193400056992,
            -0.37245706865669714,
            0.3420684826000929,
            0.6167130510024359,
            0.1644550754946855,
            0.9965607691645584,
            -0.38669270605685135,
            -2.310161591572646,
            0.6072609984007872,
            -0.3847564708552591,
            -0.7038451447811562,
            0.553622017047763,
            -0.5304985422951314,
            -0.5724084248810402,
            0.1584553242909511,
            -0.006896273425551325,
            -0.7424916699841302,
            0.7108063562667313,
            -0.9656949719632015,
            0.8769767694514873,
            0.20897049876526902,
            0.6798889471899132,
            0.32696924098503666,
            -0.7714952014448235,
            1.4381234210396259,
            0.6152170615092756,
            -1.9446616274400772,
            0.40905023837027943,
            0.32472033114658577,
            0.24330288759325103,
            0.10052844718905862,
            0.019654678734056352,
            0.5837932108073542,
            -1.548907695932312,
            -0.253156318049381,
            -0.8405478672037865,
            0.07422797802704817,
            0.6758881757328022,
            -1.309669497449043,
            -1.7403475910231634,
            -0.17364312275684338,
            -1.023982808085361,
            -0.7631282787263531,
            -0.0608817396393235,
            -1.8610768024862299,
            -0.18657414189508645,
            0.39199544512406825,
            -1.0323745725472904,
            1.47047714130472,
            0.4496991678917389,
            1.7751979061810914,
            0.7406246337385931,
            -0.22576783887312557,
            -1.5535757860983177,
            -0.9442104459435618,
            -0.16246888488511485,
            0.8718388886615521,
            -0.9266506393073437,
            0.3916894617451848,
            1.3095605702889455,
            -0.3783439024468067,
            -0.22243181173788157,
            -0.7688166343453011,
            1.535320558805544,
            -0.37522459697321064,
            -1.7459114207633342,
            -0.12030362600862898,
            -0.17172134146422496,
            -0.2047449940019634,
            1.662213129590285,
            -0.3685176867863044,
            0.4622183713200906,
            0.21662874415041744,
            0.6892924241846865,
            1.0407413822248983,
            1.0667133725257019,
            0.6288418237292236,
            -0.8510507487676382,
            -0.3237787625557468,
            0.20394674898285703,
            0.12493755467157508,
            1.1740827264837894,
            -0.6267577054133006,
            0.5059667553902836,
            -0.7942867519903071,
            0.055386373998294325,
            1.1380832154841425,
            0.5384749321428188,
            1.2354219337194021,
            0.1870039695296688,
            1.0525329071599525,
            1.177226493395981,
            0.7487925273078315,
            1.1555820740161868,
            -0.4418849403428282,
            1.3747723376954484,
            0.21456584258503458,
            0.01056666047937882,
            -0.5301612750851319,
            0.2779167213465175,
            -0.9361728003209222,
            -0.19571972026728307,
            0.32964671183383587,
            -0.4759775408138134,
            1.8131480315603516,
            -1.1817910238729605,
            -0.8619031164445465,
            -0.38624309880452323,
            -0.3978864889907514,
            1.2320904381707534,
            0.6370558571694412,
            -0.6875706403353625,
            -0.3233021921353563,
            0.7522206093901836,
            0.6151234436020495,
            -1.3660778827061522,
            0.9339825816883883,
            -0.3145259936816066,
            0.8069029050364462,
            0.19719998721476803,
            -0.2494393552496826,
            0.609143763565104,
            -0.32781859724681905,
            -0.5554077792504095,
            0.37908052454504465,
            -1.117941684427512,
            0.16050344330456867,
            1.7796620798484133,
            0.21550752216032912,
            0.540451877081979,
            -0.3445239442773874,
            0.5974781166944321,
            0.4402017353264135,
            0.8073266748061212,
            -0.03238025838194292,
            -3.1371897847515506,
            1.1881652219880534,
            0.9472069836717154,
            -0.8485731624115531,
            -0.4787186215356596,
            -0.04195762770966571,
            0.271630767692836,
            0.4819800705265467,
            0.4775483505601964,
            -0.3618132179151272,
            -0.8143475453734214,
            0.9310245639941135,
            0.8922703049565339,
            0.6729001558194779,
            -1.3680137029577748,
            0.7931380419640439,
            0.20751639879645134,
            0.8895558023227988,
            -0.06463650618135502,
            -1.5738461024970423,
            1.1161123502429242,
            0.5511360996208925,
            0.519884128828545,
            0.9670064232366404,
            -0.3298710542123094,
            -0.4642050294039769,
            -1.5484333452371979,
            0.640042164072642,
            -0.006391961873241536,
            -0.6153408972009691,
            0.3437397553785606,
            -0.010783957172748604,
            -0.5521278495343547,
            0.32551659436655944,
            -1.4516666693970497,
            0.9448173360082972,
            0.6241476229258358,
            -1.2905232974995355,
            -0.533505986542522,
            -0.7464910806277476,
            0.6531551415810117,
            -0.13512361457711536,
            0.971968785444404,
            -0.6520888310812218,
            0.9761273586518056,
            -0.4774447846259072,
            0.3828197645758803,
            0.4721121505305443,
            0.5444321106509931,
            0.9819997490365013,
            1.1753304226773276,
            0.7771150827616671,
            -0.8024635962759534,
            -0.5881768283583204,
            0.1262840153705618,
            -0.2824385770845995,
            0.6849809692676632,
            -0.12142844073767822,
            -1.223270372517888,
            0.26544540227777946,
            -0.763226321054278,
            0.8587009197561066,
            -0.22574594253528746,
            1.141347912372138,
            0.2157438891957398,
            -0.5644991932186313,
            -0.012031070607175343,
            0.2743871598738056,
            -0.06336820667208243,
            -0.22257694524787874,
            0.2847442840765405,
            -1.0113392165230224,
            -0.4689660357373231,
            -0.06192744364141389,
            0.010111022676188644,
            0.7379035519173026,
            0.035534680349723735,
            1.6272971580933555,
            -0.4333617595257236,
            -0.3028576115742921,
            0.8781265863032719,
            1.1324223575019574,
            0.014154611134116979,
            -0.5603673218919417,
            0.9377308985892628,
            0.6654041218955917,
            -0.37543015372592825,
            -0.28171216979129654,
            0.22199017392096088,
            0.2944287446818808,
            1.5714129416390799,
            -0.3837088642089488,
            -0.4078209613078403,
            -0.6910129666796532,
            0.6169080115188803,
            0.22028400431307804,
            -0.7559443273001181,
            -1.0245967012924384,
            -0.5226428400453691,
            1.6805759900414854,
            -0.33125006558486403,
            0.7896924439640027,
            -0.8213189299022454,
            -0.1486268794329021,
            -0.788662950634899,
            -0.5482940183192337,
            0.5708396011361389,
            0.19099929256442277,
            -1.0244373314587314,
            -0.5332229169830849,
            0.9125315143257064,
            0.10416469305609133,
            -1.0414059583490858,
            -0.17769428718973312,
            -0.12017296610307904,
            0.14563189851128946,
            1.0520162774496473,
            1.337712587258243,
            0.09225632873276318,
            -1.7154912146346748,
            -0.0020461044795923033,
            -0.15017429639607804,
            0.21326889504317337,
            0.3282873097097234,
            -0.8016130221902158,
            -0.6350517672947258,
            -1.6132315407098416,
            -0.18286723429909,
            0.45767009916071133,
            0.9471263215596445,
            0.9945016566532314,
            -0.8365719568002707,
            0.23186216957896957,
            -1.4954706254059928,
            0.7441477551011333,
            -1.735426819667421,
            -1.2104132973921296,
            -0.2683556882478344,
            -0.49203616580345033,
            0.09049349109791549,
            -0.13716779636318877,
            -0.9244138750758696,
            0.6777048521265452,
            -0.759739720326744,
            -0.4499604986624203,
            -0.9134049724390437,
            -0.6569350617820147,
            -0.08918655794935199,
            0.4509387150722981,
            0.5152041515669872,
            -0.2880140431991156,
            0.9597967686288398,
            0.4032403213518858,
            0.43675138165293825,
            0.20095802122255546,
            0.6694533557088675,
            0.3627236225245713,
            0.9914149519672877,
            0.288712472520611,
            0.5523994369488843,
            -0.5543209695341946,
            0.18909706681089286,
            0.08443553241502089,
            0.24682382252791418,
            -0.06560275889342759,
            -0.39284324080764815,
            -1.779446074586452,
            -0.3365937627409238,
            -0.26350176671165926,
            0.4117441965772447,
            0.6068995857990924,
            -0.6828543170862826,
            -1.047699856302296,
            -0.4997708570144992,
            -0.7468657431907046,
            -0.49796113261204,
            0.006769978095679585,
            0.07337480320141854,
            -1.1130059754064467,
            0.19020111062521128,
            -0.3067561790006861,
            1.1030360374978434,
            -0.03369663530170525,
            -0.9125372591361449,
            0.3265605879639244,
            -0.23660326009820987,
            0.10404759601499615,
            -0.3349032417024169,
            -0.2771174854074074,
            1.2688120394284108,
            0.06394140373687307,
            -0.9189087780016851,
            -1.7400687082385087,
            -0.296631609222574,
            0.4389357052067992,
            -0.6085830898594485,
            -0.476081591338444,
            -1.0947268540485255,
            0.1490295748382593,
            -0.9054931017139194,
            -0.5398041471149428,
            -0.7954796234433005,
            1.3994680168807108,
            -0.3489207610504433,
            -0.9047914548338509,
            2.124082115118983,
            0.9467823792464611,
            0.09112227773123391,
            0.9322381067924923,
            -1.0050230589723816,
            -0.6436539576867205,
            -0.12808456602860713,
            -0.6602704859209036,
            -0.5090483931861485,
            0.15421667879997258,
            -0.9579488772923977,
            1.0759544758493165,
            -0.478914006293924,
            0.36030265104321124,
            1.2855944209626875,
            1.245773731988034,
            -0.6917076198161154,
            -0.9896581752699676,
            -0.18949444195758586,
            1.01414542720911,
            -0.4290159394217618,
            1.090542586270858,
            -1.4695357586389304,
            -0.5451639676954434,
            -0.5376274594902684,
            0.0724067062724254,
            -0.9306694326784529,
            -1.0880183654367102,
            -0.0727528128844302,
            -0.8909570343592927,
            0.6239268057670704,
            1.0963888889254556,
            0.005870068483827762,
            -0.06203179683887178,
            -0.37853900000731133,
            0.7122028901995869,
            -0.5544124055402714,
            -2.0974837477197332,
            1.6850752678912144,
            0.34099768887663084,
            -0.3267178618562866,
            -0.5457332236279295,
            1.0660462925749663,
            0.2906161252358626,
            0.22444244967812432,
            0.4508073261154796,
            0.638021426482199,
            -1.1560247252756293,
            0.580490631250743,
            -0.23529001340701727,
            0.07946422652020013,
            0.6426868418885339,
            -0.1519400644406549,
            0.21898301933142217,
            -1.1281091686919893,
            -0.5172927435895225,
            -0.23155624454787593,
            1.4336278936791735,
            -0.9790191457349788,
            -0.18438953223559262,
            0.5287295075382318,
            0.7427176242563742,
            -0.755723175011838,
            -0.04544718447363616,
            -1.9157159644380797,
            -0.9700040590336989,
            -0.3369321626914408,
            0.31585706754078446,
            0.970771295299869,
            0.362587669144754,
            0.0906141096636841,
            0.22006068286729996,
            -0.4417906299994622,
            0.025538894618466035,
            -0.20592990819621443,
            0.795835050777793,
            -0.5422450285220373,
            0.23856480821349707,
            0.001385133970596364,
            -0.361935054617041,
            0.12599054419959785,
            -0.9896187368799173,
            -0.6539304146252688,
            0.31726452137786043,
            -0.7479769633236197,
            1.0151214269018976,
            0.4678475274200298,
            -0.8805514555895818,
            0.5746928096608778,
            -0.651553950166859,
            0.14142906897918234,
            0.27242081324180895,
            -0.17984153505476924,
            -1.1287313652029725,
            0.894968066394142,
            0.2723256974201227,
            -0.6120942817685628,
            -0.6655915481875256,
            -0.3650077544896116,
            0.45643197653907075,
            0.020129709155351727,
            0.5588840918800806,
            1.861197334359231,
            -0.798248533999175,
            -0.846113639467327,
            -0.5831999393137492,
            -0.5859699816340562,
            1.182184252922887,
            0.1888717510716571,
            0.1885204387327024,
            -1.26352626495031,
            -0.5439763530768282,
            0.452131271003799,
            1.162654088753177,
            0.1771128026194811,
            -0.5348108258997719,
            -0.7270925693245178,
            0.46559896103410015,
            -1.0945109152386057,
            1.8710056063813014,
            0.24440337525378147,
            -1.5617063269367073,
            3.3448047975159767E-4,
            -0.9362313839414635,
            0.21715227720263575,
            -0.30764242180930373,
            0.3880138193257379,
            0.402063717294596,
            -0.42821699697767,
            -1.2055644598608777,
            1.6790529772652216,
            0.18497435104293863,
            0.6928753845946664,
            -0.27335340763717597,
            0.792462899507474,
            0.40926231963730614,
            0.7721423876156912,
            -0.9072504127976161,
            1.6467808977605312,
            -0.5379374867449596,
            0.4435343202426312,
            0.8682935964168546,
            0.3403736068532002,
            -1.0370822782920746,
            -1.741075497698093,
            0.8914460484157796,
            -0.7924131104867406,
            0.2536180501374935,
            0.797860870701791,
            1.4823180667149323,
            -0.7210874779697662,
            0.7282525966610738,
            0.28623847588574347,
            -0.161977681191699,
            -0.3718559509547924,
            1.6653231933902655,
            -0.8661162876127289,
            -0.2864252649598945,
            0.4479059212185932,
            -0.7675345131794126,
            0.5333636443100266,
            0.3980296285375509,
            0.6944869254040527,
            0.25033530248720887,
            -0.6470595471292371,
            -0.04181153566545746,
            0.058620642257430244,
            -0.12747344670618954,
            0.35325187095097976,
            0.09797100249558888,
            -0.13262883835504602,
            -1.363334285619739,
            0.9280431526086876,
            -0.028618800476571782,
            0.26837026587128787,
            -0.7644832330621489,
            -0.6881066164208933,
            0.9880927849950054,
            -0.2744881632542785,
            -1.0100211314071461,
            0.5939778444444853,
            -1.9093844210496493,
            -0.5301140493587387,
            0.557809666983348,
            -1.2112658105414653,
            -0.7052745644709162,
            -1.2404252108932936,
            -0.8607354796978779,
            -0.5738795910345539,
            0.1195221082241944,
            0.584421583263753,
            1.489087909706381,
            -0.4785570857301646,
            0.0539443932283854,
            -0.582228134057324,
            -1.0322615771159882,
            0.004581052081033682,
            1.4820336254838429,
            -2.0159038401680833,
            0.9793394363689194,
            -0.6383524265141907,
            0.9783175747124759,
            -0.6703851907279399,
            -0.05868656574881115,
            -0.8121801995509439,
            -0.5225956367809788,
            -0.7496054948492956,
            -0.4841539199040763,
            0.8830093020946705,
            -0.2159251811901641,
            -0.47127175096209395,
            0.5842650238553275,
            0.4221798796815638,
            0.07993184758524197,
            -0.052868894284667345,
            0.11085729865120665,
            -0.48770456932539274,
            0.9331994701195552,
            -0.9512531926419887,
            0.987879366076474,
            0.9833163258980219,
            0.30169232358306874,
            -0.5241931263673332,
            -1.5049733321506142,
            -0.6126401709539504,
            0.20542490864603313,
            1.0046418529570758,
            -0.5885388805654479,
            0.29880983209212686,
            0.341126328916495,
            0.8247407076643696,
            0.14811030032141426,
            0.005231563160518871,
            1.4348491489684188,
            -0.40307822502720403,
            0.10719466097213826,
            0.8056244042121792,
            1.8071568110214087,
            1.110362237217497,
            0.13509201845484187,
            -0.3080959273177238,
            0.10684431315047815,
            -0.19028323352659626,
            -0.5764523026316937,
            -0.251074310714413
          ],
          "numRows": 16,
          "numCols": 45
        }
      },
      "ops": {
        "type": "org.ejml.simple.ops.SimpleOperations_DDRM",
        "data": {}
      }
    },
    {
      "mat": {
        "type": "org.ejml.data.DMatrixRMaj",
        "data": {
          "data": [
            0.5740702298207578,
            -0.6348209393529157,
            -0.4028632647490602,
            -0.12363120195802679,
            0.7452938662375571,
            0.04148898255433753,
            0.29729708190564796,
            0.8050516701347321,
            1.0951237341195141,
            -0.19844201845187848,
            0.24929577276576387,
            -0.6061722281514226,
            -1.2093934533610378,
            0.17963456892020568,
            1.0219294309513314,
            -0.08389084388110102,
            0.1729762021150858,
            -0.7151454939895898,
            -0.11668536081398884,
            0.9428449668207746,
            -0.31731213250218204,
            -0.29137704423500577,
            0.5227443929054393,
            0.008625565533391,
            -0.921222559297574,
            -0.6567486880302275,
            0.28192798109539263,
            -0.5426609802863815,
            1.027354193174973,
            0.5710862159864369,
            -0.5857278984351907,
            0.3051154331637608,
            0.1840170477168297,
            2.2891740018826567,
            0.9615539589287401,
            0.5909823313295051,
            0.1721605601500272,
            1.526864521532741,
            0.7079473405855982,
            0.26807032608387216,
            -2.108169099713857,
            0.026030729774156325,
            -0.027420410960313224,
            -0.8046543407201241,
            0.28925891994756614,
            0.9388617982795782,
            -0.11348243850445572,
            -0.22740889264891648,
            0.03948065999437933,
            0.16182240299639564,
            0.672172964689443,
            -0.11149516785205571,
            0.0018271178069775296,
            -0.38780103009677025,
            0.6373754690892349,
            -0.9463115409387959,
            -0.029856369621015455,
            0.005095470309788075,
            0.11169823361014619,
            -0.5544118567005181,
            0.30700888890320194,
            -0.030390632268263124,
            0.34686342575785356,
            0.6319731030516367,
            1.3924332788466685,
            1.4729128751535905,
            -0.9870784433493913,
            -1.5946447133476198,
            -0.17917010539274691,
            0.4372709930213455,
            0.9056204779170343,
            -0.3719931966183585,
            0.7132560879847294,
            0.6254945795707973,
            -1.0353194642135028,
            -0.8112519642747957,
            -0.39689445499491427,
            0.4591448408276808,
            -0.09675247702184264,
            -0.6593034918075331,
            0.1317287132243148,
            -0.6262377261109777,
            -0.31355015226945526,
            0.9781031471821277,
            0.6627730753044787,
            0.07254918608902278,
            0.9247845228883691,
            0.4486009588820336,
            -0.8188759693160459,
            0.42949785948985464,
            1.060261106232532,
            -0.9513998240438652,
            -0.7560450104802015,
            0.12636549262472144,
            -1.0697699586206977,
            -0.5070218247407539,
            -0.443907371802713,
            0.486843506849812,
            -0.07445525544185094,
            0.6447237343741472,
            0.14379778641941415,
            -0.653847646144303,
            0.016970207300136986,
            -0.7639116015323852,
            -0.5549709463885913,
            1.510186668101253,
            -1.2854639229106526,
            -1.3693994233545121,
            0.9038643664041264,
            -0.4211292387706893,
            -0.5466869660427409,
            -0.10531682553475874,
            -0.08164370801174403,
            -1.9606232980993836,
            -0.6239385122211631,
            2.705813123079092,
            0.762172376947291,
            -0.3872966663552935,
            0.11606599706444791,
            -0.46147725082922125,
            0.0065434196604985395,
            0.09814084338911222,
            0.25806149700308295,
            -0.5493543850126559,
            0.5990434414062771,
            -0.14245987661197068,
            -1.278689691858493,
            0.927194667420809,
            -0.23605926386574977,
            -0.5918428044042362,
            -0.5687431714753817,
            2.2342051969216623,
            -0.9413206128031936,
            -0.24481542013579666,
            0.39329562756632375,
            -0.7947446740110667,
            -1.442103948310105,
            -0.004129452282424895,
            0.5919448892397952,
            -1.4139246146829805,
            -1.5098240843910995,
            -0.9907928719423424,
            0.3419883765658585,
            0.007316336795001294,
            -0.4191205958507768,
            0.47544978698911183,
            1.6540740209756184,
            0.42676210713400975,
            -0.6989950844523036,
            0.32900805590660015,
            0.8790720731788217,
            -0.6763119820833137,
            -0.40510247938443633,
            0.3693162792601432,
            0.9933707068280293,
            -0.7971494918441789,
            0.2532251809970503,
            -0.7444614621510863,
            -0.44418995916306175,
            -0.5526049694401418,
            -0.8424575460160642,
            0.9023479241140098,
            1.3526463296921651,
            -0.15058878503833228,
            0.20153764140363917,
            0.20074956736626537,
            -1.1236157123606474,
            -0.10288961704112332,
            -0.5263513928849171,
            -0.7647275263075959,
            -0.949648543934168,
            1.2398836153175992,
            -0.08665120047893582,
            0.4715224490898562,
            -0.4164858482075452,
            -0.015175028167403237,
            -0.12158411301836144,
            0.8802459408186666,
            1.2012001116524558,
            0.17550679465388824,
            -0.47148343898194445,
            0.496949834994723,
            1.8663468885989873,
            0.8338409803458495,
            -0.3403296940539665,
            -1.505587811807221,
            -0.7637944341399776,
            0.45675683602056993,
            -0.9085013939534159,
            -1.0578061107886791,
            -0.523697129757013,
            -0.4307764600092643,
            -1.139832197417224,
            -0.2970671759869962,
            0.6951282710415894,
            1.646501133202027,
            -0.5770108063627513,
            -0.18093981896649858,
            -1.2226245294257505,
            0.12072245961149286,
            -0.6417098031123603,
            -0.2626104828551221,
            0.07334782470192253,
            0.02454045393715165,
            1.0964578314799978,
            -0.33161799690158844,
            0.02665705368716642,
            -0.7826598853827376,
            1.2535394573863936,
            0.454363050042042,
            0.8136671531503065,
            0.13463820698464435,
            0.28752669906392825,
            0.33709082944587765,
            0.7656652832196915,
            0.39458789888116996,
            0.01665736873028445,
            0.4768798870954625,
            0.42203787359547085,
            -0.47067573261757517,
            -0.2893226416875485,
            1.9203399631257072,
            -0.3662090455340338,
            0.9191474634696757,
            0.6640691094505866,
            -0.6456046945772376,
            1.0688976458022448,
            1.1654142449874771,
            0.7149212495778403,
            1.2087881874995954,
            0.20708852876613382,
            -0.11052535709014932,
            -0.3947979116094431,
            -0.3352935673999411,
            0.21499084888113126,
            -0.15152166227865232,
            0.6344026719857627,
            -0.39976574944911086,
            0.8364961086933715,
            1.6458202397466097,
            -1.375410627533878,
            -1.1382383194118058,
            0.3650776460401626,
            0.9853967097656255,
            -0.29669946024778365,
            0.2685594776745499,
            0.8928489494097704,
            0.4425517325085512,
            0.46814775583632845,
            0.7527189169258527,
            -0.5869700132959071,
            -0.06640292226594857,
            1.2227507955639552,
            -1.086075442706022,
            0.4533841008873214,
            0.04608547957213957
          ],
          "numRows": 16,
          "numCols": 16
        }
      },
      "ops": {
        "type": "org.ejml.simple.ops.SimpleOperations_DDRM",
        "data": {}
      }
    },
    {
      "mat": {
        "type": "org.ejml.data.DMatrixRMaj",
        "data": {
          "data": [
            0.41478463567762197,
            1.0484125686011074,
            0.7142627967897167,
            0.8837030638351301,
            0.18712589333964214,
            0.9049181773794979,
            -1.2354110151090771,
            0.6352134361554155,
            -1.8158226830804751,
            0.7392112755411713,
            0.19939349478983254,
            1.3901527204049309,
            2.977374885811137,
            1.577140125895532,
            1.4732896740024826,
            0.45329308670160257,
            1.0757091603310758,
            0.9341233242253806,
            0.2600996722551333,
            0.43262598189593304,
            0.07097303425489782,
            -0.09574045757669247,
            0.36941374296118124,
            1.191118489565865,
            0.9274770146847285,
            0.8821909086217956,
            0.2584130235327507,
            0.9920464395154407,
            1.208876144619141,
            0.10595895661772059,
            1.5807685997157157,
            0.7228117693072434,
            -0.05229402356955459,
            0.5826346074047875,
            -1.693436647878898,
            -0.3020041454338986,
            -0.9868756979780466,
            -0.5713771441207915,
            0.42719346133929914,
            0.1774258230689374,
            0.10638827160781028,
            0.028550239381552746,
            -0.05457194532068177,
            -1.3801200048838287,
            -0.23018966571990018,
            -1.5632297330170488,
            -0.5299791165042882,
            -0.10544203591505275,
            -0.09269074869383664,
            -0.5155502036489961,
            -1.2725021768024414,
            -0.14392941053082886,
            -0.45629573404185414,
            -0.36770538264846797,
            -0.08036237551525072,
            -2.114214613141738,
            -0.984514882910302,
            0.2974904561849973,
            0.1561943410350713,
            -1.3863648770062016,
            1.2472541371555828,
            0.46751138180685814,
            -0.5955755334468487,
            0.22160452391604968,
            -0.8449478805387263,
            0.03629850237242355,
            -0.3066119002001484,
            -1.589396808297141,
            -0.4861047260195922,
            -0.02787121340435022,
            -1.0097701029719315,
            -1.1416283026222418,
            -0.42990816767775225,
            -0.07020618308894955,
            1.111430414464901,
            -0.8318714444626202,
            0.5718426919633798,
            -1.347450272960564,
            -0.4216845322206154,
            0.28305406834783975,
            0.6934520112683838,
            -0.5683403262160502,
            0.7170082244165914,
            0.7319765734984929,
            -1.389680421070791,
            -2.1301703523167177,
            -0.043715818414118646,
            1.5222727936221578,
            -0.22257910566807726,
            1.1717378969863168,
            1.2027520776401974,
            1.638127993213816,
            1.2389046757478444,
            0.6737201138646183,
            0.6063706153408928,
            0.4459689645627448,
            1.0725402162752895,
            -0.4369948084994202,
            -0.8178659604124666,
            2.2142820865861905,
            0.6134260334888131,
            0.9672498636583764,
            -0.2124389486266251,
            1.2752357190091004,
            -0.8405313070585019,
            1.3676028667378377,
            -0.8092924793835032,
            0.8022297310115089,
            0.5639538728408495,
            -0.8375086508325114,
            -0.07756944792750109,
            0.556788508033312,
            -1.6671355973560393,
            -0.9912677047008965,
            -0.3474695085724593,
            0.3134989141115896,
            1.5870631256520207,
            2.1425768135699372,
            -0.039722086483567676,
            -0.37428276442498337,
            0.0037099472996534877,
            -0.049596936475898745,
            0.29891025653731185,
            -0.7024132563169402,
            0.4382215486253698,
            -0.25609651003494127,
            -0.466433372735113,
            1.565553952272511
          ],
          "numRows": 8,
          "numCols": 16
        }
      },
      "ops": {
        "type": "org.ejml.simple.ops.SimpleOperations_DDRM",
        "data": {}
      }
    }
  ],
  "biases": [
    {
      "mat": {
        "type": "org.ejml.data.DMatrixRMaj",
        "data": {
          "data": [
            0.17550679644266265,
            0.07053077301116077,
            -1.7696673574266994,
            1.3798622640743394,
            0.48789060761133923,
            0.6649320307514162,
            -1.6797202824206983,
            0.46391380488740575,
            -0.6877059950570408,
            -0.18842919484670423,
            0.17414657772493225,
            -0.38248079633493237,
            0.5271101873218016,
            -1.5730124991097956,
            -1.4101956525006336,
            -0.859904507172473
          ],
          "numRows": 16,
          "numCols": 1
        }
      },
      "ops": {
        "type": "org.ejml.simple.ops.SimpleOperations_DDRM",
        "data": {}
      }
    },
    {
      "mat": {
        "type": "org.ejml.data.DMatrixRMaj",
        "data": {
          "data": [
            1.4001440015071915,
            0.17360877245847628,
            0.9312369044995227,
            0.4557251325722567,
            0.34542707451059906,
            -0.6425773462121729,
            -0.6561771369038644,
            0.7389144211190612,
            0.9445308157956133,
            0.3930783676794152,
            0.4696639147657332,
            0.6407178569113168,
            0.4873876358781319,
            -0.07925852869205241,
            0.20467055747930152,
            -1.7299058468850865
          ],
          "numRows": 16,
          "numCols": 1
        }
      },
      "ops": {
        "type": "org.ejml.simple.ops.SimpleOperations_DDRM",
        "data": {}
      }
    },
    {
      "mat": {
        "type": "org.ejml.data.DMatrixRMaj",
        "data": {
          "data": [
            1.1327469358070448,
            1.6378359604731427,
            -0.9899351260485163,
            -0.5616484780963231,
            -0.3067879952991832,
            -0.3323408293864947,
            1.66992628914071,
            0.9124222646695468
          ],
          "numRows": 8,
          "numCols": 1
        }
      },
      "ops": {
        "type": "org.ejml.simple.ops.SimpleOperations_DDRM",
        "data": {}
      }
    }
  ],
  "learningRate": 0.1,
  "activationFunctionKey": "SIGMOID"
}