{
  "activationFunctionFactory": {
    "activationFunctionMap": {
      "TANH": {
        "type": "basicneuralnetwork.activationfunctions.TanhActivationFunction",
        "data": {}
      },
      "RELU": {
        "type": "basicneuralnetwork.activationfunctions.ReLuActivationFunction",
        "data": {}
      },
      "SIGMOID": {
        "type": "basicneuralnetwork.activationfunctions.SigmoidActivationFunction",
        "data": {}
      }
    }
  },
  "random": {
    "seed": 144479928181625,
    "nextNextGaussian": 1.5536921161910577,
    "haveNextNextGaussian": false
  },
  "inputNodes": 45,
  "hiddenLayers": 2,
  "hiddenNodes": 16,
  "outputNodes": 8,
  "weights": [
    {
      "mat": {
        "type": "org.ejml.data.DMatrixRMaj",
        "data": {
          "data": [
            -0.08413797297700243,
            0.42469623537641765,
            0.1702634645420915,
            0.575175384570465,
            -0.353402226935569,
            -0.74920165439493,
            0.56197409733979,
            -0.33106034521438854,
            0.9184133183465739,
            0.7510118936548833,
            -0.5377699430102465,
            0.36434127873646105,
            -0.032344792845376835,
            0.3394471229968141,
            0.5296931017119808,
            0.45719667662682384,
            0.6319408405638998,
            -0.7113453369672758,
            -0.22792080133947845,
            -0.1846096694655086,
            0.08254892559592975,
            0.27091263923406184,
            -0.5120714669376643,
            0.45238610096529475,
            0.3563363442175953,
            0.24097980332962954,
            0.5740760700189791,
            -0.10007375154827591,
            -0.36646242068065216,
            0.5229408988975688,
            -0.26830803760821764,
            0.2605738571124667,
            0.04071222012928177,
            -0.6252083470923533,
            0.3747398625097407,
            0.5845331086082679,
            0.7004279971134687,
            0.19647550369778632,
            0.5958124283648303,
            -0.07731078961903082,
            0.576993870845431,
            0.382747567222828,
            -0.4527980260194462,
            0.41738838942070755,
            0.12312600583002276,
            -0.6434022949608533,
            0.8440219717391821,
            0.9615431675096731,
            0.06624046847783621,
            0.44057966265031934,
            -0.024447938237101452,
            -1.3755778755000097,
            0.5857412063254456,
            -1.1786781825598305,
            -0.7078351831175334,
            -0.6475392576211072,
            -0.6787515636905168,
            0.22116313225489126,
            -0.45264970562402673,
            -0.13124399375198936,
            0.9255445310866337,
            0.7511132759642198,
            0.6845500354987359,
            0.9044791974716828,
            0.7179904227106002,
            0.6420970705043942,
            -0.34397123441900757,
            -0.744262065071063,
            -0.7347017510760263,
            -0.923176209529313,
            -0.8476366758654447,
            -0.4409790129390916,
            0.4896576798236658,
            0.10340220117908361,
            0.8300468131020045,
            -0.6363386900165939,
            -0.6288156864060153,
            -0.8113941626947117,
            -0.5128494291791825,
            0.028069370273028804,
            -0.46521881053527236,
            -0.8777887970580309,
            1.0290765576094278,
            -0.5116966083655841,
            -0.05880594710162823,
            0.9528410789518522,
            0.8779393170795167,
            0.38880045314869993,
            -1.8556802064646414,
            -0.17765952458820045,
            -0.1406647639933587,
            -0.887990964260123,
            -0.31282507645712265,
            -0.36172220163361946,
            0.7525559981066989,
            1.6203816151899384,
            -0.34637784388987325,
            -0.4649764668661085,
            0.2833257922320105,
            0.04352514948811893,
            0.758853430011065,
            -0.5997095673874444,
            0.3648466923845084,
            0.4943577119788871,
            0.868898049448398,
            -0.9306374037028975,
            0.8569311747364241,
            0.7732799583821948,
            -1.7310203185525734,
            0.8362006071533845,
            0.4452271216735777,
            -0.9772826695641605,
            0.21493461010877102,
            -0.005524457020263773,
            0.301908477379061,
            -0.5007235987273619,
            -0.2157300190244662,
            0.6848197867713608,
            0.955601431670644,
            -0.24499609442455839,
            -0.005303167325619418,
            0.05200219333275102,
            0.8465581729258038,
            0.1091995032729618,
            -0.7490397153247361,
            -0.3855394166413293,
            0.5370375613504801,
            0.2280562802418098,
            0.31966843560580926,
            -0.2210216812794068,
            -0.29563091670880537,
            0.9923954688214816,
            0.31573102269833564,
            -0.08271960832988201,
            -0.017970576208585998,
            0.8690837085782612,
            -1.1447214605254339,
            0.49258342444110714,
            0.22868570429920054,
            0.27127626963866525,
            0.911862129048574,
            -0.5332811836138183,
            0.10778121974453048,
            0.7736445786975192,
            0.6896530046567197,
            0.9464966560917591,
            -0.5657369000235406,
            -0.7263835973844384,
            -0.7620037994398805,
            0.046420699013310196,
            -0.9304016451399326,
            1.1443813865300774,
            -0.8783992981391472,
            -0.8710953507345915,
            0.4031138797129369,
            0.5498555421674962,
            0.30725337997389923,
            -0.6462773646819719,
            -1.3717624675528992,
            0.6459155167254458,
            -0.3264192680875997,
            0.49985108470232187,
            0.9706758080555993,
            0.49672505792045807,
            -0.007708185480734597,
            0.8301246581311739,
            0.20053649958742814,
            1.0036383357633643,
            -0.9467954582705442,
            -0.253156318049381,
            -0.4351433785896761,
            0.4475725901890941,
            -0.3227723954988553,
            -0.7442537668337057,
            -1.1072985649921712,
            0.3432405441849875,
            -0.34834834500566747,
            0.8210111853612363,
            -0.6221339235816992,
            -0.5149080084738589,
            0.9033949085733062,
            -0.18917569716961924,
            0.33301325927638015,
            0.37638728625877693,
            0.09241332191038065,
            -0.460238482626117,
            -0.9206050194816409,
            0.26630262283978734,
            -0.8803098391531861,
            -0.4685962986036476,
            -0.583221090796668,
            0.5203174814218341,
            -0.21976888192218702,
            0.8338689388489429,
            0.3429616066647736,
            -0.8425746411132815,
            0.697030003525692,
            -0.5593678258977721,
            0.1614306599146076,
            -0.06861976308703044,
            -0.821629315801599,
            0.47530525154733416,
            -1.0517200567625573,
            -0.8119644186678365,
            0.0015125485870287059,
            -0.31004552700597765,
            -0.07286837072169355,
            -0.4743046790014074,
            0.8537868275166849,
            -0.7724049434878,
            0.3617526833992575,
            0.9075610145766123,
            -0.12225265207011504,
            0.8441275890384466,
            -1.097542923242681,
            0.5622092629311353,
            0.953434904711276,
            -0.6213984136693564,
            -0.5104294387478614,
            -0.3921945824713271,
            -0.9238036601716317,
            -1.047049934323017,
            -0.08729570028063405,
            -0.804766610458514,
            0.1514783860854047,
            0.9307218201294705,
            0.5594463224239488,
            0.5872912306100135,
            -0.8693400163460869,
            0.7803591268143066,
            -0.5970686364740558,
            1.0716616998773052,
            0.8308513785701384,
            0.27201171126066903,
            0.9550791151286501,
            -0.9361728003209222,
            -0.9603390526196295,
            -0.92241268689569,
            0.32028990373456945,
            -0.7389909528141769,
            -0.5683208067966004,
            -0.5085896749538272,
            -0.26613902218407137,
            -0.3978864889907514,
            0.6349357466817065,
            0.9170307473670543,
            -0.10971782990040424,
            0.997644353041176,
            -0.6270619494559588,
            0.8337609772540728,
            -0.03354205132165289,
            -0.48685908557065094,
            0.3876701033936172,
            0.6391897339003889,
            0.4582578081858708,
            -0.40587494708257643,
            -0.6699018704966131,
            -0.9726006262246452,
            0.4698913810618419,
            -0.6738638346170254,
            -0.6073501585006872,
            -0.8556099376163895,
            0.75727623040363,
            0.14080244978537637,
            0.3691733398620962,
            -0.33593181081145496,
            -0.3512457146957664,
            -0.3011301010286802,
            0.9521786398993375,
            -0.049790250742119735,
            -0.9826718327474233,
            1.5533595534050864,
            -0.5645422554741726,
            -0.33036857486651383,
            0.6616339333490441,
            0.4725904756264041,
            0.7390888496094373,
            -0.8820942566280414,
            0.37579300793807313,
            -1.3123474559204389,
            -0.6737085163611043,
            -0.4986902113098306,
            0.8922703049565339,
            -0.5925370714366418,
            0.12648849396293993,
            0.7931380419640439,
            0.7137011464278333,
            -0.56539309699094,
            0.1430484785070567,
            -0.03261252633480652,
            -0.0558587670899966,
            -0.08212238997303278,
            -1.1024306788656575,
            0.7671167991197766,
            -1.3546745065618957,
            0.23108266748276618,
            0.20704610576273436,
            -0.1621082426484448,
            -0.7687746958734272,
            -0.9182722262680407,
            0.26010330413223537,
            0.691034801113444,
            0.7215957326674962,
            0.6511029683355494,
            0.4695522874197313,
            1.4070383784628073,
            -0.7663182507422259,
            -0.8421194792867812,
            0.4290998659873071,
            -0.7262177378298036,
            -0.17460798862726357,
            -0.9205895304612488,
            -0.24643606238161797,
            0.5378239956572017,
            -0.6435237447554185,
            -0.6730206579957945,
            -0.21424659514921401,
            0.5961298116182672,
            0.9624252716798585,
            -0.9652638069349484,
            -0.3735761925939658,
            1.3036071060000438,
            -0.9813091875099376,
            -0.6357278282797609,
            -0.999130847947622,
            -0.878102844051566,
            -0.2539427165371811,
            -0.13369214344480526,
            0.8178155135808376,
            0.5629526808133463,
            -0.763226321054278,
            0.19448390393985787,
            0.4239905805200268,
            -0.4206974111294297,
            -0.3944080676731081,
            -0.08100587330827969,
            0.7469523178007574,
            -0.406578728917917,
            -0.06336820667208243,
            -0.8911096019676703,
            0.15272806662270755,
            -0.9256474152763701,
            0.41484238039384347,
            -0.44622189713005844,
            -0.42186645913995924,
            -0.8644673888773704,
            0.19111250248279377,
            -0.9588513430988967,
            -0.7262399101751211,
            0.19627927447796134,
            0.5761197651392362,
            -0.11565469783696192,
            -0.4276612635662016,
            -0.5589311804096979,
            -0.12292353223110619,
            -0.39534906379066626,
            -0.7322901158532252,
            -1.0591620128852557,
            0.46976756933320307,
            -0.012144852735910927,
            -0.9937098042657464,
            -0.060729740831495294,
            0.23950270977206067,
            0.001197161130941593,
            0.4026539032184382,
            0.9621589621853308,
            0.8944389126607517,
            0.44615454046153014,
            0.4542740097753992,
            0.29318192677173305,
            0.5804423441855457,
            -0.5638752433532555,
            -0.8213189299022454,
            -0.41108151570554075,
            0.05941448470187416,
            -0.8153577063960984,
            0.022700357626489254,
            0.5633451745288387,
            0.30224252302445165,
            -0.9825949701296481,
            -0.11884765793329871,
            0.13860975439097545,
            0.34566866448298517,
            -0.7335936642425791,
            -0.28079218022608643,
            -0.6681937491076027,
            -0.4921070318305478,
            1.337712587258243,
            0.7263353410137279,
            -0.6318051332921577,
            0.16617333625232789,
            -0.7505991646169676,
            0.4034146911142491,
            0.3282873097097234,
            -0.4209629907482004,
            -0.6350517672947258,
            -0.5537701023512167,
            0.8772059019677967,
            0.21548518598088984,
            0.20932193440094932,
            -0.9949682632183681,
            -0.7143283267887015,
            0.9378781853335054,
            -0.9172297401282923,
            -0.6267930640410082,
            -0.600426726726218,
            0.977262553751002,
            -0.5897395590217889,
            -0.9757938005699671,
            -0.6208419644893752,
            -0.9000806556858669,
            1.1245574664850366,
            -0.664258524643947,
            0.27200894106400964,
            0.24431160227737297,
            -0.9136098108245609,
            -1.1997479185499196,
            -0.5513711232738909,
            -0.20697466775773687,
            0.5490294164385421,
            0.34168263875625354,
            -0.4739563365773145,
            -0.8918861174644783,
            -0.31502831672633813,
            -0.9102815556431387,
            -0.8901419548177087,
            -0.47663885672489315,
            0.4809614691690418,
            -0.1826516173385997,
            0.7541281398838255,
            -0.06189195774246792,
            0.03891013782306052,
            -0.03452629157434872,
            0.47242063859479444,
            -0.32621676778779096,
            0.3734884747222289,
            -0.647289216723824,
            0.39197582134828285,
            0.6285271270371842,
            -0.5943204542997923,
            -0.4501924212161361,
            -0.5951300869569736,
            0.15273486560272054,
            0.4053611003652102,
            -0.9767915678782375,
            -0.5794579358387377,
            0.02159749949048484,
            0.8198251028762429,
            0.46628970299126227,
            -0.30983278496757594,
            -0.7663517014840182,
            0.7165611376733229,
            0.5457772293399084,
            -0.9125372591361449,
            -0.18206662161380294,
            -0.9893197971329433,
            0.6588647654352557,
            0.5433965732430299,
            0.5214457708964542,
            0.8735246541773483,
            0.06394140373687307,
            0.2505508337046629,
            0.628046402828571,
            -0.06583368588146432,
            0.8674379908779959,
            -0.8228880612259315,
            0.7922179418688451,
            0.5684106423102084,
            -0.12478177493138776,
            -0.8699705453743269,
            0.192620957097124,
            -0.5614423091535392,
            0.7809339483100013,
            -0.3970869205895817,
            0.12194346316894,
            0.6499104732670237,
            -0.05691383406434425,
            -1.0066354333143626,
            -0.367626347332046,
            -0.06780817046082088,
            -0.4102584866667368,
            -0.8494735821602353,
            0.4530472998604145,
            0.048473334732258344,
            0.3187229745110738,
            -0.8367713599345927,
            0.5710742356427152,
            0.7201979810605125,
            -0.38635500126964106,
            0.44657885733276315,
            -0.928797492491443,
            -0.9733636428976915,
            0.37716991469779027,
            -0.22988813293917953,
            -0.023024197509901173,
            -0.43575211960442095,
            0.8038870829223939,
            0.8877406329857895,
            -0.06066823525236531,
            -0.3780432331498691,
            0.8799930037036472,
            0.7389582061214421,
            -0.14299669661293968,
            0.7214083457342603,
            0.824989962990315,
            0.830777319924457,
            -0.1254221569844889,
            0.269600203282643,
            0.5702990539268806,
            -0.3290032704783843,
            -0.25403547104052815,
            1.2226901387540678,
            -0.3174899904570727,
            0.21415686962022895,
            0.34099768887663084,
            -0.6714454222753612,
            -1.2612129739959832,
            0.10437575400053678,
            -0.8968322740057375,
            0.9780615022117065,
            -0.580724533243427,
            -0.25843423124271536,
            0.6524862215451439,
            0.693024424447609,
            0.021469316869066057,
            -0.3494831889417085,
            -0.455621992175665,
            0.7149652488019951,
            -0.5845377635025057,
            -0.46502971127260495,
            -0.5172927435895225,
            -0.9490244866343382,
            0.4254651199026398,
            0.8373957707033677,
            -0.10661053564727535,
            0.08857780181482355,
            -0.06677849429404609,
            0.1062206805490451,
            0.8441746854429366,
            -0.8189667763740054,
            0.8505004487678296,
            -0.35727238427550745,
            0.030047912823411904,
            -1.4208186222557304,
            0.3264545435772048,
            0.8653625785227093,
            -0.0861333486830087,
            0.5098997739909517,
            -0.10521144440733954,
            -0.34183788247910774,
            0.5958910058200172,
            -1.1715113047774863,
            -0.13216510452913655,
            -0.3545842586810306,
            -0.8513986467202995,
            0.19235352983457576,
            -0.8343240737888094,
            -0.6047823322076458,
            0.7133094653575622,
            -0.7479769633236197,
            0.10355352952656727,
            -0.7170818170994564,
            -0.4967849467521166,
            -0.19206875400821333,
            -0.4000091540338493,
            1.3670197439582765,
            0.6048403894694041,
            -0.7738354426061607,
            -0.6761543647845834,
            -0.3239583315063388,
            0.9162159137463579,
            -0.13132377464971512,
            0.9866772840160298,
            -0.3997679550387381,
            0.9880268979248783,
            0.08918188653124454,
            0.7060103310667547,
            0.8346173609302762,
            0.21469713820540792,
            -0.8565327423454825,
            -0.5831999393137492,
            0.714012910271355,
            -0.9328947844967681,
            0.4464747579172985,
            0.17302273977923902,
            -1.659644750012869,
            -0.47749375305658326,
            -0.5145394911703625,
            -0.2020868229491588,
            0.33885711473935065,
            -0.3819024009997838,
            0.48742822278056486,
            0.7055151073123465,
            0.8551084840074131,
            0.005180603347336721,
            -0.9207249128769173,
            -0.9949919346641695,
            -0.41616834944079395,
            0.15950804708475608,
            0.42257521700857636,
            0.6930209425858851,
            0.4785617871784047,
            -1.049010350251839,
            0.34277961570942583,
            0.3028972945629962,
            -0.3154357445049585,
            0.4821840052048336,
            0.6569450746653496,
            0.0061642640648447156,
            -0.16544400585893015,
            -0.7259625320964451,
            -0.049057215780912156,
            -0.5938455375378491,
            -0.16133341859035544,
            0.72349627101241,
            0.46276997013741017,
            -0.6473154969752455,
            -0.027679503568754482,
            -0.5555944360983107,
            0.10369522184145788,
            0.13468718845218186,
            0.346357090672337,
            0.9417249901773315,
            -0.22996934748007047,
            0.23695217649925493,
            0.7991117177021103,
            -0.7456862437471812,
            -0.6787323846020501,
            0.9049054778907151,
            0.9519595927791527,
            0.7656098367402947,
            -0.8390756137527922,
            0.5099403775487839,
            0.433746040916984,
            -0.16994110736735468,
            0.43777716370826947,
            0.4446158967981637,
            -0.6384468457790298,
            -0.628646694711017,
            0.4187894480702575,
            0.38980557921359194,
            0.42271970818765225,
            -0.7525706674879851,
            0.05073710181914426,
            -0.6055200052986112,
            0.22128334683496576,
            -0.8432038632664915,
            0.8373177894455495,
            -0.30507427506762963,
            -0.04385219995608747,
            -0.8249317849216689,
            -0.055137632818519466,
            -0.2595325018436614,
            -0.2735084331817841,
            -0.43925886491661137,
            -0.7081987836805417,
            0.4011153077520162,
            0.6089257537061031,
            -1.3091419083655096,
            0.9498358874671612,
            0.9606670305895781,
            0.6753662324026461,
            -0.4930573424995901,
            0.8870516750401987,
            0.975053006807008,
            -0.507286332275749,
            0.995989066980975,
            0.7308230355569647,
            -1.572862474931193,
            0.21636371197540627,
            0.8101099095650675,
            -0.5293618755619862,
            -0.13379291688218825,
            0.15890135427322827,
            0.5894033649162274,
            0.7136081023381078,
            -0.4437048893230311,
            -0.6015630169538899,
            0.5396859345487492,
            0.8003970132983782,
            -0.19674171346181363,
            -0.7154731572162034,
            -0.6602460315745524,
            -0.6465394339429311,
            0.3516120041373434,
            0.3838663390838372,
            -0.44580980264696346,
            0.31493495645429825,
            0.07993184758524197,
            -0.07855076218821533,
            -0.523081344849285,
            -0.34111773372759724,
            0.9331994701195552,
            -1.0585923868744795,
            1.189493925545162,
            0.1931962706473526,
            0.529313269643277,
            -0.30481409209623656,
            -1.4193780182432885,
            0.799262608584083,
            0.20542490864603313,
            0.9083396474054328,
            0.5650432514669461,
            0.41113044685771993,
            -0.40641798200374724,
            -0.7010370472184169,
            -0.39845071096832285,
            -0.3022741431614948,
            1.1844425216896464,
            -0.5792300205806238,
            -0.426949022999801,
            -0.23285732689237548,
            -1.2408860451495303,
            -0.06050115801641298,
            0.5523549118741349,
            -0.47760340415066294,
            0.8612534226546311,
            0.8382193408897227,
            -0.6858218458329748,
            -0.351007800277537
          ],
          "numRows": 16,
          "numCols": 45
        }
      },
      "ops": {
        "type": "org.ejml.simple.ops.SimpleOperations_DDRM",
        "data": {}
      }
    },
    {
      "mat": {
        "type": "org.ejml.data.DMatrixRMaj",
        "data": {
          "data": [
            -0.9120177479135658,
            -0.3685035402113961,
            0.2619445596767518,
            -0.42132088962524405,
            -0.18679417934879217,
            0.08364762954505278,
            0.29729708190564796,
            0.10171223181743438,
            0.9994018929418571,
            0.00850161672884231,
            0.24929577276576387,
            -0.25194225065896414,
            0.1705052085500729,
            0.4362437272452764,
            0.9030222331217115,
            -0.8774569782310919,
            -0.14642555720693134,
            0.7624396598846042,
            -0.130779405770442,
            -0.42950582608376053,
            0.0642252418641982,
            0.09242781444048465,
            0.6301394388048018,
            0.6273006373973833,
            -0.8359659416853096,
            0.2859786941900344,
            0.44102871999270987,
            0.139942948143162,
            0.36665673138472665,
            0.18742501551134638,
            -0.26940773944542507,
            0.5538655430949195,
            0.29060760962197874,
            -0.8875906078242426,
            -0.5872858725100618,
            -0.5971913559611999,
            1.1628767138330256,
            -0.43452475665614276,
            -0.21376348469752204,
            0.41912410590582216,
            0.9588920797671392,
            -0.7813681997037374,
            0.3610618053844852,
            -1.0487674031074086,
            -0.4591685780370558,
            -0.5104070944824242,
            0.4970204444750023,
            -0.4015386682127125,
            0.5487802366847976,
            0.21152108236331535,
            -0.8881892260271531,
            0.5963815350685622,
            -0.6792602353049568,
            -0.1155242236207002,
            -0.10532272367400264,
            -0.4384155188216383,
            -0.5479243744252508,
            0.4085226102439745,
            0.7508976714608344,
            0.3143198925802555,
            0.4047783518296709,
            1.201849395391806,
            1.6044934921573488,
            -0.7590863569722257,
            0.9276622664825713,
            1.2480656834909363,
            -0.9870784433493913,
            0.7351169419771286,
            0.5110202838399085,
            0.910922264918437,
            0.3346163266433386,
            0.17969989429221256,
            0.6962145550316656,
            -0.5482004972735621,
            0.12692608239149927,
            0.5819468739065881,
            -0.498719100936313,
            -0.6880573910702543,
            0.48535546307396826,
            -0.8547855812397473,
            1.7703007386517835,
            -1.7689940458480646,
            -0.31355015226945526,
            -0.28353284465121154,
            0.9508329310560545,
            -0.6801472867489408,
            0.7137814220520755,
            0.7887239952144971,
            0.39574916105707736,
            -0.26455593959135704,
            -0.5966928931043187,
            -0.9513998240438652,
            0.8297103845191873,
            0.6620676170885315,
            -0.8187958062579828,
            -0.48763109757629874,
            0.04021952553415309,
            0.08333293017735399,
            0.20682677850049602,
            0.17737630723640474,
            0.1908030794802515,
            -0.8551886751765281,
            0.6932721661652703,
            -0.6960667141145416,
            0.025848002300777217,
            -0.18735351573793313,
            -0.7500928409783159,
            0.3746691782194238,
            -0.38131935749341217,
            0.2627963713752841,
            -0.16257027816816239,
            -0.10531682553475874,
            0.6841970487947009,
            -0.6895909249267389,
            -0.23968287411888678,
            0.74244062911702,
            -0.272662972457816,
            0.23904680767328879,
            -0.6288514442874147,
            -0.8071945948000998,
            -0.2993689759005247,
            0.5769660942080395,
            1.4137945455738916,
            0.1320622809028677,
            0.0658023630633855,
            -0.9323126139264151,
            0.03435478678143866,
            0.3449439096948217,
            -0.2576247083671368,
            -0.9642115655114005,
            -0.24218626430622892,
            0.005170216686851692,
            0.4718736658198277,
            -0.33845409900641243,
            0.3204431665909029,
            -0.34458569205771905,
            -0.0020911028952681487,
            0.43529438256342723,
            0.9583962014169377,
            -0.9932157681690681,
            -0.4612520647281654,
            0.18836164399083977,
            0.946311069647384,
            0.4018954566116028,
            -0.10455318657035617,
            0.036904380839189344,
            0.9376109358340083,
            0.9673401985335464,
            -1.055998514469745,
            0.6869169315665435,
            -0.3832952234549818,
            0.1648418143881445,
            0.8903074668529569,
            0.346503468280572,
            -0.5222870719692416,
            -0.186001300753031,
            -0.9874052205703217,
            -0.9247234222034484,
            -0.6661886938447821,
            0.8634703246365876,
            0.13281525862758548,
            0.9023479241140098,
            0.324383487291134,
            -0.9659951091663668,
            -0.4236402404400865,
            -0.46427452998765073,
            -0.04978684751578542,
            -0.10288961704112332,
            -0.419064380906482,
            -0.40613051326316896,
            0.17750513363738785,
            -0.5733953378990593,
            -0.5292591801915509,
            0.7292750950378153,
            -0.4678060599510081,
            -0.2220975486844532,
            -0.7379390088390264,
            -0.17800169246322248,
            -0.8009797586478582,
            -0.4506391976799673,
            -0.5777739717844126,
            0.48284329307669804,
            0.037997451154502926,
            0.8338409803458495,
            0.15826141776637034,
            -0.5503105414110694,
            -0.6862153497767975,
            0.8582822203790386,
            -0.3101890820366444,
            -0.6703587511220255,
            -1.185184605492071,
            -0.47176909019316193,
            -0.6613920568505505,
            -0.10436688269211969,
            -1.0332434628173706,
            0.13711890556169237,
            -0.27325275636533264,
            -0.18093981896649858,
            0.8054416366305371,
            0.6286269842266035,
            0.1425453728596311,
            0.6358670886509687,
            -0.10726475550413217,
            -0.8056533933701173,
            0.9603580311251654,
            -0.1237000390511992,
            -0.2320267410259107,
            -0.44992547140566574,
            -0.39507746368405466,
            0.05587022915756118,
            -0.1331313891921591,
            0.46785913669257595,
            -0.25568276749698016,
            -0.9505467820417859,
            0.5188516059365531,
            0.5187789249377731,
            -0.35766009070941696,
            0.2855223811080194,
            0.42203787359547085,
            0.3068553810752166,
            0.16365576227995932,
            -0.7754604758051629,
            0.05955703063376294,
            0.9191474634696757,
            0.3443184297791171,
            -0.6688889480496438,
            0.47804839966793516,
            1.2524137436228413,
            0.7149212495778403,
            0.03479565498186632,
            0.12136305262952804,
            -0.11052535709014932,
            -0.03177619235734175,
            -1.0667131940598715,
            0.14691764361211956,
            0.8562477365912962,
            -0.26466290230856493,
            0.27296757619150847,
            -0.5056390414527336,
            0.4613449712219546,
            -0.03141628800263896,
            -0.22861900738597446,
            0.3650776460401626,
            0.7943291960254366,
            0.5485144739046666,
            -0.8344684206237303,
            0.3063189933994894,
            -0.8356641305010863,
            0.18903507796326013,
            -0.28106576358716734,
            0.5182428717848362,
            -1.0385244289551658,
            -0.8877658818108052,
            0.7722404869186048,
            -0.13298894508397274,
            1.5602198158263236
          ],
          "numRows": 16,
          "numCols": 16
        }
      },
      "ops": {
        "type": "org.ejml.simple.ops.SimpleOperations_DDRM",
        "data": {}
      }
    },
    {
      "mat": {
        "type": "org.ejml.data.DMatrixRMaj",
        "data": {
          "data": [
            0.5246219455233005,
            0.6962065274598854,
            0.25107878989252463,
            1.4090296697276692,
            0.13541141325665562,
            0.9049181773794979,
            0.7796510115726587,
            0.2204172298150222,
            0.673793389628456,
            0.8245391587592581,
            0.8133872002728932,
            0.7450372439812778,
            0.21168462965725277,
            0.8691028108884231,
            1.2151073417841654,
            -0.6165510300847568,
            0.01739938797280538,
            -0.39975755667128166,
            -0.15695485680019483,
            -0.850241785405204,
            -0.8990682662154663,
            0.4481364480512158,
            0.9574486807137998,
            0.936918701296859,
            0.18903254261498303,
            1.1822391406050665,
            0.7588175036534441,
            1.6722257162407748,
            0.7158234698112382,
            0.7938789407060833,
            -0.07104968196973505,
            0.7796318609138171,
            0.40546064984600116,
            1.0688064143628089,
            -0.1515918878973308,
            -0.15777934379762426,
            -0.5179044406610769,
            0.8106557643005929,
            -0.11456477530294906,
            -0.32464982247683705,
            0.7993632148285639,
            1.034402338218043,
            0.7606436834948462,
            -0.4852928991386194,
            -0.7537595839406825,
            0.4710258671570251,
            0.51262223043146,
            -0.10544203591505275,
            -0.4052982951597811,
            -0.2938982972286135,
            -0.9808300954586706,
            -0.9501302094910677,
            -0.22171379642748934,
            0.36864293482926697,
            -1.0221568221008075,
            -0.4692934537721434,
            0.042794555813409296,
            0.40279141433120547,
            -1.4635862852031858,
            -0.4670395976572488,
            -0.7086660916925942,
            0.6517162508716731,
            0.31019244000478097,
            0.42050707126501696,
            -0.8449478805387263,
            0.8900924452719041,
            -0.3111907974395165,
            -0.991443554948825,
            -0.5887149508419907,
            -0.855046166944454,
            0.31293283802210065,
            -0.4668441529314875,
            -0.5667883978984571,
            0.17969368064843874,
            1.2871274384698204,
            -0.3739485600990652,
            0.34282555952529736,
            0.25758732824600417,
            0.09524319832106354,
            -0.03991445849226394,
            0.4518608374095763,
            -0.6389743094552665,
            0.7170082244165914,
            -0.4447052050615341,
            0.7655156345363114,
            -0.9025143809395249,
            -0.043715818414118646,
            1.2805991411839106,
            0.9272135420191521,
            0.8627281302961656,
            -0.39076806219269766,
            0.4562178696612179,
            -0.1500117756650088,
            0.4343311054417851,
            -0.04211794057092555,
            0.09360731267540334,
            -0.32076533502484006,
            0.16931668499154104,
            0.7279915308866567,
            0.5957377499120446,
            -0.6186650941020808,
            0.06851400809307129,
            -0.3565400641459475,
            0.744692324413385,
            -0.11732438622080488,
            -0.8817380487753599,
            0.566804030007759,
            1.5280064422768567,
            0.8198836789761863,
            0.9248417678410811,
            -0.07756944792750109,
            -0.748528180877736,
            0.16579374379154244,
            0.7368824757072143,
            -0.1548463986598121,
            -0.39633643079281966,
            0.4200151323456618,
            0.18207012412177814,
            -0.039722086483567676,
            -0.3991886283325401,
            0.08536979656439003,
            -0.28661496375352713,
            0.7007096178867944,
            -0.9018714303818018,
            -0.2723807789195325,
            0.8255068065224602,
            0.4855424647809683,
            0.7458872327863744
          ],
          "numRows": 8,
          "numCols": 16
        }
      },
      "ops": {
        "type": "org.ejml.simple.ops.SimpleOperations_DDRM",
        "data": {}
      }
    }
  ],
  "biases": [
    {
      "mat": {
        "type": "org.ejml.data.DMatrixRMaj",
        "data": {
          "data": [
            -0.6655463706864555,
            0.13673237398303995,
            -0.574356064774683,
            -0.20720516384910193,
            0.9902099728658382,
            -0.711761273702824,
            0.8007488749345979,
            1.487231117566544,
            -0.42061190942740656,
            -0.3197640728732951,
            0.668132673086677,
            -0.38248079633493237,
            0.7001708187228609,
            0.8017597230072271,
            -0.9863987519816059,
            -0.7287406977315869
          ],
          "numRows": 16,
          "numCols": 1
        }
      },
      "ops": {
        "type": "org.ejml.simple.ops.SimpleOperations_DDRM",
        "data": {}
      }
    },
    {
      "mat": {
        "type": "org.ejml.data.DMatrixRMaj",
        "data": {
          "data": [
            1.1907979436022231,
            0.17360877245847628,
            0.003692141801449944,
            -0.6312238208646536,
            0.083267039308202,
            0.22617007586855187,
            -0.5109852058252868,
            -0.2930773205397059,
            0.34961597860348204,
            2.1207632656767794,
            -0.7125467224541939,
            -0.12346707889207326,
            -0.1338857022928761,
            -0.6440777295834648,
            -0.02640390506981527,
            -0.1388527501874961
          ],
          "numRows": 16,
          "numCols": 1
        }
      },
      "ops": {
        "type": "org.ejml.simple.ops.SimpleOperations_DDRM",
        "data": {}
      }
    },
    {
      "mat": {
        "type": "org.ejml.data.DMatrixRMaj",
        "data": {
          "data": [
            0.7494643946854176,
            -0.12914269445879323,
            0.6027019546844521,
            -0.01377175803675551,
            0.7404207324663266,
            0.3687173689939849,
            0.9691483150402072,
            0.0805798677937829
          ],
          "numRows": 8,
          "numCols": 1
        }
      },
      "ops": {
        "type": "org.ejml.simple.ops.SimpleOperations_DDRM",
        "data": {}
      }
    }
  ],
  "learningRate": 0.1,
  "activationFunctionKey": "SIGMOID"
}