{
  "activationFunctionFactory": {
    "activationFunctionMap": {
      "TANH": {
        "type": "basicneuralnetwork.activationfunctions.TanhActivationFunction",
        "data": {}
      },
      "RELU": {
        "type": "basicneuralnetwork.activationfunctions.ReLuActivationFunction",
        "data": {}
      },
      "SIGMOID": {
        "type": "basicneuralnetwork.activationfunctions.SigmoidActivationFunction",
        "data": {}
      }
    }
  },
  "random": {
    "seed": 171318766384185,
    "nextNextGaussian": -0.32987112754827963,
    "haveNextNextGaussian": true
  },
  "inputNodes": 45,
  "hiddenLayers": 2,
  "hiddenNodes": 16,
  "outputNodes": 8,
  "weights": [
    {
      "mat": {
        "type": "org.ejml.data.DMatrixRMaj",
        "data": {
          "data": [
            -1.177462642674557,
            -0.2699667349180561,
            -0.027082607046613805,
            2.2960117205077446,
            1.6983129233948708,
            0.2579387600763602,
            -0.11447416439928043,
            0.2713996279466474,
            0.759799898869576,
            -0.2617395945422647,
            -1.612452149589974,
            -0.6878259288138238,
            0.15599937721246182,
            -0.2866978208059593,
            0.37332277168672423,
            0.7492738444059377,
            -1.070114958017252,
            0.4093632679627184,
            -0.24886566864905046,
            1.3626212416265198,
            0.18102196803492748,
            0.8223127821145555,
            2.207601095476724,
            -0.5762743228452325,
            -0.6015858156002517,
            -0.2978780232184043,
            -0.7634434913598616,
            -1.2400325188858303,
            -1.73061017987096,
            -0.22329205691161602,
            0.43049505660062704,
            2.201133299759795,
            -1.2581808998152413,
            1.8130416787392143,
            0.6549254257452993,
            -0.40533567726252784,
            1.336045401684661,
            1.0392977633795364,
            -1.1295259944776188,
            0.37435091131590276,
            -0.8123580845916738,
            0.18784987474738965,
            1.3570276037598517,
            1.9790118209679741,
            1.734539535188711,
            0.6068881115608762,
            2.5637780094471023,
            1.1690182347960179,
            -1.6645214785877775,
            -2.2765718597955127,
            -0.4564531680258302,
            -0.4036504841164962,
            -1.2909948995440748,
            0.1636568641285921,
            -1.0485475870609018,
            -0.7573370543189898,
            1.7283608562237094,
            0.3172243757690114,
            0.4266391876036525,
            -0.05488233296002512,
            1.9645899325460827,
            -0.627253883832208,
            -0.9264381088666763,
            0.7867495654427354,
            0.17669255729072758,
            -1.1446535717756487,
            1.2343382576216921,
            -1.1341114031913146,
            -0.4742629695581139,
            -0.8723267143147857,
            1.229892243988751,
            -0.7283591036005911,
            0.9094764720511138,
            -0.6322575611127705,
            -1.3956894971030802,
            0.5358720751199124,
            0.6548419790577437,
            2.6143001169036135,
            0.3387433863187005,
            0.17711023987105945,
            -1.0551502527631709,
            0.6741872673247734,
            -0.03398137191009766,
            -0.48038718411581827,
            1.125447328834843,
            -3.2485816517245345,
            -1.204790878931589,
            1.752443892020966,
            0.9823313142934688,
            0.038811810585306195,
            -1.428640802412117,
            -1.3312849438236638,
            0.3025305647637457,
            -0.17377070601234745,
            0.6821223306745965,
            -0.39139258267665306,
            0.6032908584609352,
            0.5021782745845488,
            0.5722033348875316,
            2.837350063813467,
            -0.6412947971963063,
            -2.1411507558908145,
            1.685609330569061,
            0.6267452705738457,
            0.18693611697443233,
            0.20834125313886773,
            1.9151583608529406,
            2.5522295038132032,
            -0.18878087292212395,
            1.0843524825236375,
            -0.6403570824116118,
            -0.19216882693532467,
            0.5283647038272941,
            0.6135709554726975,
            0.5093553752459333,
            0.3117451781823273,
            0.1791107530845687,
            1.4770796857469675,
            -0.3697670649074276,
            -1.6261085567797329,
            0.9667177524283522,
            0.7495848548611921,
            -0.1738914696752113,
            -0.5493324314632857,
            -0.4764574695313129,
            -1.7728007402244659,
            -1.068301072972832,
            0.09959116769487086,
            0.24895216863197842,
            -0.2878519153089123,
            1.7575515657572425,
            0.5705582622981686,
            0.04849696860868724,
            -0.8474154481426054,
            -1.2477525731204975,
            -0.7912236160058554,
            0.5252934727032935,
            -0.020237639047614553,
            -0.7847030283959933,
            -0.010728838037914551,
            1.517595060866781,
            -0.23508032691298586,
            0.035261578486352335,
            -0.21548420431050386,
            0.6961390957798624,
            0.8487097075487287,
            0.9502490591416826,
            0.4714101347877513,
            0.2321480738527989,
            -0.057015964362200626,
            -0.07643050123820017,
            -2.968382473149152,
            -1.2666414775776267,
            -1.0677148030693326,
            -0.9211283701952404,
            -0.3112540735011587,
            -1.8829960312335878,
            -0.5386520197984467,
            -0.8387747865360289,
            0.9141205542017048,
            0.1643945532406716,
            -1.0793045570820907,
            1.364379469773256,
            0.37655795781187684,
            -0.5498656805348323,
            -0.25598572454213653,
            2.518733699334442,
            -1.294948454483483,
            -1.3765385631658693,
            -0.8322405339479687,
            0.2010552359294271,
            0.7609020510903595,
            0.015646079013404687,
            0.9534565246901445,
            -0.45830562463590885,
            0.7196241930371639,
            -1.022483017060163,
            -0.005453550027413545,
            -0.04527004099154466,
            1.473695604933324,
            -1.32579222554493,
            1.970994690826704,
            0.5872918297180734,
            0.1636125344225976,
            -0.4675015507527799,
            1.1144825652582289,
            -0.7212383814990421,
            -1.367196788953266,
            2.559881922873546,
            -0.5683425739802815,
            1.215206954911274,
            -0.6672362302352464,
            0.6722460029505155,
            -0.42433889178189804,
            0.23862410992963462,
            0.07462107408136036,
            0.5646402981996337,
            -1.6023336030062836,
            -1.1301480958589671,
            -1.262889525824602,
            1.955228510365818,
            1.5856153605725818,
            0.021903388493502374,
            -0.8082187266055381,
            0.5461630834378648,
            -1.805516045833119,
            -0.9200788246974851,
            -1.100965813311025,
            0.619939333584161,
            2.811282197099175,
            0.989009029678694,
            0.579614119491648,
            0.16130864605908082,
            0.08333419582413323,
            -1.3856867994831477,
            -0.2586881596421011,
            -0.17248171584262728,
            0.6194622324504812,
            0.9011751581798169,
            0.560173419504109,
            -0.5463690169977089,
            -0.1326490573745886,
            -1.1612322533597865,
            0.6022087598980392,
            -2.14852296412509,
            -0.3043367694014778,
            0.9058078392577208,
            -1.1414815241498881,
            -0.06543535854121646,
            1.1531308719449918,
            1.5528866452598022,
            -0.7507247218480858,
            -0.019955841031029403,
            0.38295654210102426,
            -1.1314533042999932,
            -1.2142962483778348,
            0.5592229621722052,
            -1.839621908709686,
            -0.3802376520825741,
            -0.9430799829827572,
            0.7186288890079239,
            -0.03353245200215216,
            -0.26447736395138194,
            -0.2857304517825561,
            0.9306250694629138,
            -0.4681990405592736,
            -0.815714632125049,
            -0.9023295838324337,
            0.02516498263646516,
            2.416123498680886,
            0.4850831369782447,
            0.51873380698197,
            -0.45551954520466914,
            -0.22938218837899754,
            -0.9918160002880443,
            1.607415228369668,
            -0.14662380717792228,
            1.0703624472739888,
            1.1882272026264284,
            -0.6469736554209294,
            0.5765772314934552,
            -0.09515229914721257,
            -0.11019545380082496,
            0.39328449164472157,
            0.12322637237499989,
            -1.3083863292155948,
            0.11692297908959046,
            0.7752356903782174,
            0.54857441719739,
            0.19728404056315735,
            -0.9993909079243966,
            0.6115188700947248,
            0.5855932609593885,
            0.44545116058735373,
            -0.690244989996476,
            3.7477800694220527,
            0.5168370115489836,
            0.8113622415488182,
            -0.9263595764737845,
            0.33164016967035836,
            1.405294831089853,
            -1.0107173652092631,
            -0.056884753287260725,
            -2.0326197096658563,
            1.32429678689558,
            1.2036171505380517,
            -3.155393264912168,
            -0.8171252453059005,
            0.449654209225114,
            1.653577165296765,
            -1.0250927606438633,
            3.1692144925883747,
            -0.8653884407394292,
            -1.4787613387443261,
            -1.734137817356764,
            -1.2416066967123895,
            -0.14533670927215614,
            1.9048314297227091,
            -0.32883939345146185,
            -0.7692686858181614,
            -0.10658055352783974,
            0.6654440459805607,
            -1.1025050728758639,
            -0.9483755123262076,
            0.8339287553599842,
            1.3639017035416303,
            0.029461570068075704,
            -1.3434788317884183,
            0.7768473568241725,
            -0.0717164554781764,
            0.7972856995315426,
            -1.3898953038166482,
            -1.0240817597797487,
            0.42602637072828575,
            -1.591415025931545,
            -1.8398271999253502,
            1.2793656854644087,
            1.8513435832663068,
            -0.8030827133010194,
            0.6568408113195585,
            -0.7626175128215704,
            0.37861668132111814,
            0.15133450037420515,
            0.46245146679697674,
            -1.0636878291572458,
            0.6730254432878195,
            -0.10805752144368208,
            0.3914090646172638,
            -1.2647891315236564,
            0.272903819136622,
            -1.2961552198943151,
            0.2257022684081511,
            -1.161397428986895,
            1.50396443620089,
            -0.19067658828012213,
            -0.1819628078054804,
            0.24818798986113788,
            -1.4402074439499495,
            -0.18289063521914262,
            0.8485179539852914,
            2.5819619968601124,
            1.670835355370751,
            0.7614197247258139,
            -0.6230090344055392,
            0.006750210155450659,
            1.2341884477177225,
            -0.5193687633724832,
            -0.6609462169686341,
            -1.735933392586427,
            -1.3664187834224106,
            0.02189833267536412,
            -0.4679674174764472,
            -0.5678333810907709,
            0.5691715167056123,
            -0.15956838504714677,
            -1.537624674763486,
            0.2863666879130898,
            1.6845407365647864,
            1.4736557844995957,
            -0.040680628590784695,
            -1.2554068543878643,
            -1.0210020022297246,
            1.5220794534103015,
            0.1412723465332092,
            0.09356513916769697,
            0.9948531002343299,
            0.38250180004873435,
            -0.32568366709199237,
            1.467558464396575,
            -0.7021832817595292,
            -0.22111754506815573,
            -0.4110816245996429,
            -0.6667337191704898,
            1.1156493663587983,
            0.6041926198835726,
            1.217283313057791,
            -0.6260756293279193,
            0.7671836770689435,
            -0.08864352615619767,
            0.6573902847699513,
            0.5278958467479361,
            0.34914679429410506,
            1.4177580077817526,
            -0.698965569515618,
            0.3245278984613066,
            -0.8603218684440567,
            -0.11548098238290494,
            1.0975678841881575,
            0.7495035354130062,
            -2.7540709216209542,
            0.3045346972001178,
            0.9929923729362995,
            1.3144361771530764,
            0.33015565728270246,
            0.5202233935028912,
            -0.7607805134470951,
            -0.29065844056557005,
            -0.4138926589433164,
            0.6676434898533803,
            1.7160544285616297,
            3.3604482129696223,
            -0.0020362975352388735,
            -0.5367776328022809,
            -0.1250415618537859,
            -0.33531081815250263,
            1.5831248717380308,
            0.07112230283296839,
            -0.20640445237102634,
            1.4416384384763992,
            0.7767483459084261,
            -0.8994904420480843,
            -1.307002405439259,
            -0.17582185744325396,
            -1.217137093470447,
            0.8703609162321031,
            -0.3594664641018899,
            1.0498123170245472,
            -2.0386310484687993,
            -0.8088916327272643,
            0.08856191423888926,
            -1.0840127007981513,
            0.4130929342356856,
            0.04790360471637106,
            -0.07058063993645514,
            2.1897905033737364,
            -1.1122898253452687,
            2.3934527524284204,
            -0.008770285471028982,
            0.9399338718794485,
            -1.5525564696728014,
            0.18099190146235816,
            0.4105457370782556,
            0.08372653122686247,
            -1.0033002715537012,
            0.054182140698742526,
            0.31214213988492123,
            -2.5644269175816485,
            1.3293582194476823,
            0.08213378037242391,
            0.8583286663248221,
            1.754727065877581,
            1.238681350155884,
            0.9707554384104291,
            0.3457842017903976,
            0.24121765684086485,
            1.8438640196882403,
            -0.9766923678392657,
            -1.3375426403261894,
            0.24244776450141223,
            1.0401696414212038,
            0.4732790457456453,
            -0.2643765877446528,
            0.24678933457699892,
            -0.7132682924518459,
            0.19517634882607382,
            0.1629760716161266,
            -0.4509489344899602,
            1.6347136638524424,
            -1.8631674696496214,
            -0.7899832822595639,
            1.2677893493550436,
            -0.1715982774605403,
            -0.48084596707535615,
            0.4030698785961412,
            1.206281348356529,
            0.12043260006095524,
            -0.024227001615359678,
            -0.010752718556339247,
            1.7529818080566222,
            -1.485172143668625,
            -1.6181464748403211,
            0.23566817134035875,
            2.318951115949975,
            -0.7118424673827022,
            -0.5061752809071973,
            2.898305743952537,
            0.6814294700699759,
            -0.6230412371429381,
            -2.3997905928681567,
            -0.21888640897502,
            -0.5421664109255633,
            -0.8420905860764141,
            -0.5636139461485131,
            0.4348453776066718,
            -1.1120270257984612,
            0.35265090144941036,
            -0.8799043487372954,
            -0.08505070658328787,
            -0.6730695807165765,
            0.5385157983917666,
            0.8908371451406981,
            -1.352406756033911,
            -0.02620808970819699,
            -1.7755765291409882,
            0.2529585015185994,
            2.643444104646757,
            -1.9421851065078894,
            1.7579752367230983,
            -2.0302134465290482,
            -1.6780134178096175,
            -0.06244337755881624,
            -1.7409788299585027,
            -2.728136466167822,
            -0.1440735565049554,
            -0.3796110958675972,
            -0.9212114534878009,
            0.6455142189807807,
            1.0206972454927379,
            -1.0615039062754104,
            0.4992291497827289,
            0.38454088942401743,
            -0.9614091321695377,
            0.3566020535063789,
            -0.7415929261971029,
            -0.40233428560223033,
            -0.07404535073335275,
            0.11589838183871382,
            0.6874643273416764,
            -0.8760174678049268,
            -3.108809232345372,
            0.2773748032476693,
            1.6874855816201906,
            -0.8695850575982439,
            -1.1682112300247063,
            -0.7865731030134699,
            -0.057476111317329596,
            0.49838291428145937,
            -0.9142935027693376,
            3.013375061483032,
            0.4947720240197727,
            1.6568046855516,
            -1.7080990215105682,
            -1.4215630848174685,
            1.2356437966301346,
            -0.5495599569971121,
            -1.6303741471482294,
            -0.1526906883818644,
            -1.9347668133709306,
            1.9240624350577022,
            2.209141994848875,
            0.6742491628806693,
            -0.33022540517747334,
            -1.0685482773633908,
            0.7698303095904524,
            0.32523515646408363,
            1.8269240058802112,
            1.8056425775007414,
            -0.1461941395716081,
            1.361467166849775,
            -0.2887158502366155,
            -0.541505217127948,
            -0.09333283716417386,
            -0.5355782151523285,
            0.17389405501734229,
            -1.170354497636345,
            2.6696695407436613,
            -0.04912911939366241,
            0.27970834006253065,
            -0.968902676341651,
            -0.5099003945737096,
            3.081545360436342,
            -0.797347436674547,
            0.14182431658367212,
            0.2813284313366196,
            0.13184643220297732,
            -0.41321328598146156,
            -1.2244714672356936,
            -1.4303347573531815,
            0.8508421364786601,
            0.8394951591412418,
            -1.3456032033886831,
            0.9454600728494326,
            -1.7895205584201455,
            -2.0147782338703126,
            0.12780195709188025,
            0.7461366951767827,
            0.42340088620015404,
            -2.0048462656477453,
            -0.5007349763718567,
            -0.8470336284598383,
            0.7421916753228096,
            -2.172328555474074,
            -2.690006397710367,
            -0.9073341595333193,
            2.1666611030493854,
            1.6455027769779818,
            0.45748526224426234,
            -0.7530137866327692,
            1.6398215253360777,
            0.0025057935151672206,
            -0.4513468834893434,
            -0.33443245254789533,
            -0.11053282821167323,
            0.08773164169944964,
            -0.2899546694228632,
            0.22704290429147653,
            0.8122760094400514,
            0.0071413316337267385,
            -0.08341804583445388,
            -3.111376220094876,
            0.5569530492754295,
            -1.9680726648982398,
            -0.8706712556032548,
            -1.5880459487186367,
            -2.6206739801369756,
            -0.253615688224082,
            -0.21139763542858447,
            0.4114676761999827,
            2.3422172256291924,
            -0.6563149395639205,
            0.0782859547563422,
            0.03763419646097782,
            0.6332986163134455,
            0.5408745057037717,
            0.8803708700938423,
            0.3171475367054142,
            -0.566520996381541,
            -1.753041585681767,
            0.6217003296640313,
            -1.4774242592960127,
            0.47722367934906,
            -1.0533724234678004,
            2.136162784533152,
            0.5229698329326864,
            -1.3636623604424223,
            -0.8515099003596622,
            -0.31295340763012214,
            0.13374132920027015,
            -0.24724208770522316,
            0.508900518751146,
            -0.3990941017067281,
            -0.5430557869627322,
            0.7933215458364051,
            1.4728223241982015,
            2.086715698916234,
            1.4087761538570132,
            1.6051369012054422,
            -0.3496374008822579,
            -0.9196453282885378,
            -0.8297781416658302,
            -1.1821749228194773,
            0.7812804698795802,
            -1.1008227325913706,
            -0.7122569903888805,
            0.2191664683129304,
            0.5463224583391562,
            -1.5809188913381282,
            2.223225003168804,
            2.4961677421518176,
            1.5848295621586188,
            -0.3921093057704653,
            -0.03234589713997771,
            2.421882005186868,
            -1.3088641365890519,
            1.4341866036290072,
            -0.3790809132779505,
            0.403890273288907,
            1.462823468448078,
            -0.2893977684574044,
            -0.13573134748068683,
            -1.2201150527447464,
            0.7327475668056544,
            -1.0232253309977197,
            0.18485085880617796,
            -1.3963675937845117,
            -1.550429005279244,
            1.2800466097269392,
            0.05219173944264455,
            0.4823188890584314,
            0.053550410053398334,
            -0.7860814118509422,
            0.8228914094583699,
            -0.9763377164857123,
            -0.25073927505907245,
            -0.6924125065638435,
            1.144952761858054,
            -1.3642634566572611,
            3.048568289679191,
            -0.24212272144112626,
            0.4507083094160851,
            -0.5630522519375086,
            -1.3669826592515129,
            1.6422940398430836,
            -0.13429900047686205,
            0.9048918461849595,
            2.066927954959516,
            1.6497219324174814,
            0.5257429316643649,
            -0.6300819848125299,
            -1.2420783054139477,
            -0.2193789154532142,
            -0.10850973743357079,
            0.31381498290847926,
            0.591543689454225,
            -0.020377043408362105,
            -1.753104751056105,
            0.3200250315502464,
            -1.6009238580531067,
            1.1626382616390263,
            -0.5213981659541589,
            -0.39535672949864054,
            3.097336639819037,
            1.0334472801395518,
            0.6480654676417222,
            0.13096610257837954,
            -0.568481218082857,
            -0.6433309287222576,
            -2.1218887616866424,
            -0.8858942897871399,
            -0.8235864026055197,
            0.5527237461024099,
            0.23102314782617372,
            0.1816971833159976,
            0.006862722714400471,
            -1.853933330604141,
            0.04034850499659648,
            -2.4770184277469807,
            -1.1894531808004634,
            -0.5784240362881501,
            1.2603282514331675
          ],
          "numRows": 16,
          "numCols": 45
        }
      },
      "ops": {
        "type": "org.ejml.simple.ops.SimpleOperations_DDRM",
        "data": {}
      }
    },
    {
      "mat": {
        "type": "org.ejml.data.DMatrixRMaj",
        "data": {
          "data": [
            0.42954915642243935,
            0.14460045203502592,
            1.8442440028222242,
            1.4544537014351966,
            -0.9563448287153302,
            0.02361944564751725,
            -0.8724625754704809,
            -1.0710856272756386,
            -1.4787061396057277,
            -1.3092457115824645,
            -1.707001411176618,
            0.63064265678452,
            0.4621613041301439,
            1.2852985309193854,
            -1.0255273445641722,
            0.008069032846330926,
            1.6861606284287611,
            -1.5635326932166334,
            0.5463308036256042,
            1.9608482088877506,
            0.9651854342570977,
            0.7722925862327589,
            0.2238615801516468,
            2.4854150481705193,
            -3.202421599871871,
            0.8835507724815201,
            -0.39768971078251314,
            -1.1379658051987098,
            1.0212486746338745,
            2.215475180446026,
            1.7788747674854142,
            0.6349085514341206,
            -0.4989413317137128,
            0.7140496818211057,
            1.9975406897970938,
            2.971371600593246,
            -0.1803281335162776,
            -0.35761074747401184,
            0.9209134427294852,
            1.415564453351545,
            -0.4207272691892107,
            -1.2542507195267087,
            0.6372944694437394,
            0.4902644692606862,
            0.9275132160866957,
            -1.116912775049651,
            0.9977298996287352,
            0.34484935059926203,
            0.4826839123205364,
            -0.1674982460500171,
            -0.48269801142625995,
            1.7221219108126848,
            0.6518915590739306,
            -0.31035256030935243,
            -0.35038695318375074,
            -0.30481773386383765,
            -2.7287242021664606,
            -1.433414393678541,
            0.021766965888060597,
            1.1887955994038455,
            -1.4159716149505988,
            -0.20465907785136048,
            0.29229513645315597,
            1.4097053910594062,
            0.49593906555075534,
            -0.45817864651960705,
            0.0847232965144975,
            1.382476180937828,
            -0.2378987123874855,
            0.6414284238639949,
            0.35474648496578065,
            -0.501084493021372,
            -1.2404738258455255,
            0.23824265638640213,
            -0.30268701554912936,
            2.4636123998423374,
            -1.2648781805390912,
            -1.1165479649242775,
            0.07273116738117044,
            -1.8817329875936524,
            -0.7943768172540249,
            -0.20635154532782168,
            -0.5991140853696941,
            1.3911742251679182,
            0.26905068029105916,
            -0.13061428607520437,
            -1.457537610608199,
            -0.35276663464940583,
            -0.8286912381578039,
            -0.13369956751422146,
            -0.8718803933156654,
            0.35469836029721413,
            -0.48579331199547815,
            -1.2892068224779574,
            -1.5207261227642856,
            -1.7959327273909516,
            0.6495563174569725,
            -1.0740901939830687,
            -0.1179801427257341,
            2.967442621688332,
            -0.25544800981389826,
            -0.509195030068796,
            -0.03722983238440981,
            -0.6313370476726232,
            -1.1133465556753934,
            0.17140698169960766,
            0.5860938482817496,
            0.7613871998080596,
            2.220210203862299,
            0.34396628323347034,
            0.7978210830983306,
            -0.5393044783156051,
            0.8128974386893983,
            0.5971791040788317,
            0.993451428136003,
            -0.04893723353872134,
            0.21815774648653397,
            0.6176269136482332,
            1.5500074036854814,
            -0.2486525142229638,
            1.2329947117089324,
            -0.1257090841598817,
            1.21077445652996,
            0.602007110486497,
            0.5282705077670867,
            -0.6027566539405528,
            0.4324767486795793,
            -1.387389753045129,
            0.2766335367957998,
            -0.5708628566414066,
            0.24762277288886214,
            0.24574204416309609,
            -3.0476332406577282,
            -0.8159909435541632,
            2.443835026245493,
            0.38987449565257326,
            0.9042677144268703,
            -0.7879236312957366,
            -0.15948414894131363,
            -0.030480827223900275,
            1.2505379792837021,
            0.965671842837859,
            -0.5011763707747631,
            -0.6568941780299296,
            0.2090210962725999,
            -3.0058779120106944,
            -0.4202161723855621,
            -1.6158833196566362,
            0.7428094333339346,
            0.6965084658761415,
            0.20251679185771454,
            1.5460900288750148,
            2.2018609726860534,
            -2.8147108981064957,
            0.5588186829795301,
            -1.067313010428962,
            2.015425925731204,
            -1.6092168960765854,
            1.8751257794472815,
            -3.04210384199164,
            0.08481445997460824,
            -1.680106020257298,
            -0.36933970274572625,
            -0.9997211793383414,
            0.11583461576187642,
            0.5462744478078372,
            0.4280637011642996,
            -0.19629700624756696,
            -0.43981458393001,
            -0.0790616698840314,
            -1.672757832959734,
            1.7281829298425602,
            -0.44699410860189426,
            -2.244262439087658,
            2.2989751388767523,
            -0.2529367467992391,
            1.1336268877240057,
            0.8325002527089779,
            -0.39249444479926726,
            2.493887333219822,
            0.10286443749749408,
            -0.18345944180057994,
            -0.03198957267927105,
            -1.8181319853565647,
            0.15771660507934304,
            0.5209694030041367,
            -2.847338148959446,
            1.3638573008219153,
            -0.020282624430584595,
            -1.0873251197530016,
            1.1615243743894044,
            -0.6144046423077288,
            1.2053322174003265,
            -0.6380437012598092,
            2.3807467031601,
            3.379058949946178,
            0.5484039010853766,
            -0.09667496843645798,
            0.6273552825354775,
            -0.06362642964087474,
            0.07033187217354586,
            0.2955935292014937,
            -1.4610305211325239,
            0.7225968520582883,
            -0.23914005240599534,
            -2.7327996420477296,
            0.17444947371572994,
            -1.2007249722112256,
            -0.19705267992182346,
            -0.6900184138142962,
            -0.4310468162087988,
            0.34548135879569253,
            1.6509079874700447,
            1.031074766566805,
            1.1173362275398442,
            2.0027969458125936,
            -1.1864560400177264,
            -1.4775202433104555,
            -2.3715655210791926,
            0.9507226800331998,
            -0.10847116288852021,
            -0.14852889632305546,
            -1.4124730750250674,
            -0.11255923967989176,
            -0.9183440510523171,
            0.9751763957316809,
            0.08452313492539235,
            -1.0297619100708875,
            -0.36943283567597474,
            0.7864618953388023,
            0.4484107497474478,
            0.011136802984171745,
            0.8195246964220072,
            1.1791569229547767,
            0.46429131264518636,
            1.548007768792746,
            0.40999806587252763,
            0.9859206312035494,
            -0.30919656721126293,
            -0.10024503366128279,
            0.6284848211114341,
            0.2116808329353284,
            0.79411112312666,
            -0.10873863710582432,
            -0.379013449675094,
            -0.10993647524547567,
            -0.2036462553228937,
            0.81560905009497,
            1.752054502144423,
            0.5113039128700376,
            1.0652574420547756,
            1.2803324853475315,
            0.01610648788595348,
            -0.18390837707567656,
            2.699221418851694,
            1.1806728806728466
          ],
          "numRows": 16,
          "numCols": 16
        }
      },
      "ops": {
        "type": "org.ejml.simple.ops.SimpleOperations_DDRM",
        "data": {}
      }
    },
    {
      "mat": {
        "type": "org.ejml.data.DMatrixRMaj",
        "data": {
          "data": [
            1.615403457239785,
            0.25771897046801584,
            0.8963937520390214,
            -0.1621994462979902,
            1.5801310292989106,
            -0.769946201946857,
            0.5633681000492055,
            0.6812198603954006,
            0.733585805549684,
            0.7045405599139029,
            0.2899291390822338,
            0.16903467056673857,
            -0.14198783113690122,
            0.9868873915126002,
            -0.27149556398194186,
            -0.23500372565093944,
            0.25301478735105143,
            4.441763181018424,
            -2.0267939345073214,
            -0.40596029071778483,
            -0.17361797181718136,
            0.4532883703785377,
            0.2770827116910811,
            0.9800837698060205,
            -0.023960035377188105,
            -1.6322354262503225,
            -0.24915751068511738,
            0.2851580980970428,
            -0.88095367138484,
            -1.5864341896353036,
            -0.6977641516764945,
            0.6454701798902146,
            -0.729257996739507,
            -0.19901609820709348,
            0.0650340228762831,
            -0.22807850256153073,
            -1.1834224682176013,
            -0.4077754962226034,
            0.010787735362256634,
            1.9619951442076535,
            1.1037969119284163,
            2.4077508570341357,
            2.866166946551824,
            -0.22939373943805652,
            -0.04421922864681538,
            0.9818504910829028,
            0.7891255467031909,
            2.2030582819927553,
            0.310329921626656,
            -1.6884717543868588,
            2.1201009205114887,
            1.269134352292418,
            -0.5492266064022847,
            -0.2689039532494152,
            0.7348514882537514,
            2.8245591073517984,
            1.5345093301214705,
            1.136892298838413,
            1.0076349941096776,
            1.4249628050631786,
            -0.3801417103888556,
            -0.2570527889143192,
            -0.16165967226952205,
            -1.1462848091669102,
            -1.035921180037913,
            -1.7989935641229164,
            0.02511200661134272,
            -1.8663114774584766,
            1.0909062283344533,
            -0.19516648230155603,
            -0.4836638452016607,
            -2.089778091905381,
            -0.06718506323716278,
            -1.0296330851122772,
            -0.1429360459183111,
            -0.7710645586377705,
            -1.9185434514113395,
            0.22471024052779803,
            -1.804701907674767,
            -0.4357253176530232,
            0.5099016765956903,
            0.5496569438412249,
            -0.2545042429995218,
            0.23163650029638283,
            0.814176669684079,
            1.5794496242292944,
            0.34785501501223476,
            0.46462660832684965,
            1.053680050115869,
            -1.6994649339132244,
            0.7691180416906915,
            0.4973644399774303,
            1.6582356491792865,
            0.973727798341928,
            -0.43309932924362154,
            2.2166237350262006,
            3.161066568450248,
            2.509968584271055,
            0.06760755237041124,
            -1.213952915514935,
            2.534846186725501,
            2.5653312890763216,
            -0.2767261354702298,
            1.8229403818962715,
            2.3884411962387864,
            -0.48329039375634897,
            0.21775069517831366,
            0.7689778973283505,
            -0.5335658731519632,
            -0.1850123816246494,
            1.1922102110182164,
            0.06826827286009451,
            1.248279112973438,
            0.764479532547547,
            -0.14284378033303582,
            -0.2910892902422304,
            -1.788254149701785,
            0.844853164688916,
            -0.30629719918866427,
            0.3464826021414976,
            -1.0186096825648023,
            -0.5585486846404464,
            0.5908742320263135,
            0.2858521642279327,
            -0.38797574667068135,
            0.7073649798231693,
            -2.143188889761558,
            0.016067229744831324
          ],
          "numRows": 8,
          "numCols": 16
        }
      },
      "ops": {
        "type": "org.ejml.simple.ops.SimpleOperations_DDRM",
        "data": {}
      }
    }
  ],
  "biases": [
    {
      "mat": {
        "type": "org.ejml.data.DMatrixRMaj",
        "data": {
          "data": [
            -0.5847722999698599,
            0.9242382089646974,
            2.0157943368260955,
            0.6981132242272521,
            -0.7021875271778489,
            -0.5926350074677619,
            0.42235515511953203,
            -0.5798367455058122,
            -1.0926228141700327,
            -2.0570742675596154,
            1.1536286795736097,
            1.594808894969613,
            1.4705732313097308,
            0.7305254974806552,
            -1.2188881709734953,
            -0.13713418070698635
          ],
          "numRows": 16,
          "numCols": 1
        }
      },
      "ops": {
        "type": "org.ejml.simple.ops.SimpleOperations_DDRM",
        "data": {}
      }
    },
    {
      "mat": {
        "type": "org.ejml.data.DMatrixRMaj",
        "data": {
          "data": [
            -1.1114051918286947,
            1.343890749393764,
            -1.2812640482753042,
            -1.0480022125735768,
            -1.329152798934846,
            2.2112483523813355,
            0.3629313794852671,
            0.9560489336240703,
            1.111304406678599,
            -0.3416704983440554,
            1.6405631860473942,
            -0.6648596260357356,
            1.9457486891401166,
            -0.0976373302702804,
            -0.8031497310440057,
            0.21289167114702226
          ],
          "numRows": 16,
          "numCols": 1
        }
      },
      "ops": {
        "type": "org.ejml.simple.ops.SimpleOperations_DDRM",
        "data": {}
      }
    },
    {
      "mat": {
        "type": "org.ejml.data.DMatrixRMaj",
        "data": {
          "data": [
            0.06987855133623908,
            -0.41762734699552806,
            2.616420621819756,
            1.322720729457904,
            -0.5231763246396136,
            0.5202325898046607,
            0.18148363941420084,
            -0.11196761030092173
          ],
          "numRows": 8,
          "numCols": 1
        }
      },
      "ops": {
        "type": "org.ejml.simple.ops.SimpleOperations_DDRM",
        "data": {}
      }
    }
  ],
  "learningRate": 0.1,
  "activationFunctionKey": "SIGMOID"
}