{
  "activationFunctionFactory": {
    "activationFunctionMap": {
      "TANH": {
        "type": "basicneuralnetwork.activationfunctions.TanhActivationFunction",
        "data": {}
      },
      "RELU": {
        "type": "basicneuralnetwork.activationfunctions.ReLuActivationFunction",
        "data": {}
      },
      "SIGMOID": {
        "type": "basicneuralnetwork.activationfunctions.SigmoidActivationFunction",
        "data": {}
      }
    }
  },
  "random": {
    "seed": 137232166204457,
    "nextNextGaussian": -0.8360516667009811,
    "haveNextNextGaussian": true
  },
  "inputNodes": 45,
  "hiddenLayers": 2,
  "hiddenNodes": 16,
  "outputNodes": 8,
  "weights": [
    {
      "mat": {
        "type": "org.ejml.data.DMatrixRMaj",
        "data": {
          "data": [
            -1.177462642674557,
            0.6182931684757993,
            -0.25997186147462764,
            0.9725931328918295,
            1.1304338204371258,
            0.9414258878253924,
            -0.11447416439928043,
            0.2713996279466474,
            1.1059025827428814,
            0.7301689835089611,
            2.0653868400217466,
            -0.29098429241105883,
            0.6720739362109787,
            -0.2866978208059593,
            -1.4124509240321212,
            1.2945997666390963,
            -0.27866861711428204,
            -0.24077729876225493,
            0.35049089491532287,
            0.42943642112066505,
            0.18102196803492748,
            -0.3655866933592522,
            2.3716655387288426,
            -0.5762743228452325,
            -0.6015858156002517,
            -0.2978780232184043,
            -0.4570385895676711,
            -0.4796104330739445,
            3.089009708422963E-4,
            0.03490358456502052,
            0.43049505660062704,
            0.8405795859079723,
            -0.7720454149619563,
            1.8860553976232417,
            -0.3172251095046418,
            -0.40533567726252784,
            1.336045401684661,
            -0.03242684314674431,
            -1.1295259944776188,
            0.37435091131590276,
            0.9766490063582032,
            0.45536852767433544,
            1.3570276037598517,
            1.9790118209679741,
            1.0019732525560812,
            0.6245694530419448,
            2.1259547078874914,
            2.450423427818187,
            -1.702551316564708,
            -2.2765718597955127,
            0.20508594119169649,
            -0.6700729218459839,
            -1.2909948995440748,
            0.5780810888723522,
            -0.7678627715719433,
            0.4411897245059243,
            1.7619061458444716,
            -0.6279258213694311,
            0.4266391876036525,
            -0.5324040395532452,
            0.9515311336841568,
            -0.38369917166400236,
            0.16057008759839891,
            0.7867495654427354,
            1.0542309594391972,
            -1.1446535717756487,
            0.752474306314139,
            -0.8831137592769818,
            -1.1613684388694376,
            -0.8723267143147857,
            1.1908052308466934,
            -0.28970605539126365,
            0.9094764720511138,
            -0.24505555731563472,
            -0.745748021231762,
            -0.25024902994270026,
            1.3034581801751564,
            1.8576642814940256,
            0.848846088293177,
            0.5436006811322434,
            -1.3589420666310779,
            0.7614364953065126,
            -0.03398137191009766,
            -0.48038718411581827,
            1.125447328834843,
            -3.5234088258578726,
            -1.204790878931589,
            2.223219065463134,
            -0.45731092214630215,
            -0.9516865566670417,
            -0.7979724033277624,
            -1.6666134592138064,
            0.3025305647637457,
            -1.1298813913364953,
            -1.6269849539357235,
            -0.39139258267665306,
            0.6032908584609352,
            -0.14968433731117914,
            0.5722033348875316,
            2.3313422791746197,
            -0.6412947971963063,
            -0.8997644130241338,
            1.685609330569061,
            0.11744053888256692,
            -0.046447818515345296,
            0.4660261246216938,
            0.5252043542929787,
            2.5020111446767035,
            -0.18878087292212395,
            1.0843524825236375,
            -0.9397235073812031,
            0.2107778879333913,
            0.6409076766475577,
            0.2803842977855228,
            0.5093553752459333,
            -0.40846859593861085,
            0.4430611711682062,
            -0.11645175224192275,
            -0.325992335573554,
            -1.6261085567797329,
            -0.3746098781297169,
            1.0369282325289144,
            -0.1738914696752113,
            -0.4464379574331228,
            -0.28558417801370284,
            -1.7728007402244659,
            -1.068301072972832,
            1.2886682094894752,
            0.24895216863197842,
            -0.35747342272548743,
            1.1548737528075392,
            7.669810101215424E-4,
            0.23660794098619442,
            -0.6906682635430066,
            -2.191729162777685,
            -1.8321043479360763,
            0.8048215873047166,
            1.474354812896021,
            -0.7847030283959933,
            -0.15798120629909274,
            0.8198628629128859,
            -0.23508032691298586,
            0.11340896195816876,
            0.3635390602084234,
            1.2445038871930416,
            0.9962957222217621,
            0.9502490591416826,
            1.0250449736366516,
            0.17161786468525975,
            -0.3367549456852444,
            -0.35819269698127465,
            -1.2398137547637271,
            -1.8148155835311415,
            -1.374592418064666,
            -0.08390275517438295,
            0.053335028203092216,
            -2.2237330164667135,
            -0.2917632073943205,
            -0.8387747865360289,
            -0.6938894572731298,
            1.0970278584867117,
            -1.0793045570820907,
            1.1174687666919658,
            0.516477385610655,
            -0.3322238647629374,
            -0.25598572454213653,
            -1.3123713472118004,
            -2.6137550722973772,
            -1.3765385631658693,
            -0.738035254419977,
            1.0102188124140232,
            3.429365165719737,
            0.3954035108261968,
            1.0659628197628395,
            -0.13327756363282472,
            0.2569326834703833,
            -1.022483017060163,
            -1.2676668530042292,
            0.5136594582752528,
            1.473695604933324,
            -1.8767303762418508,
            1.932707664053998,
            0.7515351773453312,
            0.4530604084776269,
            -0.7770949464906652,
            1.118144293117358,
            -0.7212383814990421,
            -0.6356184825684801,
            2.559881922873546,
            -0.5683425739802815,
            1.1005757984940114,
            0.5717024167085942,
            0.6722460029505155,
            -0.42433889178189804,
            0.23862410992963462,
            0.1431550239753691,
            0.7719444553044204,
            -1.763084412333161,
            -1.1301480958589671,
            -1.262889525824602,
            0.9244170277131589,
            1.22380693489031,
            0.021903388493502374,
            -1.5879176122308714,
            0.06053258488039531,
            -1.440380538615856,
            -1.1724550573968413,
            0.2525618448972502,
            1.1134152076510677,
            1.8877152078056336,
            0.8655034512114625,
            0.579614119491648,
            0.16130864605908082,
            0.5169327849801286,
            0.3968191936726104,
            -0.2586881596421011,
            0.19597552979502125,
            0.42671581417178833,
            1.6852707948926888,
            -0.07501383730083111,
            -0.9150237822184453,
            -0.1326490573745886,
            -0.44644114955071107,
            -0.017583610014638262,
            -0.7870491964858936,
            0.3290893189553712,
            0.6065079807853568,
            -0.4560902761279149,
            -0.46862399596145143,
            1.1531308719449918,
            -1.1394023026486793,
            -1.1071204844080405,
            -0.019955841031029403,
            0.47453538986527477,
            -2.230044637065962,
            -1.2142962483778348,
            1.4856002750766155,
            -1.3984257168534577,
            -0.3802376520825741,
            -1.192802621080114,
            -0.03430646655248282,
            -0.33080368482425426,
            -0.26447736395138194,
            0.7735471067343026,
            0.5615602923297522,
            -0.4681990405592736,
            -0.815714632125049,
            -0.679251941181988,
            -0.08322796896932119,
            0.01770451183948593,
            0.4850831369782447,
            0.27987486699586256,
            -0.45551954520466914,
            -0.7242628566356963,
            0.8689159553325974,
            0.9958622493330904,
            -0.14662380717792228,
            1.3810567526994677,
            0.36696807577125146,
            -1.6394151757515654,
            0.38895026966997376,
            -1.9100421412552997,
            -0.6353478869754096,
            1.7562526163902001,
            -1.2330578271528134,
            -2.0371649557059373,
            -0.05964013510014521,
            1.3614087888012447,
            0.012701112211481735,
            0.19728404056315735,
            -0.9993909079243966,
            0.6115188700947248,
            0.5855932609593885,
            1.107887194278149,
            -0.5611890323030607,
            3.7477800694220527,
            0.5168370115489836,
            -0.36213261179527945,
            -0.9263595764737845,
            -0.39596194001183194,
            0.2744871740876403,
            -1.0107173652092631,
            0.6390693026528137,
            -2.0154675916515,
            1.32429678689558,
            1.3047553342631673,
            -4.142477790728592,
            -0.540844877426035,
            1.70198491454985,
            0.775779664708335,
            -1.0250927606438633,
            3.6860257959118803,
            0.07583011703843534,
            0.8831637344039196,
            -2.0066606500126793,
            -1.4562509077896786,
            0.35877350649078527,
            2.462317918074688,
            -0.32883939345146185,
            -0.7692686858181614,
            -0.10658055352783974,
            0.8631861334931475,
            -1.1025050728758639,
            -0.7570405830010792,
            0.20566538229123632,
            0.3581704276590488,
            -0.10320671269499646,
            -0.22931442587326906,
            0.7377777096691694,
            -0.0717164554781764,
            0.2872428925997389,
            1.9112347703722339,
            -1.0240817597797487,
            0.42602637072828575,
            -1.1036352724910765,
            -1.8398271999253502,
            1.2793656854644087,
            1.741849823229484,
            -0.7006297578828944,
            -0.11240119459446168,
            -0.7626175128215704,
            -0.7231239804298576,
            0.08061604355695787,
            0.128207332959958,
            -1.2807283714301576,
            0.6730254432878195,
            -0.10805752144368208,
            0.3914090646172638,
            -1.2647891315236564,
            -0.12915247485902911,
            -0.23954969729161313,
            0.2257022684081511,
            -1.8379051701094096,
            -0.031052451225796807,
            -0.19067658828012213,
            -0.1819628078054804,
            0.6113151927504514,
            -1.4402074439499495,
            -0.4648338688012168,
            0.7030579303276996,
            2.5819619968601124,
            2.0055688267943474,
            1.3012698687839541,
            -0.15399742795768645,
            -0.4193573497633396,
            1.1962801425851626,
            -0.5193687633724832,
            -0.6609462169686341,
            -1.5573819793513382,
            -0.6694583857412689,
            0.2198927279979136,
            -1.0507118570940481,
            -0.028114001802404476,
            0.17853996056281318,
            -1.0979959264446768,
            -1.0233967162099629,
            0.3590076518190891,
            0.10050158816703955,
            1.7391468154246814,
            -0.4698580370985176,
            -1.0087850847531745,
            -1.0210020022297246,
            2.075861481578042,
            0.5033192079972386,
            0.03090338011815702,
            0.5458758664082215,
            0.38250180004873435,
            -0.32568366709199237,
            1.467558464396575,
            -1.5737515291256905,
            -0.586821328442876,
            -0.4110816245996429,
            -0.5389466980446881,
            1.0239789007658289,
            0.5037232845888621,
            1.217283313057791,
            -0.772928178736464,
            0.6506682125007365,
            -0.08864352615619767,
            -0.3900978541200272,
            -0.28099862828447186,
            0.34914679429410506,
            1.4177580077817526,
            -0.8753860012367802,
            -0.8576408187736365,
            -0.2553032478722959,
            -0.713483660550629,
            -1.4800183115076773,
            0.9817449584374409,
            -2.2398739857592322,
            0.3045346972001178,
            1.494610316846826,
            0.721225967290841,
            0.33015565728270246,
            0.5202233935028912,
            -0.7607805134470951,
            -0.21057112287108082,
            -0.22466336780025567,
            -0.15215377903840716,
            1.7110486535037248,
            3.5763377676979182,
            -0.08259482482803188,
            -0.5367776328022809,
            0.26122097360025803,
            -0.33531081815250263,
            1.3962927102390614,
            0.3491176860468725,
            0.05274853902409102,
            1.4416384384763992,
            1.0187541620420546,
            -0.2511316135571408,
            -1.0532274749743888,
            -1.18786152046968,
            -1.217137093470447,
            1.0733559391014245,
            -0.3594664641018899,
            1.5827380210912514,
            -0.2971046180459387,
            -1.2157792025583067,
            -0.701279746924411,
            -1.0840127007981513,
            0.4130929342356856,
            0.29510863326711995,
            -0.3874616553796167,
            2.1897905033737364,
            -0.5386356549798398,
            1.9255066366404963,
            0.5734902111976456,
            1.0402196743197263,
            -1.387744608181091,
            0.7620184906749852,
            0.4105457370782556,
            0.08372653122686247,
            -0.7803182144117901,
            -0.2999407195020742,
            0.31214213988492123,
            -1.3572080874438506,
            0.49570817434756304,
            0.08213378037242391,
            0.5836918502700761,
            1.754727065877581,
            1.238681350155884,
            0.9707554384104291,
            0.3457842017903976,
            0.24121765684086485,
            1.8438640196882403,
            -1.046987627781042,
            -1.3375426403261894,
            0.24244776450141223,
            -0.4648792829529844,
            0.4732790457456453,
            -0.30461367285604996,
            0.24678933457699892,
            -0.5748755198792013,
            0.19517634882607382,
            -0.2867307787183592,
            0.5032676720440724,
            1.6640184602355885,
            -1.8631674696496214,
            -0.7899832822595639,
            1.2677893493550436,
            1.394146619038077,
            -0.9312546887696803,
            0.48097315287977416,
            0.8064208976977174,
            0.12043260006095524,
            0.02351570286643681,
            -0.010752718556339247,
            1.615918730051007,
            -1.821612689743295,
            -0.5220542523617067,
            0.48864509886274654,
            2.0659205953895943,
            -1.1331814484351952,
            -0.5061752809071973,
            3.7796292243906247,
            -0.1344547102333793,
            -1.072727002493031,
            -1.0837051850363972,
            -0.30040761029342633,
            0.019021127145062544,
            -0.4986183581626338,
            -0.5636139461485131,
            1.5725691433015876,
            -1.1120270257984612,
            -0.14282755304030725,
            -0.6645756846301486,
            0.19388070518021502,
            -0.010701196550585879,
            0.04624932622328218,
            0.2139838452162905,
            -1.352406756033911,
            0.2564060698400792,
            -0.5920831803016786,
            -0.6027589491393537,
            2.643444104646757,
            -1.7857912116864778,
            1.7579752367230983,
            -3.562498191295912,
            -0.8392088475578251,
            -0.06244337755881624,
            -1.0392422985388565,
            -2.728136466167822,
            -0.6169148247222359,
            -1.1095163558778751,
            -0.9212114534878009,
            0.4773421763412407,
            1.0206972454927379,
            -1.644713868161274,
            -0.43942958104329805,
            1.2290396592547617,
            -0.3093121054873746,
            0.9385912797273415,
            -1.9727169341691255,
            -0.40233428560223033,
            -0.07404535073335275,
            -0.5737300856442435,
            0.6874643273416764,
            -0.31099854513715797,
            -3.108809232345372,
            0.8596484773595235,
            0.7276575103988183,
            -0.8695850575982439,
            0.1341946259231782,
            -0.06146039219748439,
            -0.057476111317329596,
            0.12039910198252746,
            -0.4263944265988751,
            3.013375061483032,
            -0.6153826113465503,
            1.6568046855516,
            -1.7080990215105682,
            -0.6321982845097454,
            1.8721633296919082,
            -0.5495599569971121,
            -1.2640910889630703,
            -0.1526906883818644,
            -2.139243033944816,
            -0.04140005620574028,
            2.6413163751194597,
            -0.40448336413805674,
            0.051709840339070834,
            0.5285890333776715,
            -0.0574538838290411,
            1.8161136845326413,
            0.4696361460314551,
            1.8056425775007414,
            -0.1461941395716081,
            1.1251241993888657,
            -0.18912761475153075,
            -0.8368773671128151,
            -0.771890292463217,
            0.49112559024249947,
            0.41494073294739914,
            -2.2456644869373226,
            2.6696695407436613,
            -0.7809381246238317,
            -1.3768186959498863,
            -1.1893219331766824,
            -0.5099003945737096,
            3.1423000390784157,
            -1.174816930401573,
            1.0150817031078376,
            0.2813284313366196,
            0.7337853647757282,
            -0.3446558898126585,
            -1.9205927460642238,
            -1.4303347573531815,
            0.8940727861350527,
            0.36446294532236173,
            0.873053016672952,
            1.9059931790839157,
            -1.7701788346885416,
            -2.0590704291242052,
            0.7606053512261978,
            0.18063096943397217,
            -0.518664765362856,
            -1.2645376010860416,
            -0.5007349763718567,
            -1.5224477694449035,
            0.7421916753228096,
            -2.188138035290279,
            -2.690006397710367,
            -0.7706135564301249,
            0.22351592344996374,
            0.6986682795281305,
            0.20657624173841876,
            -0.36456033124974924,
            0.9186316754660201,
            0.0855600840475246,
            -1.2871125328591608,
            -0.33443245254789533,
            -1.085993396298802,
            0.08773164169944964,
            1.7912897409537545,
            0.45741865264349096,
            0.8122760094400514,
            0.0071413316337267385,
            -0.7351237434245969,
            -2.067989512437306,
            0.87428583679175,
            -1.9680726648982398,
            -0.47788959317873014,
            -0.3029771898273983,
            -2.6206739801369756,
            -0.253615688224082,
            0.1472379241791295,
            1.8852688956630117,
            3.1334872758478123,
            0.1674062685468528,
            -1.092295892079687,
            0.42842888558000913,
            -0.4152747059068105,
            0.5408745057037717,
            1.01648429448846,
            0.26948199969685005,
            -0.8476768005886632,
            -2.1366330227716555,
            0.5709429126139323,
            -1.4774242592960127,
            0.3074015640346194,
            -0.45610412265809613,
            1.7332959074846757,
            0.8381238934474389,
            -1.7289432126239752,
            -0.8515099003596622,
            0.5327057911218643,
            0.009742808432970956,
            -0.24724208770522316,
            0.508900518751146,
            -2.109094728577311,
            -0.737820660782954,
            0.9110000051645254,
            1.4728223241982015,
            1.561895654216103,
            0.505157547995028,
            1.6051369012054422,
            -1.2755082829477162,
            -0.9196453282885378,
            -0.5907613935493569,
            -1.7911390430211447,
            0.9300585887845494,
            -1.5510224381286997,
            0.5775072427333846,
            -1.056491236680049,
            0.5463224583391562,
            -2.4125547269741254,
            -0.5578112058043377,
            2.9312213769959916,
            1.638733322872827,
            -0.5449712405767048,
            -0.6628778574347782,
            2.170165974881844,
            -0.27628748121892677,
            0.9569817756922859,
            -0.3790809132779505,
            0.5425661857726517,
            1.9675498005041043,
            -0.2893977684574044,
            -0.824780081554452,
            -1.2201150527447464,
            -0.2874895148587072,
            -0.10869487382397847,
            0.18485085880617796,
            -1.3963675937845117,
            -0.9996467450659161,
            1.2800466097269392,
            -1.898050161292891,
            0.5999411789826787,
            0.09595757168830912,
            -0.265713201241794,
            0.15721337118114898,
            -0.9687060480233369,
            -1.872675000139112,
            -0.8694803010870884,
            1.8294495140335538,
            -1.8297114194384194,
            3.048568289679191,
            -0.24212272144112626,
            0.09378801037817669,
            -1.5685123108274273,
            -1.119133618696915,
            1.6422940398430836,
            0.4641698108239588,
            0.7319905001027096,
            3.679971032067556,
            1.6497219324174814,
            0.9822311272404793,
            -0.4427466668504244,
            -1.2420783054139477,
            -0.23339150079851673,
            -0.10850973743357079,
            1.5415866109978271,
            1.0783385343320122,
            0.03440075548424243,
            -1.3998201084527673,
            0.3200250315502464,
            1.1476136688084433,
            1.2427354361136167,
            -0.5213981659541589,
            -0.5351928901589933,
            3.097336639819037,
            1.8955807763858508,
            -0.5732462994233682,
            0.9092540284248113,
            -1.1843974205790087,
            -0.003423350870158104,
            -1.5815114433357682,
            -1.36837682824507,
            -0.9421098330598537,
            -0.3188009158933684,
            -1.0833723116738359,
            0.914805575743589,
            0.11076566700081159,
            -2.0991939902958774,
            1.4938892344194792,
            -1.738815787340895,
            -0.4361655944066983,
            -0.5784240362881501,
            -0.011523737933811451
          ],
          "numRows": 16,
          "numCols": 45
        }
      },
      "ops": {
        "type": "org.ejml.simple.ops.SimpleOperations_DDRM",
        "data": {}
      }
    },
    {
      "mat": {
        "type": "org.ejml.data.DMatrixRMaj",
        "data": {
          "data": [
            0.33442249909038047,
            0.055901630845198516,
            1.8442440028222242,
            1.4544537014351966,
            1.466696761342141,
            0.855857492983357,
            0.27095710897468545,
            -1.0710856272756386,
            -0.13499170940528105,
            -1.1812108839597546,
            -1.707001411176618,
            0.8476122603297277,
            -0.9779457853337123,
            1.0292685359428533,
            -2.167498936144613,
            0.008069032846330926,
            2.112783432538363,
            -1.5635326932166334,
            0.5463308036256042,
            0.3979896523634708,
            0.3483843844505129,
            0.8423611574857278,
            -0.8002399299111633,
            0.13228795639886115,
            -2.9623152967836726,
            0.8835507724815201,
            -0.7360251727462213,
            0.11852171028815861,
            0.22387487974346248,
            0.9971400331602627,
            1.7788747674854142,
            2.0383680693004016,
            -0.4989413317137128,
            0.3531736974787237,
            1.0741796350035315,
            3.346463492142321,
            -0.1803281335162776,
            0.16121519943629534,
            0.9209134427294852,
            0.5197161827603091,
            -0.4207272691892107,
            -1.6076294713703327,
            0.6372944694437394,
            0.4902644692606862,
            -1.1801020602430614,
            -1.116912775049651,
            0.7887043641598649,
            0.34484935059926203,
            0.4826839123205364,
            -0.9549161745315985,
            -0.48269801142625995,
            1.2734298905927384,
            1.1767639992507093,
            -0.13530962388522955,
            -0.35038695318375074,
            -0.30481773386383765,
            -0.4432307998897339,
            -0.9703846720573446,
            -0.03702539987712808,
            0.7876910776478795,
            -2.2742283710202296,
            -0.08626768982280451,
            0.29229513645315597,
            1.7846222174479438,
            0.49593906555075534,
            -0.45817864651960705,
            1.4218048368920138,
            1.382476180937828,
            -2.2112656397969435,
            0.4359451673623004,
            0.7500513875761254,
            1.0195544748864396,
            -0.23700967369159476,
            0.09494147704266548,
            -0.8746757404646215,
            1.2696189133810538,
            -1.6892600898047359,
            -0.9104513336386472,
            0.07273116738117044,
            -2.420904455113539,
            -0.7943768172540249,
            -0.20635154532782168,
            -1.2941838999711803,
            1.7200638329567797,
            0.057936863513872484,
            0.1804637782852857,
            -1.457537610608199,
            -0.35276663464940583,
            -0.8286912381578039,
            -0.13369956751422146,
            -0.8718803933156654,
            0.7110272951452439,
            -0.48579331199547815,
            -1.2892068224779574,
            -1.5207261227642856,
            -0.5901741591072192,
            0.08045294553868987,
            -0.8115677341194091,
            0.5266145847746252,
            2.2833322684275936,
            -0.1574085152355652,
            -0.509195030068796,
            -0.03722983238440981,
            -0.9017376936725046,
            0.10619175540272968,
            0.3532446256108032,
            0.5860938482817496,
            0.7613871998080596,
            3.255436667659992,
            0.9368543978877554,
            1.1141178706777208,
            -0.5522552946271954,
            0.9035656224481283,
            0.5971791040788317,
            0.9101989416463578,
            0.7107182286862922,
            0.5777048856840491,
            0.8986473923622009,
            1.2505376494272262,
            -0.7786735472426051,
            1.127678778232764,
            -0.1257090841598817,
            1.1962902342975228,
            -0.927810131846052,
            0.507134199223862,
            -0.2424226841537258,
            0.4324767486795793,
            -0.40102179009657263,
            1.0824414503491873,
            0.7503934327931988,
            0.24762277288886214,
            0.24574204416309609,
            -2.6748369901129427,
            -0.8159909435541632,
            2.718142786854364,
            0.7664419628535724,
            0.5454093412523298,
            -1.8203416594002455,
            -0.15948414894131363,
            0.7569632818375345,
            1.2505379792837021,
            0.965671842837859,
            -0.5011763707747631,
            -1.0573033403755363,
            0.8187055526333169,
            -4.252754006833317,
            -0.3128215137635116,
            -1.6158833196566362,
            1.2505884468692732,
            0.8538696623855799,
            0.5877733228690429,
            0.991427263069263,
            2.282761583259092,
            -1.6109260792310967,
            0.5588186829795301,
            -2.073098208382171,
            1.544903940292265,
            -1.588793248955035,
            1.5453302998279224,
            -0.6180028164562912,
            0.2957215629782959,
            -1.2085327728246706,
            -0.36933970274572625,
            0.14688067251396086,
            0.40009060443995853,
            0.5462744478078372,
            -0.32208183224552994,
            -0.10330508950382644,
            1.1735630474143317,
            0.23058514883133058,
            -1.672757832959734,
            1.7281829298425602,
            0.3695019326077273,
            -1.7447432412798105,
            1.7419420705071784,
            0.2873989669159886,
            1.3001899465946594,
            0.8325002527089779,
            -0.014444667310181458,
            1.9781171013381842,
            0.5623234002212705,
            1.4179791892151268,
            -0.6937499340814273,
            -1.3114335376225847,
            0.9453621254538174,
            0.5209694030041367,
            0.3047265832747686,
            1.7952141467788572,
            0.8135728582109343,
            0.1194000372410724,
            1.3955377696038496,
            0.9037302109076215,
            1.2853799234137226,
            -0.43407656874752787,
            -0.9667787467376603,
            3.419063331510342,
            0.1367363154390383,
            -0.09667496843645798,
            0.6273552825354775,
            0.242166069201869,
            0.07033187217354586,
            0.2955935292014937,
            0.28563879390145486,
            0.7318285327033853,
            -0.23914005240599534,
            -2.7327996420477296,
            0.17444947371572994,
            -0.4200616563408578,
            -0.01913870017782926,
            -1.1711294212843473,
            -1.0608233206362594,
            0.34548135879569253,
            2.097076935124815,
            1.031074766566805,
            0.18723392835279573,
            2.0027969458125936,
            -1.1864560400177264,
            -1.4775202433104555,
            -1.6934788455178114,
            0.9507226800331998,
            -0.5800868451944473,
            0.9324483741443065,
            -1.4124730750250674,
            -0.04248694673755171,
            0.188796139976871,
            0.9751763957316809,
            0.8594210693025948,
            -1.0297619100708875,
            -0.04675117084371094,
            0.7864618953388023,
            0.9487207539855995,
            0.45742325118789895,
            0.8195246964220072,
            1.2100041304584614,
            -0.08141505048051206,
            -1.6108474284360743,
            0.40999806587252763,
            2.040735154442889,
            -0.30919656721126293,
            0.5166811432702786,
            -0.7220019219874141,
            -0.3747170915265451,
            0.4752815393763825,
            -0.3246150253140866,
            -0.379013449675094,
            -0.10993647524547567,
            0.02379513073824016,
            0.81560905009497,
            2.0446570483509463,
            0.294754565963583,
            0.4321729885246729,
            1.2803324853475315,
            0.01610648788595348,
            -0.6600231944484477,
            2.699221418851694,
            1.1806728806728466
          ],
          "numRows": 16,
          "numCols": 16
        }
      },
      "ops": {
        "type": "org.ejml.simple.ops.SimpleOperations_DDRM",
        "data": {}
      }
    },
    {
      "mat": {
        "type": "org.ejml.data.DMatrixRMaj",
        "data": {
          "data": [
            1.0384664144061002,
            0.7662192006298674,
            1.067353855288766,
            -0.1621994462979902,
            -1.925530035843668,
            -0.7578700384792407,
            -0.22376435588903332,
            0.6708990266335328,
            0.733585805549684,
            1.3996809286371041,
            0.03510342839158209,
            -0.07438149113597234,
            -0.25454468077198816,
            0.15913576484706227,
            -0.022533121929329214,
            -0.3462784359537021,
            0.25301478735105143,
            4.441763181018424,
            -2.0267939345073214,
            -0.3888754062400439,
            -0.17361797181718136,
            0.37501552262116455,
            0.14006257962464247,
            1.6532719225372203,
            0.15938802881227307,
            -1.6322354262503225,
            -0.3225747231912795,
            -0.6664469573156873,
            -0.9656293719966577,
            -2.6808409382810368,
            0.5327022795341091,
            0.3476900624238239,
            -1.8248086793522058,
            -0.19901609820709348,
            0.0650340228762831,
            -0.6005706777215584,
            -0.23760772870917096,
            -0.2480236368516442,
            -0.048492065287499664,
            1.9619951442076535,
            2.253661601796617,
            2.712791825207055,
            3.6128792281432,
            -0.22939373943805652,
            0.3379232616242923,
            0.8852720184055275,
            0.8159513940918026,
            1.9917402300701392,
            1.201474302657508,
            -1.829317868219513,
            2.1201009205114887,
            1.269134352292418,
            -0.7855856444401652,
            0.006132462705592902,
            1.4133976062337266,
            2.6329412109360186,
            1.5665312260769313,
            -0.5075168475709579,
            0.4408292668795266,
            0.7790494956592591,
            -0.3801417103888556,
            0.470147673033541,
            0.5141585648056683,
            0.13499054227743185,
            -1.035921180037913,
            -1.629596921276897,
            -0.8790095782434271,
            -1.541354443843891,
            0.27659357557284037,
            -0.19516648230155603,
            -0.2243258153131497,
            -2.089778091905381,
            1.489043053473496,
            -1.0296330851122772,
            -0.23139787469732975,
            -0.612100025300166,
            -1.9185434514113395,
            0.08902180909536696,
            -1.729178232691995,
            -0.4357253176530232,
            0.8981397926659214,
            1.0103600712142256,
            -1.2239833021871354,
            1.2158394376624662,
            1.1467171177962403,
            3.0234753198005118,
            0.34785501501223476,
            -0.2935636691165321,
            -0.3930735626855311,
            0.3767029423303885,
            1.2131640024336063,
            0.4973644399774303,
            1.6582356491792865,
            0.973727798341928,
            -1.879723383253347,
            2.2166237350262006,
            0.5049114594948058,
            0.9109930356321643,
            -1.7313053796670248,
            -1.5484217603898096,
            2.8768657221864213,
            2.8024839904657215,
            0.36806940969422863,
            0.661914397386309,
            3.3892947114420373,
            -0.48329039375634897,
            0.4548630057354605,
            1.1194123910842142,
            0.04909820790586933,
            -0.6126265780894149,
            2.4354618285695717,
            -0.09737128670336404,
            1.248279112973438,
            0.5488379770426959,
            -0.8625003445498747,
            -0.2910892902422304,
            -1.7002539166184123,
            1.173225419089774,
            -0.30629719918866427,
            0.9680745229362473,
            1.4103905273511743,
            -0.15802973248324337,
            -0.13019920343796895,
            1.0782647006321877,
            -0.442584364999969,
            0.7073649798231693,
            -2.143188889761558,
            0.6477385714315848
          ],
          "numRows": 8,
          "numCols": 16
        }
      },
      "ops": {
        "type": "org.ejml.simple.ops.SimpleOperations_DDRM",
        "data": {}
      }
    }
  ],
  "biases": [
    {
      "mat": {
        "type": "org.ejml.data.DMatrixRMaj",
        "data": {
          "data": [
            -0.4729042686839506,
            0.3737208248347749,
            1.675084923571085,
            -0.004827375914317589,
            -0.6100097683280716,
            -0.6976689523953997,
            0.42235515511953203,
            -1.016051408951424,
            -0.18540767490342192,
            -0.03275998208387823,
            0.6717889472298365,
            2.4389778865098286,
            -1.7980383125569073,
            2.07894161596408,
            -1.2188881709734953,
            -0.1480725804025944
          ],
          "numRows": 16,
          "numCols": 1
        }
      },
      "ops": {
        "type": "org.ejml.simple.ops.SimpleOperations_DDRM",
        "data": {}
      }
    },
    {
      "mat": {
        "type": "org.ejml.data.DMatrixRMaj",
        "data": {
          "data": [
            -1.4502156702557336,
            2.674071335572456,
            -1.3581692534138776,
            -1.0480022125735768,
            -1.2346343326336189,
            3.4543329656421866,
            0.3629313794852671,
            0.9560489336240703,
            1.111304406678599,
            0.6139621180454173,
            1.409281506342954,
            -0.6648596260357356,
            1.5429144627381208,
            1.074875720852338,
            -0.5982526061326134,
            0.495084994809327
          ],
          "numRows": 16,
          "numCols": 1
        }
      },
      "ops": {
        "type": "org.ejml.simple.ops.SimpleOperations_DDRM",
        "data": {}
      }
    },
    {
      "mat": {
        "type": "org.ejml.data.DMatrixRMaj",
        "data": {
          "data": [
            0.275181614921312,
            -0.04257881424404944,
            2.5474731130227997,
            1.322720729457904,
            0.6428090268883099,
            0.07483556343029385,
            0.4428841018148163,
            -1.9256429828800106
          ],
          "numRows": 8,
          "numCols": 1
        }
      },
      "ops": {
        "type": "org.ejml.simple.ops.SimpleOperations_DDRM",
        "data": {}
      }
    }
  ],
  "learningRate": 0.1,
  "activationFunctionKey": "SIGMOID"
}