{
  "activationFunctionFactory": {
    "activationFunctionMap": {
      "TANH": {
        "type": "basicneuralnetwork.activationfunctions.TanhActivationFunction",
        "data": {}
      },
      "RELU": {
        "type": "basicneuralnetwork.activationfunctions.ReLuActivationFunction",
        "data": {}
      },
      "SIGMOID": {
        "type": "basicneuralnetwork.activationfunctions.SigmoidActivationFunction",
        "data": {}
      }
    }
  },
  "random": {
    "seed": 3205158017797,
    "nextNextGaussian": -1.0184166557967096,
    "haveNextNextGaussian": true
  },
  "inputNodes": 45,
  "hiddenLayers": 2,
  "hiddenNodes": 16,
  "outputNodes": 8,
  "weights": [
    {
      "mat": {
        "type": "org.ejml.data.DMatrixRMaj",
        "data": {
          "data": [
            0.009766621497899086,
            -0.857667818027515,
            0.4228068034878949,
            -0.09692222352632673,
            -0.0293463573621231,
            0.27348090091617,
            0.15245989888233846,
            0.9370332572854836,
            0.33035021371834294,
            0.7510118936548833,
            -0.7566835001181167,
            0.36434127873646105,
            -0.768979534702928,
            -0.8439411235108705,
            0.29867432016557927,
            0.354231413687492,
            0.6319408405638998,
            0.5563039156225198,
            -0.22792080133947845,
            -0.1846096694655086,
            -0.3241443041795369,
            1.2268540536986163,
            -0.5120714669376643,
            0.49089207347253055,
            -0.6282499328317188,
            -0.5573268584547313,
            0.2999419978537606,
            0.6772438163295667,
            -0.5760232000229304,
            -0.6536943181731932,
            -0.24094529521014382,
            0.2605738571124667,
            0.02759153684280552,
            -0.44194920376533187,
            0.3747398625097407,
            1.3721164281937335,
            -0.27854101840519885,
            0.19647550369778632,
            0.7843359433872461,
            -1.0355296939802825,
            -0.19319167335603593,
            -0.5968883510474869,
            0.9897119085587844,
            -1.662365017503967,
            0.5846910977089947,
            -0.5047426387121525,
            -1.621622204732755,
            -0.8387460435284395,
            -0.3937860326525324,
            -0.3344788651267605,
            0.6186317400977714,
            -0.5893257208779542,
            0.5480442078498906,
            1.1930372911580558,
            0.18701385407793358,
            -0.6475392576211072,
            -0.10184394767866023,
            0.326640857105164,
            0.5667221965115474,
            -0.13124399375198936,
            -0.8231256565593932,
            0.628010399416592,
            0.6845500354987359,
            1.0263940406691083,
            -0.21419503293475795,
            -0.12160786612254748,
            0.5201251089001877,
            -1.8056010716692528,
            1.0768841072969924,
            0.6159482429565655,
            0.5191564718388424,
            -0.4695438097356279,
            -0.7327626037741135,
            0.9216248731165759,
            0.09586373459157116,
            0.8107009854726919,
            1.5051931600132997,
            -1.2616954327527121,
            -0.5128494291791825,
            0.028069370273028804,
            -0.8594139818880169,
            0.905424090594518,
            -0.45304469160988126,
            -1.5485586744891096,
            -0.6537661302249791,
            0.5078560515323349,
            0.49745251579174354,
            0.38880045314869993,
            -0.9944864274689391,
            2.1115407107148716,
            -0.895518301938039,
            0.3521170306782866,
            0.5994817957550209,
            0.6280283905291937,
            -0.1132734022676094,
            1.5084896127417775,
            0.3219542326280691,
            0.5096137028810863,
            -0.4751940537049171,
            -0.8555648504007127,
            0.3441135351231097,
            -0.05970280016527396,
            0.04336196186797977,
            -0.610326146362667,
            0.5809306156693737,
            -1.2159389654691006,
            -0.5826950985749986,
            -1.1880062436515253,
            0.512445960492135,
            0.44490281003237464,
            -0.34809430774730554,
            -0.8158393147608642,
            -0.4814516433132514,
            0.9712834333458815,
            -0.5369335369539534,
            0.039150987408612004,
            0.24344215638227973,
            -0.18575154669629837,
            0.955601431670644,
            -0.24499609442455839,
            -0.3400764703818093,
            0.7638725177317494,
            -0.7846478504603343,
            0.5528630987593472,
            -0.3415610205440258,
            -0.9787327032345654,
            0.5396194271178465,
            0.6956134923472486,
            -0.9078352487864625,
            0.3333018029341013,
            0.47542264791213973,
            0.36257506764160374,
            -0.8473311142702338,
            -0.18351338717280785,
            0.3510122070019466,
            0.5233287140603562,
            -0.7230138582476369,
            1.3224323569473924,
            0.8986918373917618,
            -0.25698865063115006,
            0.8457134753480717,
            -0.8573604365460693,
            0.013516063497110764,
            0.9265037144223143,
            -0.3847564708552591,
            -0.490673088016089,
            0.9424775056404309,
            -0.5304985422951314,
            -0.7620037994398805,
            0.9922570380789103,
            0.3894439606185284,
            0.706938397066578,
            -0.8350046269366471,
            -1.2148088228082488,
            0.4031138797129369,
            0.12498092936979988,
            0.30725337997389923,
            0.13358861483103723,
            0.8955899305236683,
            0.7542518864112011,
            -0.44960180179472253,
            -0.6609747503944359,
            0.45168652527583797,
            0.09324710609240228,
            -0.007708185480734597,
            0.10928138302368817,
            0.9908260790726924,
            0.976931497955281,
            0.35832198657556025,
            -0.23263847654773295,
            -0.40915159567399584,
            0.18034557037788423,
            0.4091806754780898,
            -0.8828674394968958,
            -0.8696813709467166,
            -0.4847846173713548,
            -0.34834834500566747,
            -0.2015302187724357,
            0.903230214314078,
            -0.5149080084738589,
            0.03410875487641851,
            0.42786861536704657,
            0.620957765462919,
            1.47047714130472,
            0.2864483649740661,
            0.5805350489715733,
            -0.8529372314507966,
            0.5892384563061037,
            0.5667855173956071,
            0.10864785999840085,
            -0.03423262528823834,
            -0.6993585861778222,
            -1.6402590967115107,
            -0.7439211757267399,
            -0.7356363451298904,
            -0.9488589210985796,
            -0.6182754254025831,
            -0.11751602214307408,
            1.6613601538994502,
            -1.672536090799852,
            0.9667045749847355,
            -0.6860630532275485,
            0.5009040754055416,
            -0.4885092954118615,
            0.33975006653253903,
            0.3222827569473355,
            0.5779190980114499,
            1.2057313982957587,
            -0.1796704920587151,
            0.37896904783011187,
            0.30171590050782404,
            0.4179375708441525,
            0.814008694640374,
            2.1266704446687434E-4,
            -0.3248631335354535,
            0.27859455277789413,
            0.9358666864660021,
            -0.6213984136693564,
            -0.5070451710720449,
            -0.26351256361581543,
            0.2641688616165718,
            -0.7811272450054287,
            0.29176929482713754,
            -0.8413618146501756,
            0.1870039695296688,
            -0.9385944593715803,
            -0.5336350130872616,
            0.11906288812017296,
            0.7797929050841769,
            -1.1473276185409669,
            -1.6698281737013019,
            0.7799376602600607,
            0.7839008226663466,
            0.22361138765497784,
            -0.8893094032048927,
            1.3369323510301359,
            -1.2307301868486253,
            -0.5172085637379159,
            -0.4759775408138134,
            0.7706513100884911,
            -0.42843605054339085,
            -0.3923800487815641,
            -0.2658928974965463,
            -0.3978864889907514,
            -0.28288966709086183,
            -0.053796748734140865,
            0.611637496645421,
            0.2714304653092736,
            -0.34023685183362373,
            0.5094519543852982,
            0.6373862168306303,
            1.4070042596759722,
            0.10762044345391386,
            -0.33985463133883154,
            1.0419672353592195,
            -0.22348497372097423,
            0.44384705985114126,
            -0.41347655076505885,
            0.4698913810618419,
            0.020094847000684757,
            -0.7236128657526585,
            -0.4890186727020081,
            -0.18881587759680407,
            0.9593826822008691,
            0.3691733398620962,
            -0.11029716285051472,
            0.7449330992988947,
            -0.3011301010286802,
            0.14031530489657573,
            -0.049790250742119735,
            -0.9826718327474233,
            -0.5531190990994077,
            -0.016515143629008744,
            -0.6765662939692669,
            -0.5299264489328042,
            1.4751207258543482,
            0.7744078076628913,
            0.5161338465769294,
            0.5357283356559035,
            -1.5166064974331368,
            1.247399142462383,
            0.050813752819976576,
            0.6384142515628557,
            -0.5349582039443344,
            0.12648849396293993,
            0.7931380419640439,
            0.9360885436841031,
            -0.2891764520433353,
            -0.42569340952767476,
            0.9333802155355373,
            0.3515772880678272,
            0.15500383603406193,
            -0.09281088601396252,
            1.5167929494096426,
            0.8660905188582377,
            -0.9201533400403035,
            0.09878380203929371,
            -0.5057574342117397,
            -0.4727585486446175,
            -0.9182722262680407,
            0.8095289033307944,
            -0.13807068422558388,
            -0.5521278495343547,
            -0.6764874246781489,
            0.41555909149911846,
            -0.6885957220776835,
            -0.6682297534076569,
            -0.6391671919359836,
            0.0027743183145783057,
            0.12796582092902997,
            0.030409533449531345,
            0.5578780656872351,
            -0.24643606238161797,
            0.5378239956572017,
            0.1158189733561853,
            0.5353424009563377,
            -0.6844546904428729,
            0.5961298116182672,
            0.1771009700742293,
            -0.11881920022827286,
            0.9131292890421725,
            0.4878847314180854,
            -0.8942377905456029,
            0.8762779243521872,
            -1.626617205546011,
            0.47211145310427316,
            -0.35280475760116947,
            0.11122477708975365,
            -0.8883415866961322,
            -0.1342226958904027,
            0.21632213498149855,
            -0.48900489823020066,
            -0.26183262666539725,
            0.021106140275956253,
            0.3903017388467237,
            0.4401229513261955,
            1.1160808587741546,
            -0.429476363751903,
            -0.17897179605748859,
            -0.11329522579522822,
            0.21806782101975197,
            0.9348083434258438,
            -0.5582539197217713,
            -0.5531171939905906,
            0.6394818819352519,
            -0.4960651168464765,
            0.23681487819588076,
            -0.9588513430988967,
            -0.7262399101751211,
            -0.48810073807106313,
            0.8480077918774096,
            1.1929165742985792,
            -0.4276612635662016,
            -0.5589311804096979,
            -0.12292353223110619,
            -0.49377037613389363,
            -0.5508716573338885,
            -0.5775092354145956,
            0.18653744710886566,
            -0.012144852735910927,
            -0.9465903403271426,
            -0.07674093133680948,
            -0.8050287978130399,
            -0.10210095906122663,
            0.4026539032184382,
            0.03440958504439051,
            -1.1668519693577222,
            -0.5231958116924882,
            0.22217017308360387,
            -0.6265125183981133,
            -0.33125006558486403,
            0.7896924439640027,
            0.9297265576964133,
            0.5003496802114602,
            0.9830532039402703,
            -0.8153577063960984,
            0.6131635282594037,
            0.43712944443389745,
            0.6201792976427603,
            -0.7833776849883551,
            -0.25036303789204295,
            0.7137813266220984,
            -0.29781543827435053,
            0.19672961783115572,
            -0.12017296610307904,
            -0.14945302712229425,
            -0.1798147813816131,
            -0.0933828693032639,
            -0.1614198792031567,
            -0.6318051332921577,
            -0.6984489248627876,
            -0.7505991646169676,
            -1.1111280972995574,
            0.8784168238942742,
            0.6197852241289825,
            -0.9350335318427836,
            0.12956484042806604,
            0.8772059019677967,
            0.9354639547544628,
            0.2075966838600647,
            0.233925081670727,
            -0.5028080564926296,
            0.8648680882685892,
            -1.121002184138479,
            -0.17225831973150618,
            0.6111858837153592,
            0.977262553751002,
            -0.2683556882478344,
            -0.41275019928245066,
            -0.8543186785396395,
            -0.9000806556858669,
            0.12727493736291515,
            -1.1134785792016388,
            0.27200894106400964,
            -0.7581467755540767,
            0.9969782327660996,
            -0.5814223691691025,
            -0.10459721397142663,
            0.6821754125897914,
            0.6973559779376335,
            0.2187126763576117,
            0.8268061089376899,
            0.6470910448493981,
            0.6742679764175965,
            0.00827001008036432,
            0.6694533557088675,
            0.1279044577938513,
            0.14566744331747794,
            -0.898533034718118,
            -0.17855440686704904,
            0.30310413662104907,
            0.4750718946866599,
            0.27655145150845595,
            -0.4080416121771273,
            0.42890811506815063,
            -0.1695694399293286,
            -1.779446074586452,
            -0.6966720965837054,
            0.6285271270371842,
            0.8615371527329018,
            -0.4501924212161361,
            -0.5922126750073762,
            0.012650486026789975,
            0.23149626612815966,
            0.8158201377843528,
            -0.9486742314803993,
            0.3623803805867565,
            1.377317418852731,
            -0.43106206696651683,
            0.6285968469111209,
            0.37365074785812513,
            0.7930224189300019,
            0.165367772610593,
            -0.196563889193357,
            0.3265605879639244,
            -0.04567884587808613,
            1.1213046639434059,
            0.5433965732430299,
            0.13932088026422562,
            1.2688120394284108,
            0.06394140373687307,
            -1.1629848584234659,
            -0.30484786226717886,
            -0.22335655742517968,
            0.8224072253738235,
            -0.603930331984968,
            -0.38225512639148196,
            0.6965983741538739,
            -0.8389968981228109,
            -0.6520217473974104,
            -0.9908885835185359,
            -0.6423784978893308,
            0.7586194992551885,
            -0.3970869205895817,
            0.04660154502086544,
            0.6499104732670237,
            -0.14859086011927697,
            -0.04597416371367094,
            0.6453690191064885,
            -0.1649460645295373,
            -0.7694666952874489,
            -0.03282452956087595,
            -0.3506825752857672,
            0.9773361333134183,
            0.3187229745110738,
            -0.09115047262833542,
            0.6365588424001096,
            0.4178226449299851,
            0.05682429217646656,
            0.8094872918698857,
            0.07151932669679129,
            -0.8271226986633193,
            -1.3682672181502427,
            -0.22988813293917953,
            -0.3565705878299643,
            -0.43575211960442095,
            -0.5256794570644288,
            0.9241200654401945,
            -0.980176038659882,
            0.5197712093028999,
            -0.36712947118435846,
            0.039411459054477814,
            -0.24024374168937596,
            1.2477871213646243,
            0.824989962990315,
            1.4203724707053282,
            1.0963888889254556,
            -0.12979312872021764,
            0.8714311579448539,
            -0.3290032704783843,
            1.1386570131845621,
            0.32660453041938764,
            -1.2853617503606534,
            0.6797103945181002,
            0.5085368295080528,
            0.7171157920469255,
            -1.2612129739959832,
            1.1108248487803327,
            0.7436575743853528,
            0.4865311098687386,
            0.36600029091533326,
            0.7161851875755465,
            -0.8646412693600114,
            -0.09737914726997388,
            0.021469316869066057,
            -0.7529594337276218,
            0.022603521377520863,
            -0.9938592149100837,
            -0.945825848952004,
            -1.3973218558476814,
            -0.09394287692864567,
            -0.7850513823106451,
            -0.9043967618640332,
            0.43460279703629556,
            0.9097039309038899,
            0.01805254291387315,
            -0.1881159813731636,
            -0.6554868844819346,
            -0.04544718447363616,
            -0.8582322910333351,
            0.6452867807827813,
            0.11754867502022837,
            0.22519206303091877,
            -0.8619260975406722,
            0.9126313948825704,
            0.6912181983344902,
            -0.53260991685416,
            -0.019493993302928114,
            -0.4397247447662753,
            -1.6140204378884178,
            -0.0917262109299739,
            -0.3372014004598356,
            -0.13216510452913655,
            -0.1948116860780773,
            0.47763705608060714,
            -0.07620046594704011,
            0.14758894220556096,
            -0.5418202727816666,
            -0.6226669577531267,
            0.43054315437480883,
            1.0151214269018976,
            0.526397968887159,
            -0.49918633037744986,
            0.5746928096608778,
            -0.6386324021053867,
            0.45872019704867384,
            -0.7670505623610254,
            -1.119984104521217,
            -0.6761543647845834,
            0.5373854127136344,
            -0.7829456648391817,
            -0.7382538544640245,
            -0.25108661264377596,
            -0.2748580235433946,
            -0.3366639768194557,
            0.4535512950329228,
            0.6848910932461805,
            0.08878252417808641,
            0.21469713820540792,
            -1.4944715610569959,
            -0.9991969711771449,
            -0.5859699816340562,
            -0.9993434669377123,
            -0.388537501716379,
            -0.19659834104995433,
            -0.7395717234028614,
            -1.4480513159963575,
            0.7905259457408678,
            0.5707503139829793,
            0.5769101930428036,
            -0.3819024009997838,
            0.6106430933568097,
            0.18528696727354554,
            -0.044251752321581295,
            0.4026889357157044,
            -0.10868548107748721,
            0.9315927865900998,
            -0.22544752293943743,
            -0.48705687909527384,
            0.6135705245970771,
            -0.5941094204657498,
            -0.5760539867610124,
            -1.049010350251839,
            -0.190856893470148,
            0.3955099149485855,
            0.05081346565334824,
            0.27251918967337063,
            0.746231132062436,
            -1.08047618179463,
            -0.16544400585893015,
            -0.7259625320964451,
            -0.049057215780912156,
            -1.5293031813236926,
            0.68397105467805,
            -0.45940785796275285,
            0.2766931141696827,
            0.8682935964168546,
            0.10799630374938185,
            -0.5555944360983107,
            -0.06166041769405406,
            -0.09892728224203842,
            -0.008009653643576087,
            0.7653860613936556,
            0.49884379283501556,
            0.24319211396483653,
            0.7577481246460975,
            0.4412688568941656,
            -0.7946303219997265,
            -0.021457108178961987,
            0.2720914163148873,
            -2.2773837979060727,
            -0.9763119161442884,
            0.0551448864159636,
            1.2534842191344757,
            0.18923957872505692,
            0.8255844932991256,
            -0.08121755191856428,
            -0.11617278915230428,
            0.2114758295710344,
            -0.17937513161726848,
            -0.09931965153407174,
            0.09765495566812854,
            -0.5670206262903602,
            -0.4271102587843073,
            -0.005657071212979092,
            0.22128334683496576,
            -1.1118433272745694,
            0.8373177894455495,
            -0.30507427506762963,
            -0.09323940110133361,
            0.8494084355020508,
            -0.5292667045953295,
            -0.2595325018436614,
            0.5711704014425505,
            -0.7730838945462173,
            -0.161954515869269,
            -0.3184250645845701,
            0.45428435117126936,
            0.8327098570022218,
            -0.17083253152558386,
            1.6075134309779098,
            -0.6526940035507729,
            -0.4930573424995901,
            0.930709076334908,
            0.954610593584726,
            -0.0981582545230526,
            0.995989066980975,
            -0.8828929950222868,
            -1.081125435897529,
            0.6892138658513429,
            -0.23174647079736999,
            -0.8681646706235142,
            0.09253415839024304,
            -0.993017727378646,
            0.1650505592061977,
            0.7136081023381078,
            0.027892761751915796,
            -0.7278766165451098,
            0.44638848382828167,
            -0.4648217626115234,
            -0.19674171346181363,
            -0.7364333510769012,
            0.27863322233281973,
            0.8830093020946705,
            0.8871755975226111,
            0.6591902013280126,
            0.45032400270895256,
            0.822110995441057,
            0.5762564339543292,
            -0.06373408677325865,
            1.147479752393884,
            -0.1012451862476913,
            0.9331994701195552,
            0.48997979692850313,
            -0.778065685467574,
            -0.7609347680340817,
            0.04261337731435444,
            0.6875161847867441,
            -1.0296137685520215,
            0.799262608584083,
            0.8287766667313361,
            0.1649295413532823,
            0.3294768721903061,
            0.02771135336582023,
            -0.4535598790972103,
            -0.7208115338316888,
            -0.2869865476208129,
            -0.3022741431614948,
            -0.9980123148167914,
            0.7373991335939596,
            -0.024877616874428243,
            0.8897575501928168,
            -0.3786752792778023,
            0.05420508041012262,
            -0.5084047748891225,
            -0.2079350950219323,
            0.9102198899360723,
            -0.028618224817717475,
            -0.8606916512790481,
            0.751968991461998
          ],
          "numRows": 16,
          "numCols": 45
        }
      },
      "ops": {
        "type": "org.ejml.simple.ops.SimpleOperations_DDRM",
        "data": {}
      }
    },
    {
      "mat": {
        "type": "org.ejml.data.DMatrixRMaj",
        "data": {
          "data": [
            0.6937938836809611,
            0.8585594682331676,
            -0.44972046951782446,
            0.9398369877106736,
            0.6413371740621332,
            -0.5618557138698774,
            0.29729708190564796,
            -0.10637490858813217,
            -1.303440254398414,
            -0.822276137957042,
            0.6912539056738396,
            0.2576072886103775,
            0.05358448307236707,
            -0.9851988907973916,
            0.21458898161603712,
            0.10700400901591875,
            0.723342107617807,
            -0.8379214025153163,
            0.8124508315963284,
            0.389140990318904,
            -0.12502285502271238,
            -0.6812080069632629,
            -0.6967456249609476,
            0.2659637486345756,
            -0.8221079842648881,
            0.22389809734677657,
            0.0699157881897341,
            0.9037115234970448,
            0.7201670489802905,
            -0.9780130592368474,
            0.44244920913658103,
            0.3051154331637608,
            0.29060760962197874,
            -0.8396157519348442,
            0.3849133047418316,
            -0.5971913559611999,
            0.3123340055463477,
            0.032553338949605326,
            -0.21376348469752204,
            -0.17589066772987216,
            -0.3674735117899388,
            1.2425482322562689,
            0.31091826663394806,
            0.49393059338339407,
            0.3611083929903496,
            0.5506818506311175,
            0.4970204444750023,
            0.31364378657312875,
            -0.5527137434816478,
            -0.5777850276958372,
            -0.8881892260271531,
            -0.09469584169468406,
            0.0018271178069775296,
            -0.9768891956889323,
            -0.10532272367400264,
            0.3082508464635785,
            0.9856893173598187,
            -0.21204460205320053,
            -0.7656837889362078,
            -0.5544118567005181,
            -0.3156974304921638,
            0.9843998446129935,
            0.33205170891620506,
            -1.4510748530526463,
            0.5140623045920609,
            0.9493704729928272,
            0.7255412979537508,
            0.5253316224206168,
            -0.5439280564642195,
            0.014475709557375982,
            -1.4807703624151891,
            0.5124740465219901,
            0.7137736246842239,
            -0.28547458007776993,
            1.0478837318614942,
            -0.6697594442758295,
            -0.4075177498451257,
            -0.5299652535010207,
            -0.03687812323616968,
            -0.6593034918075331,
            0.09096399449561754,
            -0.3308135120218241,
            0.5148762916822716,
            -0.28353284465121154,
            0.9872694069355439,
            -0.17772886260221843,
            0.9247845228883691,
            -0.8200454707894503,
            -0.8188759693160459,
            0.7711510162637203,
            -0.5966928931043187,
            0.7053780292086052,
            -0.7560450104802015,
            -1.4635705461979085,
            -0.84951005270099,
            0.7252611825614282,
            0.8961144762194997,
            -0.9299860066957364,
            0.7606163136834649,
            0.8084317590644012,
            -0.6612539783521008,
            -0.8551886751765281,
            0.21176876936160616,
            -0.24898453386497987,
            -0.1310394764947356,
            -0.8621975620974436,
            -0.9179922930224078,
            0.3746691782194238,
            0.40493167672525565,
            0.9183254203435098,
            -0.1695518203969324,
            -0.887838113603604,
            -0.9971794056182024,
            0.4429866828135587,
            -0.9765031125988022,
            0.10245432153396372,
            -0.07584140032032605,
            0.38514888409722614,
            -0.08361988441481838,
            0.0036862287429169083,
            -0.2993689759005247,
            0.5769660942080395,
            0.55991330991109,
            1.0747439190173491,
            -0.003542087708606534,
            -0.6985339680523404,
            -0.37870571592461577,
            -0.28489860879945716,
            -0.2576247083671368,
            0.06098432322791569,
            0.28921698009602115,
            1.2794260477847197,
            -0.25140154871911036,
            1.4408044352347482,
            0.5952280627728984,
            0.31384507476041934,
            0.22886345510830666,
            -0.3813182991092541,
            0.3888747941088224,
            0.7930302270236456,
            -0.8708557550332052,
            0.662515421686033,
            0.59744275837736,
            0.6060961106210008,
            -0.10455318657035617,
            0.18855620962885866,
            0.7125240398931316,
            0.3448717845954967,
            -0.09610566165593504,
            0.833872638382432,
            -0.6103621609903485,
            0.03000467881085575,
            0.6746350614351562,
            0.7567472583031938,
            0.7996463252872559,
            -0.186001300753031,
            0.7418990231324835,
            -1.1377041216168051,
            -0.6661886938447821,
            0.2911674332466727,
            -0.6397613575067191,
            -0.02794333913330216,
            0.4181926288207505,
            -0.3969606187139114,
            -0.3826232526091602,
            -0.46427452998765073,
            -0.47651374916727895,
            0.18150659013424142,
            -0.419064380906482,
            1.767126697814876,
            -0.36917914167285376,
            -0.2468614805580469,
            0.9472378031807289,
            -0.8188999652099249,
            -0.905635709968196,
            -0.574870526171988,
            -0.16712156501120745,
            0.40976590498253773,
            -0.8009797586478582,
            -0.8235961898490958,
            -0.5777739717844126,
            0.45119988613851225,
            0.20894936554256738,
            -0.2855424082341338,
            0.5448202247648737,
            -0.5538421999261951,
            -0.5955867471601404,
            0.4188316504431242,
            -0.3101890820366444,
            -0.40071859526083964,
            -0.523697129757013,
            -0.8778066915950398,
            -0.8597461318144357,
            -0.6930033321446474,
            -0.73752042773193,
            0.7141626282759588,
            -0.6527685390801246,
            -0.18093981896649858,
            0.19988610936013873,
            0.6286269842266035,
            -0.6353924827294444,
            0.6713151359404328,
            0.75619180150392,
            -0.8056533933701173,
            0.41421855668183044,
            0.5143702748825467,
            -0.1081922783753928,
            -0.18838735163981746,
            -0.17440531310747542,
            -0.30531793871069224,
            0.1427501132440847,
            -0.3303118064567111,
            0.8841840479698058,
            -2.1871188368448577,
            0.5188516059365531,
            -1.3680288802308023,
            0.01665736873028445,
            0.6073557977258426,
            0.42203787359547085,
            0.47103603206664935,
            -0.5045320236326857,
            -0.12075262776482815,
            0.4348435618349009,
            0.7646256292816768,
            -0.4376410418696788,
            -0.6688889480496438,
            -0.4941066547281986,
            1.016646346866085,
            -0.1669478758000476,
            1.0121165274876605,
            0.30670049042621383,
            -0.11052535709014932,
            -0.5507786732866576,
            -0.7685734413507797,
            0.7489172147237937,
            0.797286188394307,
            0.6344026719857627,
            0.04740263767013131,
            0.8364961086933715,
            -0.3188966727975644,
            -0.5238161897108349,
            -0.5166318371023648,
            0.5897760371403284,
            -0.2843156400862764,
            0.5490387839106523,
            -0.43447759827789456,
            0.3063189933994894,
            0.15388399421743437,
            -0.14873153860631494,
            -0.006680347889610472,
            0.8593117325682815,
            1.091380333541831,
            0.564411257934974,
            0.634435916395828,
            -0.8424164946410806,
            1.123168646940191
          ],
          "numRows": 16,
          "numCols": 16
        }
      },
      "ops": {
        "type": "org.ejml.simple.ops.SimpleOperations_DDRM",
        "data": {}
      }
    },
    {
      "mat": {
        "type": "org.ejml.data.DMatrixRMaj",
        "data": {
          "data": [
            -0.5556802958722857,
            0.5157106347310989,
            0.9821722239888404,
            -0.7815932298245984,
            -0.6228240031934682,
            0.9049181773794979,
            -0.9558489514572852,
            0.6741290598443317,
            -0.016627254580328044,
            0.8245391587592581,
            0.8133872002728932,
            -0.3387123388165667,
            0.2602916466316,
            0.7586208275199082,
            -0.1287564084852988,
            0.20126649458069057,
            0.01739938797280538,
            0.8502190943295085,
            1.1920729929608633,
            -0.9828597007195867,
            -1.1201631153695917,
            -0.2488708866573548,
            1.1277295664158635,
            0.936918701296859,
            0.1895603569290656,
            0.6777761702562806,
            0.4441799408762789,
            0.9365467098841913,
            0.04279194353931626,
            0.5239684523645303,
            0.686790828226012,
            -0.12973556082637946,
            -0.6290616751603768,
            0.41203243788010163,
            0.18379527126648543,
            0.5896436370154645,
            0.11671430685148754,
            -0.7881393026302663,
            0.703508460009902,
            0.7599965550264616,
            0.7993632148285639,
            1.5779306416733943,
            0.29267679957294657,
            0.6226582633174198,
            -0.06522472547990632,
            0.33669776731452083,
            0.12995658014560063,
            -0.4678624133835763,
            -0.6320554690074782,
            -0.4184088219526465,
            -0.9006651704851063,
            -0.14392941053082886,
            0.4632924376670513,
            -0.07275696247738828,
            0.5364630218460793,
            0.7774090931684203,
            -0.15919530829348383,
            0.8294598126440342,
            -0.5581907588799139,
            0.917456021518033,
            -0.7086660916925942,
            0.9009940594508739,
            -0.27495605959773606,
            -0.06055062285295454,
            -0.8449478805387263,
            0.8900924452719041,
            -0.0310577130840054,
            -0.8921358655214872,
            0.1283355523069285,
            -0.29356750254187736,
            -0.8267502300633329,
            0.7207554945522396,
            -0.5667883978984571,
            0.29426160702238335,
            0.10205180122917579,
            0.012024398386180968,
            -0.12071007043588522,
            0.25758732824600417,
            0.9693791834122938,
            -0.28051751477324727,
            -0.7322751208775164,
            -0.023559205900268054,
            -1.077550441067995,
            -0.4447052050615341,
            -0.42948967796336746,
            0.46905844077068676,
            -0.017157015022499222,
            1.0171958840490232,
            -0.22027313737590748,
            0.5500146307276554,
            0.2586703438346405,
            0.10638465173939038,
            0.7263678965356024,
            0.6737201138646183,
            -0.29323428194291146,
            0.5214821955836912,
            0.3502768073854574,
            0.12800511355673416,
            0.2060488945517307,
            0.7434833289304827,
            -0.2849142975897279,
            0.0782926140150546,
            0.7140597823292079,
            0.438508541712916,
            0.9219404533065036,
            0.46890617808345514,
            -0.3142821898222494,
            -0.31945753655870557,
            0.04566442530164941,
            -1.1407572678284699,
            -0.07756944792750109,
            -0.29726080338900807,
            -0.6875451664045253,
            -0.9649945564912801,
            -0.3474695085724593,
            -0.8346028037188368,
            0.4200151323456618,
            0.7546247415818093,
            -0.4421031143577423,
            0.6939569884907679,
            -0.5545986777845371,
            0.2857533501198989,
            0.608362386547227,
            0.578451497327896,
            -1.3346541877857319,
            0.8255068065224602,
            0.9919092871932991,
            0.8218377592290733
          ],
          "numRows": 8,
          "numCols": 16
        }
      },
      "ops": {
        "type": "org.ejml.simple.ops.SimpleOperations_DDRM",
        "data": {}
      }
    }
  ],
  "biases": [
    {
      "mat": {
        "type": "org.ejml.data.DMatrixRMaj",
        "data": {
          "data": [
            -0.6655463706864555,
            0.13673237398303995,
            -0.6504801270544254,
            -0.44375982594933316,
            0.13254528817474376,
            0.8844694156119208,
            0.8226953125040488,
            1.044708444843082,
            -1.2781959642347631,
            -0.3197640728732951,
            0.6915569203065635,
            -0.38248079633493237,
            -1.2670629143520071,
            -0.4952714401140701,
            0.5485222686410534,
            -1.3986718141299401
          ],
          "numRows": 16,
          "numCols": 1
        }
      },
      "ops": {
        "type": "org.ejml.simple.ops.SimpleOperations_DDRM",
        "data": {}
      }
    },
    {
      "mat": {
        "type": "org.ejml.data.DMatrixRMaj",
        "data": {
          "data": [
            0.27570320134928034,
            -0.714106925052171,
            -0.36079924806810104,
            0.40521278158958207,
            0.083267039308202,
            -0.5995556339609069,
            -1.633943255165748,
            -0.2930773205397059,
            -0.6535482668126538,
            0.8875439219423322,
            -0.7125467224541939,
            0.5171953509525581,
            -0.1338857022928761,
            0.6227402633091015,
            0.37375238503385777,
            0.056126652779408925
          ],
          "numRows": 16,
          "numCols": 1
        }
      },
      "ops": {
        "type": "org.ejml.simple.ops.SimpleOperations_DDRM",
        "data": {}
      }
    },
    {
      "mat": {
        "type": "org.ejml.data.DMatrixRMaj",
        "data": {
          "data": [
            0.6999976941670112,
            0.8670070081160232,
            -0.9899351260485163,
            -0.5616484780963231,
            0.40909876042942717,
            -0.3323408293864947,
            1.7116449327156134,
            0.3307822681062149
          ],
          "numRows": 8,
          "numCols": 1
        }
      },
      "ops": {
        "type": "org.ejml.simple.ops.SimpleOperations_DDRM",
        "data": {}
      }
    }
  ],
  "learningRate": 0.1,
  "activationFunctionKey": "SIGMOID"
}