{
  "activationFunctionFactory": {
    "activationFunctionMap": {
      "TANH": {
        "type": "basicneuralnetwork.activationfunctions.TanhActivationFunction",
        "data": {}
      },
      "RELU": {
        "type": "basicneuralnetwork.activationfunctions.ReLuActivationFunction",
        "data": {}
      },
      "SIGMOID": {
        "type": "basicneuralnetwork.activationfunctions.SigmoidActivationFunction",
        "data": {}
      }
    }
  },
  "random": {
    "seed": 259760474596141,
    "nextNextGaussian": -0.47229496460642745,
    "haveNextNextGaussian": true
  },
  "inputNodes": 45,
  "hiddenLayers": 2,
  "hiddenNodes": 16,
  "outputNodes": 8,
  "weights": [
    {
      "mat": {
        "type": "org.ejml.data.DMatrixRMaj",
        "data": {
          "data": [
            0.9202660873723054,
            -0.5102224826453315,
            0.23552349042780207,
            1.5262561574994107,
            0.8004382156800776,
            0.38705543805025505,
            0.8815023561939881,
            -0.35329674642103326,
            0.759799898869576,
            -0.879640707787708,
            1.1694802765248835,
            -1.184001923914225,
            -0.1463005883351633,
            2.34090557371317,
            -0.8421102768409536,
            2.027204631058728,
            -0.27866861711428204,
            -0.20042332966019805,
            -0.1006948892343319,
            1.058493562827242,
            0.18102196803492748,
            0.43143080628697816,
            1.8443431754003439,
            -0.7320745891534828,
            -0.03355176537722741,
            1.2297103045174607,
            -0.5772249544241796,
            -0.04915249342021277,
            0.4086885628290659,
            0.5734794311029194,
            1.1432957620588218,
            0.028799559175125777,
            0.3088882938717728,
            1.2286435750361122,
            -0.39610084671975737,
            0.7276713639862733,
            1.336045401684661,
            1.6623324566467084,
            0.28476748160667653,
            -0.7430096750903539,
            -0.283016047917916,
            0.164929797934543,
            1.7391845122169562,
            0.7587987769628268,
            1.0910140727842155,
            1.7766471129098997,
            -0.6921123978803214,
            -0.06508684719823335,
            -0.8573016728086833,
            -2.05503437345631,
            0.9781186671919537,
            -0.9461474285161546,
            -0.9283693131707007,
            -0.007550493309841366,
            -0.6526872248337565,
            0.18507873368258732,
            0.26368763068944256,
            0.4283772567064804,
            -0.6594185721393268,
            -0.8389920724139462,
            1.26764027439719,
            1.3213441336559515,
            -0.25109267532002666,
            -0.5367653111378794,
            0.35002709068165394,
            -0.891426263980881,
            1.9519450986686018,
            0.2597474746273301,
            -0.6201285643012422,
            0.08254876111186765,
            0.28246943863563,
            -0.31999774783284624,
            0.7460055160868649,
            -0.5875228333374105,
            -0.446159309872575,
            0.3784061992921197,
            0.47193926953838444,
            -0.37710895505788383,
            1.1990388540086423,
            0.4365406071664799,
            -0.9224630727288399,
            -0.6520285087747588,
            2.8588873361202305,
            -0.4137199921787988,
            -0.22737068286636036,
            -2.3172908922124194,
            0.08598599714837085,
            0.7637852713510529,
            0.3182250230414109,
            -0.9288002511963344,
            -2.2469467175951494,
            -0.8114061339590812,
            0.3025305647637457,
            -0.059854012438552706,
            0.4553933520223993,
            0.8538467075504832,
            -0.03403726912668148,
            0.11746466107280601,
            -0.5588259073795947,
            0.6669021823419359,
            -0.49620474685563565,
            -1.6705570577680087,
            1.8337263137751392,
            0.18713358603447028,
            0.8854651595067693,
            1.471418872070283,
            0.9553571349753363,
            1.7743744025629764,
            0.195122113283171,
            -1.3354627202249771,
            -0.9895139172255261,
            -0.7518022333200298,
            0.3103312455780899,
            0.30506916782153964,
            1.2694389632090357,
            -0.8885011686039684,
            0.45871567672546254,
            0.1215513188275068,
            0.5211924344495487,
            -1.0883713337225998,
            0.712847647180137,
            0.9022273141089003,
            -1.0783742565654055,
            -0.6382261595187309,
            -0.7318993303044855,
            -0.6573973134393171,
            0.8640233123783092,
            -0.16536648141875698,
            0.9753795386282591,
            0.8348928861495062,
            0.7967695040845963,
            -0.11934689448429397,
            -0.15877766181510383,
            -1.1547458678001137,
            -1.5276052409945775,
            -0.720242005592953,
            0.730732167940848,
            2.1684831836702405,
            0.13265554591799655,
            -0.3397990653986924,
            1.262712669281493,
            -0.816625572257173,
            -0.6922665306830738,
            0.5544131907298603,
            -0.8803198841852473,
            1.1821410170965856,
            0.4837687574163477,
            0.7433705865133866,
            0.7374380845666859,
            -0.30185869836486257,
            -0.4793591765985451,
            -1.4521015990239103,
            0.5310495374374982,
            -1.1664524304025232,
            0.20981184516901985,
            0.7654346776736088,
            -0.5397024418361096,
            -0.04099828672497083,
            -0.2797711980624741,
            0.4288738404735855,
            -0.48996604692930024,
            0.05565260997819421,
            0.5982024862651683,
            0.04088729429228799,
            -0.9593372888075524,
            1.1432978251090826,
            -0.023246269840147216,
            -0.4874441924690978,
            -1.2327910129933939,
            -0.3409407506356885,
            1.0173068888836123,
            1.103979609009224,
            -0.23552939276384838,
            -0.7384837526950623,
            0.009990197431163472,
            1.0765730834492313,
            -0.0719296379707357,
            0.4060609627292864,
            -0.8834321220368648,
            1.0386544582649764,
            -0.47221673307311574,
            -0.5271336839416567,
            0.8029876701926568,
            0.6401150855779141,
            -0.3008357697503701,
            0.5831853001692429,
            -0.5229415392749212,
            -1.367196788953266,
            0.8808200736334322,
            -0.8043083827803243,
            0.960647051101813,
            0.0745414093941199,
            -0.44507501585024345,
            -0.5993295299689296,
            -0.2980230011771216,
            0.30426856860572027,
            0.818569600414786,
            -0.927132902193514,
            -1.0491637661795272,
            0.8666191389123277,
            1.3170798544657134,
            0.21715748215202552,
            0.29112660625235454,
            -0.21537738904625164,
            0.26594899109244363,
            3.0500511177128278,
            -0.24769176885989702,
            -0.866410572437883,
            -1.0109305889144746,
            1.1164256537861774,
            0.9118221769102566,
            0.3903025039909569,
            -0.8556917244172662,
            -0.17706477632086365,
            0.24629416867415913,
            -0.2586881596421011,
            -0.4519019739386265,
            0.6292094327982178,
            0.9011751581798169,
            0.3265516069713825,
            -0.7676766793618932,
            -1.1925867070370937,
            -0.6094856613498396,
            0.05599463441631721,
            -0.6052503856707913,
            0.3750265933209155,
            0.7580630429328248,
            -1.181385406816669,
            0.2612006227586431,
            0.44460503624936765,
            -0.26039870315170904,
            -0.9275317493773597,
            0.21135051067369093,
            0.38295654210102426,
            -0.27859735314360484,
            -0.7228495110532205,
            0.8995844152168635,
            0.41087690183937353,
            1.4005419704701856,
            -0.4990316849347612,
            0.5437250608174053,
            -0.5918063328806948,
            0.46524286743806703,
            -0.6587976816974701,
            0.21886711855527585,
            0.2679224284231323,
            -0.8947869524211788,
            -0.9338459787120998,
            0.09978867446125528,
            0.9344542745567519,
            1.4250173466678817,
            0.5695970527875636,
            0.41996080334385705,
            1.1617263240162958,
            -0.7989297307746438,
            0.9508422114011474,
            0.45286392259989694,
            2.1303181401317537,
            0.7608501050257432,
            0.3815914759225109,
            0.25179491437963986,
            0.9215518739835524,
            -0.0038756132224536666,
            0.001674317538952863,
            0.6481220470162363,
            -0.8115403367185248,
            0.9827617416269168,
            0.33054635221984496,
            0.387304251217476,
            0.6390716574802802,
            -0.397586256411055,
            0.6115188700947248,
            0.17609554379600378,
            0.44545116058735373,
            -1.5392884827822997,
            0.9148592757155656,
            0.4073596021992482,
            -0.9657625542254453,
            -0.5143656958141634,
            -1.0588782100794165,
            -0.12090940053183596,
            -1.1146779345655244,
            -0.3669687363813084,
            -0.8847147476277746,
            -0.8706461445089552,
            -0.09721352095526328,
            -1.749115901733584,
            -0.8171252453059005,
            0.640102625955637,
            1.1505562320576506,
            -0.5936632134793832,
            0.20383209012256237,
            -0.15876902112002209,
            -0.08893425435436919,
            -1.455208524249401,
            -0.9775837264127638,
            0.9428212488452983,
            -0.08724714836729319,
            -0.349448096294455,
            -1.0507463999806996,
            -0.2657312995336165,
            0.12530164936212523,
            -0.5131527223406648,
            -0.3609560634906932,
            0.6970158041385766,
            0.8059188507602271,
            0.039586295242215463,
            1.1016463559748173,
            0.3877935672325117,
            1.0547065205618051,
            0.862777426204242,
            1.4466747298611768,
            0.2796875622743571,
            0.2132457724702059,
            -0.347083322634005,
            -1.7444702455817878,
            1.2848788483881894,
            0.1712262624647316,
            0.19454930148285116,
            0.19341952613191588,
            -0.8171044925684705,
            -0.2538737657916079,
            -0.2653784586802703,
            -0.1974199145469182,
            -0.9707734928694879,
            0.6530180619496242,
            0.6199318868630154,
            0.014029419673546428,
            -1.5999663201461771,
            -0.3503472042103515,
            -0.5084215957189029,
            0.5467681150989673,
            -1.3315338297620618,
            0.6252529228807797,
            -1.9012918712436129,
            0.30539732747248427,
            1.0461445026583787,
            -1.2632528222945447,
            0.5736661095537138,
            -0.530511049442186,
            1.167469676784453,
            0.04612365155420184,
            1.0656600163911996,
            -0.4785553226263646,
            -0.16266563754033792,
            0.739261687014983,
            0.5660013431449237,
            0.17779819880484338,
            -0.7873816361751473,
            -0.34395503011235407,
            0.050557582718775196,
            0.2864662187943222,
            0.13811282604504638,
            -0.5109567772393058,
            -0.37975341584624556,
            -2.5513463531795715,
            0.26697510087973436,
            0.2792711148505078,
            1.7691722400727554,
            -0.6819459233819178,
            -0.8159122578196413,
            -0.9116859708930573,
            2.054720138228113,
            -0.8594829808097082,
            0.7466471902367822,
            0.9718184416661131,
            0.14029548640449754,
            -0.4075150865820702,
            0.4330883390735061,
            -0.785110219433043,
            0.17430043027549835,
            -0.8521075818313293,
            -0.12084832809436272,
            1.5875859113788424,
            1.2131300731510368,
            0.4455019943750964,
            -0.1309636973471917,
            1.6661219448433264,
            -0.8154234299824166,
            0.08758054313451001,
            0.5278958467479361,
            0.051363852298492274,
            0.8526045878961085,
            -0.8753860012367802,
            0.5564995089155227,
            0.6859195897047424,
            0.9437201853880286,
            -1.3373078022694382,
            1.244551034531481,
            -1.2865399873566012,
            -0.2282787432364517,
            -0.5502352341676471,
            0.14016220457034495,
            -0.0022095411176136226,
            0.3891164406683252,
            -0.7607805134470951,
            -0.29065844056557005,
            -0.6891120512429509,
            0.8298675154439021,
            0.1292547932997503,
            0.4061336029656657,
            0.6924804693099625,
            -0.5367776328022809,
            0.3314533540058857,
            -1.1399390383535892,
            0.8899899289679707,
            0.4977485243131015,
            -0.553552987835853,
            -1.0898675371031339,
            0.5440159534746202,
            -0.31870506170451907,
            0.22372841597307247,
            -0.5955647110626722,
            -0.6093579883278637,
            0.5694904013328775,
            -0.5410723607955703,
            1.8503737129807125,
            -1.1375684909998558,
            0.7899565819058232,
            0.4192177400312411,
            1.1346569661984047,
            0.6042742971564772,
            -0.17596422821207014,
            -0.84751767273529,
            -0.4859143441985374,
            1.9078037164498318,
            2.328276419160988,
            0.08324799101144487,
            1.0336859338514408,
            -0.6184308584594498,
            0.42541948688175246,
            1.7110234956288002,
            1.3710427040697206,
            -1.2191181152546757,
            0.261542317803116,
            -1.9900323418347194,
            -1.487275029429255,
            1.959408391031702,
            0.4876250446318726,
            -0.15450762752872796,
            0.8563429530110225,
            -0.11025746818935434,
            0.6076349994288373,
            -0.5607130757306819,
            0.9071557485438908,
            1.4586936163208506,
            0.24543512042631344,
            -1.066629846190037,
            -0.41475781744610196,
            -0.5702294501988227,
            -0.006793402667230941,
            0.6110680843671052,
            0.2697242666343732,
            0.19613305580930485,
            0.10921075793973983,
            0.9253074278902562,
            0.8763092491767805,
            0.7419905589990177,
            0.6361508058884757,
            -0.9280567425647366,
            0.7668577693976331,
            -0.020181710813016895,
            -0.5156665201363537,
            -0.1989982259817371,
            0.8064208976977174,
            -0.4405869352850765,
            0.36287834380351597,
            -0.03593564237467106,
            0.639633533123956,
            -0.9671471468161292,
            -0.5770015170311813,
            -0.41220427846905144,
            1.0510212171473157,
            -0.21552128504188778,
            -0.5061752809071973,
            1.434227609558406,
            -0.7909985796017981,
            -0.4892629530115686,
            -0.7245492692126763,
            0.9312132281401606,
            -0.41300604900076004,
            -0.49472982048935216,
            0.5099607768654393,
            -0.31357994616438023,
            -0.3469233881842398,
            0.1860130665866051,
            -0.41273488312631,
            0.5293147142858524,
            -0.8696791927074383,
            0.6423563377457004,
            1.063552389943255,
            -0.4464587719750983,
            -0.11970810166350943,
            -0.01643808652034373,
            0.7982799097117295,
            -0.10191360033415697,
            -1.1060976140263454,
            -0.018524424761148406,
            -2.805222805536329,
            -0.9856704305450199,
            1.1493853454421346,
            0.07240206174043051,
            -1.7770112831928122,
            -0.6169148247222359,
            -0.7032704914037577,
            -0.040230795023983745,
            0.39992126053717936,
            1.063885310310289,
            0.7679925533041483,
            0.277538209406057,
            0.5171931225518185,
            0.17591900516212655,
            0.6692206989391853,
            0.43345306383492443,
            0.7406462905509092,
            0.28704251002335424,
            -0.18642725386559578,
            0.5238194363233115,
            -0.40843588945823117,
            -0.4481582100092306,
            0.732345081040769,
            0.5406404722221837,
            -0.7526532200456716,
            -0.2546725871218283,
            -1.1443460138114605,
            0.18770884302368157,
            1.5127409372682497,
            -0.4570702951095389,
            -0.3700761804823093,
            -0.060995370095807744,
            1.6893484578137294,
            -0.43611720478709354,
            0.036617422262817945,
            -0.8557553840848156,
            -0.047126224709451714,
            -1.3641188738807415,
            -0.45385061441687513,
            -0.45474324308049413,
            2.0487877259874496,
            0.7617279104155472,
            0.9912731880413855,
            1.1655914109317225,
            -0.03393145529576724,
            -0.374900588659296,
            2.031838932152769,
            0.46362794786764727,
            -0.1693899195573274,
            0.6592511487327521,
            0.46912820194770233,
            -0.7373045013008026,
            -0.11312701069961334,
            -0.46604789277626396,
            0.05787781003210199,
            0.024863581789088762,
            -0.5346313141296581,
            -0.678524715855017,
            0.5225584690233733,
            -0.2400892565704773,
            -0.6319842202363068,
            0.704370502468779,
            2.567180655914666,
            0.2819788124529742,
            0.6115136060690428,
            0.17070503745370402,
            1.0520038616506895,
            0.7804952315407228,
            -1.068175719576275,
            -1.6525206004064614,
            -0.26616430349601505,
            0.8394951591412418,
            -0.7941216567211006,
            1.206934856479786,
            -0.299980993702492,
            -0.36533061844240533,
            0.1533230931334998,
            0.5389319123627203,
            0.11132922613648852,
            -0.6990309051600618,
            -0.5007349763718567,
            -1.656642449743881,
            -0.6952558485189071,
            -0.8658609253197855,
            0.2806660054807863,
            3.4925695898719997,
            0.7664787612268971,
            1.1110955242619684,
            0.41193837829677166,
            -1.6656187690640265,
            0.7563458531066013,
            1.0185678653300358,
            -0.9008562866226973,
            -0.3731844167304924,
            0.30903815314287914,
            -0.24531316720097746,
            0.8064002995418247,
            0.3599403989666814,
            -0.5162107839685349,
            -0.8949746165610695,
            -0.9430638705341976,
            -1.001378471409063,
            0.30096059816898224,
            -2.6934223521683807,
            -0.4131462294682283,
            0.061381062480396986,
            -1.5975748193374684,
            -0.18335268866790094,
            -0.21139763542858447,
            -0.4075614177845596,
            0.481697872677417,
            -0.2894981717554742,
            -0.35643009268928394,
            0.03763419646097782,
            -0.5764908187559827,
            0.869565030492699,
            0.19079212901631515,
            -0.31135350127823624,
            -0.46871155031672995,
            1.63875731623124,
            1.0121641713230471,
            -1.5691323172182652,
            0.242989720739047,
            -0.9162967848338192,
            1.2190235287425204,
            0.6382685285817545,
            -0.9920115698346522,
            1.2181238787966073,
            2.463916641963226,
            0.13374132920027015,
            -0.5856352102249746,
            1.822878147179468,
            0.022660377022219375,
            -0.7656868488733954,
            0.638743775629748,
            0.7357275430553587,
            0.5780380105695657,
            -0.2467434077467816,
            -1.219409487572349,
            0.3959001418624442,
            0.2459219012600832,
            1.7672398652050851,
            -1.1821749228194773,
            0.24423111069903747,
            0.191026651891101,
            -0.5777580683016108,
            -1.5206770565288124,
            0.5546797902867182,
            -0.4059529455954988,
            0.3485057760703938,
            0.9497856385916781,
            1.1110553381595485,
            0.3678410854040266,
            0.04887157706212947,
            3.310199541092136,
            -0.2718992295942717,
            -0.9482157105993148,
            -0.6349069466724261,
            0.04731519150078831,
            1.0096233530701997,
            1.4356589261171309,
            -0.6904894515698666,
            -0.45279933038368636,
            1.4035903825364342,
            -0.10345131248727779,
            -0.0712257082098775,
            -0.8852216630688757,
            -0.27729694922776976,
            0.9573395820678587,
            -1.60079722368976,
            -0.02964390510872983,
            0.19176301625371064,
            -1.2498039885884196,
            -0.03753255350292706,
            -1.4319689587048872,
            -0.6839125084525426,
            0.2868454164989924,
            0.6222578675671093,
            -0.5764043384774915,
            1.8484821243009633,
            0.28341740731181964,
            0.7286278291920129,
            0.1683241667565814,
            -1.2248014023143077,
            -1.2480593504347357,
            0.7318624042669865,
            0.9048918461849595,
            1.7662244666152958,
            0.9247101827655244,
            0.45288282458341433,
            -0.2273330061034713,
            -1.0326864167612262,
            -0.5782040078005579,
            0.27213775705791815,
            0.37466944304598027,
            0.21111532729632365,
            -0.015831855527125682,
            -1.6561625685341523,
            -0.5979435784612116,
            1.1476136688084433,
            0.7205421450901799,
            -0.5213981659541589,
            -0.36723468750605076,
            1.2901770301407938,
            1.176886896961703,
            -0.6367964901836864,
            0.09106796596442901,
            0.4574616181913169,
            -0.2482778452552341,
            0.5453219082198985,
            -0.08322071452688304,
            -0.7434959894872928,
            0.06579879456197779,
            1.2521417633654384,
            -0.8304848930754525,
            -1.0057495352330004,
            -1.4577127588553087,
            0.43605875011263695,
            -1.2174962654769677,
            -1.2110118063545825,
            0.571880806921798,
            -0.27486494188592264
          ],
          "numRows": 16,
          "numCols": 45
        }
      },
      "ops": {
        "type": "org.ejml.simple.ops.SimpleOperations_DDRM",
        "data": {}
      }
    },
    {
      "mat": {
        "type": "org.ejml.data.DMatrixRMaj",
        "data": {
          "data": [
            1.0800082373235536,
            0.31385857817810936,
            0.7925457433998145,
            -0.33841875561293144,
            0.5091599351149887,
            -1.1197661582171918,
            -0.3620076940080314,
            -0.8128762436634123,
            -0.4199451590304528,
            -0.4668467819321552,
            1.9002746380158402,
            -0.9960595178130174,
            -0.22540955643078747,
            -0.5202779724220915,
            -1.4712127590194903,
            -0.5939103054341803,
            0.6231521801718589,
            -1.25281187622696,
            0.5463308036256042,
            0.3256693777917003,
            -0.007026043379131597,
            0.5738967849292747,
            -0.08368920490821768,
            0.8643852121892327,
            -0.686467280449883,
            0.10820153822574634,
            -0.8315169027013959,
            -1.0089814094985967,
            0.8647424745898574,
            -0.9141584969582649,
            1.5021284833812982,
            0.67628843129915,
            1.6972286571008453,
            -0.39030780045329744,
            1.3740955490530713,
            1.4611423426266057,
            0.24413870882268376,
            -0.2278673633465751,
            1.1219011749228547,
            -0.15459684652378414,
            -0.4207272691892107,
            0.47420182975797975,
            0.8401475117341191,
            0.5345043685908041,
            -0.08267970666740027,
            -1.925796468368199,
            -0.06656315878863377,
            0.27364887748469763,
            1.2534399003435799,
            0.6883924841416239,
            -0.1510620885936893,
            0.7014897471756008,
            1.3726770543677924,
            0.27308148814351196,
            -0.3372097318138667,
            0.4022358705085629,
            -1.0228364113512671,
            0.5197077526514313,
            0.3358295859213551,
            0.7876643145856558,
            -1.2935601779592334,
            -0.062454828882428426,
            -1.0571576852488855,
            0.9600175116169313,
            0.27238319668868255,
            0.052189504956698274,
            0.7402907918035504,
            0.8790623237148744,
            1.1550590570108967,
            2.8580759505548565,
            0.7892292722936851,
            0.2509228276399067,
            0.08435660971665335,
            -0.6556985479565445,
            0.4603183704043104,
            0.9065801025013862,
            -0.7307890063033642,
            -1.1165479649242775,
            -1.4520098053346162,
            -2.1890542050534227,
            0.17009403102450016,
            -0.43217209952965785,
            -0.46960897737058915,
            0.4122228492838622,
            -0.5507112412028472,
            -0.026050868401467975,
            0.18423988773131977,
            -0.40817646394251317,
            -0.6537375536224537,
            -0.13369956751422146,
            -0.36272177302575415,
            0.5385169723850647,
            0.3136724529299259,
            -0.8510757196136107,
            0.7561053511471773,
            -0.5901741591072192,
            1.621016490575816,
            -0.4367856935069469,
            -0.9441559495325194,
            -0.8472645003437248,
            -0.2999199421459601,
            -0.914607392025615,
            -1.0510559624575793,
            -0.297230358935306,
            -0.32810626495547224,
            -0.28643212208053553,
            1.5912427386667798,
            0.2614812591745831,
            0.23252439116867046,
            -1.2037658022902868,
            2.583841462467398,
            -0.8588117215999207,
            1.0331132938432255,
            0.5971791040788317,
            0.45858909139715276,
            -1.0145185700694672,
            0.7829697076805897,
            1.781176022797231,
            0.1336538971210171,
            -0.6889761562220935,
            0.6260976034533792,
            -0.15336574598910846,
            1.21077445652996,
            -0.6025005541436249,
            0.9410153022009737,
            -0.998111050991907,
            1.01508473044681,
            -0.013113835391627582,
            1.1054403595444866,
            2.487196721335749,
            -0.7166128121904445,
            0.704721883722038,
            -0.561377278488067,
            -1.1630185073931338,
            -0.47504882488425426,
            1.1618541040851436,
            1.8614588533538263,
            -0.8834493243950587,
            0.4146886948817854,
            -0.030480827223900275,
            0.99745156681985,
            0.4370651288926462,
            0.2708464303606198,
            -1.3187246597722608,
            0.34152001536938414,
            0.6357306911191449,
            0.0033858698138411747,
            -0.05925611182825136,
            1.1468362522582416,
            2.8489939494916845,
            -1.370494485884713,
            -0.71988209098921,
            -0.47285175357181497,
            -0.5037872998755022,
            -1.0232670049389267,
            -1.0444421787108584,
            0.8904262080312311,
            -0.8664884215847122,
            1.2597065232753182,
            -1.777280114076576,
            0.03969984515849195,
            -1.3173074986670537,
            0.10772360428910321,
            -0.6015891746069018,
            -1.315232847541771,
            0.9846343921684485,
            -0.46137030118691286,
            -0.19629700624756696,
            -1.1667427254981126,
            -0.7585764161885603,
            0.2627053031400419,
            0.42052837140728827,
            0.9476599750128873,
            -1.4147185830502262,
            0.40947450515409395,
            0.1419941780777036,
            -0.5117982485323416,
            -0.4062101262043579,
            0.6117899460093845,
            1.195317125305973,
            0.11230268919145175,
            -0.7876505926974244,
            0.4754172029815186,
            2.076688943303062,
            0.1858788922651351,
            0.4246115240677628,
            1.0463983649386703,
            0.9981256005440493,
            0.6036799228126863,
            -1.9265559066075668,
            0.9098249886733545,
            -0.023776490037757753,
            0.34989221013267835,
            -0.32626574162022004,
            0.9659898092099364,
            0.741699981589617,
            0.7650230847319154,
            0.41261025003307383,
            0.6778634659676473,
            0.8228549932582193,
            -0.7461315612253754,
            0.805504078999423,
            0.28561111212730417,
            0.5567474871032206,
            1.5024164769852626,
            0.27315307574455105,
            -0.9435671296384911,
            -3.0082270801707334,
            0.005968456899861252,
            -0.9084968699216427,
            -1.683963980560323,
            0.2158873062770288,
            0.8637909184346001,
            0.12869069243190157,
            0.18723392835279573,
            -0.3875201545758153,
            0.588158506816838,
            -1.6192185292683705,
            0.3671748754173898,
            0.36100744288929776,
            -0.8556153960820604,
            0.6983481878329179,
            -0.7546379975926881,
            -0.04248694673755171,
            -0.30446971270701684,
            0.6860886288243981,
            0.13692087744136894,
            1.1673670416653352,
            -0.04675117084371094,
            -0.14805827647185454,
            -0.11693841196389154,
            -1.2243375000161771,
            -0.22442284055948147,
            0.5756459203014102,
            0.4781168923065005,
            0.16876363370617087,
            1.913698525687685,
            2.0079571092359303,
            -0.05038897516011692,
            1.0876449380787092,
            -1.1305203164246727,
            0.41812229708456783,
            -0.7937782551731629,
            1.4004541914990272,
            0.10809354795812534,
            -0.17736254294293968,
            -0.467707659387938,
            0.05534626587458269,
            1.094438374558496,
            -0.7363498252976661,
            0.9732108488747903,
            -0.692521710354235,
            0.4602054043427581,
            0.4176573365001259,
            0.2650159032718704,
            0.3701023740475333
          ],
          "numRows": 16,
          "numCols": 16
        }
      },
      "ops": {
        "type": "org.ejml.simple.ops.SimpleOperations_DDRM",
        "data": {}
      }
    },
    {
      "mat": {
        "type": "org.ejml.data.DMatrixRMaj",
        "data": {
          "data": [
            0.13165988269505813,
            -0.056502889765889325,
            0.8963937520390214,
            -1.1419565534397678,
            -1.5558400916742068,
            -0.8451481423901999,
            -0.3031498834707227,
            1.1193629398931402,
            0.8455343753776022,
            0.7045405599139029,
            0.03510342839158209,
            0.06440113701082106,
            -0.14198783113690122,
            0.7825599009145767,
            0.10119310233782458,
            0.663599294579276,
            1.252301056281901,
            1.4032007672994147,
            -1.9721006484123156,
            -0.4803964488192698,
            -0.17361797181718136,
            -0.4512392099083936,
            0.8324256676217123,
            0.8682363905536234,
            0.2291470652366029,
            -0.8667464735969639,
            -0.5867645085119637,
            -0.4706200779141138,
            0.14356965037956004,
            -1.6249116163308444,
            0.23420549526307655,
            0.4975992908536495,
            -0.18333380259818455,
            0.38890926195313746,
            0.10314057881780331,
            0.8729652516328302,
            1.4028309563612003,
            -0.7923549749555547,
            0.7923663227435508,
            -0.11184107286957512,
            1.3837716970025187,
            1.385581541373683,
            2.798887603121022,
            0.33930779522841503,
            -0.419554789453221,
            0.5014813220076768,
            0.6037148495989959,
            2.1219802993875057,
            0.10419212531628319,
            -0.14388166909703265,
            -0.056418248546373506,
            0.4291894678458945,
            1.5124603990232521,
            0.6098824544102408,
            0.7348514882537514,
            1.3040121916460126,
            1.5665312260769313,
            -0.8172019014136431,
            0.4949299608040824,
            0.7729180129121702,
            0.1471932150156117,
            -0.14243385408297782,
            -0.45246331441528276,
            -1.299975417467989,
            0.6233059252348283,
            -1.2878837260066627,
            -0.16807439051899076,
            -1.2319045996488884,
            0.636749428878897,
            -0.33219746857919774,
            -2.3562268207483337,
            -1.5756722206775557,
            -0.7315392153328579,
            -0.8089684681142755,
            1.1472466230620602,
            0.008709750372530634,
            -1.1891320856065892,
            0.22471024052779803,
            -0.36777568791821114,
            0.7419022676373708,
            0.7063409538904077,
            0.5496569438412249,
            -0.2545042429995218,
            -0.14087947131915968,
            1.7682077537984093,
            0.9789022560729977,
            0.11940579480392255,
            1.4413575707573618,
            0.6946507581356895,
            0.3767029423303885,
            0.2080443519653111,
            0.5389721564795065,
            0.5456918416694521,
            0.2777408894014177,
            -1.796149766534678,
            -1.9678494820311072,
            1.9649264510024165,
            1.8306332458950312,
            -0.18079689605600374,
            -0.8560880048929258,
            0.5436717858829677,
            -0.0638330376620648,
            0.17262583586328795,
            0.28968888801848397,
            0.7603279267823932,
            0.987088422221047,
            1.4388665317793279,
            0.46165022871514405,
            0.37189250566777315,
            0.13024450019559852,
            0.7430288188629242,
            -0.09737128670336404,
            0.03173948165540069,
            0.2745115999657256,
            -0.6442043262140498,
            0.5336717161712392,
            -1.3836505754577,
            1.0524821375365718,
            -0.9422944611970121,
            2.1449517041363464,
            -0.0058813865145987965,
            -0.6252308387631099,
            0.04184212498362316,
            0.9704472637085799,
            1.0459980466681555,
            -2.1832920220233873,
            0.4318875302367221,
            0.361853204245022
          ],
          "numRows": 8,
          "numCols": 16
        }
      },
      "ops": {
        "type": "org.ejml.simple.ops.SimpleOperations_DDRM",
        "data": {}
      }
    }
  ],
  "biases": [
    {
      "mat": {
        "type": "org.ejml.data.DMatrixRMaj",
        "data": {
          "data": [
            0.01617693238062934,
            0.45448626399494896,
            0.24333001496469597,
            -0.10658566390749413,
            -0.7061720732585219,
            -0.5249723842901877,
            -0.6850284313682803,
            -1.5850904872967306,
            -1.192750775920591,
            0.5103593669871409,
            0.9602070334409413,
            -0.29177386530137583,
            0.5515314827818076,
            0.7305254974806552,
            -2.1599596324795782,
            0.7464437768587499
          ],
          "numRows": 16,
          "numCols": 1
        }
      },
      "ops": {
        "type": "org.ejml.simple.ops.SimpleOperations_DDRM",
        "data": {}
      }
    },
    {
      "mat": {
        "type": "org.ejml.data.DMatrixRMaj",
        "data": {
          "data": [
            0.8627895981079552,
            1.0108364487578505,
            -0.947755056454195,
            -0.6832585444480972,
            -1.2346343326336189,
            -1.093330718696283,
            -0.6403199106265296,
            -0.06150646079537461,
            -0.06067685144186949,
            0.6139621180454173,
            1.6405631860473942,
            -0.7212725629829649,
            2.22945810272498,
            0.5545997255840933,
            -1.319007980528266,
            0.9321291804659492
          ],
          "numRows": 16,
          "numCols": 1
        }
      },
      "ops": {
        "type": "org.ejml.simple.ops.SimpleOperations_DDRM",
        "data": {}
      }
    },
    {
      "mat": {
        "type": "org.ejml.data.DMatrixRMaj",
        "data": {
          "data": [
            1.649573782663611,
            -0.41762734699552806,
            2.165853977304177,
            0.38319768045879016,
            0.5723318747921631,
            -0.02010631785888789,
            -0.024384769952038532,
            0.07107556020053729
          ],
          "numRows": 8,
          "numCols": 1
        }
      },
      "ops": {
        "type": "org.ejml.simple.ops.SimpleOperations_DDRM",
        "data": {}
      }
    }
  ],
  "learningRate": 0.1,
  "activationFunctionKey": "SIGMOID"
}