{
  "activationFunctionFactory": {
    "activationFunctionMap": {
      "TANH": {
        "type": "basicneuralnetwork.activationfunctions.TanhActivationFunction",
        "data": {}
      },
      "RELU": {
        "type": "basicneuralnetwork.activationfunctions.ReLuActivationFunction",
        "data": {}
      },
      "SIGMOID": {
        "type": "basicneuralnetwork.activationfunctions.SigmoidActivationFunction",
        "data": {}
      }
    }
  },
  "random": {
    "seed": 107058898386737,
    "nextNextGaussian": 1.0307654018040944,
    "haveNextNextGaussian": false
  },
  "inputNodes": 45,
  "hiddenLayers": 2,
  "hiddenNodes": 16,
  "outputNodes": 8,
  "weights": [
    {
      "mat": {
        "type": "org.ejml.data.DMatrixRMaj",
        "data": {
          "data": [
            -1.0345892806153156,
            -0.7633508259106885,
            -1.1302367503958064,
            1.671166890069909,
            2.1714726327674088,
            0.8369651810514684,
            0.2958051138056964,
            0.8501388640571815,
            0.759799898869576,
            -0.6263618304064422,
            -1.972092312255421,
            -0.4786278661904101,
            -0.0362234865116246,
            1.7277401531590615,
            -1.6521188746632347,
            0.866622375895312,
            0.6357887254022638,
            0.24581473793816866,
            -0.4770907526136261,
            -0.1384013504497308,
            -1.2779399032837333,
            0.43143080628697816,
            2.108065687147928,
            -0.2544951382718894,
            -0.09834311345107907,
            0.8773738031113614,
            -0.7634434913598616,
            -0.8878253677407492,
            3.089009708422963E-4,
            -0.12421346153995971,
            1.6024923359458467,
            -0.8532507238280982,
            1.9599228069337538,
            1.8435950181035716,
            -0.9181753815801206,
            0.8677240426998823,
            1.336045401684661,
            2.4822164501806903,
            0.1198804994679119,
            0.21801844977117202,
            -0.283016047917916,
            -0.4641804830542317,
            -0.8122303621612896,
            1.9790118209679741,
            1.734539535188711,
            0.3898832426451022,
            -1.0027261642287157,
            0.17286026892923317,
            -1.702551316564708,
            -2.061595725754054,
            -0.4564531680258302,
            -0.06317646175936176,
            -0.3906113428023269,
            0.1636568641285921,
            1.212937750133813,
            -0.06321639407922228,
            1.7283608562237094,
            -1.2867807760149252,
            -0.6339030255790779,
            -0.22063452727408672,
            1.1106119386391373,
            0.009700599031937013,
            -2.0533322276863277,
            -0.8249061203376564,
            0.8813361939500631,
            -1.0045192324769638,
            1.308499773853001,
            -0.9602114103064162,
            0.3082101901447818,
            -0.1439767362533591,
            1.0118678030859056,
            1.5350581559011203,
            -0.3593151061602245,
            -0.21567606092835523,
            -0.745748021231762,
            0.15449947972565947,
            0.06058870054636495,
            -1.654622853066884,
            0.848846088293177,
            -0.2147035747668915,
            -0.9477288303382738,
            -0.6520285087747588,
            -0.8363639072333464,
            0.14989751265560036,
            0.9756872564449365,
            -1.3904168118234104,
            -1.0092946699790821,
            1.3205132379321758,
            0.8336470692192497,
            1.1691986729745092,
            -0.676622093532592,
            -1.5188812902204296,
            0.24822189987489646,
            -0.059854012438552706,
            0.25235296411004804,
            -0.6393559699273845,
            1.6273686954713769,
            -0.14968433731117914,
            -0.5196310356451664,
            2.313153129411624,
            0.5183025248588393,
            -1.6705570577680087,
            2.3006447507547696,
            0.5827583556971824,
            0.09478605075252394,
            0.36899303931504973,
            1.3281058238333225,
            2.2797026239276543,
            -0.08407002858663884,
            0.35137456493304287,
            -1.3549545353602943,
            -0.22684673141605316,
            -0.8810723091472296,
            -0.30374733748154503,
            -0.8302197417794958,
            0.1637587777108077,
            0.22285950410755634,
            0.1215513188275068,
            -0.5828754531880437,
            -1.0883713337225998,
            -0.3746098781297169,
            1.0369282325289144,
            -0.580495029567754,
            -0.04484836654777974,
            -0.7348744241756735,
            -1.7728007402244659,
            -0.32167779250675016,
            0.5524334170125479,
            0.06113824545326127,
            0.2621303827087442,
            1.2990366542698477,
            -0.6744491269897516,
            0.04849696860868724,
            0.08951268317730277,
            -2.016909372252391,
            -0.7912236160058554,
            0.730732167940848,
            -0.0192261156492465,
            -0.8836831508063127,
            -1.2756703383496921,
            0.7063790328953914,
            0.473084957336275,
            0.013591136190990283,
            0.23263733960349317,
            -0.08641141789069973,
            0.7896859993276278,
            0.9502490591416826,
            0.7433705865133866,
            -0.3001951217914794,
            -0.6411749324516058,
            -0.45906082436823575,
            -1.6384188111747837,
            -1.6652348560543642,
            -1.0677148030693326,
            0.2346022847155266,
            1.8999730461144955,
            -0.9072171194381502,
            -0.4639961801718639,
            -0.8387747865360289,
            0.7806352484354856,
            0.4566962130454741,
            -0.4486863474476057,
            0.966697853774761,
            0.5780973351074368,
            0.5199888041249413,
            1.0066026110789057,
            -0.7838498628764409,
            -1.4155540191979268,
            -0.5875712708063339,
            0.015179762794616414,
            0.2010552359294271,
            1.9196128454221557,
            1.4209014677479328,
            0.44346129079720614,
            -0.45830562463590885,
            0.7698536077201678,
            0.7414513829197079,
            -0.005453550027413545,
            -0.5964475675423055,
            0.33223400622712396,
            -1.2147512113494376,
            1.2544267702964254,
            -0.41151471533654127,
            1.1709326347301043,
            0.9619072046033835,
            1.150994923164769,
            -1.2439296349698237,
            -1.367196788953266,
            1.2697475616134821,
            0.20756435914087268,
            1.7701009311166203,
            -0.194474544085035,
            -0.6590421743351393,
            -0.5993295299689296,
            0.035537748339194125,
            0.8072834071255491,
            1.0559448344574336,
            -1.330172929483371,
            -1.1788555386605521,
            -1.8301465082451118,
            1.955228510365818,
            1.3678675595863614,
            -0.19139899760710913,
            -0.8082187266055381,
            1.3199455662128656,
            -1.1834558843590215,
            0.924134521232104,
            -0.2860936522435761,
            0.619939333584161,
            -0.027973908943158543,
            0.30234825668888266,
            0.3903025039909569,
            0.1643354555830565,
            0.12472086682607131,
            -0.5185154214645686,
            -0.30415182371043153,
            -0.8829103016945699,
            -0.3423139227739808,
            1.0557821444890483,
            -0.4699302037714758,
            0.06842381178997822,
            -0.840069284444208,
            -0.4600809747673995,
            0.6604562357295725,
            -2.1894867004803085,
            0.23087446453458468,
            -0.363812497154334,
            -0.29017552459903684,
            1.5504163038407413,
            -0.13479063044668405,
            0.4384937902139922,
            -0.20740082200455467,
            1.5985837783923804,
            1.6340747078763487,
            -1.5620811327016333,
            -0.6843438772717382,
            1.3703843797177677,
            -1.851412815732191,
            0.13944967195623814,
            -0.9430799829827572,
            0.9119146508541555,
            -0.19587212145338828,
            0.06632997484041246,
            -1.0056021172469356,
            3.0608291251150628,
            0.2679224284231323,
            -1.14960828434099,
            -1.1342786619696523,
            -0.19224233553175296,
            2.416123498680886,
            0.904521474662343,
            -0.10185769730546412,
            -0.45551954520466914,
            -0.4338215462707403,
            -0.07449749109781006,
            1.607415228369668,
            -1.695708822717345,
            2.4718323039851944,
            1.1882272026264284,
            -2.1138282898687373,
            -0.7500824097165245,
            -1.7097776619788605,
            -1.0114559980823754,
            0.8996510008465005,
            -0.7924754777347203,
            -0.8115403367185248,
            0.11692297908959046,
            0.12497841198449344,
            1.036329559504511,
            1.2631037817546475,
            -0.9993909079243966,
            0.6115188700947248,
            0.17609554379600378,
            0.44545116058735373,
            -1.8183193576111711,
            3.574304447089883,
            0.22122488044224187,
            -0.2573257284088496,
            -0.40025863475911516,
            -0.06425181608068309,
            -0.12090940053183596,
            1.5161055809379635,
            -0.18694706571739966,
            -0.9031425258595612,
            1.1887370725293116,
            0.6626987934299188,
            -3.155393264912168,
            -0.9306248846106986,
            0.2973036052384362,
            0.9737758927694519,
            -1.5252350178719534,
            2.961681044577962,
            0.12171431149298839,
            -0.09708835781431524,
            -2.0147392174379695,
            -1.1414910923255515,
            0.31776926911451664,
            -0.057872732895723256,
            -1.3665888447636225,
            -0.7692686858181614,
            -0.10658055352783974,
            -1.2127913080109116,
            -1.1025050728758639,
            -0.4354576121502708,
            0.45139115044181893,
            -0.08647817711431449,
            0.039586295242215463,
            0.14681082015538527,
            -0.3940003610163903,
            -0.09420063098582507,
            0.862777426204242,
            -0.9137203317640179,
            -0.26043858906113576,
            0.1931525270506112,
            -1.14265711159395,
            -1.7254513767274258,
            1.33223521728063,
            1.3779962675786046,
            -0.8030827133010194,
            -1.2213441196786852,
            -0.7626175128215704,
            -0.758718886287779,
            -0.4341459336857283,
            0.128207332959958,
            0.7390620360657176,
            1.1318786706332284,
            -0.10805752144368208,
            0.3914090646172638,
            -1.390793163228818,
            0.2726615702725449,
            0.3542864805159288,
            0.5467681150989673,
            -1.4752272638188204,
            0.03310834541414265,
            -0.19067658828012213,
            -0.8832047871949948,
            1.3210734695191513,
            -2.3999101362608877,
            0.2892980352249633,
            -0.2104014176853597,
            1.3867521095681792,
            1.5617635981553932,
            1.0699388669178922,
            -0.4785553226263646,
            0.1716975134591589,
            1.2003417807651933,
            0.11034254325080092,
            0.42301085313669895,
            -1.4404647984974503,
            -1.2874911606077826,
            0.2198927279979136,
            -0.9975901804254098,
            -0.08744611498654112,
            -1.128177949027596,
            -1.0979959264446768,
            -1.770289078109972,
            0.2863666879130898,
            0.2792711148505078,
            1.4534932720485398,
            -0.01496658556626873,
            -0.11460006536044054,
            -0.7728791224939902,
            1.3689285765518173,
            0.25254534633104536,
            0.12394147381937415,
            0.7393820804730058,
            0.38250180004873435,
            0.08398935839925403,
            2.3744933210484724,
            0.5971671642282139,
            1.030707873501304,
            -0.6766098289599414,
            -0.32825468397044816,
            1.1168283761663582,
            0.579179117361712,
            1.0009496397792979,
            -0.7406776985914089,
            0.7671836770689435,
            -1.1232771596026203,
            0.08758054313451001,
            -0.39454382326302584,
            -0.7138396159000013,
            1.4177580077817526,
            -2.231175803944979,
            -0.6212320887793221,
            -0.2553032478722959,
            0.8606310482693967,
            -1.3373078022694382,
            0.7291356367230089,
            -0.25560567661007827,
            0.5756088371185716,
            0.7645427101242948,
            0.8823797514352572,
            0.09073872158798478,
            -0.857320459840867,
            -0.7607805134470951,
            -0.29065844056557005,
            -0.20224102901896768,
            0.6676434898533803,
            1.7160544285616297,
            1.954302699035274,
            -0.0020362975352388735,
            -0.5367776328022809,
            0.7414403265525344,
            -0.169866100262833,
            0.7111092715234796,
            0.3403102711316681,
            -0.6774157070465988,
            -0.7306844670770889,
            2.771004959858342,
            -0.2511316135571408,
            -1.2237352073522199,
            -1.3175650481533259,
            0.1897196632036472,
            0.8703609162321031,
            -0.3594664641018899,
            -1.4883247089277865,
            -1.1239692729708397,
            0.7899565819058232,
            -0.701279746924411,
            0.9964407421371586,
            0.4130929342356856,
            -0.2838331315444934,
            -0.08727108859768928,
            2.3647963495601627,
            -0.2894270903312698,
            1.9255066366404963,
            -0.778349973998407,
            -0.15643958039219563,
            -1.387744608181091,
            -0.2475179357220925,
            0.4105457370782556,
            0.08372653122686247,
            -1.5126700703721816,
            -0.450684940345025,
            -1.2648678196199619,
            -1.4917258767484756,
            1.3293582194476823,
            0.4876250446318726,
            0.302284248315537,
            1.7515206888828605,
            -0.7277611414100225,
            0.8758602466578691,
            -1.205192538778782,
            1.7450885027726137,
            0.8232482070193305,
            -0.6526881315830413,
            -1.3375426403261894,
            0.28215531675596517,
            -0.5893539912552935,
            -0.12135300873842243,
            0.5082573293025098,
            1.3478586655669946,
            -0.5748755198792013,
            0.6797947935625628,
            -0.02419825236868589,
            1.1636746186855613,
            2.9993565116183847,
            0.38098986336326984,
            -0.7899832822595639,
            -0.30381782020214154,
            0.28664206274926995,
            -1.9398944028724674,
            0.4030698785961412,
            0.7368446233256709,
            0.4320192113730971,
            0.932826734855261,
            1.1028175513380896,
            1.6219101224891896,
            -1.485172143668625,
            -0.8797889310509723,
            -0.8658213047254694,
            2.122034684606545,
            -0.21552128504188778,
            -1.4645717766754092,
            0.3298104285364825,
            0.6814294700699759,
            -1.072727002493031,
            0.26129336722408425,
            -0.21888640897502,
            0.5335921232377904,
            0.7449932465182775,
            0.43056998867794266,
            0.2918777332135586,
            -1.1120270257984612,
            0.7976198168389145,
            0.5597431895542593,
            0.35431227953411193,
            -0.8696791927074383,
            -0.18207559921115823,
            0.015496400915487752,
            -1.1366008347601104,
            0.5421080381768808,
            -0.6747726342533426,
            0.2529585015185994,
            1.7739675743676673,
            -1.1953349510255922,
            -0.4698210729636185,
            -0.7970429346504898,
            -1.6780134178096175,
            -0.09576414256862815,
            -0.7158777033070569,
            -1.3806165504625516,
            -0.39310128148543366,
            -0.7032704914037577,
            0.4611923033912984,
            0.58888410151795,
            1.0962326323584484,
            -1.5835920506243137,
            0.6400791570262219,
            1.2290396592547617,
            -0.8044919140920961,
            0.6643296638965057,
            1.456186544927323,
            -1.5316103264174932,
            0.5087736227254807,
            -1.4240189218293384,
            0.22219293138132867,
            -0.09460190098254292,
            -2.3036647855047754,
            0.2773748032476693,
            0.5406404722221837,
            -0.35753790177004247,
            -0.5188316516558398,
            -0.6247252227868857,
            -0.2930120627043107,
            0.04279402742911359,
            -0.6747150372281467,
            -0.9821544693048545,
            -0.19975010591181186,
            1.099363982498473,
            -0.9059338614875284,
            -1.3981257984008773,
            1.0546082004663786,
            1.166765658724725,
            -2.9017496940503262,
            -0.1526906883818644,
            -2.139243033944816,
            0.05352915126071335,
            0.2938832421631404,
            0.0541567401399647,
            -0.6022766639639148,
            0.06640227407196025,
            1.0650994000492058,
            -1.1481910171832277,
            0.4696361460314551,
            0.3243220670641586,
            1.1226005725817823,
            0.4956329296711532,
            -1.0175204478721762,
            0.074110034917437,
            -0.6995833154848695,
            -0.20430783766174943,
            0.8755955463524517,
            0.997912936853439,
            2.0533925292819686,
            1.0078633035718334,
            0.27970834006253065,
            -1.1893219331766824,
            -0.946436697255604,
            3.16296022384491,
            0.49104883378892317,
            0.14182431658367212,
            0.5481758869455339,
            0.13184643220297732,
            -0.7462304351962069,
            -1.435166052658487,
            -1.4403002345449765,
            -1.9106971486544042,
            0.7943551475468629,
            -0.5976772080895962,
            1.2771199410907197,
            -1.6829370579042193,
            -2.0590704291242052,
            0.9733694553417488,
            1.4359735085154561,
            -0.25005486116595765,
            -1.7828280519106614,
            -0.936493984018971,
            -1.7563581565462454,
            -0.17833660706038187,
            -1.4330837788085182,
            0.3576697909492244,
            0.37409606594535294,
            1.379604215399538,
            1.1592118182134188,
            0.44311892973774963,
            -0.7641675813638471,
            1.6149522541790486,
            -0.8530381447596267,
            -2.389257136710348,
            -0.43998093751833134,
            -0.5726029855965217,
            -0.555865915199561,
            0.88425329025854,
            0.5275796212841289,
            0.1626698122634744,
            -0.25415685596898907,
            -0.5587505383979873,
            -3.111376220094876,
            0.502327732699593,
            -2.1577972410835864,
            -0.47788959317873014,
            -0.6189417780105675,
            -2.6206739801369756,
            0.17795441187150374,
            -0.21139763542858447,
            1.8852688956630117,
            0.8133839642595232,
            0.05182151746847752,
            -0.264299297493111,
            -0.4178080919231652,
            -0.8634147422416486,
            0.7453896122410756,
            -0.6978972942168806,
            -0.31135350127823624,
            0.19672842172102467,
            -1.3424298596245787,
            1.0329173649961887,
            -0.9809516728207175,
            0.47722367934906,
            -0.4860622811404277,
            2.136162784533152,
            0.3621634818202722,
            -1.1687661207626665,
            0.5767157339337874,
            0.4409067190523629,
            -0.5894438336414916,
            -0.5653782610013403,
            2.307622023836279,
            0.06413666790823047,
            -1.0507528836633104,
            0.37397320825897384,
            1.1069743194246742,
            1.561895654216103,
            1.1724777680258236,
            0.965251926710359,
            -0.3496374008822579,
            -0.44583624579174863,
            -0.8297781416658302,
            -0.8480993776474464,
            0.6127889056541211,
            -1.5510224381286997,
            -0.08779917318568727,
            0.8196109959616564,
            -0.16777688620577053,
            -1.480768500177393,
            1.6949611124805912,
            1.4085500884460964,
            1.453549713416889,
            -0.6465937468961183,
            -0.6628778574347782,
            2.421882005186868,
            1.061851505489407,
            0.44488351616610233,
            -0.3790809132779505,
            0.06054190854456254,
            0.9452213134875027,
            -2.488938023116454,
            -0.4839760241704736,
            -1.3228092735549046,
            1.1483908492209658,
            -0.42376715039860235,
            0.1683720097597987,
            1.1150817492708207,
            -0.23074766070630576,
            1.3788346309637531,
            -1.8031266358084106,
            0.4823188890584314,
            0.1983383983625707,
            1.2904703547749854,
            0.38313498013932484,
            -0.699358015746474,
            -1.2162040022539722,
            -1.1963623059551516,
            0.6222578675671093,
            -1.3507563215155847,
            0.4689089159526981,
            0.20750541019078728,
            0.4507083094160851,
            -0.6947539351255734,
            -1.2248014023143077,
            0.6655292037235659,
            -0.13429900047686205,
            0.9048918461849595,
            2.0976344204564006,
            1.4639639344942972,
            0.04090392429697426,
            -0.4427466668504244,
            -0.4673882534385917,
            -0.2193789154532142,
            0.3432157686136526,
            0.31381498290847926,
            0.6127326308312457,
            0.9725072160787713,
            -1.6561625685341523,
            -0.1170145244837488,
            1.1476136688084433,
            0.9534672324469609,
            -0.5213981659541589,
            0.4178112388393621,
            2.3128375641036447,
            1.7371964694836994,
            -1.504306369544028,
            0.9092540284248113,
            -0.7570783844575756,
            -0.010500186151546242,
            -0.5979586124755177,
            -0.1301255436453748,
            0.39201673914919716,
            -0.3259114070464907,
            0.23102314782617372,
            -0.9515398027875812,
            -1.0057495352330004,
            -1.5455359864112475,
            0.43605875011263695,
            -1.6853476292611396,
            -0.8631111629723618,
            1.0513834858669673,
            -0.3780700528400008
          ],
          "numRows": 16,
          "numCols": 45
        }
      },
      "ops": {
        "type": "org.ejml.simple.ops.SimpleOperations_DDRM",
        "data": {}
      }
    },
    {
      "mat": {
        "type": "org.ejml.data.DMatrixRMaj",
        "data": {
          "data": [
            0.38949701237739653,
            -0.45859114051174493,
            1.5628092517822951,
            1.4544537014351966,
            0.801935708903289,
            0.12487772637403555,
            -1.3423613923223865,
            0.997906350995782,
            -0.4199451590304528,
            -2.168705278510197,
            0.1887966979936977,
            0.8476122603297277,
            -0.877528911937552,
            1.0410479305009082,
            -2.167498936144613,
            0.02183565873339932,
            1.435438292123123,
            -1.7666822145507106,
            0.5463308036256042,
            1.033095786001621,
            -0.007026043379131597,
            1.4571371065336622,
            -0.08368920490821768,
            0.19725241617535383,
            -1.1514320656317374,
            -1.028991126832638,
            -0.21505753794638152,
            0.8173723308750311,
            0.3441956120813112,
            0.9971400331602627,
            1.1442075141611288,
            1.261508030240197,
            0.05708842498417832,
            -0.5627054929561793,
            1.3740955490530713,
            3.541341717855471,
            -1.6791319194671255,
            -0.8753323862809386,
            0.6525096882194971,
            2.107087794869228,
            1.1597503447984647,
            -0.48806669759557475,
            0.8401475117341191,
            -0.4915373358769889,
            0.22742332045446612,
            -0.7379934738348398,
            0.7887043641598649,
            0.18197719440505142,
            0.2764076307622541,
            -0.07596706036614284,
            -0.3613804670276678,
            0.4151986297253791,
            0.6518915590739306,
            -0.22573850975022264,
            -0.4904719279524479,
            -1.3242203411884623,
            -0.7610737981557036,
            -1.1710310074733616,
            -0.16142693585900664,
            0.7876910776478795,
            -1.1589226688282013,
            -0.36379385495369404,
            -0.4394884220956528,
            1.9136909985943515,
            -0.10864736361471228,
            0.052189504956698274,
            0.7545307941108137,
            -0.03221644566665838,
            -1.3413140234546785,
            2.1187852476602487,
            0.027098706603184988,
            0.24310141986434486,
            -0.41907353798957403,
            -0.9027383513777152,
            -0.8746757404646215,
            0.9065801025013862,
            -0.7326272046057161,
            -1.3654870902151621,
            -0.41712503831562875,
            -2.4085806372310374,
            -0.09882218727177361,
            -0.20635154532782168,
            0.5875128977189565,
            -0.16391797017371545,
            -0.7312867103189835,
            -0.349951353766933,
            -0.955045926328471,
            -1.0169907733063368,
            -0.6398496688562583,
            -0.13369956751422146,
            0.6865399396636578,
            0.35469836029721413,
            0.33695943090461566,
            -0.8994152713692299,
            -0.44608672758390844,
            -0.5901741591072192,
            0.4384705550301359,
            -0.8366739840301011,
            -0.1179801427257341,
            1.9076065324666935,
            -0.2999199421459601,
            -0.509195030068796,
            -0.07763198442881933,
            -0.9017376936725046,
            -1.0741733667691904,
            -0.026341480051799426,
            0.5860938482817496,
            0.7613871998080596,
            1.3773456896302643,
            0.9368543978877554,
            0.6757187701375887,
            -0.07504436579679614,
            0.7641598595279753,
            0.9721300616909285,
            0.45723469656460275,
            0.7107182286862922,
            1.2877933438346343,
            0.43404121160181036,
            1.382530227273946,
            -1.3432562696402923,
            0.8102020280961176,
            -0.00901711077895466,
            0.38572432037862114,
            0.9256837129051567,
            -0.309634759684295,
            -0.2424226841537258,
            0.6071210240056901,
            -0.06701841675255821,
            0.061117803049093866,
            0.7503934327931988,
            -1.4001058328367673,
            0.03866749827429253,
            -2.820281731946998,
            -1.985184289125257,
            0.34914150908542274,
            0.8499527045482305,
            0.9042677144268703,
            0.3340060189694344,
            0.32375479155062054,
            -0.030480827223900275,
            0.9408375753226034,
            0.965671842837859,
            0.7635080765100852,
            -0.8793539095571816,
            0.2536123085645003,
            -2.5330301416344088,
            0.0033858698138411747,
            -1.8015464734726359,
            1.2505884468692732,
            0.8538696623855799,
            -1.7228403508609091,
            -0.7406176619308587,
            2.0019331561067557,
            -1.916435180721223,
            0.1827654382010562,
            -1.2222316942992262,
            1.7142305365579547,
            -1.6092168960765854,
            1.2597065232753182,
            -1.777280114076576,
            -1.5336000420981064,
            -1.2085327728246706,
            0.24328338145221898,
            -0.622852399393608,
            1.6673106276716139,
            1.7088402088737484,
            0.4280637011642996,
            -0.19629700624756696,
            -0.6486544874038991,
            -0.4916452921995875,
            -0.5505949675672404,
            -0.1521939742159537,
            -1.1902952125764603,
            -1.7447432412798105,
            0.3247603894214506,
            -0.6686177484194828,
            1.840193673291334,
            1.3177616983080478,
            0.43955517491193996,
            1.2443631467817013,
            0.43596072032194083,
            -0.7876505926974244,
            0.6770952224416087,
            -1.6933485837745286,
            1.184563716370847,
            0.8984380957455913,
            0.8927345447109006,
            0.6329029219664337,
            -0.020282624430584595,
            -0.6231704633179507,
            1.3270558429140182,
            0.15017869704021614,
            0.90386262111536,
            1.350880738436988,
            0.2990362879552869,
            2.6601882150671647,
            0.10911804135583447,
            -0.09667496843645798,
            -0.4283825550938425,
            0.242166069201869,
            -0.08409463148290958,
            -0.04522308622292581,
            0.9204770031927842,
            1.8194061065025,
            0.6306003065525037,
            -2.7327996420477296,
            -1.1197409493942112,
            -0.4200616563408578,
            0.8813714772632034,
            -0.6900184138142962,
            -1.3138852864293016,
            0.34548135879569253,
            1.6791131987857555,
            -0.22053420045151328,
            0.18723392835279573,
            2.0027969458125936,
            -0.6195194771676641,
            -1.6192185292683705,
            -1.6934788455178114,
            0.35789604815807047,
            -0.40058395786386003,
            1.4170970580495557,
            -0.7546379975926881,
            -0.23074099708127582,
            0.188796139976871,
            -0.04594941303117994,
            0.30247366837521417,
            0.10641699842611674,
            -0.04675117084371094,
            -0.14805827647185454,
            0.429415896352876,
            0.011136802984171745,
            -0.5682949697920694,
            -0.32756347336215885,
            1.1813870904007067,
            1.2796611937793856,
            0.6028697322420099,
            2.34293858612983,
            0.3129539464852844,
            0.5173118205836342,
            -0.41958261753558684,
            -0.3747170915265451,
            0.3022500750754862,
            0.9088652590118687,
            0.23451872786488404,
            -1.2769388074552812,
            -0.2036462553228937,
            1.0085493870249655,
            2.881449783159413,
            -0.2426464249858497,
            0.7353086988747958,
            0.9211050328433632,
            0.28614474762161607,
            0.07659854357640249,
            1.1436160061479659,
            -0.0525620876285528
          ],
          "numRows": 16,
          "numCols": 16
        }
      },
      "ops": {
        "type": "org.ejml.simple.ops.SimpleOperations_DDRM",
        "data": {}
      }
    },
    {
      "mat": {
        "type": "org.ejml.data.DMatrixRMaj",
        "data": {
          "data": [
            1.615403457239785,
            0.4247636225442142,
            0.8963937520390214,
            -0.1621994462979902,
            -0.008332626538760879,
            -0.2748674889485275,
            -0.22376435588903332,
            1.1193629398931402,
            1.187618051483086,
            0.7045405599139029,
            0.03510342839158209,
            0.2955959822099249,
            -0.23297082669828398,
            0.7705896720704293,
            -0.7831559100112633,
            -0.6540171647302394,
            0.25301478735105143,
            4.091616832790505,
            -1.7822185878403611,
            -0.12510377307815698,
            0.2496284213767379,
            -0.286975933157519,
            -0.021878519565212917,
            1.0208237156589168,
            -0.023960035377188105,
            -1.640101936722293,
            -0.1370917723269817,
            -0.6664469573156873,
            0.9831390496809871,
            -1.5864341896353036,
            -1.144278164147336,
            0.4490864792324263,
            -0.729257996739507,
            0.5817879568973294,
            0.0650340228762831,
            0.40675252985867183,
            0.04203651324741586,
            -0.5168534528443418,
            0.010787735362256634,
            -0.885815310742033,
            2.253661601796617,
            2.3492590246206664,
            3.867410256787252,
            1.2060828341995486,
            0.9982904221322458,
            0.9313884922765452,
            0.7891255467031909,
            1.0722057494295079,
            1.2358115992454817,
            -2.0491833542424445,
            0.35413902651805496,
            0.5228511987660398,
            0.13032784637073092,
            0.261306425681718,
            0.7348514882537514,
            1.832747318232257,
            2.3271938562803167,
            -0.11450793878057802,
            0.5182694992709772,
            0.7729180129121702,
            -0.3801417103888556,
            0.470147673033541,
            -0.16165967226952205,
            0.5832623130910661,
            -1.4182830160642388,
            0.12223213890494605,
            -1.8751139627702935,
            -1.430874822942608,
            0.01069661075428896,
            -0.5730139259521263,
            -0.4836638452016607,
            -0.09234752252930367,
            -1.8410987716021583,
            -1.0535538611867736,
            -0.23139787469732975,
            -0.5183145086888927,
            -1.1128525884011455,
            -0.45353181680690596,
            -2.2719705357940527,
            0.36608665330829004,
            0.8981397926659214,
            -0.9485426547170972,
            -0.3735357821160377,
            0.8635080565174377,
            0.814176669684079,
            1.477954391119159,
            0.5167111112065474,
            0.6081081222828859,
            -0.3930735626855311,
            0.3767029423303885,
            0.7691180416906915,
            1.157639760922204,
            1.6582356491792865,
            -0.16337157483510145,
            -1.545182025238006,
            2.0290029775954426,
            1.9649264510024165,
            2.0006774674239596,
            -1.8433163258642313,
            -0.05337559395756847,
            1.9696114037142711,
            2.5646769301240293,
            0.8809069264628778,
            1.198723755118059,
            2.3884411962387864,
            -0.709098762386291,
            1.3918233763709447,
            0.7689778973283505,
            0.37189250566777315,
            -0.5556196241066425,
            1.6649695898371615,
            -0.09737128670336404,
            1.2473232026856906,
            -1.1699497851454117,
            -0.6442043262140498,
            0.5336717161712392,
            -1.9129042880079783,
            0.4929006625044574,
            -1.2007652591866755,
            1.2749905590244743,
            -0.0058813865145987965,
            -0.8152181906481631,
            -0.13019920343796895,
            1.465944413222057,
            -0.006517896883457885,
            0.2325178216737686,
            -1.5526533877642406,
            0.016067229744831324
          ],
          "numRows": 8,
          "numCols": 16
        }
      },
      "ops": {
        "type": "org.ejml.simple.ops.SimpleOperations_DDRM",
        "data": {}
      }
    }
  ],
  "biases": [
    {
      "mat": {
        "type": "org.ejml.data.DMatrixRMaj",
        "data": {
          "data": [
            -1.9916751405660273,
            0.3737208248347749,
            0.022155783221215808,
            -0.5282957717862493,
            -0.04142924995951647,
            1.1048623072067603,
            -0.35339857117664775,
            -0.708668065051277,
            0.3107221885994339,
            -1.3435852372790076,
            0.9454643704963513,
            0.775900931334098,
            0.9796016824367545,
            0.7305254974806552,
            -1.5724992591221323,
            -0.6193276864295154
          ],
          "numRows": 16,
          "numCols": 1
        }
      },
      "ops": {
        "type": "org.ejml.simple.ops.SimpleOperations_DDRM",
        "data": {}
      }
    },
    {
      "mat": {
        "type": "org.ejml.data.DMatrixRMaj",
        "data": {
          "data": [
            2.51532824903319,
            1.6922984253318698,
            -0.8294838745624882,
            -1.0872305751681077,
            -1.2346343326336189,
            1.9483386067651778,
            -0.12905329794139925,
            0.8294615088776127,
            0.9922374178017277,
            0.6139621180454173,
            1.6405631860473942,
            -0.6648596260357356,
            3.669773653810045,
            0.05820683122769968,
            -0.5982526061326134,
            -0.06533455471510216
          ],
          "numRows": 16,
          "numCols": 1
        }
      },
      "ops": {
        "type": "org.ejml.simple.ops.SimpleOperations_DDRM",
        "data": {}
      }
    },
    {
      "mat": {
        "type": "org.ejml.data.DMatrixRMaj",
        "data": {
          "data": [
            0.38795233731624745,
            -1.1116824949056543,
            2.5474731130227997,
            1.4465996519261695,
            0.6428090268883099,
            0.5202325898046607,
            0.4428841018148163,
            0.850877211241533
          ],
          "numRows": 8,
          "numCols": 1
        }
      },
      "ops": {
        "type": "org.ejml.simple.ops.SimpleOperations_DDRM",
        "data": {}
      }
    }
  ],
  "learningRate": 0.1,
  "activationFunctionKey": "SIGMOID"
}