{
  "activationFunctionFactory": {
    "activationFunctionMap": {
      "TANH": {
        "type": "basicneuralnetwork.activationfunctions.TanhActivationFunction",
        "data": {}
      },
      "RELU": {
        "type": "basicneuralnetwork.activationfunctions.ReLuActivationFunction",
        "data": {}
      },
      "SIGMOID": {
        "type": "basicneuralnetwork.activationfunctions.SigmoidActivationFunction",
        "data": {}
      }
    }
  },
  "random": {
    "seed": 127624591304125,
    "nextNextGaussian": 0.21762273684113065,
    "haveNextNextGaussian": false
  },
  "inputNodes": 45,
  "hiddenLayers": 2,
  "hiddenNodes": 16,
  "outputNodes": 8,
  "weights": [
    {
      "mat": {
        "type": "org.ejml.data.DMatrixRMaj",
        "data": {
          "data": [
            0.07945731548629453,
            -0.023344441228184243,
            0.04927304704104207,
            0.43568689910606095,
            -0.8582841926646321,
            0.8936477627114503,
            0.9001307154740974,
            -0.35329674642103326,
            0.9501995839655446,
            0.17691758162457671,
            -0.24325108050355704,
            -0.48774752108096253,
            0.7795060127112958,
            0.722321070219381,
            0.6773839351668582,
            0.7512081320785735,
            -0.3689731401715577,
            0.8085666266938945,
            0.8431256738200426,
            0.7741035057327388,
            -0.8650618794957257,
            0.23929712903425138,
            0.026369403486071086,
            -0.2637675713402923,
            -0.9416074571147639,
            -0.6594650880083199,
            0.7820081018784673,
            -0.8017860910099941,
            -0.29602042721884425,
            0.5734794311029194,
            0.5470781455887126,
            -0.16275638552503158,
            -0.14583568152987736,
            0.07480198453899845,
            0.8229792602311461,
            -0.49753881295558067,
            1.0024373338731876,
            -0.12955331555741645,
            -0.6648624403259435,
            1.0643227227760628,
            0.45146180751021636,
            0.7756867961300977,
            0.7658375851722503,
            0.1518268171500814,
            -0.49966054149978256,
            -0.7898750022033345,
            0.7132768563559315,
            -0.19052359114530315,
            -0.672683840071141,
            -0.6993810440331276,
            -0.8610082867480715,
            0.4249899485934441,
            0.6135651323493643,
            -0.7507608632630614,
            -0.09950289538415302,
            0.7164472814480416,
            -0.1375774054068548,
            0.028427075724664297,
            -0.5091524505591332,
            -0.20179842879159818,
            -0.3752150112740613,
            0.3457294387245413,
            0.5669367549297244,
            0.2508312220686397,
            -0.3609059095743136,
            0.24082788349339435,
            -0.32935734613750545,
            0.717081575484404,
            0.15420069000676834,
            -0.08994966102694679,
            0.37758163220666247,
            0.16334897802393855,
            0.29661134799219946,
            0.2170225053302195,
            -0.4722867767843866,
            0.5521966595438472,
            -0.2411736885674054,
            -0.3705396523690849,
            -0.025085820649543455,
            0.88626059586706,
            -0.3027931245356641,
            -0.38035386477025557,
            0.07963390287161198,
            -0.413555077533559,
            0.05652289327149296,
            -0.49325488925980215,
            -0.2693999279511812,
            -0.7858515572343394,
            0.5449725638711693,
            -0.7477842494507994,
            0.4553401533858723,
            -0.360978894710434,
            0.3227276677434394,
            -0.7126752263847986,
            0.13549965111159135,
            -0.16020262167175336,
            0.1112570426831081,
            -0.9741038569079612,
            0.6050270678327458,
            0.7014488219619079,
            -0.5265950376752853,
            -0.5359863943719965,
            0.11298751840392485,
            -0.5420145971235546,
            -0.29845361156703953,
            -0.4489393746128758,
            -0.2870255423957433,
            0.3917119504980979,
            0.6417939914708839,
            -0.6685413156956088,
            -0.9387584973742007,
            0.2901658936783862,
            -0.2131438821798617,
            -0.9496737147145968,
            0.044883291217576504,
            0.8956801605695344,
            -0.08061888609487844,
            -0.813718547146741,
            0.10212251129524419,
            0.8212900314784077,
            0.3125616593211702,
            -0.5675243310333677,
            -0.8933163931873702,
            -0.3435696667569954,
            0.21848737249223582,
            -0.9714577927783017,
            -0.23149264530249303,
            0.6348000403815639,
            -0.6349607789958507,
            -0.2878519153089123,
            0.856668641001052,
            -0.27000802565974524,
            -0.014178345313183849,
            -0.2519850083484576,
            -0.3404258690356017,
            -0.1363547273220005,
            -0.1440316054740094,
            0.6352158591502381,
            0.30049210554730776,
            -0.3397990653986924,
            -0.9074889961690866,
            0.06811298927225229,
            -0.06865550496325534,
            0.37484621159212717,
            0.892086616263351,
            -0.09751165575932519,
            -0.044783077089531886,
            0.3327714564326898,
            -0.8010376782654292,
            0.6850046553236033,
            -0.3930774573727267,
            0.02566848117074394,
            -0.8799197283172215,
            -0.39743827160227085,
            -1.0926402380852274,
            -0.3638780799075907,
            -0.8026880897977811,
            -0.737666433713642,
            -0.24878477610931404,
            0.594653841734587,
            0.8439264605981716,
            0.7802166065167784,
            -0.32358111032197856,
            -0.12307968283761661,
            0.4791257245043312,
            -0.11360833993839159,
            -0.262156622480628,
            -0.09656514806286931,
            0.5546637414170841,
            -0.8267000817765109,
            0.5127738981472278,
            0.9039536297925714,
            -0.1124747966944557,
            0.7294955672904604,
            -0.8507596257624435,
            -0.2101539956841021,
            0.046821902024290596,
            0.8314768428068686,
            -0.39071852840124666,
            0.10727943483654934,
            -0.7962550214671755,
            0.7334352517904463,
            -0.40857809489341923,
            -0.3332859403989281,
            -0.5333584516733594,
            0.2326549967862881,
            -0.9210501059555825,
            -0.07253440438288528,
            0.10900267591044274,
            -0.15513874198931732,
            -1.4433985539166825,
            0.23941546395286406,
            -0.6343726926601749,
            0.13992879018063298,
            0.6142865493033163,
            -0.6074241445545112,
            -0.28729025576912437,
            -1.2529687274218908,
            -0.40897744672346215,
            -0.4041848494260605,
            0.6053866826951622,
            0.9659358747718532,
            -0.48399244646884965,
            -0.8202161091060745,
            0.6521176930084083,
            -1.1238148418636618,
            0.7143232858411069,
            0.6408214318729506,
            -0.15639534653172782,
            0.49056686992244103,
            0.1392303504135215,
            1.0134209940513916,
            0.8715137066231926,
            -0.31205618348321873,
            -1.135107968584676,
            0.16160442591712226,
            -0.18718194745807493,
            0.43798312923733906,
            -0.5746605599125942,
            0.3265516069713825,
            -0.04934197009675145,
            0.24675320355455788,
            -0.8434959253669172,
            0.24932236621768578,
            -0.6624759170921797,
            -0.22805491606093375,
            -0.3881809557621929,
            0.8479887484505566,
            0.1761985751104782,
            0.2682900732334357,
            0.18056994607570465,
            0.7859192449366978,
            -0.6858801170978801,
            -0.16790322493483378,
            0.08165325447471794,
            -0.9890692223955679,
            -0.9130217941088374,
            0.8826377929578761,
            0.27877374274520195,
            -0.7953374899105192,
            -0.5584719165766803,
            -0.24324379621332115,
            0.638158457974795,
            -0.864130411609078,
            -0.2691305882998971,
            0.2679224284231323,
            -0.01573166721499386,
            0.654231061228099,
            -0.5249973546731733,
            0.31484358690154846,
            -0.04592713961409611,
            -0.42263115715064337,
            -1.1308583644042174,
            -0.3484449124448228,
            -0.5852050533674218,
            0.9508422114011474,
            0.34191327080104106,
            0.48018425929105124,
            0.6855908660632182,
            0.6208537495210802,
            -0.9713458947153142,
            0.4465692667457768,
            0.8286984560904824,
            0.20669726196760863,
            0.04787810831609196,
            -0.3128423436955461,
            -0.6724206001343203,
            -0.5242832765019454,
            -0.8645669969874565,
            0.18892924598914052,
            -0.2565735901344348,
            -0.7978662407631656,
            1.0042595049231653,
            -0.048172484461436516,
            -0.9905720776038816,
            0.5283704196340606,
            -0.7016718976676168,
            -0.06003251384322317,
            0.2438804508383634,
            0.4527067732392245,
            0.02062160749222386,
            -0.062175689638707676,
            -0.25911530561865437,
            0.9930766498478982,
            0.03356230976262964,
            0.9384128918495453,
            -0.3526460291955993,
            0.049452694904198014,
            0.1405205373531324,
            0.03537665894482078,
            0.6396483835095317,
            -0.0760626366240364,
            -0.48295068465793056,
            -0.139514604747067,
            0.6390062287351066,
            -0.9775837264127638,
            0.7866639337070549,
            0.24113323349905746,
            0.06692458508852805,
            0.03830402175384218,
            -0.9016719607111856,
            0.41963657499114837,
            -0.1452391017465593,
            -0.7463703190461957,
            -0.18803467130448448,
            0.4105615236573714,
            0.30606654990167304,
            -0.8835942127293774,
            0.04963912379620217,
            0.5376031791694798,
            0.6402093755498026,
            0.7307657741912403,
            -0.7869602202459214,
            0.19676202468597936,
            0.04760480243223819,
            0.6452661441562277,
            0.33829519075621417,
            0.1712262624647316,
            0.8001619227562555,
            0.7572245261930819,
            -0.8106295576722439,
            -0.2538737657916079,
            -0.0017327146148160555,
            0.41083916625925543,
            -0.8512374363030393,
            1.0176889180867574,
            0.7031344372696526,
            0.9036069035473471,
            -0.5420973833327489,
            0.3407573286317964,
            -0.635219653372477,
            -0.6664375072071413,
            -0.6439692129765233,
            0.8150653795608722,
            0.555663699002302,
            -0.26503116027287965,
            0.22686638681343652,
            -0.5784911046213048,
            0.7483463211038421,
            0.34104034307139597,
            -0.8188661393588905,
            -0.17065057977728326,
            -0.5976036544812233,
            -0.08044083208874642,
            -0.20252697112319487,
            -0.8340338459938204,
            -0.4386709416420771,
            -0.04946996889208455,
            -0.9928032456284832,
            0.9280387900971598,
            0.07538170328806304,
            -0.5915497768068825,
            -0.7462488463517647,
            -0.9857457549990967,
            -0.9004238625480978,
            0.5742451813975538,
            -0.10931868228948849,
            0.6251769819451756,
            0.5507911767751306,
            0.05721196695700281,
            0.34364747855640343,
            -0.8351788031037328,
            -0.9890650360674509,
            0.09158570926435383,
            0.7113051474735355,
            0.0874992509791781,
            0.2795490556317728,
            -0.6657257094014757,
            -0.060973682677590624,
            -0.044257707389051326,
            0.01660568243976912,
            -0.36043353692736857,
            0.35846540814661454,
            0.44794814375973346,
            0.5493527355302095,
            0.756844761444446,
            0.6348574406612544,
            -0.8395764336825189,
            -0.7786702959131235,
            -0.8360939797536888,
            -0.3093490210024279,
            -0.7362713717402091,
            0.6597520164780379,
            0.85452545826373,
            0.2988799223411047,
            -0.539191118186573,
            0.7841008221815748,
            0.32882297937694327,
            0.3452337534006469,
            -0.37017569364537484,
            -0.467710750292736,
            -0.7628295779316276,
            -0.26417350947292983,
            0.6562311106185577,
            -0.2878559410024748,
            -0.9436275901703772,
            0.9496460502770567,
            0.898137894550755,
            0.16984694884117424,
            -0.3072947316971921,
            -0.9352706910561313,
            -0.5664527277716096,
            0.03650280658944105,
            0.20196125017466304,
            -0.3678680111886703,
            -0.9781491303366769,
            0.5095896571473302,
            -0.7218568426754963,
            -0.9285082753259228,
            0.4966722526138092,
            -0.6100394835045941,
            -0.4830788408611948,
            -0.0038982847912927276,
            -0.2810204623204724,
            0.9718384817767507,
            0.17206816277052672,
            0.5615653575015509,
            -0.6926396617955253,
            0.19455495343745155,
            -0.43880057764649916,
            -0.33381491586997614,
            0.5559043676990687,
            -0.1411248118153301,
            0.9445263622918438,
            0.7122185504975305,
            0.21531417846255785,
            0.8995526551740844,
            0.7302252223130057,
            0.7925257203239471,
            -0.8515146171223213,
            -0.6917769146619632,
            0.701127985469546,
            -0.031317212346685164,
            -0.804070514212768,
            0.5047733335437592,
            -0.6652820299579638,
            -0.42135388744994806,
            0.5858813978199637,
            0.4876250446318726,
            0.9894975264562216,
            0.5883733361240642,
            0.8217425733940833,
            -0.12062702172779005,
            -0.807335500426936,
            -0.3869324464945896,
            -0.8912672137755693,
            0.5385959143318051,
            0.8004506286586226,
            -0.3323960852624952,
            -0.5142906552707676,
            0.0666527804115167,
            -0.6449961950323411,
            0.814768130102878,
            -0.21017837472765177,
            0.946990165024669,
            0.6843365314784313,
            0.9995838648956639,
            0.7040709182544262,
            -0.5271203509431153,
            -0.4381289525408951,
            -0.5497242017087091,
            0.4504564113801752,
            0.5050015511251886,
            -0.4442927195271156,
            -0.1803859390189202,
            -0.881283872393845,
            0.5716293334069433,
            0.9934131061725673,
            -0.7774081624162534,
            0.7358717566008777,
            0.5741955371212191,
            -0.6300597424000367,
            0.19575541076514646,
            0.16408595955920102,
            -0.6494878923827676,
            0.4564539568681938,
            0.48885455622939444,
            0.7294429726195837,
            -0.031400388685207226,
            -1.0794835938500278,
            -0.7878558373972397,
            -0.8312234684512423,
            -1.1663653175262707,
            0.9276712173516908,
            0.6932063366116517,
            -0.9219069432457463,
            0.4197637383972639,
            -0.0022381037164569406,
            -0.8696791927074383,
            0.7733390190447222,
            0.41322488300574123,
            0.2943808979121032,
            -0.21007097150070253,
            0.32018324680882015,
            -0.41800938273236565,
            0.7062463469948006,
            0.6735555574088279,
            0.5177259784237036,
            0.7757968451809578,
            0.18427845579605795,
            0.3488856020376059,
            0.4690900360308683,
            0.4007426838767967,
            -0.5243957780540325,
            -0.5475363110198075,
            0.2678484866066282,
            0.16733055175771883,
            -0.9233460007182386,
            -0.41168000719891373,
            0.6750691793712835,
            -0.3993450108997538,
            -0.47770884782388334,
            -0.5710561968820655,
            0.19371606886726211,
            0.7888574638493757,
            0.539784925575006,
            -0.5224999820231522,
            -0.6002205487746157,
            -0.4010638850679563,
            0.8817926905855547,
            -0.9476522351969316,
            0.5285634345482753,
            0.4225232339251628,
            -0.4162108278653409,
            -0.752896142700062,
            -0.4286385377475306,
            -0.25268712655384373,
            -0.07413247072944729,
            -0.7272539972523195,
            0.8440782317340187,
            -0.5528009303797441,
            -0.2752971980272485,
            -0.9215180452881457,
            0.528818911070505,
            -0.6735430073602855,
            -0.856869495077488,
            -0.1526906883818644,
            -0.6114333428274876,
            -0.757567798708739,
            0.10902616251299163,
            -0.0313970470822722,
            -0.8210259359695311,
            0.18580681310547043,
            -0.8068972171373419,
            -0.9325691140756127,
            -0.8854247964713655,
            0.24299655784681007,
            0.46398785089678807,
            -0.7708518089726972,
            -0.3076343776842929,
            0.9737934868237343,
            -0.9939599634419818,
            -0.8493143612255551,
            0.0650226570139057,
            0.5010584173349015,
            0.7565544714998436,
            0.3006820588648158,
            0.784448185150779,
            -0.4369501389314019,
            0.5917469940984839,
            -0.044580163664130756,
            0.9899548612629894,
            0.14182431658367212,
            -0.3205249885390281,
            0.8230731022568591,
            0.3369649632459233,
            2.0127590355898937,
            0.537580001673982,
            0.8751990528019733,
            0.10171040314780111,
            0.4991834952188452,
            -0.9284476656485239,
            0.2016268409998423,
            0.8258111269471629,
            0.9978116358624705,
            0.01375423801149811,
            -0.713086483311473,
            0.7391486334446211,
            0.06972617877114073,
            -1.122938483884805,
            0.22850118358621097,
            -0.6312984293992543,
            0.4330528871121173,
            0.6893683806300062,
            0.693768082401516,
            -0.7978845480790626,
            -0.4358087912686992,
            0.9226816193529035,
            0.6807961505456306,
            -0.3313566585042069,
            0.1823023824974186,
            -0.28019525876570794,
            0.8064883485740368,
            0.7004390144017907,
            0.5528359633006847,
            -0.3499476928563534,
            0.22074971695803192,
            -0.3710064160001738,
            0.7969928456319453,
            -0.8057910940996038,
            0.5176488599411777,
            0.7562332465380703,
            0.9353957157813411,
            0.6237817757388371,
            -0.712197380196147,
            8.732098834638435E-4,
            -0.14944331743928774,
            0.1961800978661934,
            -0.17958845535531132,
            0.7767031588559257,
            -0.18775174576852316,
            0.7116134666058662,
            0.7469691608139541,
            -0.022317042919971053,
            -0.44294350393894666,
            -0.3077196802294986,
            -0.9479841751823426,
            0.09738029036733908,
            0.5491696781446671,
            -0.9415376263801869,
            0.937208584316642,
            0.8106081157146343,
            0.09161951886685893,
            0.9702995306643589,
            -0.03943348434487737,
            -0.09505010038428052,
            0.5195959896175188,
            0.5317149510995951,
            -0.6511799178744306,
            0.7870155437040105,
            0.14903965322969048,
            0.5670069344903865,
            -0.2743206708035666,
            1.1728738202017635,
            -0.74558979023094,
            -0.8206611152717407,
            0.49693299103871186,
            -0.4131085133005379,
            0.8180571745941783,
            0.564869325310043,
            0.22802022497078742,
            0.11615385780755627,
            0.2542507417154829,
            -0.43146792520029775,
            0.5025213661651808,
            -0.6771837306476249,
            0.360607402206366,
            -0.9767565334186992,
            0.6745124729671264,
            0.838557195362369,
            0.013424880051936317,
            0.33312900037722737,
            0.09641336781174825,
            -0.9459875173466938,
            0.6284598074916186,
            -0.24265379455200353,
            0.32138405963378536,
            -0.8400828115399377,
            0.912046962196128,
            -0.24301448748985877,
            0.6052472989048301,
            -0.2750449813783904,
            -0.10345131248727779,
            0.4776224820576491,
            -0.2466642529960934,
            -0.8767782706706417,
            0.7230545934284927,
            0.385510020034483,
            0.7310017118467897,
            0.4044412423258006,
            -1.3592936753252827,
            0.8126618540057737,
            -0.15150221626882643,
            0.8095590025269503,
            -0.6447690019786684,
            0.8033119869377623,
            0.14974436000833835,
            0.6500060404839623,
            0.4985661600796685,
            0.41971957022217654,
            0.8251315503736967,
            -0.76693229135482,
            0.7104740171116044,
            -0.8501493924968144,
            -0.9936503583157859,
            0.15157317078752208,
            0.7975399160219647,
            -0.9140869333866133,
            -0.40446113623737,
            0.6568858550740566,
            0.7115020709784856,
            0.6514123464355854,
            0.18905730143847999,
            0.023783191386511637,
            -0.445673519475388,
            -0.052153742184122054,
            0.696158042123594,
            -0.0743213048044149,
            -0.6207729743099049,
            0.10794870742962187,
            0.4510631131171594,
            0.7898907371331951,
            0.058429178880689436,
            -0.9416943137514883,
            -0.8279310756158165,
            0.018060994874609104,
            -0.8974424696360541,
            0.20269597532451655,
            -0.7458870471270895,
            -0.9876871416183786,
            0.9490959746560861,
            0.22609920204522327,
            -0.09057733066800489,
            -1.1471042661333741,
            -0.9061822095897312,
            0.9782424649143098,
            -0.9019149321446147,
            -0.600111097323283,
            -0.5784240362881501,
            0.6703293422971077
          ],
          "numRows": 16,
          "numCols": 45
        }
      },
      "ops": {
        "type": "org.ejml.simple.ops.SimpleOperations_DDRM",
        "data": {}
      }
    },
    {
      "mat": {
        "type": "org.ejml.data.DMatrixRMaj",
        "data": {
          "data": [
            -0.11969364684057515,
            -0.6153913965613633,
            -0.33608547276222933,
            -0.10201773942917036,
            0.7763029846523045,
            0.8988765673491528,
            0.052191544366028575,
            0.7649741445351976,
            -0.4199451590304528,
            -0.9300563727527311,
            0.9962668934122978,
            0.4167909301834578,
            0.06757463226646965,
            -0.5677006621514693,
            0.5983670470369964,
            0.00914817793427658,
            -0.8910593519402401,
            -0.4314892211552792,
            -0.19958575921726052,
            0.07006183300736657,
            0.024615416174037064,
            0.9857995462913602,
            -0.8170852955282266,
            0.38391805487646713,
            0.3563179259325444,
            -0.3395965346930838,
            -0.7531578049071168,
            0.40558977157150555,
            -0.22978232427776613,
            0.9681406975245426,
            -0.7711124954287911,
            0.33725503445250493,
            0.515058438942043,
            -0.8152204853035507,
            0.0678745529480087,
            0.9966893132223247,
            -0.6848285212889633,
            0.22062019236188646,
            -0.5849967608573847,
            -0.24108827211841466,
            -0.6158427862839237,
            0.1559070821947547,
            -0.4248228519320525,
            0.17112314662088401,
            -0.5163273017156162,
            -0.011564502204269966,
            0.031915819367165366,
            0.765238649365588,
            0.289882840650977,
            -0.0781470285082646,
            -0.9084168473234648,
            -0.555041292158146,
            -0.9901960211406853,
            0.42257666327545396,
            -0.9392152648518595,
            -0.2522040501908447,
            0.3802763585891793,
            0.3742648763844916,
            -0.9564846944060359,
            0.867495882779816,
            -0.850797760012745,
            -0.9453849071377238,
            -0.5530674229665917,
            -0.7982395344819264,
            -0.38793170426287293,
            0.9679155505650773,
            -0.4456001641343917,
            -0.5074215913900635,
            0.17684730440707286,
            0.7201098246639992,
            -0.01983688712668097,
            -0.3483121148423425,
            0.9619438056415186,
            -0.07016746589636225,
            -0.6714273917808957,
            0.22340935149072316,
            -0.9024504723940705,
            -0.18077958189858578,
            -0.7693300294801542,
            -0.11076019334655451,
            -0.9208142672140871,
            -0.521338362945363,
            -0.1858188576657065,
            -0.26854541814924127,
            0.21162540753230719,
            0.4915121911678706,
            0.4753232243031411,
            -0.9041459867537187,
            -0.8154175896291243,
            -0.39127430833234245,
            -0.36272177302575415,
            -0.6731088774229947,
            0.9484360574205839,
            0.5678933944993274,
            0.8944687547717058,
            -0.16090944081454062,
            0.157020440137287,
            0.19198054796632702,
            -0.13071500589016583,
            0.69872107236348,
            -0.7133665834469185,
            -0.027435860205588414,
            0.09942643082077904,
            0.6936482168760869,
            0.19326965689208486,
            0.3180491156829218,
            0.4131813749998767,
            0.9902876349131153,
            0.9869087307730531,
            -0.8919403162926411,
            0.47550264972146583,
            0.012206569196432149,
            0.9801250806962467,
            0.9782322833667461,
            -0.7822548971868768,
            -0.6130218938432512,
            -0.35019492142072517,
            -0.5789623008713491,
            -0.8161411760946364,
            -0.5991872541660337,
            0.9755685898936537,
            -0.944256491018769,
            -0.9603584518132426,
            0.6484857040383991,
            0.1799927804253334,
            -0.7951129707402549,
            0.5797253040309152,
            0.08139591779693456,
            0.9965452737947944,
            0.45696137465540576,
            0.10811306702930312,
            0.6714500513449908,
            -0.8517338260379954,
            0.1864774819009951,
            -0.06310681820112585,
            0.45303090054095285,
            0.6948012718084726,
            -0.03937795012059375,
            -0.009762590315960606,
            -0.6404544147155316,
            -0.47583836019429215,
            0.1456580871110611,
            0.6917527172009637,
            0.04845636258964059,
            0.5507102677926035,
            0.42092491941070587,
            -0.28347794133410176,
            -0.315757743770799,
            0.9214767939369766,
            -0.8245662072683593,
            0.7835074081212561,
            0.7467885911608982,
            -0.515969466490007,
            -0.5037872998755022,
            -0.28584191241730506,
            -0.7464753160671785,
            0.8904262080312311,
            -0.37187422693353667,
            0.4746912872950959,
            -0.4054654371642148,
            -0.3708388919504644,
            -0.9257272689602587,
            0.8226833767016171,
            -0.14782554994071573,
            0.4030817455512443,
            0.34269460923998185,
            -0.23566369093699957,
            0.969408594342166,
            0.9714672799393962,
            -0.7141296539826736,
            0.18266364538943503,
            -0.381031456899646,
            0.4632606057219051,
            -0.6100388142581237,
            0.9058334646486834,
            0.24195117407830358,
            -0.21694892224207907,
            0.19376475650043523,
            -0.0982808807405493,
            -0.8117490256773725,
            -0.8962608585690994,
            0.6765881192077594,
            0.3642483710743678,
            0.3444810372774274,
            -0.389527740681723,
            0.22446841966999953,
            -0.3604202813016002,
            0.8978248868084984,
            -0.06344672425880793,
            -0.2352494776677081,
            0.7567910751816274,
            0.27297612630307766,
            0.8973964370612719,
            0.6028864491916353,
            -0.7754736494320968,
            0.7213525384689594,
            -0.8690854909966064,
            0.3799774933259883,
            0.9072826548745985,
            -0.9224517915467728,
            -0.9998455489302034,
            -0.3334019891123481,
            -1.1172711578636738,
            -0.3580551746848417,
            -0.09291751074434651,
            -0.9725701493125112,
            0.35097218633336147,
            0.7571679567352523,
            0.707002381303218,
            0.9555822979601105,
            -1.1795867892703986,
            0.9386031489833018,
            0.40563844066031907,
            -0.1302638285606419,
            -0.6876641152249094,
            0.5851464936179946,
            0.1738158519490522,
            0.14692337571742242,
            0.7066509016396267,
            -1.9971349292960165,
            0.8042473508500927,
            0.5006583568449059,
            -0.3562598906526211,
            -0.04248694673755171,
            -0.479061814501492,
            0.9543130238916859,
            0.17059437696068547,
            0.2439832210252113,
            0.9549220798404165,
            -0.14805827647185454,
            -0.30836157596916847,
            -0.6341562918814103,
            0.5436728614428625,
            -0.9186239603694286,
            -0.46055711239671626,
            0.8207056936915923,
            0.9042934747959401,
            0.6023026676868566,
            0.5527527515511057,
            -0.18064574832982805,
            0.9600204513657822,
            0.1173896921959865,
            0.33181130133912773,
            -0.059454860679982735,
            -0.2774922023892037,
            -0.4263924119245708,
            0.846161023711256,
            -0.09359968037328481,
            0.3321155952616648,
            -0.11336859802571198,
            -0.3676623620557051,
            0.3738604251995553,
            0.42339773493037214,
            0.932103778806042,
            -0.299425512869792,
            -0.2084415659723946
          ],
          "numRows": 16,
          "numCols": 16
        }
      },
      "ops": {
        "type": "org.ejml.simple.ops.SimpleOperations_DDRM",
        "data": {}
      }
    },
    {
      "mat": {
        "type": "org.ejml.data.DMatrixRMaj",
        "data": {
          "data": [
            -0.803069703008952,
            0.44950132711307267,
            0.4830933911044828,
            0.5215640407402438,
            0.4100213805978252,
            0.9848670594990183,
            0.6348580850488806,
            0.4735922590960413,
            0.689483709646912,
            0.8626921187356069,
            -0.37312138967892783,
            0.5269047103524063,
            0.8422678502777687,
            0.34155940238767935,
            0.18616789403579265,
            -0.6814663458521064,
            -0.91978852022556,
            -0.026031032061609283,
            -0.3583634488046191,
            -0.6556544604250709,
            0.6145396770903648,
            -0.9270651263017375,
            -0.991797155017655,
            -0.5080022036468539,
            0.054737908045984884,
            0.45797027444095306,
            -0.3542238709519645,
            0.6592870040595766,
            0.1928518909521746,
            0.17552113184198825,
            0.3610651817060937,
            0.12282886426989337,
            0.03903015525115272,
            -0.9989515801837592,
            0.8408393704793227,
            1.1421942838255963,
            0.5662319106177418,
            0.07125542923430617,
            -0.3063138162801875,
            0.5091917773579842,
            -0.5873343288961914,
            0.23643589415538746,
            -0.5455575814101641,
            0.1294285576197869,
            0.9670773757255866,
            0.3286237786137205,
            0.16061021509388862,
            0.12497171441973798,
            0.10419212531628319,
            -0.28436911210646976,
            0.29455709500883964,
            -0.08594446526370669,
            -0.5852423464476293,
            0.8656936585475759,
            0.7348514882537514,
            0.4601556922140582,
            0.9560601805687992,
            -0.9717677833593981,
            0.8701606086295528,
            0.9486794739978393,
            0.47081116577640647,
            -0.16335583829712852,
            -0.362066198107575,
            -0.3207188348578651,
            0.33795246401991197,
            -0.8597150559948412,
            -0.9189464949238817,
            0.2154299460253768,
            -0.17065617988424697,
            -0.07795027617820138,
            -0.2005454565278737,
            0.6122961867389494,
            0.8495111698201363,
            -0.6113471578322285,
            -0.5264705146979887,
            -0.7268224321589509,
            -0.5596084006965085,
            0.18297418138129418,
            -0.17710755150770296,
            -0.47644717871163866,
            0.09456195165949133,
            0.23969623537558693,
            -0.3389348650149253,
            0.8200232052908389,
            0.7479208905185868,
            -0.6955755453579981,
            -0.11249413089670712,
            0.34714301839663597,
            0.13023299693428148,
            -0.8720326015538307,
            0.3128712691443567,
            -0.09128095787154966,
            -0.40407623155617967,
            -0.07297164666933154,
            -0.6923210983577281,
            -1.1596818334229728,
            0.5972213949992136,
            -0.6713616791082808,
            -0.9166283242172102,
            0.11906305805107187,
            0.7578180569656603,
            -0.0027543831371312777,
            0.4935109844764545,
            0.6628794469279724,
            -0.5228225353008831,
            -0.35651774703671957,
            0.16978126221655931,
            0.17926818301811154,
            0.8053429672454244,
            0.5680336796145042,
            -0.07761009320979406,
            -0.8312667453178746,
            0.965715084779784,
            0.47906452538183353,
            0.10969277345225281,
            -0.9585830430201643,
            0.26676624633986407,
            -0.37522197732503737,
            -0.31540309480765477,
            0.05929038569937517,
            0.2997781918898772,
            -0.6922695769928162,
            0.04184212498362316,
            0.8673364671221087,
            -0.442584364999969,
            -0.14722986110461078,
            -1.3476558803612595,
            0.5660464750494174
          ],
          "numRows": 8,
          "numCols": 16
        }
      },
      "ops": {
        "type": "org.ejml.simple.ops.SimpleOperations_DDRM",
        "data": {}
      }
    }
  ],
  "biases": [
    {
      "mat": {
        "type": "org.ejml.data.DMatrixRMaj",
        "data": {
          "data": [
            0.6633319603394379,
            -0.24659622716238694,
            0.6118168974502916,
            0.7982636858677938,
            0.8900496515700751,
            -0.6656918701311139,
            -0.967224524417927,
            -0.8747544136378049,
            0.37192171592595336,
            -0.9142783564003227,
            0.7676005462513733,
            -0.60741208667493,
            -0.18369986251803727,
            0.7305254974806552,
            0.45651394062909767,
            -0.4997220487885057
          ],
          "numRows": 16,
          "numCols": 1
        }
      },
      "ops": {
        "type": "org.ejml.simple.ops.SimpleOperations_DDRM",
        "data": {}
      }
    },
    {
      "mat": {
        "type": "org.ejml.data.DMatrixRMaj",
        "data": {
          "data": [
            0.5248778744636886,
            -0.8083882884283711,
            -0.19580258192322153,
            1.375388099492183,
            -0.33753182163913265,
            0.22192111733745223,
            0.8679479619839712,
            -0.3466208405763487,
            -0.980489447138116,
            0.8431311466962386,
            0.8340282829844587,
            -0.23725216400154592,
            0.6556026393243313,
            0.48085109551483973,
            0.19173561709064013,
            -0.724860364455781
          ],
          "numRows": 16,
          "numCols": 1
        }
      },
      "ops": {
        "type": "org.ejml.simple.ops.SimpleOperations_DDRM",
        "data": {}
      }
    },
    {
      "mat": {
        "type": "org.ejml.data.DMatrixRMaj",
        "data": {
          "data": [
            0.7039695113370663,
            -0.54750405902882,
            -0.4088908179826778,
            -0.8858885741243099,
            0.43881576024396146,
            0.6987953031191994,
            0.6346540042036335,
            -0.09516127765709026
          ],
          "numRows": 8,
          "numCols": 1
        }
      },
      "ops": {
        "type": "org.ejml.simple.ops.SimpleOperations_DDRM",
        "data": {}
      }
    }
  ],
  "learningRate": 0.1,
  "activationFunctionKey": "SIGMOID"
}