{
  "activationFunctionFactory": {
    "activationFunctionMap": {
      "TANH": {
        "type": "basicneuralnetwork.activationfunctions.TanhActivationFunction",
        "data": {}
      },
      "RELU": {
        "type": "basicneuralnetwork.activationfunctions.ReLuActivationFunction",
        "data": {}
      },
      "SIGMOID": {
        "type": "basicneuralnetwork.activationfunctions.SigmoidActivationFunction",
        "data": {}
      }
    }
  },
  "random": {
    "seed": 131093909532701,
    "nextNextGaussian": -1.9703899872681314,
    "haveNextNextGaussian": false
  },
  "inputNodes": 45,
  "hiddenLayers": 2,
  "hiddenNodes": 16,
  "outputNodes": 8,
  "weights": [
    {
      "mat": {
        "type": "org.ejml.data.DMatrixRMaj",
        "data": {
          "data": [
            0.09474760943156962,
            -0.2699667349180561,
            -0.2489700568694979,
            0.9392983853801719,
            1.1304338204371258,
            0.7915969900802764,
            2.6480911134920957,
            0.13539516769931226,
            -0.06645136471953028,
            -0.02090465360483551,
            1.3597339025737967,
            -0.4786278661904101,
            0.7743014738338849,
            -0.2866978208059593,
            0.33155823983102534,
            0.9933418172444345,
            -1.0548193256262337,
            0.24581473793816866,
            -1.5927656405603998,
            -1.374008686961703,
            -0.30879430495618165,
            1.2382016613658156,
            2.3716655387288426,
            -0.5762743228452325,
            -0.09834311345107907,
            0.6264987349766812,
            -2.602644413005126,
            0.7309426393159215,
            -0.08677769172912664,
            -0.3683795210192591,
            1.1678125841893188,
            0.8405795859079723,
            2.227019629161657,
            1.8130416787392143,
            0.3509943892596463,
            0.882017401048813,
            2.019928280912355,
            0.7616726571613011,
            -0.9197031090639771,
            0.13478710321558754,
            -0.283016047917916,
            -0.4641804830542317,
            1.7608849438370404,
            1.9790118209679741,
            1.734539535188711,
            0.21737571520559235,
            2.860464983452166,
            -0.2837824645773326,
            -1.702551316564708,
            -0.8141451633773864,
            -0.7885802024558191,
            -0.6974290017079057,
            -1.2909948995440748,
            0.1636568641285921,
            -0.6850932511533321,
            -0.06321639407922228,
            1.1900668177839906,
            0.7707188972570449,
            -1.2990156041926575,
            -0.7545479971291652,
            1.26764027439719,
            0.009700599031937013,
            -0.9264381088666763,
            -1.3370484889827106,
            0.8933475390834962,
            -0.9702418093966501,
            1.308499773853001,
            -1.0128028441500887,
            -0.5804123152855756,
            -0.10397211372319776,
            1.229892243988751,
            -0.9838166550180938,
            0.6712038820145823,
            -0.5875228333374105,
            -0.8235733509146205,
            0.5013196270682458,
            -0.5260807236590981,
            2.6143001169036135,
            -0.20157199288926445,
            0.35044091570506974,
            -0.9477288303382738,
            0.7614364953065126,
            -0.03398137191009766,
            -0.5311551013383005,
            0.9756872564449365,
            -2.3172908922124194,
            -1.204790878931589,
            1.8278522571286016,
            -0.028068130001652612,
            0.038811810585306195,
            -1.428640802412117,
            -1.3312849438236638,
            0.4817417603100121,
            -0.7255891813802077,
            0.08747987247954042,
            -0.39139258267665306,
            1.564842484163243,
            0.846941146335943,
            0.03029743765969739,
            2.3313422791746197,
            0.7281472583734914,
            -3.011397176774368,
            1.7327907006240784,
            0.5827583556971824,
            0.09478605075252394,
            0.20834125313886773,
            1.0896458941651723,
            3.006085544626073,
            -0.18878087292212395,
            0.5363543459638247,
            -1.3549545353602943,
            -0.22684673141605316,
            -0.326296639716327,
            0.08660188274455455,
            -1.0615182964275802,
            0.02876869487153745,
            0.20550888491227481,
            0.2766670644826502,
            -0.325992335573554,
            -1.592570554991672,
            0.9790972725012235,
            1.0369282325289144,
            -2.146244410235741,
            -1.1259141579745997,
            -0.5227809632347471,
            -2.405468490455757,
            -0.9922424893205253,
            0.7673560987487601,
            0.24895216863197842,
            -0.35747342272548743,
            1.2990366542698477,
            -0.38728367225426835,
            0.04849696860868724,
            -0.39847312949433056,
            -2.016909372252391,
            -0.7912236160058554,
            0.6667086947929344,
            0.25717506130436973,
            -0.8724184511498998,
            1.6155424142873378,
            1.517595060866781,
            -0.12291306745115471,
            0.035261578486352335,
            0.23263733960349317,
            1.7715127133953752,
            0.863501852496378,
            0.9502490591416826,
            0.4714101347877513,
            -0.38311390376346777,
            -0.2824657274876018,
            -0.35819269698127465,
            -0.9917766173108191,
            0.7212116664894476,
            -0.9467610120473955,
            0.5317473541741969,
            1.8999730461144955,
            -1.9287309833843553,
            -0.2917632073943205,
            -0.8387747865360289,
            -0.408016938604678,
            1.4586229185657864,
            -0.07509044085987848,
            1.858738716561011,
            0.6799398836548393,
            -0.34287515293327653,
            0.052665060896137594,
            1.6310138504805844,
            -1.294948454483483,
            -1.44910145855769,
            0.11656334520226913,
            0.2010552359294271,
            1.9196128454221557,
            0.4982267984628948,
            0.045678813941100405,
            -0.45830562463590885,
            0.7196241930371639,
            1.1975078785305044,
            -0.005453550027413545,
            -0.4286945663581128,
            0.2891467337156861,
            -1.8047811005555776,
            1.7842059101875387,
            1.4518999947959965,
            0.7859682151599137,
            -0.7770949464906652,
            1.118144293117358,
            -0.9508335917829565,
            -0.6538577532792025,
            1.2697475616134821,
            -0.35924225283930455,
            1.2738366216865917,
            -0.27663986315515504,
            -0.39681376339728036,
            -0.42433889178189804,
            0.23862410992963462,
            0.15002422884855326,
            1.0559448344574336,
            0.4936470310840404,
            -2.8565693496711386,
            -1.262889525824602,
            1.955228510365818,
            1.0277518689159433,
            0.021903388493502374,
            -0.47719189728635236,
            0.06053258488039531,
            -1.9982304446504007,
            -0.9355401304235686,
            -0.2860936522435761,
            1.1134152076510677,
            1.8877152078056336,
            1.6553651213302745,
            0.3903025039909569,
            0.1643354555830565,
            -0.9754019029250292,
            -0.5185154214645686,
            -1.0550777098483701,
            -0.8138341058775505,
            -0.5453692798909263,
            1.4899585168435854,
            -0.4699302037714758,
            -0.9150237822184453,
            -0.17077042652347274,
            -1.1612322533597865,
            -0.4404331328885427,
            -2.1894867004803085,
            0.04272727343095295,
            -0.363812497154334,
            -0.8276559729432418,
            -0.06543535854121646,
            1.1531308719449918,
            -1.1394023026486793,
            -0.050776370198612,
            -0.019955841031029403,
            0.38295654210102426,
            -1.1314533042999932,
            -1.2142962483778348,
            1.3703843797177677,
            -1.851412815732191,
            0.13944967195623814,
            -0.9430799829827572,
            0.6949090793226935,
            -0.20406269304188285,
            -0.2252525457764198,
            -1.0056021172469356,
            -0.5512357985587362,
            0.13201069659255332,
            -2.0973319141791347,
            0.7000290178133495,
            -0.19224233553175296,
            1.5934391653646827,
            -0.3802838359204139,
            0.5695970527875636,
            -0.45551954520466914,
            -0.10862109699361616,
            -0.42358226219326744,
            1.666527022024989,
            -1.695708822717345,
            2.820331899605117,
            0.36696807577125146,
            0.010698477201618317,
            0.739891710596146,
            -2.7175578792763053,
            0.03937767523243685,
            0.856598708751107,
            -0.7924754777347203,
            -0.8992607743431016,
            -0.6194672223758545,
            1.3614087888012447,
            0.7663830083813508,
            0.6390716574802802,
            -0.08405861091182401,
            0.6490003129830992,
            -0.6574656112124546,
            1.0389655588464835,
            -0.690244989996476,
            2.891812519799626,
            0.5168370115489836,
            -0.49780931925871796,
            -0.8177047211263644,
            -1.2159474043209875,
            -0.12090940053183596,
            -1.1146779345655244,
            -0.056884753287260725,
            -1.6387785573744615,
            2.0165389908011058,
            1.3043469501676777,
            -3.155393264912168,
            -0.8171252453059005,
            0.9335319013425196,
            0.9737758927694519,
            -1.5313216287410472,
            3.1692144925883747,
            -0.3531172398306922,
            -1.9699789455010117,
            -1.9989331533458785,
            -1.2416066967123895,
            0.31776926911451664,
            1.1248551757549832,
            -1.218404068111974,
            -0.7692686858181614,
            -0.10658055352783974,
            0.5066712346293178,
            -1.1025050728758639,
            0.21535592615141275,
            0.8600362586349994,
            -0.150539283638193,
            -0.10320671269499646,
            -1.4777422278980772,
            -0.3940003610163903,
            -0.09420063098582507,
            0.8785048266493789,
            -1.6307979614344699,
            -0.26043858906113576,
            -0.5985583229747834,
            -0.19307466183238262,
            -1.7444702455817878,
            0.46625961582119013,
            1.0037709825169125,
            -1.3082828791524381,
            -1.2213441196786852,
            -0.9212195503950246,
            -0.09918456008355267,
            -0.4341459336857283,
            0.128207332959958,
            -1.640138731378319,
            0.6730254432878195,
            -0.10805752144368208,
            -0.1511150326342485,
            -1.2647891315236564,
            -0.12915247485902911,
            0.3542864805159288,
            0.3918662544736288,
            -1.1413455585728838,
            0.03310834541414265,
            -0.02590864135958662,
            -0.056626463574151076,
            0.5017527803195465,
            -2.3999101362608877,
            -0.0283498467534357,
            0.8076574683418931,
            1.5927162694401493,
            1.5617635981553932,
            1.11708571495462,
            -0.1460494594416485,
            0.006750210155450659,
            0.6730550534060611,
            0.6740427175433397,
            -0.7357710378383037,
            -1.4404647984974503,
            -0.6694583857412689,
            0.038273566484257525,
            -0.4679674174764472,
            -0.5306796629851692,
            0.30019707187708455,
            -1.0979959264446768,
            -1.770289078109972,
            0.5172336975496065,
            0.2792711148505078,
            1.596777119040732,
            -0.4698580370985176,
            -0.8734608258810631,
            -0.7728791224939902,
            0.667159421299065,
            0.5033192079972386,
            1.659100539538499,
            0.7393820804730058,
            1.4412978866769075,
            -0.32568366709199237,
            1.467558464396575,
            -0.595049300562723,
            -0.22111754506815573,
            -1.0919238200844148,
            -0.32825468397044816,
            0.2858126780235755,
            0.650749451457063,
            0.07981628396683649,
            0.7313526320947095,
            0.7671836770689435,
            -0.08864352615619767,
            0.9547134700002333,
            -0.7920522727931603,
            -0.34666792547457576,
            0.07606504909915879,
            -0.8753860012367802,
            1.089485037921672,
            -0.2553032478722959,
            0.7423230281037686,
            1.0975678841881575,
            -0.2670275048210032,
            -2.2398739857592322,
            -0.626486510118812,
            2.082087298125767,
            0.8823797514352572,
            0.33015565728270246,
            1.1284979529620371,
            -1.589970790795638,
            -0.29065844056557005,
            0.13239657271227523,
            0.6676434898533803,
            0.6150343646157322,
            2.0968048055992208,
            -0.0020362975352388735,
            -0.8969975488754676,
            0.3314533540058857,
            -0.33531081815250263,
            1.3962927102390614,
            0.6901011061768783,
            0.17989572722011804,
            0.16212496744921479,
            0.4797638101299131,
            -0.4096005108813845,
            -1.329817268964133,
            -1.4013200903195118,
            -1.038504839356663,
            0.5762109618478859,
            -0.20000299145707778,
            1.0498123170245472,
            -1.27624535546411,
            -1.5510285571528308,
            0.08856191423888926,
            -0.4303729188496051,
            0.4130929342356856,
            -0.17596422821207014,
            0.2534424690258438,
            -0.11798058482654344,
            -0.5386356549798398,
            2.249440443490121,
            -0.1013844210485092,
            0.9399338718794485,
            -1.3850994623235942,
            -0.002778445569008886,
            0.4105457370782556,
            1.3710427040697206,
            -1.063829766875918,
            0.2885172667318908,
            0.432290371960235,
            -1.7711825197216629,
            1.3293582194476823,
            0.4876250446318726,
            0.302284248315537,
            -0.20654231871212136,
            0.6339775421080538,
            0.9707554384104291,
            -1.3329524609837407,
            0.46872290969504415,
            0.7981070800949884,
            -0.7076476010122067,
            -1.2852957365029283,
            0.24244776450141223,
            1.0401696414212038,
            0.3864366672295899,
            -0.44413164972527164,
            0.5599972695638133,
            -0.5748755198792013,
            -0.2431028969318405,
            -0.36635490597085174,
            -0.2528671311108113,
            1.6131613541999512,
            -2.781926202345648,
            -0.8226244349272389,
            0.44896818170814534,
            -0.1715982774605403,
            -0.7382213600213108,
            1.434132838766663,
            0.2584955271900634,
            1.1225777078146646,
            -0.024227001615359678,
            -0.010752718556339247,
            0.18444338859448695,
            -1.485172143668625,
            0.20668703375410694,
            -0.5309069220196106,
            2.318951115949975,
            -0.21552128504188778,
            -0.4725033196263178,
            3.5758991370449964,
            -0.9191969482957028,
            -1.072727002493031,
            -0.008531271296861938,
            -0.21888640897502,
            -0.5421664109255633,
            0.9700652687771181,
            0.6378843130553064,
            0.4873471765812165,
            -1.1120270257984612,
            0.1860130665866051,
            0.5597431895542593,
            -0.17046791758485488,
            -0.49066209724582294,
            -0.18207559921115823,
            0.034337081985959694,
            -1.352406756033911,
            -0.02620808970819699,
            0.282748723022508,
            0.6573109301482684,
            -0.961977808323228,
            -0.692169656083916,
            1.4388545437841054,
            -2.805222805536329,
            -1.6780134178096175,
            -0.06244337755881624,
            -1.6930123816489973,
            -1.8243595404254211,
            -0.4218952241128746,
            -1.1095163558778751,
            -0.9212114534878009,
            0.38547615012419073,
            1.0206972454927379,
            -1.5835920506243137,
            -0.4695743894068505,
            1.3578336691744852,
            -0.9614091321695377,
            0.5025805986104724,
            -1.2875160933871204,
            -1.5316103264174932,
            -0.4792680791756394,
            -0.7577029791864177,
            0.6874643273416764,
            -0.09460190098254292,
            -2.3036647855047754,
            0.4401145759810348,
            0.6026351344474676,
            -0.8695850575982439,
            0.1341946259231782,
            -1.624161815529723,
            -0.43624585305777536,
            0.7749274790036651,
            -0.953010716958583,
            1.790204551783271,
            -1.3885772481343182,
            1.2978559663694562,
            -0.9059338614875284,
            -1.4215630848174685,
            1.6338792579567287,
            0.07518318907788613,
            -1.3397427220008926,
            -0.1526906883818644,
            -0.6631687301437938,
            2.0994769549153176,
            1.7023690106651606,
            0.21106857054916806,
            0.46102896104223673,
            0.9243245707789546,
            -0.0574538838290411,
            1.8161136845326413,
            0.4696361460314551,
            -0.37890723272741933,
            0.8985555438502263,
            0.46912820194770233,
            -0.7373045013008026,
            -0.798860631528207,
            -0.21736127251224951,
            -0.20430783766174943,
            0.10181128373754984,
            -0.4414645313921082,
            2.6696695407436613,
            -0.04912911939366241,
            0.2388790428705052,
            -1.1893219331766824,
            -0.23124678516041075,
            3.16296022384491,
            0.2366340173609363,
            0.14182431658367212,
            -0.05364169078157362,
            -0.2109552963441515,
            -0.7462304351962069,
            -1.435166052658487,
            -2.6217147778825503,
            -1.10597575415886,
            0.8394951591412418,
            -0.6967322924971142,
            1.2771199410907197,
            -1.5366689793354211,
            -2.0590704291242052,
            0.7606053512261978,
            0.7461366951767827,
            -0.518664765362856,
            -2.0048462656477453,
            -0.5007349763718567,
            -1.237334868719504,
            -0.1782109938062803,
            -1.5778284381938357,
            0.3576697909492244,
            0.37409606594535294,
            -0.02261445651266969,
            1.6455027769779818,
            0.8161127680897287,
            -1.2779187695986292,
            1.6398215253360777,
            -0.07139470807835391,
            -2.389257136710348,
            -0.43998093751833134,
            -0.11053282821167323,
            0.08773164169944964,
            -0.9075502810549592,
            0.2841050613707227,
            0.1626698122634744,
            -0.9956169700953482,
            -1.6216421768232603,
            0.08255509702651742,
            1.0504635419601027,
            -2.6934223521683807,
            -0.019311126082447727,
            -1.5880459487186367,
            -2.6206739801369756,
            0.17795441187150374,
            -0.21139763542858447,
            0.4114676761999827,
            0.8133839642595232,
            -0.24816909862018988,
            -0.264299297493111,
            0.03763419646097782,
            0.43100972033462687,
            1.1320289923275966,
            0.006389102239294314,
            -0.6059903057147342,
            0.19672842172102467,
            -0.27369969974793884,
            0.6217003296640313,
            -1.4774242592960127,
            0.3628108435181868,
            -0.5654700589462858,
            1.9870260524392738,
            0.3621634818202722,
            -1.5256514811094335,
            -0.8207315612605857,
            -0.013733164392018993,
            -0.1338561715933807,
            -0.7858322085463205,
            -0.6116357752517508,
            -0.3990941017067281,
            -0.8144299546285967,
            0.1179083201037674,
            0.7357275430553587,
            1.561895654216103,
            1.3894854511202674,
            0.3206111136573718,
            -0.9656250236209531,
            -0.44583624579174863,
            -0.44284613129538547,
            -1.1821749228194773,
            0.6455445068828907,
            -1.5583442678950248,
            -0.0349923050217804,
            0.1722869115265449,
            0.6452732090840758,
            -1.480768500177393,
            -0.493990506261413,
            1.4085500884460964,
            2.3778846225001087,
            -0.17274259424049332,
            -0.5195236159369495,
            2.2595168048212146,
            -1.4490453744787473,
            0.39755939249380967,
            -0.3790809132779505,
            0.06054190854456254,
            1.300865890729761,
            -0.2893977684574044,
            -0.912424984652398,
            -1.2201150527447464,
            0.6468380973457521,
            -0.42376715039860235,
            0.1683720097597987,
            -1.446555818661233,
            -1.550429005279244,
            1.2800466097269392,
            -2.270556077742727,
            0.4823188890584314,
            -0.4810599226503578,
            -1.4055114689835766,
            0.38313498013932484,
            -0.865524097828675,
            -1.872675000139112,
            -1.1963623059551516,
            0.6222578675671093,
            -1.3507563215155847,
            2.580929077012735,
            -0.48325586429829714,
            -0.48509159772230975,
            -0.6947539351255734,
            -1.3669826592515129,
            2.235698700403698,
            1.4822977134435107,
            0.9048918461849595,
            2.0976344204564006,
            1.3866229807020911,
            0.17476139614392258,
            0.023121084114529178,
            -1.266772900223498,
            -0.4668961730894411,
            0.43345700062909626,
            0.31381498290847926,
            1.1739406918560191,
            -0.020377043408362105,
            -2.447548255324452,
            -0.1170145244837488,
            0.7241747250268685,
            0.4986494736974254,
            -0.5213981659541589,
            -0.5351928901589933,
            2.7777870572268712,
            1.7371964694836994,
            -0.5732462994233682,
            0.9092540284248113,
            -0.3703493286763157,
            -0.2529812018874121,
            -2.1218887616866424,
            -0.1301255436453748,
            0.47035297037305274,
            -0.3188009158933684,
            -0.877065998640588,
            -0.5987585915562278,
            -0.4708956316541326,
            -0.5498200145248131,
            0.6144551453930983,
            -2.8616117238860683,
            -1.06972633765153,
            0.8805875579199902,
            0.8691883450253248
          ],
          "numRows": 16,
          "numCols": 45
        }
      },
      "ops": {
        "type": "org.ejml.simple.ops.SimpleOperations_DDRM",
        "data": {}
      }
    },
    {
      "mat": {
        "type": "org.ejml.data.DMatrixRMaj",
        "data": {
          "data": [
            0.65528693410594,
            -0.403886130488808,
            1.5628092517822951,
            2.086244873824615,
            0.801935708903289,
            0.12487772637403555,
            -1.1329349752068683,
            -1.0710856272756386,
            -0.13499170940528105,
            -1.398584959663943,
            -1.2353570947433417,
            -2.3981164169985476,
            0.1949449705920383,
            1.0292685359428533,
            -2.167498936144613,
            -0.08223344475386193,
            -2.1139521723693813,
            -1.6219295871176045,
            0.5463308036256042,
            0.5781569619201025,
            0.5066584101432126,
            0.913059817231979,
            -0.08368920490821768,
            1.6619277217829902,
            -0.686467280449883,
            0.4525200924867588,
            -0.9334870985572572,
            -0.29153233210583385,
            0.11466072807435779,
            1.4802623527089114,
            1.7788747674854142,
            0.8358465333377004,
            0.9589753986275963,
            -0.5627054929561793,
            2.0894881311200666,
            3.2261683179974625,
            -0.1803281335162776,
            -0.5026214284903925,
            -1.4878038424300177,
            1.415564453351545,
            -0.4207272691892107,
            -1.6076294713703327,
            0.8401475117341191,
            -0.4915373358769889,
            0.9286458304389825,
            -1.116912775049651,
            -0.6799067247456037,
            0.34484935059926203,
            -0.14446362268126908,
            -0.40433880940442724,
            -0.41207427567206545,
            1.5044402114552193,
            0.6206176568270811,
            0.045732951207691,
            -0.35038695318375074,
            -0.7855831714553593,
            -2.421222620003552,
            -0.9703846720573446,
            0.29869206861903275,
            0.3237131529885506,
            -1.2935601779592334,
            -0.81206107969785,
            0.13571531176129517,
            1.7846222174479438,
            0.6160684842407468,
            -0.6658225122850214,
            0.7545307941108137,
            -0.03221644566665838,
            1.1106863430717235,
            0.8229592549103355,
            0.35474648496578065,
            0.2697983939564755,
            0.5819493622421699,
            0.4784455345789867,
            -0.8746757404646215,
            1.2195968046655454,
            -1.6654988637099857,
            -1.5644229863809824,
            0.21135411306357677,
            -2.2473959761864535,
            -0.09882218727177361,
            0.1894840266363066,
            -0.6628585718474873,
            0.735630642846775,
            -0.12633228915667855,
            0.11659118699163307,
            -0.955045926328471,
            -0.34271760541814555,
            -2.1799970666901975,
            -0.6983845932444692,
            0.6865399396636578,
            0.7110272951452439,
            -0.2608010129760252,
            -1.2892068224779574,
            -1.6002417508390245,
            0.01394161843481967,
            0.06556182001829813,
            -0.4549832023459538,
            -0.1179801427257341,
            2.9771355729978466,
            -0.1574085152355652,
            0.3082412665026988,
            0.37716001818933753,
            -1.1678781158863576,
            -1.184066746120035,
            -0.9844908233501495,
            1.4463762314959856,
            0.7755765467644047,
            0.19366359656583942,
            0.9368543978877554,
            0.9432669553511548,
            -0.5522552946271954,
            -0.14331736827486907,
            0.3939926912552689,
            1.1566118673891086,
            0.719152591482734,
            0.21815774648653397,
            1.156207713890038,
            1.382530227273946,
            -0.7786735472426051,
            0.8102020280961176,
            -0.00901711077895466,
            1.3919787008370585,
            -1.1309788401874818,
            1.501602938577911,
            -1.0418933239520844,
            1.1248666883203924,
            -0.06701841675255821,
            0.3306547922225135,
            0.22209932714583502,
            0.5859031218475773,
            0.4536007264682568,
            -2.820281731946998,
            -0.6658607036909833,
            2.9030917634353925,
            0.9507336188408924,
            0.9042677144268703,
            -1.8203416594002455,
            -0.15948414894131363,
            -0.030480827223900275,
            1.2505379792837021,
            0.965671842837859,
            -0.5011763707747631,
            -1.2530916985329075,
            0.8776167094713596,
            -0.3271978246101857,
            1.0846237557643366,
            -1.155267774122304,
            1.8436111622870852,
            0.6965084658761415,
            0.8894267547407338,
            -0.3622523282647488,
            1.7875765971364925,
            -1.916435180721223,
            0.1827654382010562,
            -2.3055942190658123,
            1.7142305365579547,
            -1.6092168960765854,
            0.7660695614901087,
            -2.178005977808517,
            0.08481445997460824,
            -1.2085327728246706,
            0.7640834413096875,
            -0.622852399393608,
            0.39610386097650724,
            1.7088402088737484,
            0.4280637011642996,
            -0.19629700624756696,
            1.7939322779843003,
            -0.4916452921995875,
            -0.5505949675672404,
            0.7457632731873995,
            -0.7887878828922135,
            -1.227792399473431,
            0.8642475354423387,
            0.2873989669159886,
            1.202034968460838,
            0.25827219658758027,
            -0.014444667310181458,
            1.8993067026208368,
            0.19944834055191546,
            0.6474472653721585,
            2.0046881210214975,
            -2.1309787370365125,
            0.975176893765376,
            0.3725235391731942,
            0.3047265832747686,
            0.8046070227386031,
            -0.020282624430584595,
            -1.0873251197530016,
            1.2390443268256812,
            0.15017869704021614,
            0.876418165758193,
            -0.32626574162022004,
            3.489411071201079,
            3.29930667655288,
            2.157469422986606,
            -0.09667496843645798,
            0.6273552825354775,
            -0.06362642964087474,
            -0.22518418031282356,
            0.2930519528327328,
            0.4161288191018398,
            1.264909128447163,
            0.9121667500150228,
            -2.617088585353385,
            0.17444947371572994,
            -0.4200616563408578,
            -0.19705267992182346,
            -0.9936089517018556,
            0.17480903383537605,
            0.34548135879569253,
            1.6791131987857555,
            0.07711916566980603,
            0.18723392835279573,
            2.0027969458125936,
            -1.18924489892824,
            -1.4775202433104555,
            -1.6934788455178114,
            -0.2881357606089974,
            -0.40058395786386003,
            -0.30819729895022796,
            0.3235231221376021,
            -0.9786738593419899,
            0.7514041097806563,
            1.0603880840301687,
            0.08452313492539235,
            0.2386818573604635,
            -0.04675117084371094,
            0.7864618953388023,
            1.0591742363498569,
            0.011136802984171745,
            1.19314557261489,
            1.1885653713648388,
            1.1813870904007067,
            0.8220962603576577,
            1.527276938619297,
            2.040735154442889,
            1.1475169624675494,
            0.6734754463692134,
            -0.41958261753558684,
            -0.3747170915265451,
            0.8176755697503164,
            0.0456888168443802,
            -0.1851620505533188,
            1.2385118535110191,
            0.02379513073824016,
            -0.041012821954035626,
            1.1008241378397685,
            -0.2426464249858497,
            0.35449995560053765,
            0.9211050328433632,
            0.28614474762161607,
            -0.2871596562317078,
            1.4436154170206308,
            -1.1961694526920787
          ],
          "numRows": 16,
          "numCols": 16
        }
      },
      "ops": {
        "type": "org.ejml.simple.ops.SimpleOperations_DDRM",
        "data": {}
      }
    },
    {
      "mat": {
        "type": "org.ejml.data.DMatrixRMaj",
        "data": {
          "data": [
            0.9038345107566451,
            0.6565162208078922,
            0.8963937520390214,
            -0.4133924871816501,
            -0.008332626538760879,
            -0.2748674889485275,
            -0.6024829872682632,
            0.6708990266335328,
            1.1857087548925938,
            0.7045405599139029,
            -0.06329353637196353,
            0.8229812447173004,
            -0.14198783113690122,
            0.6929350574377569,
            -0.022533121929329214,
            -0.3462784359537021,
            0.25301478735105143,
            4.1208390093849045,
            -1.9575242699969362,
            -0.6922738452435491,
            0.12663183690839075,
            -0.38837872608419444,
            0.9289232377346225,
            0.778956668708278,
            0.5188758759450532,
            -1.7196493798387933,
            -0.1370917723269817,
            -0.6664469573156873,
            -0.9656293719966577,
            -1.5864341896353036,
            -0.6977641516764945,
            1.3549730061147778,
            -0.729257996739507,
            -0.19901609820709348,
            -0.3902808769295303,
            0.40675252985867183,
            0.04203651324741586,
            -0.2480236368516442,
            -0.38216998219893894,
            -0.11923496606292855,
            2.5653815664528383,
            2.3492590246206664,
            3.6128792281432,
            1.2699816177068306,
            0.8483505643511241,
            0.8852720184055275,
            0.7891255467031909,
            1.9917402300701392,
            0.310329921626656,
            0.05868211222847866,
            2.1201009205114887,
            0.9612301416764937,
            0.09686473896507491,
            0.261306425681718,
            1.4133976062337266,
            2.045387363170041,
            1.5665312260769313,
            -0.11450793878057802,
            1.0076349941096776,
            1.0767449791077401,
            -0.3801417103888556,
            -0.2570527889143192,
            -0.16165967226952205,
            -0.23986665362402726,
            -2.0568307153809497,
            -1.629596921276897,
            -0.639311472697826,
            -1.430874822942608,
            0.01069661075428896,
            -0.8431736916069328,
            -0.4836638452016607,
            -2.289805566601675,
            -0.06718506323716278,
            -1.4819861200261726,
            -0.23139787469732975,
            -0.5183145086888927,
            -1.9185434514113395,
            0.08902180909536696,
            -1.7241854935192036,
            -0.4357253176530232,
            1.4295211262152936,
            -0.20919753227342053,
            -0.4508061626193024,
            0.5856898725459246,
            0.814176669684079,
            2.087155987324573,
            0.5167111112065474,
            0.04357898853380149,
            -0.3930735626855311,
            0.3767029423303885,
            0.19248308635030287,
            0.777569100306305,
            1.6582356491792865,
            -0.018984215903854074,
            -0.9522449741996417,
            2.2166237350262006,
            1.603498021509876,
            0.45383943362318246,
            0.03507010766980245,
            -0.9101597244527084,
            2.027047311010906,
            2.5646769301240293,
            -0.48869492832171013,
            1.198723755118059,
            2.3884411962387864,
            -0.9750653822944291,
            1.7976220784711143,
            0.7689778973283505,
            -0.23336881905106466,
            -0.49884987346596765,
            1.3274434390545038,
            -0.09737128670336404,
            1.248279112973438,
            0.4083462249545396,
            -0.8625003445498747,
            0.30626363412116553,
            -2.2289155194232193,
            0.03716095349906917,
            -0.30629719918866427,
            0.9680745229362473,
            1.2166782227170319,
            -0.8152181906481631,
            -0.13019920343796895,
            0.26847285252574826,
            -0.442584364999969,
            0.7073649798231693,
            -1.6709989001111611,
            0.7533623248320209
          ],
          "numRows": 8,
          "numCols": 16
        }
      },
      "ops": {
        "type": "org.ejml.simple.ops.SimpleOperations_DDRM",
        "data": {}
      }
    }
  ],
  "biases": [
    {
      "mat": {
        "type": "org.ejml.data.DMatrixRMaj",
        "data": {
          "data": [
            -1.333739315222481,
            0.5505958476298048,
            1.5175124898813204,
            2.1667153277259303,
            0.9107476668858046,
            0.2925889214192421,
            -0.1534102596110518,
            0.21427878548812462,
            0.32093491286734727,
            -1.8589679381810549,
            0.9774615862932342,
            1.594808894969613,
            1.4851871025632088,
            0.7305254974806552,
            -0.874561168432047,
            1.2697241713356018
          ],
          "numRows": 16,
          "numCols": 1
        }
      },
      "ops": {
        "type": "org.ejml.simple.ops.SimpleOperations_DDRM",
        "data": {}
      }
    },
    {
      "mat": {
        "type": "org.ejml.data.DMatrixRMaj",
        "data": {
          "data": [
            0.8627895981079552,
            1.6922984253318698,
            -0.8294838745624882,
            -1.296803510828848,
            -2.0835637506768743,
            2.5967287535234966,
            0.19142734807088796,
            2.2397031421353564,
            0.7230213224143683,
            0.6139621180454173,
            1.6405631860473942,
            -0.4109977888994288,
            3.1952009193472506,
            -0.2405225762303956,
            -0.8109049418594007,
            -0.06533455471510216
          ],
          "numRows": 16,
          "numCols": 1
        }
      },
      "ops": {
        "type": "org.ejml.simple.ops.SimpleOperations_DDRM",
        "data": {}
      }
    },
    {
      "mat": {
        "type": "org.ejml.data.DMatrixRMaj",
        "data": {
          "data": [
            0.275181614921312,
            0.6132604547163774,
            2.5474731130227997,
            1.4465996519261695,
            1.4823926808599857,
            -0.47419500373182444,
            0.8857395209049076,
            -0.8753685130803586
          ],
          "numRows": 8,
          "numCols": 1
        }
      },
      "ops": {
        "type": "org.ejml.simple.ops.SimpleOperations_DDRM",
        "data": {}
      }
    }
  ],
  "learningRate": 0.1,
  "activationFunctionKey": "SIGMOID"
}