{
  "activationFunctionFactory": {
    "activationFunctionMap": {
      "TANH": {
        "type": "basicneuralnetwork.activationfunctions.TanhActivationFunction",
        "data": {}
      },
      "RELU": {
        "type": "basicneuralnetwork.activationfunctions.ReLuActivationFunction",
        "data": {}
      },
      "SIGMOID": {
        "type": "basicneuralnetwork.activationfunctions.SigmoidActivationFunction",
        "data": {}
      }
    }
  },
  "random": {
    "seed": 277694336341505,
    "nextNextGaussian": 1.3451934684232345,
    "haveNextNextGaussian": true
  },
  "inputNodes": 45,
  "hiddenLayers": 2,
  "hiddenNodes": 16,
  "outputNodes": 8,
  "weights": [
    {
      "mat": {
        "type": "org.ejml.data.DMatrixRMaj",
        "data": {
          "data": [
            -0.27470728964480134,
            0.03207276365103895,
            -0.2489700568694979,
            1.724857811558707,
            1.6983129233948708,
            0.7915969900802764,
            2.41568484964831,
            0.8501388640571815,
            0.759799898869576,
            -0.9029778372393391,
            -1.612452149589974,
            -0.4786278661904101,
            -0.0362234865116246,
            -0.7622247643810733,
            -1.2390161425589281,
            0.866622375895312,
            0.20798925725676232,
            -0.3495472161521159,
            0.06579415392711885,
            1.058493562827242,
            0.18102196803492748,
            -0.651336801671392,
            1.0553462231465223,
            -0.5762743228452325,
            -0.5121467422654936,
            -1.0709379586343255,
            -1.73389590798725,
            -1.4137388515088831,
            0.11587391426276755,
            0.06340779195873286,
            1.1859768909654773,
            0.9248987367398758,
            0.3018427010581881,
            1.8435950181035716,
            -0.24009602469693014,
            0.8677240426998823,
            2.205989354319239,
            0.3797590704033932,
            -1.1295259944776188,
            0.07136606667749247,
            -0.7259027541549238,
            0.164929797934543,
            0.7848071505737921,
            0.3847738656120936,
            0.1318428799846233,
            0.3898832426451022,
            -1.0027261642287157,
            0.17286026892923317,
            -1.702551316564708,
            0.8522710952589598,
            -0.4564531680258302,
            -0.6974290017079057,
            -0.7735002478387638,
            0.5780810888723522,
            0.33428554881052747,
            -0.06321639407922228,
            2.0268500483541487,
            -0.47633451295439944,
            1.315927422514785,
            -0.8389920724139462,
            1.4259703391913974,
            0.009700599031937013,
            -2.5872104642681437,
            -0.8249061203376564,
            0.501504726402076,
            -0.9219408455115312,
            -0.476257560122359,
            0.29856247310702994,
            -0.8469989314808773,
            -0.1439767362533591,
            1.0118678030859056,
            1.5350581559011203,
            0.7460055160868649,
            -0.39629422846261625,
            -0.8235733509146205,
            0.45593957308202954,
            0.47193926953838444,
            -1.654622853066884,
            -0.3967382775014586,
            0.2523474144910516,
            -0.3239934498459155,
            -0.6520285087747588,
            2.2076231497209253,
            -0.5311551013383005,
            0.9756872564449365,
            -1.3904168118234104,
            -1.0092946699790821,
            1.3205132379321758,
            0.8336470692192497,
            0.4891897248147289,
            -0.676622093532592,
            -1.5188812902204296,
            0.3025305647637457,
            0.5508359557397249,
            -1.6269849539357235,
            -0.6393559699273845,
            1.6273686954713769,
            0.16733693392116616,
            0.03029743765969739,
            1.270382359968027,
            0.7281472583734914,
            -1.6705570577680087,
            1.8337263137751392,
            0.37832401260232373,
            0.37922404697716966,
            0.36899303931504973,
            1.3281058238333225,
            2.2797026239276543,
            -0.08407002858663884,
            0.6698139371462077,
            -2.661136588827825,
            -0.44232451571617515,
            0.24375834366963461,
            0.08660188274455455,
            -0.09407692420297858,
            -0.3570453910738972,
            -0.10995663877895734,
            -0.445719129963558,
            -0.325992335573554,
            -1.0883713337225998,
            -0.3746098781297169,
            1.0369282325289144,
            -2.4319823723443803,
            -0.04484836654777974,
            -0.3129304189892358,
            1.4591024858156294,
            -0.32167779250675016,
            0.41591135650115485,
            0.4731026136354055,
            -0.2878519153089123,
            1.2990366542698477,
            -0.38728367225426835,
            0.3528902863254365,
            0.666702335967618,
            -2.091207630076145,
            -0.7912236160058554,
            0.730732167940848,
            -0.0192261156492465,
            -0.8836831508063127,
            -1.2756703383496921,
            0.5265389519776075,
            -0.12291306745115471,
            -0.629244974644487,
            0.23263733960349317,
            0.6961390957798624,
            1.1821410170965856,
            0.9261118047041453,
            1.8263186901274282,
            -0.2609161471708378,
            -0.2824657274876018,
            -0.45906082436823575,
            -1.7756014644964488,
            -0.8799197283172215,
            -0.07697433386658993,
            0.3957524810660525,
            1.8999730461144955,
            -0.9072171194381502,
            -0.7388444395609206,
            -0.8387747865360289,
            1.3911223532605084,
            -0.024121745911018684,
            -0.4486863474476057,
            0.970034432419013,
            -0.6848285868640668,
            -0.34287515293327653,
            -0.25598572454213653,
            -0.7593890336296667,
            -1.294948454483483,
            -2.3233227108759595,
            -0.662071404817467,
            0.24378209560521263,
            1.103979609009224,
            -0.030930364118814724,
            2.880102904037061,
            -0.7148854393764499,
            0.7196241930371639,
            0.7414513829197079,
            0.24585023247377374,
            -0.4286945663581128,
            1.4284088676532432,
            -0.03781307519921115,
            -0.6015085160478922,
            1.7651798538662251,
            0.2940406011375067,
            0.04502115099567251,
            1.150994923164769,
            0.39923915101533203,
            -1.367196788953266,
            1.296586467493585,
            0.8060647668491879,
            1.7701009311166203,
            0.3879191975846868,
            -0.39681376339728036,
            -0.5993295299689296,
            0.5427695057408979,
            0.8072834071255491,
            1.0559448344574336,
            -0.5948954437403873,
            -1.1301480958589671,
            -1.4383066914033082,
            1.0535869505391122,
            1.3414966228936342,
            -0.3565786191609766,
            -0.5243784793039181,
            1.3199455662128656,
            -1.7646796851816478,
            0.924134521232104,
            -1.3802418158123757,
            0.14465776756614518,
            -0.027973908943158543,
            0.3511584926749125,
            -0.3790125780959278,
            -0.6095933071946623,
            0.12472086682607131,
            -0.5185154214645686,
            -1.6116951542859757,
            -1.6164237303272593,
            -0.3423139227739808,
            1.4899585168435854,
            -0.4699302037714758,
            -0.3327825534552725,
            -0.7904193446384037,
            -1.283358918071854,
            0.6022087598980392,
            -0.7870491964858936,
            0.04272727343095295,
            -0.363812497154334,
            -0.8276559729432418,
            1.5504163038407413,
            -0.3415433985743255,
            1.5528866452598022,
            -0.20740082200455467,
            -0.3216438493082955,
            1.6340747078763487,
            -2.422080408556516,
            -0.6843438772717382,
            2.397781873929156,
            -1.851412815732191,
            0.13944967195623814,
            -0.500884748700801,
            0.5437250608174053,
            -0.4676043716106221,
            0.46524286743806703,
            -1.0056021172469356,
            -0.5512357985587362,
            -0.4681990405592736,
            -0.815714632125049,
            -1.1658165231789102,
            0.2741798470969157,
            0.1147372522478422,
            0.904521474662343,
            0.5695970527875636,
            0.24321723915227095,
            -0.270993727029319,
            -0.07449749109781006,
            1.3976605995469016,
            -1.0682947388923338,
            2.820331899605117,
            0.5882271370509945,
            -1.906524969702354,
            -0.7500824097165245,
            -0.09250145282340114,
            0.03937767523243685,
            0.8742653963924587,
            -0.7924754777347203,
            -0.8115403367185248,
            0.631595314462938,
            0.12497841198449344,
            0.6418342854092116,
            0.6390716574802802,
            -0.9993909079243966,
            0.6115188700947248,
            0.17609554379600378,
            0.44545116058735373,
            -1.3616061751551047,
            1.9544128852832416,
            0.22122488044224187,
            -0.2573257284088496,
            0.6987332061929921,
            -0.9153820765423497,
            0.570290527892686,
            -1.1146779345655244,
            -0.18694706571739966,
            -1.2551630812434211,
            0.07372942325341086,
            1.6867198785213569,
            -3.155393264912168,
            -0.3818965605312133,
            0.23088045574512606,
            0.9737758927694519,
            -1.2664428038934172,
            0.5903473307202309,
            -0.021775971028211494,
            -0.5576085838247317,
            -2.163234707627506,
            -1.1414910923255515,
            0.9263761440603375,
            1.1248551757549832,
            -0.32883939345146185,
            -2.076381593952993,
            -0.10658055352783974,
            0.5066712346293178,
            -2.1778176439697803,
            -0.7570405830010792,
            0.8937654716167662,
            -1.2439449165289398,
            0.039586295242215463,
            -2.518400325785954,
            0.21032109928351583,
            -1.1956867889972749,
            0.8785048266493789,
            1.3166725622090367,
            -0.26043858906113576,
            0.1931525270506112,
            -0.3423679390333451,
            -1.7444702455817878,
            -0.7981840779381122,
            1.6237542282101904,
            -0.8030827133010194,
            -1.2213441196786852,
            -0.8171044925684705,
            -0.758718886287779,
            -0.4341459336857283,
            0.128207332959958,
            -2.027453841752388,
            1.1318786706332284,
            1.192737413368909,
            -0.08553700075017417,
            -1.2647891315236564,
            1.619342522192214,
            -0.5681858814072264,
            0.5467681150989673,
            -1.4752272638188204,
            0.12387767287327067,
            -0.19067658828012213,
            -0.056626463574151076,
            0.6174809270934223,
            -2.3999101362608877,
            -0.1485378024099046,
            -0.03345291244681492,
            1.3867521095681792,
            1.5617635981553932,
            0.7614197247258139,
            -0.4785553226263646,
            0.14547978156450742,
            0.8805520151782691,
            0.11034254325080092,
            -0.7357710378383037,
            -0.29233811007523514,
            -0.752528976685859,
            0.8834627192095321,
            -1.0507118570940481,
            -0.08744611498654112,
            0.26456393247886073,
            -1.0979959264446768,
            -1.1578651363828119,
            0.2863666879130898,
            0.2792711148505078,
            1.596777119040732,
            0.6333489032467862,
            -0.5962825101300376,
            -0.7728791224939902,
            1.3689285765518173,
            0.25254534633104536,
            0.12394147381937415,
            1.1206496506095698,
            0.7324392836627122,
            -0.32568366709199237,
            2.3744933210484724,
            -0.595049300562723,
            -0.1114481492444328,
            -0.6766098289599414,
            -0.32825468397044816,
            1.1168283761663582,
            0.650749451457063,
            1.0694202946946192,
            -0.9466535234909688,
            0.7671836770689435,
            -0.3267418668718248,
            0.43790407559373495,
            0.5278958467479361,
            -0.34666792547457576,
            1.4177580077817526,
            -0.41448036095209373,
            0.32021620294031683,
            -0.2553032478722959,
            0.8460640493597293,
            1.0147963942277918,
            0.7291356367230089,
            -2.2398739857592322,
            0.5756088371185716,
            0.8655524466494577,
            0.8823797514352572,
            0.7523698495366151,
            0.08951505869147214,
            -0.5826017920072069,
            -0.29065844056557005,
            -0.20224102901896768,
            0.6676434898533803,
            0.6150343646157322,
            3.5763377676979182,
            -0.0020362975352388735,
            -0.5367776328022809,
            -0.6605374938438038,
            -0.169866100262833,
            1.3962927102390614,
            -0.32249149280925826,
            -0.6774157070465988,
            -1.6713176495468067,
            0.4797638101299131,
            0.2270070681388926,
            -1.329817268964133,
            -1.389240985696549,
            -1.1072870143499078,
            0.8703609162321031,
            -0.9472680809263494,
            3.038406656705341,
            -1.6768131852953023,
            -0.4565307208712239,
            -0.701279746924411,
            -0.4303729188496051,
            0.4130929342356856,
            -0.17596422821207014,
            -1.3286878323748463,
            2.1897905033737364,
            -0.6293454104551695,
            2.7123797708644366,
            -0.0575179593717237,
            -0.602730654294289,
            -1.387744608181091,
            0.7620184906749852,
            0.4105457370782556,
            0.08372653122686247,
            -1.063829766875918,
            0.338661047718452,
            -1.2648678196199619,
            -1.487275029429255,
            1.959408391031702,
            1.4096511745897298,
            0.8583286663248221,
            1.7515206888828605,
            0.6339775421080538,
            0.8758602466578691,
            -1.3329524609837407,
            0.24121765684086485,
            0.7594219919049554,
            -0.6526881315830413,
            -0.9886392453908143,
            0.7174266128686453,
            -0.002331364905979738,
            -0.006793402667230941,
            0.5082573293025098,
            1.0501098741932378,
            -0.5748755198792013,
            -0.2431028969318405,
            0.6570716164579944,
            0.6537213161182436,
            1.8222114023622717,
            -0.2911758699857433,
            -0.3222741604345891,
            -0.30381782020214154,
            -0.020181710813016895,
            -0.8701513897619464,
            0.6962604047529485,
            0.47136921346278865,
            0.32422417274916204,
            0.5035385985714969,
            0.05854453868121444,
            1.6219101224891896,
            -2.0580367102619053,
            -0.18284606443967333,
            -0.529610796251176,
            2.122034684606545,
            -0.21552128504188778,
            -0.5061752809071973,
            2.8123686241868997,
            0.6814294700699759,
            -0.6894993152760578,
            0.006760793076426186,
            -0.21888640897502,
            0.16127619181049163,
            -0.4986183581626338,
            0.43056998867794266,
            0.5408731165516222,
            -1.1120270257984612,
            0.6474106689128786,
            -0.22403055485851553,
            0.35431227953411193,
            -0.9002445649940423,
            0.521848657210858,
            0.1923890916289526,
            -1.1366008347601104,
            0.5421080381768808,
            -0.5920831803016786,
            0.2529585015185994,
            0.8295696397037606,
            -1.1953349510255922,
            0.5628384248837577,
            -0.7970429346504898,
            -1.6780134178096175,
            -0.09576414256862815,
            0.32553621809466926,
            -1.3806165504625516,
            -0.4218952241128746,
            -1.1095163558778751,
            0.16284995233621663,
            0.6455142189807807,
            1.0962326323584484,
            0.12805897184372628,
            0.694787856921518,
            1.1652985217644312,
            -0.7729742008779628,
            0.6692206989391853,
            0.644922643200972,
            -0.8784519331716117,
            -0.27693509085929646,
            -0.7577029791864177,
            -0.6879243499564266,
            -0.09460190098254292,
            -2.3036647855047754,
            0.431638595695534,
            1.2950058871403907,
            -0.35753790177004247,
            -0.5645132991977804,
            -0.6247252227868857,
            -0.043081984864694445,
            -0.22482754800955385,
            -0.4263944265988751,
            -0.9821544693048545,
            0.9790349405016789,
            1.5054354607180827,
            -0.9059338614875284,
            0.920409463267274,
            1.0546082004663786,
            1.0172990226139385,
            -1.3641188738807415,
            -0.1526906883818644,
            -1.2092393767208223,
            -0.21997291198290675,
            1.5123956308565787,
            0.255791109990377,
            -0.6022766639639148,
            -0.08971621150894804,
            1.0650994000492058,
            0.8463787052828071,
            0.4696361460314551,
            -0.06654586498162746,
            1.1226005725817823,
            0.46912820194770233,
            -0.7373045013008026,
            0.2502608407081008,
            0.17511371799942094,
            -0.6289514159680956,
            0.024863581789088762,
            -1.0835955749443993,
            2.4230732340387435,
            0.8922289966321629,
            0.27970834006253065,
            -1.1893219331766824,
            -0.6231619416402419,
            3.16296022384491,
            0.2819788124529742,
            0.03365221499741919,
            -0.07470665586670894,
            0.13184643220297732,
            0.7375166190457969,
            -1.737171315329065,
            -2.6217147778825503,
            0.8940727861350527,
            0.8681514223938098,
            -0.6967322924971142,
            1.2771199410907197,
            -1.8012379630438162,
            -1.703212228756133,
            -0.10184046393470003,
            0.7461366951767827,
            -0.5835453674282979,
            -1.2156988609752366,
            -0.380301175970587,
            -1.1461065433751227,
            0.039339540676827184,
            -1.5778284381938357,
            0.5235709776388215,
            -0.6989259065684851,
            0.8659693434671091,
            0.5251940508449753,
            0.44311892973774963,
            -0.7641675813638471,
            -0.8206489704183535,
            0.0025057935151672206,
            -0.9541674721640725,
            -0.07569486464678232,
            -0.5726029855965217,
            0.08773164169944964,
            -0.12447257462555589,
            0.3599403989666814,
            0.1626698122634744,
            -0.9956169700953482,
            -0.5587505383979873,
            0.036641203467076056,
            1.6140703780767485,
            -2.6934223521683807,
            -0.019311126082447727,
            -0.9610976600707104,
            -2.6206739801369756,
            -0.5142358516046487,
            -0.21139763542858447,
            0.9163130407915662,
            0.18531926236546192,
            -0.24816909862018988,
            -0.264299297493111,
            0.03763419646097782,
            -0.4152747059068105,
            0.9140347542365651,
            -0.6978972942168806,
            -0.31135350127823624,
            0.19672842172102467,
            -1.3424298596245787,
            1.0329173649961887,
            -0.9528660431540061,
            0.47722367934906,
            -0.4860622811404277,
            0.781624623831148,
            0.9360099072226526,
            -1.5256514811094335,
            0.5767157339337874,
            0.5688411133747283,
            -0.8145978114336352,
            -0.24724208770522316,
            0.508900518751146,
            -0.3990941017067281,
            -0.8276463149328115,
            0.7933215458364051,
            0.7357275430553587,
            1.561895654216103,
            1.6889835448688821,
            0.2869499459056572,
            -0.8557992412719897,
            1.1532541384224124,
            -0.8297781416658302,
            -1.1258087776041448,
            0.6127889056541211,
            -0.5337795399072802,
            -0.6419086732872556,
            0.8433941421653963,
            1.3859051322712097,
            -1.6915956926190523,
            -0.10068904890909236,
            1.4085500884460964,
            -1.301729752953844,
            -0.17274259424049332,
            -0.6628778574347782,
            2.3295699512004684,
            0.9198323658701636,
            0.9569817756922859,
            -0.3790809132779505,
            0.06054190854456254,
            1.462823468448078,
            -2.488938023116454,
            -0.4705729974959679,
            -0.9644499443108734,
            0.1596306797524043,
            -0.016442058678968197,
            0.1683720097597987,
            -0.2696671402396543,
            -0.23074766070630576,
            0.9573395820678587,
            -1.925693617575978,
            0.4823188890584314,
            0.4017959618585144,
            0.5903378065790985,
            0.38313498013932484,
            -1.4606559241878037,
            -1.16808477713617,
            0.5293459085849963,
            0.6222578675671093,
            -1.3507563215155847,
            0.4689089159526981,
            -0.3712675503145745,
            0.17280161568122965,
            -0.7699585911693183,
            -1.2248014023143077,
            0.981555122928584,
            0.9935050401694305,
            0.734807600045241,
            2.0976344204564006,
            1.526436633571622,
            0.5509007336599397,
            -0.4427466668504244,
            -0.390207453089183,
            -0.1051014422904255,
            0.43345700062909626,
            0.6240836876127869,
            2.5617185768978956,
            -0.2955609314241977,
            -1.6561625685341523,
            -0.1170145244837488,
            1.858104138959904,
            2.0679055104568937,
            -0.5213981659541589,
            1.5228370741435757,
            2.3128375641036447,
            1.176886896961703,
            -1.3768937624328046,
            0.8298068360523935,
            -0.7570783844575756,
            -0.010500186151546242,
            -2.1218887616866424,
            0.46873874332590004,
            -0.6260445089089316,
            -0.3259114070464907,
            0.23102314782617372,
            -0.9515398027875812,
            -1.0057495352330004,
            -1.4577127588553087,
            0.43605875011263695,
            -2.401335115091759,
            -0.8631111629723618,
            0.8430278971694821,
            -0.3780700528400008
          ],
          "numRows": 16,
          "numCols": 45
        }
      },
      "ops": {
        "type": "org.ejml.simple.ops.SimpleOperations_DDRM",
        "data": {}
      }
    },
    {
      "mat": {
        "type": "org.ejml.data.DMatrixRMaj",
        "data": {
          "data": [
            1.264829130185059,
            -0.45859114051174493,
            1.5628092517822951,
            1.4544537014351966,
            0.801935708903289,
            0.12487772637403555,
            -1.3423613923223865,
            0.212506578977534,
            -0.13499170940528105,
            -2.168705278510197,
            -1.532193353075743,
            0.8476122603297277,
            -0.877528911937552,
            1.6947466299658798,
            -1.3783122163639974,
            0.02183565873339932,
            1.435438292123123,
            -0.8417122916906817,
            0.5463308036256042,
            0.9639523458352155,
            1.8782567554235845,
            -0.5466690381203074,
            0.12261698624043571,
            0.8643852121892327,
            -0.686467280449883,
            -0.5477795167719879,
            -0.5672369047699704,
            -1.115848211961957,
            1.0212486746338745,
            -1.1479143519452872,
            1.5021284833812982,
            0.6349085514341206,
            0.05708842498417832,
            -0.8441238593321357,
            1.3740955490530713,
            3.2261683179974625,
            -0.134093697620615,
            -0.9094264037186289,
            0.9776082936444375,
            1.415564453351545,
            -0.8383594160289204,
            -1.2542507195267087,
            0.8401475117341191,
            -0.133553443818547,
            0.22742332045446612,
            -0.7379934738348398,
            0.4221587523485313,
            0.34484935059926203,
            0.3667971403768835,
            -0.009357433812664628,
            -0.2747238434438294,
            1.5044402114552193,
            0.6518915590739306,
            1.0672543710852416,
            -0.4904719279524479,
            -0.7855831714553593,
            -2.421222620003552,
            0.5197077526514313,
            -0.16142693585900664,
            0.7876643145856558,
            -1.4635508860288353,
            -8.57573610812179E-4,
            -0.6668709259202983,
            1.9136909985943515,
            -0.01983364866819398,
            0.052189504956698274,
            0.03969723412814086,
            0.8670377863063632,
            1.0913794488764923,
            2.1187852476602487,
            0.027098706603184988,
            0.14511199906182753,
            0.443651939458637,
            -0.9027383513777152,
            -0.8746757404646215,
            1.2195968046655454,
            -0.5049790600192181,
            -1.1165479649242775,
            0.25251499611187767,
            -2.1381369907696444,
            0.6857426657991894,
            -0.20635154532782168,
            0.5875128977189565,
            0.8374061963671906,
            0.20526808140520897,
            0.5623429566950311,
            -1.495529662231897,
            -0.22380296719452028,
            -0.5585727466268625,
            -0.6983845932444692,
            0.6414849546410681,
            0.35469836029721413,
            0.33695943090461566,
            -0.8994152713692299,
            -0.44608672758390844,
            -2.8428897477276984,
            0.06556182001829813,
            -0.8366739840301011,
            -0.16221356345988214,
            2.1054658511083235,
            -0.03434207344204382,
            -0.509195030068796,
            -0.07763198442881933,
            -0.9017376936725046,
            -0.32810626495547224,
            -0.24247816288484214,
            0.5860938482817496,
            0.5492657715714533,
            1.9809312341937306,
            0.9368543978877554,
            0.6757187701375887,
            -0.6846894143055021,
            0.7641598595279753,
            0.9721300616909285,
            0.2799152166247904,
            0.47043977839840967,
            2.12945583453811,
            0.43404121160181036,
            1.382530227273946,
            -1.3432562696402923,
            1.5207619692743237,
            -0.00901711077895466,
            1.3919787008370585,
            -2.582227866424068,
            1.0987983170951572,
            -0.2424226841537258,
            0.6071210240056901,
            0.559370388998994,
            0.9417509064335643,
            0.5599850244685646,
            0.3656369606927576,
            0.46020628272582204,
            -2.820281731946998,
            -1.1630185073931338,
            0.10425740574512374,
            1.1339153171250518,
            0.9682258264200091,
            0.3340060189694344,
            0.32375479155062054,
            0.9249017726488657,
            0.9408375753226034,
            0.965671842837859,
            0.26734430781640955,
            -0.8793539095571816,
            1.005173575087309,
            0.1957583985435957,
            -0.2368130936458701,
            -0.05925611182825136,
            1.3704196690591877,
            -0.36985725809527187,
            1.0676399396110854,
            0.7070274469543434,
            -0.4113162542169567,
            -1.207351392565747,
            0.1827654382010562,
            -2.3055942190658123,
            1.7142305365579547,
            -1.6092168960765854,
            1.0542692842510677,
            -2.090316587738895,
            0.6442221160906254,
            -1.0441074300803148,
            0.33485139344666814,
            -0.622852399393608,
            1.245845703518691,
            0.9846343921684485,
            -0.9824141838515443,
            -0.19629700624756696,
            -0.3395699837101859,
            -1.223603398101162,
            -1.210569830521444,
            0.7457632731873995,
            0.010599400740349152,
            -1.7447432412798105,
            0.8642475354423387,
            -0.24195137035576347,
            0.19069766882166894,
            0.25827219658758027,
            1.7263954134569621,
            0.7395113758164371,
            0.4476238522611098,
            0.6744189884540981,
            -0.29401871263227286,
            -0.4036918000101,
            1.184563716370847,
            0.8984380957455913,
            -0.8321333193946334,
            0.9527749773871205,
            -0.24268633720591837,
            -0.6231704633179507,
            1.3270558429140182,
            0.15017869704021614,
            1.1109452124892736,
            0.9985712145435668,
            0.2990362879552869,
            0.27660358647221417,
            0.5631134916283013,
            -0.09667496843645798,
            -0.5509316884927826,
            -0.7941658601602981,
            -0.22518418031282356,
            -0.04522308622292581,
            -0.9284588036740371,
            1.8194061065025,
            0.5066566112773243,
            -2.7327996420477296,
            0.6056606423722779,
            -0.6057290694366327,
            -0.02910978111908341,
            -0.9936089517018556,
            -0.4310468162087988,
            0.34548135879569253,
            1.2647994901944788,
            -0.8968869195764435,
            -0.2910260521743751,
            2.0027969458125936,
            -1.248626329522616,
            -3.1432386505036356,
            0.6255798270675387,
            -0.36488960559714695,
            -0.4441423094423378,
            1.2048543802980767,
            -0.7546379975926881,
            -0.23074099708127582,
            1.0107857274063978,
            1.0368666576950987,
            0.30247366837521417,
            -1.1852000705819046,
            0.19295648935314405,
            0.8581109206762032,
            0.6492135904334673,
            0.011136802984171745,
            1.19314557261489,
            0.10380570169819181,
            0.46429131264518636,
            1.399751624853468,
            0.6028697322420099,
            2.040735154442889,
            0.9033439444389637,
            0.6734754463692134,
            0.6284848211114341,
            -0.3747170915265451,
            0.3022500750754862,
            1.5109692608578698,
            0.12655488908456194,
            -0.10993647524547567,
            0.02379513073824016,
            -0.6719076858305026,
            1.7691993774800836,
            -0.2426464249858497,
            0.07979575510964831,
            0.9211050328433632,
            -0.6509721199244889,
            0.07659854357640249,
            1.1436160061479659,
            -0.0012203275968382388
          ],
          "numRows": 16,
          "numCols": 16
        }
      },
      "ops": {
        "type": "org.ejml.simple.ops.SimpleOperations_DDRM",
        "data": {}
      }
    },
    {
      "mat": {
        "type": "org.ejml.data.DMatrixRMaj",
        "data": {
          "data": [
            1.5589799896139067,
            1.1730761078170548,
            0.8963937520390214,
            -0.1697682607134134,
            -1.8840697105376467,
            -0.2748674889485275,
            -0.327231061345836,
            0.6376401974537624,
            1.187618051483086,
            0.8377653480222851,
            0.03510342839158209,
            0.6755884863125945,
            -0.23297082669828398,
            0.8696413235105459,
            -0.03997828767568329,
            -0.10815700650319937,
            0.25301478735105143,
            3.7999954704755643,
            -1.7822185878403611,
            -1.2799540572324422,
            -0.17361797181718136,
            0.3457306815752361,
            -0.021878519565212917,
            1.0208237156589168,
            -0.2143672867919846,
            -1.17318252728225,
            -0.44180000338999503,
            0.2851580980970428,
            0.6583654674212934,
            -1.6249116163308444,
            0.19519834615609707,
            0.4051507548990295,
            -0.977472497096855,
            -0.5413949052936362,
            0.10314057881780331,
            -0.5268841979242382,
            0.04203651324741586,
            -0.5168534528443418,
            0.010787735362256634,
            0.8070364049185037,
            2.253661601796617,
            1.9136281030870843,
            2.798887603121022,
            1.0077338958969873,
            0.8016640855554967,
            -0.016111211191576214,
            0.002144046437643654,
            1.9917402300701392,
            0.310329921626656,
            -0.17857931605059094,
            1.4948577777274439,
            0.7491980593035816,
            -1.1234477529275382,
            -0.6963331922089122,
            1.9682964545458588,
            2.045387363170041,
            1.5665312260769313,
            -0.06833415807042131,
            1.0248393514148972,
            -0.25641495240438605,
            -0.5107417099834097,
            -0.5182523505662646,
            -0.16165967226952205,
            -0.3037903304788615,
            0.32964964017708415,
            -0.4771913182588124,
            -1.1935705883775973,
            -2.716036570741248,
            0.01069661075428896,
            -0.9048772904678306,
            -0.4836638452016607,
            -0.09234752252930367,
            -1.0997666405326552,
            -0.8089684681142755,
            1.444863027976598,
            -0.5183145086888927,
            -1.9185434514113395,
            0.5465712088359729,
            -0.5613729404714238,
            -0.3353664534740547,
            1.4295211262152936,
            0.5496569438412249,
            -0.2545042429995218,
            0.5856898725459246,
            1.2792621522726961,
            1.0428541069778077,
            0.5167111112065474,
            1.259292369048696,
            -0.3930735626855311,
            -0.49247107566062076,
            0.7691180416906915,
            1.157639760922204,
            0.5083920778341264,
            1.0352730394568612,
            -1.8734617781936256,
            2.2418452605503303,
            1.84411425249805,
            1.625406297628296,
            -1.477568453892614,
            0.13055355935988328,
            1.8076833372139585,
            0.08192116380986825,
            0.6525549340349687,
            0.661914397386309,
            2.4405904210024696,
            -0.7445124598094643,
            0.4548630057354605,
            0.7689778973283505,
            0.37189250566777315,
            1.3100324763198894,
            1.3274434390545038,
            0.24586136340140446,
            1.2473232026856906,
            0.2745115999657256,
            0.5256080238907961,
            -0.2910892902422304,
            -2.5914029318733443,
            0.4846044987420903,
            -0.03913001316027902,
            0.3464826021414976,
            -1.0847137768414028,
            -0.7844429395209713,
            0.19757232581875106,
            0.2858521642279327,
            -0.006517896883457885,
            0.2325178216737686,
            -1.2731522389914525,
            -0.4431451703841809
          ],
          "numRows": 8,
          "numCols": 16
        }
      },
      "ops": {
        "type": "org.ejml.simple.ops.SimpleOperations_DDRM",
        "data": {}
      }
    }
  ],
  "biases": [
    {
      "mat": {
        "type": "org.ejml.data.DMatrixRMaj",
        "data": {
          "data": [
            -1.6913281092107146,
            0.45448626399494896,
            0.9080603098898349,
            0.36750440674970175,
            -0.5874312330437148,
            0.07431901900379823,
            -0.6350956541695907,
            -1.016051408951424,
            0.3107221885994339,
            -0.03275998208387823,
            1.2006570164046184,
            -0.32396574358559616,
            -0.016646526076236456,
            0.26618301263016475,
            -1.2188881709734953,
            -0.1480725804025944
          ],
          "numRows": 16,
          "numCols": 1
        }
      },
      "ops": {
        "type": "org.ejml.simple.ops.SimpleOperations_DDRM",
        "data": {}
      }
    },
    {
      "mat": {
        "type": "org.ejml.data.DMatrixRMaj",
        "data": {
          "data": [
            0.8627895981079552,
            2.081488339017944,
            -0.9592533567777527,
            -0.2962177015366545,
            -1.2346343326336189,
            2.4431818739463322,
            -0.12905329794139925,
            0.763115935964997,
            2.2452763220685243,
            0.6139621180454173,
            1.5898661001814183,
            -0.6648596260357356,
            3.669773653810045,
            0.05820683122769968,
            -0.5982526061326134,
            0.015815071370093192
          ],
          "numRows": 16,
          "numCols": 1
        }
      },
      "ops": {
        "type": "org.ejml.simple.ops.SimpleOperations_DDRM",
        "data": {}
      }
    },
    {
      "mat": {
        "type": "org.ejml.data.DMatrixRMaj",
        "data": {
          "data": [
            0.6133903603070859,
            -0.3696899966704112,
            2.3441432010788352,
            0.5129944037828233,
            0.6428090268883099,
            1.431631916171486,
            1.3640609424010157,
            -0.38726155502028176
          ],
          "numRows": 8,
          "numCols": 1
        }
      },
      "ops": {
        "type": "org.ejml.simple.ops.SimpleOperations_DDRM",
        "data": {}
      }
    }
  ],
  "learningRate": 0.1,
  "activationFunctionKey": "SIGMOID"
}