{
  "activationFunctionFactory": {
    "activationFunctionMap": {
      "TANH": {
        "type": "basicneuralnetwork.activationfunctions.TanhActivationFunction",
        "data": {}
      },
      "RELU": {
        "type": "basicneuralnetwork.activationfunctions.ReLuActivationFunction",
        "data": {}
      },
      "SIGMOID": {
        "type": "basicneuralnetwork.activationfunctions.SigmoidActivationFunction",
        "data": {}
      }
    }
  },
  "random": {
    "seed": 223913514154197,
    "nextNextGaussian": -0.6601833487633891,
    "haveNextNextGaussian": true
  },
  "inputNodes": 45,
  "hiddenLayers": 2,
  "hiddenNodes": 16,
  "outputNodes": 8,
  "weights": [
    {
      "mat": {
        "type": "org.ejml.data.DMatrixRMaj",
        "data": {
          "data": [
            -0.08413797297700243,
            0.24493072055873966,
            -1.2555656872888636,
            0.2115858565979245,
            0.4925254213327832,
            -0.6486873954805434,
            0.37615793739098513,
            0.4369779169571337,
            1.1968340626419391,
            0.029574995368100154,
            0.4004495569691106,
            -0.7714552886181992,
            -0.6980424611442223,
            -0.28990187801676454,
            0.5296931017119808,
            0.9929479461134247,
            0.32503560592744485,
            -0.6450551381614599,
            -0.6350146012878948,
            -0.1846096694655086,
            0.08254892559592975,
            0.636694829893129,
            -0.7326065938836871,
            0.511337603073112,
            0.6450024047956204,
            0.03859912447121028,
            -0.31058642469868425,
            -0.8066290237921596,
            1.2040625964825886,
            -0.7056302732344852,
            -0.7382635178326593,
            0.04521693631014201,
            1.3683498452856775,
            -0.5420020583375086,
            1.1082151875651456,
            -0.9411294386588018,
            0.5076733765898682,
            0.04858997406966081,
            0.17412721815429988,
            -0.39260990129736584,
            -0.7149134890048562,
            0.24253805591892988,
            -0.39050383681366796,
            -0.23893859734159306,
            -0.5103831274351283,
            -0.04894681554437641,
            1.2435226531210364,
            -0.545509683004398,
            -0.35812107808125027,
            0.5521664881472323,
            0.6884382218353298,
            -0.5893257208779542,
            0.7798960745378528,
            0.7491160224792066,
            1.8455891335717436,
            -0.1346344829656509,
            0.30901658543890287,
            0.6236474866715624,
            0.8142635357618817,
            0.8078852058075586,
            0.4775825827649773,
            -0.21334398908913071,
            0.6822509827288836,
            0.8013202137216651,
            -0.5043694951717992,
            0.18678191498140828,
            0.20232064838854402,
            -0.667813397079976,
            0.200589771805606,
            1.33023208012542,
            -0.7514592474548607,
            -0.23527811921114938,
            -0.7327626037741135,
            -1.0433290332636305,
            0.4509550419592204,
            -0.7529164581448686,
            -1.610365715546129,
            1.0689165927686213,
            0.42567873219377683,
            -0.07415583570337936,
            -0.8058339179576287,
            -0.8777887970580309,
            -0.4477998679775541,
            -2.16936050511375,
            -0.856186111427085,
            -0.7153472693868159,
            -0.8730814379727752,
            -0.2384012517479509,
            -0.4359751864114726,
            0.408312593736708,
            -0.7392262438948762,
            0.6620710161094974,
            0.6922585525456386,
            -0.30996363515543224,
            -0.7295952906331022,
            1.118809818633261,
            0.004470354794271492,
            0.5096137028810863,
            -1.6820799944400506,
            1.2592503344817438,
            0.6199660473116333,
            1.2502320793013975,
            0.046120495390202354,
            0.757198949922191,
            -0.29093016791699355,
            0.9759966495195709,
            1.9356949247844029,
            -0.17628746287509722,
            0.9171308392523426,
            0.8806549135987224,
            0.08942997478525805,
            0.38926140956240407,
            0.21493461010877102,
            1.194703156427356,
            -0.4238469624997787,
            0.9566860709193747,
            -0.7436753805172527,
            0.9302966472468464,
            -0.6075973533862691,
            -0.7617084819132593,
            0.8690509413750341,
            -0.39032245653305564,
            -0.2506470567810884,
            1.1553030840915164,
            -0.30983274633186275,
            -0.5514972693478251,
            -0.6799430521179867,
            1.1710927622462872,
            0.15462548405061605,
            0.5543626441179963,
            0.043145168440834825,
            0.38362860134637655,
            -0.6107812080517134,
            -0.17766147391774023,
            0.9840946067961058,
            1.2307860058716056,
            -0.7230138582476369,
            0.3420684826000929,
            0.8986918373917618,
            0.7474410265013027,
            1.020208875902604,
            -0.30566347139631683,
            -1.3896049650067235,
            1.3902630360201487,
            0.31445209101616983,
            -1.2263678344500466,
            0.43478348213117013,
            -0.5304985422951314,
            0.4367184886185582,
            0.2198640280440292,
            0.38374525058031317,
            -0.5114144831770094,
            -0.8783992981391472,
            -0.5752384405404822,
            -0.4872085039768152,
            0.30054314068226473,
            0.6798889471899132,
            0.32696924098503666,
            -1.3020401136863502,
            0.9250865297146449,
            0.8294334685714534,
            -0.9790028577041865,
            0.968493582766951,
            0.09324710609240228,
            -0.30597810193674,
            1.1410390874838237,
            -0.0035383187938519134,
            1.157160798470964,
            0.6865396452677178,
            -1.7421832318245811,
            -0.23083240836703056,
            0.37326698520065127,
            0.1984616146326048,
            -0.4216390412668749,
            -1.7348309414959653,
            1.0843381125576297,
            0.20213548746811785,
            -0.7631282787263531,
            0.14976858627461132,
            -0.5149080084738589,
            -0.18657414189508645,
            -0.6045105969602445,
            -0.07122168857609079,
            -0.728228861478867,
            -0.3371867503929683,
            -0.3962588168165819,
            -0.7884346236765246,
            1.2606786208352363,
            0.993753511151851,
            -0.9442104459435618,
            0.34549642468483666,
            0.48939921129564534,
            -0.6196124588628684,
            0.20199697749863033,
            0.1343164694040484,
            1.0071855797436138,
            0.18624943913569936,
            -0.2254496896323656,
            0.7698001911671115,
            0.43272253385330195,
            -0.2349833775637905,
            -0.021468304900856328,
            -0.28480619218333236,
            1.150035052968212,
            0.2489436392554445,
            -0.31004552700597765,
            1.684731196975323,
            -0.29887729828479426,
            -0.18900708211896644,
            -1.7052283135338149,
            0.7740645478346544,
            0.5433717360946807,
            -0.13724217746666456,
            -0.24964908515732126,
            -1.3797882046711143,
            0.27859455277789413,
            1.0721822599738176,
            -0.536127247166407,
            0.5059667553902836,
            -0.33482257084519085,
            -0.4488572774298021,
            0.08282183126021103,
            -0.4533963135304841,
            0.6203881678124349,
            0.1870039695296688,
            -1.2715590957805445,
            0.2052430514318373,
            -0.44141141663785854,
            2.103544622972622,
            0.7432328702234048,
            0.12217064282925616,
            0.7799376602600607,
            0.16329144597928458,
            -0.94505380495769,
            -0.42228615759415633,
            0.3897045714974926,
            -0.5495446215609322,
            -0.3957634401947995,
            -0.4759775408138134,
            -0.4294862241367421,
            -0.10119478590398934,
            0.5193745367895878,
            -0.2658928974965463,
            0.9083490481484066,
            1.8989853494177205,
            1.0848784464035635,
            -0.6875706403353625,
            -0.8262565369110402,
            -1.0970206029432799,
            -0.09798123317403248,
            -0.02139387578821883,
            0.6964751524533522,
            0.10762044345391386,
            1.654718949780933,
            0.19719998721476803,
            -0.2494393552496826,
            -0.3740250110584613,
            -0.21952440903503323,
            0.7856047215932893,
            -0.31401002240322734,
            -0.30268406316973184,
            1.6046174461748286,
            1.7796620798484133,
            0.21550752216032912,
            1.485329799102233,
            0.45466632360984427,
            0.5974781166944321,
            -0.1940644862548917,
            0.8073266748061212,
            -0.17511221064618954,
            -2.303267378745142,
            -0.4517937067330078,
            -0.016515143629008744,
            -0.7132212475423847,
            -0.25320881382841043,
            1.4751207258543482,
            0.271630767692836,
            -0.7459318627748863,
            0.37579300793807313,
            -0.3035710191832378,
            -0.8518305008471792,
            0.5386666758518288,
            0.22812309545996257,
            -0.4285484933234968,
            0.45141395469273193,
            1.00961472948685,
            0.8164706361476716,
            -0.8067215690997324,
            -1.483766364198373,
            -0.1549980676091215,
            0.6041351350345767,
            0.5834230331910337,
            0.08403067487333304,
            -0.7355296675558018,
            0.22342363681026445,
            0.30560729062984293,
            -1.5484333452371979,
            -0.5209482780166775,
            -0.8987284583367234,
            -0.6153408972009691,
            0.3437397553785606,
            -0.010783957172748604,
            -0.3869924584751114,
            -0.5682432022577409,
            -1.4516666693970497,
            0.9448173360082972,
            0.24437417570718167,
            -0.6391671919359836,
            0.0027743183145783057,
            -0.7262177378298036,
            0.6531551415810117,
            0.11223404460127415,
            0.05981482514548174,
            0.6524828730651636,
            0.9761273586518056,
            -0.5716620878879144,
            0.6383776392270764,
            -0.10183513547094925,
            -1.1021635648896424,
            -0.5507262909271806,
            1.1753304226773276,
            -0.5085692697218609,
            0.8068722084170972,
            -0.7695305012271851,
            -0.6929398705580759,
            1.203721600655475,
            0.7803010817069598,
            -0.341464118861959,
            -0.793280251510299,
            -0.9421458828639335,
            -1.1371333410159243,
            0.8587009197561066,
            0.4239905805200268,
            1.273325214948905,
            0.05007058590815236,
            -0.5644991932186313,
            1.4857816499914935,
            0.5234160105537847,
            -0.06336820667208243,
            0.29541726283888503,
            0.053229519093316136,
            0.6065261622006233,
            -0.5582539197217713,
            1.3679952580955055,
            0.6342114767730362,
            0.7379035519173026,
            -0.38082151485034993,
            -0.09686246323695613,
            -0.7262399101751211,
            -0.3028576115742921,
            0.8781265863032719,
            0.0994771706362759,
            -0.5340513426322767,
            0.2854188381601991,
            -0.12292353223110619,
            0.3495877242427514,
            -0.9814592775405258,
            -0.1148642867205012,
            0.7167498660653973,
            -0.5645498733968674,
            -0.7856420364832042,
            -0.08393320126859649,
            -0.9301380639293462,
            -0.6910129666796532,
            0.0489113901412741,
            0.42741871143294974,
            -1.270847980858587,
            -0.002736701724082913,
            0.22217017308360387,
            0.9429620114789663,
            -1.1388795711350646,
            -0.4727868266363276,
            -0.8213189299022454,
            0.07432524612307256,
            -0.6092979887408869,
            -1.128942608146442,
            -0.055612072142358415,
            -0.11716787521218985,
            -1.0244373314587314,
            0.20270948090967067,
            0.7007705161435152,
            0.1216500952117,
            -1.233933379880303,
            -0.04537461013244984,
            0.43633186856020223,
            -0.8137159034969155,
            -0.5492373776125268,
            -0.0933828693032639,
            -0.9288740043396932,
            -0.7347149344614974,
            -0.4261851204241913,
            0.9353120794867928,
            -0.8727911556279473,
            0.3282873097097234,
            0.5096505294056446,
            0.0729522855791388,
            -0.2383598083289034,
            -1.1370648337076414,
            1.113483374969168,
            -0.2743703004242942,
            0.6064965139008334,
            -0.8365719568002707,
            0.7192081616911192,
            -1.121002184138479,
            0.8450696817622715,
            -1.735426819667421,
            -0.685452349268346,
            0.23208936744390096,
            0.8682463428048866,
            0.901454698723684,
            0.9329345874550844,
            -1.2133764377111396,
            -0.45818795174088456,
            0.9607539473966901,
            -0.13135568285615146,
            -1.7032491910205676,
            -0.5814223691691025,
            -0.6646318821084105,
            0.12143683024468244,
            -0.4803000316456131,
            -1.292803606974416,
            0.9597967686288398,
            -1.2287844072455147,
            0.43675138165293825,
            1.6734118681970844,
            -0.5524796225898327,
            0.5915724977339665,
            0.10765635220463177,
            0.13986168618538075,
            -0.17855440686704904,
            -0.5543209695341946,
            0.5996099459320792,
            -1.0041309493218327,
            -0.3100673179965007,
            -0.06560275889342759,
            0.06843580953358974,
            -2.2423387999139393,
            -0.3365937627409238,
            0.228060253579792,
            0.2835039136716655,
            0.34205843567471506,
            0.016102821367159237,
            -1.047699856302296,
            0.6469451860252113,
            -0.7468657431907046,
            -0.5754891637298734,
            -0.9786817607052671,
            0.07337480320141854,
            -0.6090798028380024,
            -0.30983278496757594,
            -0.1529449739792501,
            0.6275429352104062,
            -1.2896864759341273,
            -0.9125372591361449,
            0.7078097992978926,
            0.6552760422744648,
            0.21335339304529044,
            -0.3349032417024169,
            -0.41059134841359146,
            1.9543856725532764,
            0.06394140373687307,
            0.4697411735212105,
            -1.7400687082385087,
            -0.1763788445037548,
            0.57496959183615,
            -0.8228880612259315,
            -0.7380917234328204,
            0.6965983741538739,
            0.33314002821378663,
            0.9237024553929631,
            -0.5398041471149428,
            -1.6114365455560535,
            1.3994680168807108,
            -0.14946153988566277,
            1.1433460634984969,
            0.07847008456081017,
            -0.6607986783621187,
            0.6594862036040459,
            0.4452118967550389,
            0.17446886684256246,
            -0.8537301402260866,
            -1.7343044561731262,
            -0.6602704859209036,
            0.048473334732258344,
            1.9546165523810917,
            -0.09115047262833542,
            1.2754375717371755,
            -1.071013106382839,
            0.36030265104321124,
            1.2855944209626875,
            1.245773731988034,
            -0.056797687416423104,
            -0.9896581752699676,
            0.15684853357435502,
            0.3739074688954873,
            -0.890715081043316,
            -0.2642742583498876,
            -0.7701733496999195,
            0.3922255865974072,
            0.4779607185382556,
            -0.956046881318275,
            -0.16234321138024033,
            0.032866561097396385,
            -0.619949839739632,
            -1.2204281961538634,
            0.6239268057670704,
            -0.3491934469495901,
            -0.09262853484709066,
            -0.06203179683887178,
            -0.3290032704783843,
            0.5953646096723414,
            -0.34685760173911606,
            -1.9051818644409384,
            0.8372957327253315,
            0.34099768887663084,
            -0.36474125100099886,
            -0.012085260540803389,
            1.0660462925749663,
            -0.7276128580338181,
            0.4865311098687386,
            -0.8083365739347248,
            0.425207439978994,
            1.346293947366933,
            0.580490631250743,
            -0.23529001340701727,
            -0.20693201182439305,
            -1.0994289487661881,
            -0.4356665038057954,
            -0.5470679769655808,
            -0.5404785192216539,
            -0.34008375646947764,
            -0.23155624454787593,
            1.136531969536589,
            -0.42187484057248303,
            -0.020547333985151184,
            -0.5452623574257363,
            0.5776115874334313,
            -0.755723175011838,
            0.8265550930941333,
            -1.1723953083713754,
            -1.0502518472055913,
            0.3617498071777382,
            0.9447288614428628,
            0.41399248340064476,
            -1.1633152477381083,
            0.7651803667543154,
            -0.6000162731754008,
            0.6183114887306969,
            0.6550834409357131,
            -0.8327498646504148,
            0.8771710228209975,
            -0.16645883198666822,
            -0.8773923487575714,
            0.001385133970596364,
            -0.716291266187225,
            0.14932629706232262,
            0.2668275510057837,
            0.09210831200140757,
            0.31726452137786043,
            -0.7479769633236197,
            -0.7384629623706405,
            0.18069016268831706,
            -0.27813248888741554,
            0.24661520026040334,
            -0.28790587098243026,
            -0.9304716206471004,
            0.32795621042637074,
            -1.2262021628544444,
            -0.6902050882292545,
            0.6970463896046559,
            0.2723256974201227,
            0.08057346627333217,
            -0.6655915481875256,
            2.020851389134248,
            0.48466296212139964,
            0.020129709155351727,
            0.5527720967949479,
            1.0525093128756913,
            0.572215225903311,
            -0.04211326718907582,
            0.9501174269743727,
            -2.461724934010602,
            -1.1392244431642846,
            0.68330696309767,
            1.483732949686071,
            -1.26352626495031,
            -0.5439763530768282,
            0.6728227072392654,
            0.5707503139829793,
            0.10738037832867567,
            -0.5348108258997719,
            -0.0037957832741593867,
            0.3667911956561942,
            -0.9855683599175342,
            -0.07814313981484317,
            0.24440337525378147,
            -1.5617063269367073,
            3.3448047975159767E-4,
            0.24383236193322255,
            0.39686326274753575,
            -0.30764242180930373,
            0.6992754854831051,
            0.402063717294596,
            0.06777283184242738,
            0.3955099149485855,
            -0.3154357445049585,
            0.4821840052048336,
            0.0932809775673925,
            0.7318683935465018,
            -0.2822553790797395,
            0.5549755691264047,
            -0.8306194013128769,
            -1.5150748523086366,
            -0.8414649199373943,
            -0.5379374867449596,
            0.07236277500394867,
            0.8267751180298787,
            0.5206065003832321,
            -0.9872454701315285,
            -1.741075497698093,
            1.189543893828796,
            -0.008009653643576087,
            0.48494418730880573,
            0.797860870701791,
            -0.40458689594742714,
            0.828752397122767,
            0.4412688568941656,
            -0.585373140697175,
            -1.0310874725075627,
            0.8821147549635115,
            1.0882433350362315,
            -1.179306021620912,
            -0.8031502304349385,
            0.7090799253555244,
            -0.19101014125094587,
            0.5594342326741799,
            0.6524049302568243,
            -0.49164732101702513,
            0.7131741349469549,
            -0.17937513161726848,
            -0.09931965153407174,
            0.7827591925867281,
            -0.3722994261288526,
            -0.3267200070540682,
            0.09797100249558888,
            -0.13262883835504602,
            0.23852622000954005,
            1.0042080174838102,
            0.038539588564497004,
            0.26837026587128787,
            -0.2919963812898224,
            0.47059627026340567,
            0.823067260707135,
            -0.8182958856816427,
            -0.5111465769131621,
            0.5939778444444853,
            -0.4270950903342805,
            -0.5521893557083379,
            -1.0590246607241571,
            0.3182123196830245,
            -0.7052745644709162,
            -1.2404252108932936,
            -0.6460488709106258,
            -0.5738795910345539,
            -0.6292884335003107,
            -0.6310094082376213,
            0.32386868834215354,
            -0.4785570857301646,
            0.0539443932283854,
            -0.30189387780650034,
            -0.36010679904837783,
            -0.5293618755619862,
            0.76038937398324,
            0.9670363566411264,
            -1.038257558413367,
            -0.28063143065198903,
            -0.13744975106185975,
            -0.9012587965420951,
            0.6227728489717849,
            -0.928215839933359,
            -0.19674171346181363,
            -0.7496054948492956,
            -0.751718923931745,
            0.8830093020946705,
            -0.2159251811901641,
            -1.032924874539879,
            0.5842650238553275,
            0.4221798796815638,
            -0.7285954252891591,
            0.49308596489236867,
            0.940568488385054,
            -0.48770456932539274,
            0.5962675201181051,
            0.6229467795409123,
            0.987879366076474,
            0.6280569755953058,
            1.7754988316480234,
            0.6402509956606058,
            0.3849073943851446,
            -0.6126401709539504,
            0.7608646217598655,
            0.42438639869468453,
            -0.7271769218014159,
            0.8349369452765085,
            -0.2846671792511149,
            -0.7736394651790697,
            0.13180157852723007,
            -0.30773579872418433,
            1.2790298231741914,
            -0.1005242290439643,
            -0.268672733784224,
            0.8056244042121792,
            0.8489981340636839,
            0.05420508041012262,
            0.04503232175770988,
            0.13875066605655495,
            1.0869077406469647,
            -0.19028323352659626,
            -0.3426432739065255,
            0.6484032507020248
          ],
          "numRows": 16,
          "numCols": 45
        }
      },
      "ops": {
        "type": "org.ejml.simple.ops.SimpleOperations_DDRM",
        "data": {}
      }
    },
    {
      "mat": {
        "type": "org.ejml.data.DMatrixRMaj",
        "data": {
          "data": [
            0.2443154272462124,
            -0.3685035402113961,
            -0.1891648570525636,
            -1.0210728548904158,
            0.06234072089409455,
            0.04148898255433753,
            0.29729708190564796,
            0.10171223181743438,
            -0.9870326608809235,
            -0.19844201845187848,
            0.24929577276576387,
            -0.0493639378788811,
            0.03501831479942795,
            0.17963456892020568,
            1.1308253134061284,
            -0.08389084388110102,
            -0.4689494280409824,
            -0.8379214025153163,
            -0.11668536081398884,
            0.6479656267702144,
            -0.12502285502271238,
            -0.29137704423500577,
            0.29790589046778093,
            -0.09115238718641616,
            -0.921222559297574,
            -0.2705878833394104,
            0.4739948991252431,
            0.5396290060556002,
            -0.05967841269922833,
            0.4048887997205434,
            -0.24012941780027836,
            1.1204837723628167,
            0.6645947693740725,
            0.3526301407592629,
            0.9205451352657072,
            -0.5825167934705116,
            0.7184903034669388,
            -0.6019922134815354,
            -0.2115707465967649,
            -1.209634654823087,
            0.6454904543143665,
            -0.1993646320968916,
            0.6542050538441466,
            -0.5879343775317605,
            -0.7879259122746411,
            0.7153666462957107,
            -0.043748440086333294,
            -0.22740889264891648,
            0.1353606792786926,
            0.380265056488087,
            0.672172964689443,
            0.17305157718735564,
            0.48798006825842755,
            0.4253812840031572,
            0.6373754690892349,
            0.4649742742932889,
            -0.029856369621015455,
            0.005095470309788075,
            1.9812761916687822,
            0.3585521643590275,
            0.06292646759365955,
            -0.6205621278455613,
            0.919767913938206,
            0.6319731030516367,
            -0.5410768904326293,
            0.7516282363487501,
            -0.003090620804619526,
            -0.8858538649215377,
            0.41894303508641406,
            -0.8962932544864306,
            -0.3628885282115841,
            0.5124740465219901,
            0.7137736246842239,
            0.6254945795707973,
            -0.7522136986718893,
            -0.9941132925040945,
            -0.39689445499491427,
            -1.2964951000127045,
            -1.0324841710833124,
            -0.43825956678889255,
            -1.3854404724436193,
            -1.703644836603206,
            0.6983228986302106,
            0.9781031471821277,
            0.6627730753044787,
            -0.17772886260221843,
            0.9247845228883691,
            0.4486009588820336,
            0.39574916105707736,
            0.42949785948985464,
            -1.4962616807401057,
            0.8032536332173807,
            0.9445477303749428,
            0.15034862793647913,
            -0.08683554884666556,
            -0.08337288732251646,
            0.04021952553415309,
            2.3747374891917166,
            0.0106166314755725,
            0.17737630723640474,
            0.4068687674884184,
            -1.5979524236377078,
            1.0977552543390297,
            -0.7639116015323852,
            0.8132868331659381,
            1.510186668101253,
            -0.9179922930224078,
            -1.1594163216874482,
            1.0189391557307697,
            -0.07054500485497334,
            -0.1695518203969324,
            -0.10531682553475874,
            0.956103448245037,
            0.10215573491355379,
            0.49196742754788986,
            0.9740670472982568,
            0.762172376947291,
            0.10124037662880092,
            -0.1150871785673678,
            0.6865775456041141,
            -0.19065721408686032,
            1.1994027479993468,
            1.00137126970829,
            0.2936225163565822,
            0.6680840935549228,
            1.28395555143533,
            -1.278689691858493,
            0.9637160360078125,
            0.8453188526633721,
            -0.5918428044042362,
            -0.3683840922049542,
            1.2794260477847197,
            -0.9413206128031936,
            -0.5146257738018325,
            0.1799220178107761,
            -0.9241480241414488,
            0.7152449114204102,
            -0.004129452282424895,
            -0.056071314398573824,
            0.00871318772960622,
            -1.4303956079662834,
            -0.9907928719423424,
            1.3684363640450443,
            0.007316336795001294,
            1.3086717841578661,
            -0.203518134439012,
            0.692424097971967,
            0.5672556767082811,
            -0.1639122834122359,
            0.5583973164317393,
            1.1126281047705189,
            -0.39672839049500885,
            -0.4865808489437303,
            -0.8750178071946813,
            0.6882701508958747,
            -0.186001300753031,
            0.5044133813466215,
            0.18848574931255224,
            -0.25198687363238814,
            0.2911674332466727,
            -1.5201870974896667,
            0.9023479241140098,
            0.4181926288207505,
            -0.15058878503833228,
            -0.3826232526091602,
            -0.7349240343429745,
            -0.7977078184968213,
            -0.10288961704112332,
            0.11998426703609011,
            -0.6399799685340589,
            1.710413712383,
            -0.23166362208268781,
            0.27985234014220384,
            0.39751969952378763,
            -0.6261883747412329,
            -1.1093828189329416,
            -0.22154068826246365,
            -0.17800169246322248,
            1.1156718849674494,
            -0.8235961898490958,
            -0.6033273632270325,
            -0.7006805735965991,
            0.742229207765528,
            0.8338409803458495,
            -0.47768960906958036,
            0.6094964297908236,
            0.09236911698671513,
            0.48502801107300253,
            -0.47021474835117694,
            1.0771851313819412,
            0.9547821937592395,
            -0.47176909019316193,
            0.7600354820861518,
            0.07154049468484258,
            0.3045400895057662,
            -0.6488788337840519,
            -0.5770108063627513,
            -0.18093981896649858,
            0.007125159158180683,
            -1.1120888595711902,
            0.8979305919638754,
            -0.11959259114043785,
            -0.06813896300388023,
            0.2430241049173245,
            0.008546348215623834,
            0.2975122134718542,
            0.02665705368716642,
            0.1257982001505067,
            0.7576751045521588,
            0.5428084757211702,
            0.8136671531503065,
            0.13463820698464435,
            0.28752669906392825,
            0.33709082944587765,
            0.7944868760205446,
            0.6592147622434539,
            -0.04331550456718847,
            -0.4265137742471188,
            -0.1651534722752469,
            1.0756374010746064,
            0.35539428645861876,
            -1.4341428274738477,
            -0.1461020877119209,
            0.6427216268347551,
            1.082040867861422,
            -0.6456046945772376,
            0.6881754311342805,
            1.1456149843765653,
            0.7149212495778403,
            0.13575363134211405,
            -0.7271254232305453,
            -0.11052535709014932,
            -0.03348667748232259,
            -1.0667131940598715,
            0.9750513937396509,
            -0.15152166227865232,
            0.6344026719857627,
            -0.39976574944911086,
            -0.5056390414527336,
            -1.0378900487244396,
            -0.022611873449462083,
            0.035331670329324105,
            0.3650776460401626,
            0.7883014968484373,
            0.004946846578042785,
            0.2685594776745499,
            -0.05567816085973454,
            0.353114444926595,
            -0.004280524810873265,
            0.6376386418126978,
            0.5849794881975741,
            0.29610060486310885,
            -0.9949472166935889,
            0.044343265605055804,
            2.267383935830934,
            1.123168646940191
          ],
          "numRows": 16,
          "numCols": 16
        }
      },
      "ops": {
        "type": "org.ejml.simple.ops.SimpleOperations_DDRM",
        "data": {}
      }
    },
    {
      "mat": {
        "type": "org.ejml.data.DMatrixRMaj",
        "data": {
          "data": [
            0.7803558331022626,
            0.40433688444098304,
            0.25107878989252463,
            0.9048926953582432,
            0.8191819638490416,
            0.9049181773794979,
            0.5310472967331347,
            2.2053813898126693,
            -1.4662185110809105,
            0.8245391587592581,
            -0.6183282023040677,
            1.3901527204049309,
            0.7759850373243614,
            1.577140125895532,
            -0.1287564084852988,
            0.18505427812209507,
            1.124025304043251,
            0.8930418479604307,
            0.7998168857260528,
            0.43262598189593304,
            -0.3212380335806555,
            -0.5343360478267652,
            0.9574486807137998,
            1.4185940175485787,
            0.9274770146847285,
            1.0879098030770205,
            -0.07771884986045041,
            0.9920464395154407,
            0.6404223057828273,
            0.17342000885006933,
            1.1867872413963263,
            0.7228117693072434,
            -0.05229402356955459,
            0.022752099042719853,
            -1.0390584784358334,
            -0.7755989564432555,
            -0.5179044406610769,
            -0.11965099906238531,
            0.42719346133929914,
            0.1774258230689374,
            0.21123993453177636,
            1.9888290426969681,
            -0.15562435234157335,
            -1.3801200048838287,
            -0.06847981357696464,
            0.20676012152702583,
            0.20924599677764627,
            -0.396813456981568,
            -0.563636294076316,
            -0.2938982972286135,
            -0.9808300954586706,
            -0.14392941053082886,
            0.4695066173852602,
            -0.9266892488918951,
            -0.00350862324752399,
            -1.386067725834855,
            -1.7818542733966876,
            -0.3514507449422515,
            1.158368587102956,
            -1.3863648770062016,
            0.18512237478139426,
            -0.6887476068337105,
            0.3846036629825691,
            0.22160452391604968,
            -0.8449478805387263,
            -0.9436676591591111,
            -0.3066119002001484,
            -0.9339144099845716,
            0.047971688064870066,
            0.13870529458936284,
            -1.0097701029719315,
            -1.1416283026222418,
            -0.014465658047827068,
            -0.07020618308894955,
            -0.6959874855967558,
            -0.8318714444626202,
            0.34282555952529736,
            -0.2126461443543508,
            -0.13484602430679438,
            -0.9920874680964564,
            1.2705834158910383,
            -0.9056787843635201,
            0.7170082244165914,
            0.6169672810640089,
            -1.389680421070791,
            -1.4374647023926714,
            0.0776411233700981,
            -0.04845236822597365,
            -0.2841109790979762,
            1.423930704155265,
            0.06870683596914406,
            0.940476372022969,
            0.40465185466416015,
            0.6737201138646183,
            0.22200454878256282,
            1.0973284650840922,
            0.016321217446109038,
            -0.4369948084994202,
            1.1894540466229286,
            2.511174933644633,
            -1.1561112216978726,
            0.5719341135910583,
            0.6973900093506259,
            1.5540499143486666,
            0.597995887373649,
            0.3036208095977516,
            -0.8092924793835032,
            -0.31945753655870557,
            -0.772301156241341,
            0.9792969497744588,
            0.6210757460296141,
            0.28620872516545093,
            -0.6202937213138664,
            -0.9262708850173957,
            0.4245106620357303,
            -0.7746060762132843,
            -0.14077219420057407,
            2.1769147965531634,
            -0.017007179949116547,
            -0.2037866014864956,
            0.0037099472996534877,
            0.3900039018326966,
            -0.9072957651885614,
            -0.41896052549477625,
            0.8421475323884342,
            -0.25609651003494127,
            0.35265598309511403,
            -0.6090191543576546
          ],
          "numRows": 8,
          "numCols": 16
        }
      },
      "ops": {
        "type": "org.ejml.simple.ops.SimpleOperations_DDRM",
        "data": {}
      }
    }
  ],
  "biases": [
    {
      "mat": {
        "type": "org.ejml.data.DMatrixRMaj",
        "data": {
          "data": [
            0.3346459131142898,
            0.3790151388532583,
            -1.2564965380168172,
            0.880008803872255,
            0.44330797395823823,
            0.5423809053392161,
            -0.5759769143237481,
            0.46391380488740575,
            -0.42061190942740656,
            -0.5977383088063539,
            -0.6532007438172327,
            -0.38248079633493237,
            -0.38120100111162236,
            -0.6471555124583053,
            -0.3250831844950956,
            0.4687952647442919
          ],
          "numRows": 16,
          "numCols": 1
        }
      },
      "ops": {
        "type": "org.ejml.simple.ops.SimpleOperations_DDRM",
        "data": {}
      }
    },
    {
      "mat": {
        "type": "org.ejml.data.DMatrixRMaj",
        "data": {
          "data": [
            0.11415814696963894,
            -0.6449889518050399,
            0.003692141801449944,
            -0.2470076190241719,
            0.4062331333646205,
            0.050293608467578466,
            0.0826946440623455,
            -0.2520073213153251,
            0.9299090534966463,
            -0.3430629513346768,
            -0.9041462827641151,
            0.6407178569113168,
            1.4933702940110134,
            -0.013350667799649885,
            0.20467055747930152,
            -1.4349147204323027
          ],
          "numRows": 16,
          "numCols": 1
        }
      },
      "ops": {
        "type": "org.ejml.simple.ops.SimpleOperations_DDRM",
        "data": {}
      }
    },
    {
      "mat": {
        "type": "org.ejml.data.DMatrixRMaj",
        "data": {
          "data": [
            -0.10713604234024565,
            0.32404954208295067,
            -1.492099060345293,
            -0.9319876847487729,
            0.40909876042942717,
            0.3687173689939849,
            2.1091160051427233,
            0.9124222646695468
          ],
          "numRows": 8,
          "numCols": 1
        }
      },
      "ops": {
        "type": "org.ejml.simple.ops.SimpleOperations_DDRM",
        "data": {}
      }
    }
  ],
  "learningRate": 0.1,
  "activationFunctionKey": "SIGMOID"
}