{
  "activationFunctionFactory": {
    "activationFunctionMap": {
      "TANH": {
        "type": "basicneuralnetwork.activationfunctions.TanhActivationFunction",
        "data": {}
      },
      "RELU": {
        "type": "basicneuralnetwork.activationfunctions.ReLuActivationFunction",
        "data": {}
      },
      "SIGMOID": {
        "type": "basicneuralnetwork.activationfunctions.SigmoidActivationFunction",
        "data": {}
      }
    }
  },
  "random": {
    "seed": 253542048943205,
    "nextNextGaussian": -0.1623608182755309,
    "haveNextNextGaussian": false
  },
  "inputNodes": 45,
  "hiddenLayers": 2,
  "hiddenNodes": 16,
  "outputNodes": 8,
  "weights": [
    {
      "mat": {
        "type": "org.ejml.data.DMatrixRMaj",
        "data": {
          "data": [
            -0.8771454809713783,
            2.1448279011702023,
            -1.053477809933242,
            2.0206041280395106,
            1.1982348660026814,
            1.1812111507678846,
            1.5677495635660534,
            -1.018939401311604,
            -1.932942776013297,
            -0.02090465360483551,
            2.030432297475291,
            -0.2182138521903763,
            -0.0362234865116246,
            -0.8723742376359431,
            -2.098539089444275,
            0.8741162639668587,
            0.08424996201708071,
            -0.2770435802097849,
            -0.24886566864905046,
            0.6199839647495817,
            0.18102196803492748,
            -0.31755224771193136,
            2.9638392766423705,
            -0.5762743228452325,
            -0.5561430876655011,
            0.835213641060476,
            -0.9166655679987562,
            -1.4820020125788893,
            -1.73061017987096,
            0.03490358456502052,
            0.43049505660062704,
            2.201133299759795,
            -1.2754120888253637,
            2.163270517110821,
            0.2158628175150033,
            0.7424463936336421,
            1.0124835629297841,
            0.5998853965541795,
            -1.816636941587606,
            0.37435091131590276,
            -0.8123580845916738,
            0.18784987474738965,
            1.3570276037598517,
            1.9790118209679741,
            1.0019732525560812,
            1.33907781658362,
            2.5637780094471023,
            0.6706602118597748,
            -0.5344317824784753,
            -0.08756092877139376,
            -0.4293032825548279,
            -0.7272670416255054,
            -1.323418614079217,
            0.5780810888723522,
            -0.7678627715719433,
            -1.36426374943361,
            1.7283608562237094,
            0.3172243757690114,
            0.7393856936792065,
            -0.05488233296002512,
            0.8130129297541633,
            -0.3668958518827382,
            0.16057008759839891,
            0.5719487535708786,
            0.21893592807838863,
            -0.9471202745763357,
            1.0478629228741687,
            -1.4777839367360432,
            -0.9200865528111882,
            -0.8653623158645275,
            0.50800791800718,
            -0.28970605539126365,
            0.6712038820145823,
            0.11258941645349863,
            -1.4115551343161108,
            -0.37123449213753135,
            0.47193926953838444,
            2.9256204934863845,
            0.848846088293177,
            1.5646561727962367,
            -0.31949384810163334,
            0.7614364953065126,
            -0.03398137191009766,
            -0.5311551013383005,
            0.33819912817585024,
            -4.106264062968852,
            -1.204790878931589,
            1.8527396022733165,
            -0.6950988172060982,
            0.038811810585306195,
            -0.8053674291351121,
            -1.6666134592138064,
            -0.343621303420622,
            0.5325097793709165,
            0.6821223306745965,
            -0.39139258267665306,
            1.630026305857737,
            0.1603347526972151,
            0.12583650145482989,
            2.3313422791746197,
            0.3137689755984736,
            -1.5771301552542747,
            2.1796630037831264,
            0.9575487103227955,
            -0.4584070426002591,
            0.5340939697636878,
            2.4522409236029565,
            4.477995294823559,
            -0.18878087292212395,
            0.7546544991488692,
            -2.414533975276276,
            -0.060939708570358825,
            -0.326296639716327,
            0.2803842977855228,
            1.26861822605535,
            0.26279883491332584,
            0.7970541231170568,
            0.7547870675605481,
            -0.3697670649074276,
            -1.7957360379373748,
            0.0937186608831494,
            1.1515418837347877,
            -0.1738914696752113,
            -0.4464379574331228,
            -0.7348744241756735,
            -1.4433405270326054,
            -1.068301072972832,
            0.5987734546122953,
            0.24895216863197842,
            0.12738099506296285,
            1.7235075395286374,
            0.6930881474672812,
            0.23660794098619442,
            -0.5859736379512144,
            -1.4446200621266032,
            -1.6433534723222976,
            0.7594073096344978,
            -0.020237639047614553,
            -0.5435805969512175,
            1.6155424142873378,
            1.492004773151616,
            -0.4292347873458357,
            0.035261578486352335,
            0.23263733960349317,
            1.4191460180239233,
            1.8499202002189825,
            0.9502490591416826,
            -1.21792422626479,
            -0.483054297821696,
            -0.057015964362200626,
            0.2084929525608613,
            -1.2398137547637271,
            -1.2666414775776267,
            -1.038005912547343,
            0.2346022847155266,
            0.7654346776736088,
            -1.4925711112276818,
            0.9153007698519576,
            -0.8387747865360289,
            -0.2342474541685582,
            1.0109379558447444,
            -1.2135152197731705,
            1.364379469773256,
            0.20331260976210785,
            -0.5089137641305458,
            0.08671661802339724,
            -0.7593890336296667,
            -1.5270023830467718,
            -1.44910145855769,
            -0.738035254419977,
            -0.4599505056282006,
            -0.050883035594558756,
            -0.3971647506888869,
            0.44346129079720614,
            -0.13327756363282472,
            0.5543368238991788,
            -1.022483017060163,
            0.7202143834997132,
            0.5038688642241331,
            1.473695604933324,
            -1.8767303762418508,
            1.6445826850002336,
            1.6126542258759577,
            0.49181000519525253,
            -0.5828925802865732,
            0.26605849721210767,
            -0.9508335917829565,
            0.283331623039515,
            1.2513338791304283,
            -0.5683425739802815,
            2.944451443793548,
            0.062109601879818566,
            -1.1700565431707997,
            -0.42433889178189804,
            -0.47702069998013774,
            0.5126155597384685,
            0.11739421531306721,
            -0.17319068409234073,
            -2.8565693496711386,
            -0.5201106296922314,
            0.9244170277131589,
            1.22380693489031,
            0.021903388493502374,
            -1.5879176122308714,
            0.6239645965145564,
            -1.9982304446504007,
            -0.7929445448972766,
            0.6442338260762945,
            0.619939333584161,
            2.0766672969507587,
            -1.7558603873758956,
            0.579614119491648,
            0.5626161630521576,
            1.042527336901347,
            1.6350814116865058,
            -0.2586881596421011,
            -0.7829518408098205,
            -0.13357270720705477,
            1.6852707948926888,
            0.09333272303526291,
            -1.1473733104553567,
            -0.1326490573745886,
            -0.7167597273676809,
            0.10456096066525904,
            -1.8170814041148917,
            0.06500361160642411,
            0.9058078392577208,
            -1.0008661282827955,
            -0.46862399596145143,
            1.096844162085384,
            -1.1394023026486793,
            -1.1071204844080405,
            0.17055096853789364,
            0.38295654210102426,
            -1.6466400810480228,
            -2.6542405849223787,
            0.5592229621722052,
            -1.839621908709686,
            -0.7544892978623852,
            -0.010614115090012255,
            1.517337220848328,
            -0.40408564677812997,
            -0.6529022545576709,
            -1.7165787826420675,
            0.5615602923297522,
            -1.0748956384162427,
            -0.815714632125049,
            -1.6386566651246293,
            -0.26206285905063875,
            0.3647757031544835,
            0.904521474662343,
            -0.4515099944657044,
            -0.45551954520466914,
            1.484443698622245,
            -0.6056017583295852,
            0.9958622493330904,
            1.230607216272173,
            1.481051367107165,
            0.36696807577125146,
            -0.6469736554209294,
            -1.6638614447843152,
            -1.702181232641963,
            -0.19604340107506268,
            0.5320087175933957,
            -1.2330578271528134,
            -1.845154240068556,
            0.6253685066649532,
            1.3296696694367338,
            1.2029141565705865,
            0.19728404056315735,
            -1.05191528609573,
            0.6115188700947248,
            -0.2991545438991025,
            1.0389655588464835,
            -1.5392884827822997,
            2.440882119845613,
            0.8551558514460406,
            0.18263796747249605,
            0.18337315938433774,
            -0.39596194001183194,
            -0.08628478752880048,
            -1.9458762818248703,
            0.4318633574165709,
            -3.2831727098704437,
            1.32429678689558,
            1.3047553342631673,
            -1.895894561407781,
            -0.6747175017054772,
            0.8800111752260026,
            1.653577165296765,
            -0.40785401105218333,
            1.0640806974991797,
            -1.015224571532919,
            0.537050114877395,
            -2.397891046117836,
            -0.642844567425719,
            0.10594568320404729,
            2.462317918074688,
            -0.6907604600359237,
            -0.487450055640125,
            -1.2056025384101086,
            0.3711223377373928,
            -1.1025050728758639,
            -1.0428620810849139,
            0.8937654716167662,
            0.16143320226516245,
            1.141413434715668,
            0.194849004884996,
            0.13426442603660882,
            -0.20625242863632062,
            -0.26380284920348274,
            -1.3898953038166482,
            -1.0240817597797487,
            1.8639164910729846,
            -0.22897956955318705,
            -1.4250701727723807,
            1.349684281511268,
            0.9412880541395292,
            -1.7001858308668856,
            -0.23703411209231262,
            -1.374107145310852,
            -1.0523099511124272,
            -0.6366195274374822,
            0.3962860001114373,
            -1.4582449467345837,
            0.6730254432878195,
            -0.0374421218970601,
            -0.1511150326342485,
            -1.0391698889426615,
            -0.12915247485902911,
            -0.3472385273981653,
            0.6772233304128903,
            -1.8112272653129204,
            0.26076101690564474,
            -0.5059392391816553,
            0.14770345549839276,
            1.8091298361201156,
            -1.4402074439499495,
            -0.5375296980708173,
            -0.9020004330274953,
            1.3867521095681792,
            1.357731099717177,
            0.7614197247258139,
            0.16875160850423526,
            -1.3149913105632218,
            1.2608455963656138,
            -0.5193687633724832,
            0.7376215760333326,
            -1.4404647984974503,
            -0.07502475692441823,
            -0.27328263145980586,
            -1.0507118570940481,
            -0.4709270787111405,
            0.15751182195209723,
            -1.0979959264446768,
            -1.537624674763486,
            1.0936108969348803,
            0.7876348681705346,
            1.4700532293596928,
            -0.22240267085935278,
            -0.8734608258810631,
            -0.3927572179925268,
            1.283061748055429,
            0.5033192079972386,
            0.7561168269050615,
            0.6801923142572963,
            0.38250180004873435,
            -0.5556540351801679,
            1.467558464396575,
            -0.27522323932558096,
            0.01877940920920637,
            -0.1777028261785048,
            -1.1945522612919146,
            0.415451143022859,
            0.650749451457063,
            0.6470709191655478,
            -0.2530468068467968,
            1.6429450933760665,
            -0.2322086913793151,
            0.41049449427048196,
            1.275169157720565,
            -0.39793543066721626,
            1.6454146535341883,
            -1.3993453348870601,
            0.8014786685745316,
            -0.24510018200910275,
            -0.713483660550629,
            1.0975678841881575,
            0.7495035354130062,
            -2.2398739857592322,
            0.3045346972001178,
            1.5680605107566288,
            0.721225967290841,
            0.588478118829223,
            -0.5665615500819546,
            -0.7607805134470951,
            -0.21057112287108082,
            -0.2042589923816545,
            1.2111328834932222,
            2.522023612890975,
            2.815866800024081,
            -0.0020362975352388735,
            -0.5367776328022809,
            0.2807712906880295,
            -0.33531081815250263,
            1.507257704322633,
            0.307913369671976,
            0.6017784244389848,
            1.4680812794933484,
            1.0869521034035188,
            -0.32600015653448744,
            -0.4852442001172659,
            -1.18786152046968,
            -1.038504839356663,
            1.5472730521777658,
            -0.22290613895955283,
            1.0498123170245472,
            -0.4189321660388745,
            -1.2157792025583067,
            -1.0989347859015206,
            0.9964407421371586,
            0.4130929342356856,
            -0.17596422821207014,
            -1.7924536413419943,
            -0.3172128406233054,
            -1.1122898253452687,
            1.9255066366404963,
            -0.1013844210485092,
            1.7007090797205175,
            -1.9135925040704218,
            -0.5764430980020001,
            0.4105457370782556,
            0.08372653122686247,
            -1.0033002715537012,
            0.054182140698742526,
            0.3699520808482649,
            -2.2692786349596963,
            0.49570817434756304,
            0.44902262336802756,
            0.10362840841842219,
            1.1889918299951792,
            1.238681350155884,
            0.1344444034934154,
            0.17756522330164368,
            0.24121765684086485,
            1.9555213682627621,
            0.19567232980802418,
            -1.2852957365029283,
            0.24244776450141223,
            -0.4648792829529844,
            0.24519770131482088,
            -0.30461367285604996,
            0.3725268950661988,
            -0.8449272594358223,
            -0.7293868686143551,
            0.03698191195840403,
            0.6333265132899267,
            1.6347136638524424,
            -1.1724827476630242,
            -0.22666825515854194,
            -0.09476897167891374,
            0.9624521586434496,
            -0.6988715625499788,
            0.3503286123310853,
            -1.0744717613411416,
            1.5156631971285912,
            -0.3713828001558466,
            -0.010752718556339247,
            1.170154941721356,
            -1.485172143668625,
            -1.6372077166314676,
            -0.5621253578883163,
            1.3321001383053515,
            0.48839292525983136,
            -0.5061752809071973,
            3.5758991370449964,
            0.3947055132324504,
            -1.072727002493031,
            0.519375157681196,
            -0.020260316346342705,
            0.32205860382807805,
            -0.2922551425723629,
            -1.9937648001470147,
            0.8136663058768481,
            -1.1939383034467088,
            0.35265090144941036,
            -0.5292496811793965,
            0.45903623920871306,
            -2.769535574634926,
            -0.18207559921115823,
            0.6067602417516442,
            -0.925560213413271,
            0.851361570282473,
            -2.1860140932799106,
            -0.4145671305198226,
            2.643444104646757,
            -0.9769055495859116,
            1.4107924397748324,
            -2.8277209325511925,
            -1.6780134178096175,
            0.1321988426586432,
            -1.718479540561404,
            -2.728136466167822,
            -0.4378432018970091,
            -1.3093570469947347,
            -0.23317332300533056,
            -0.3913753930473448,
            0.1896692082925888,
            -1.8112733628564825,
            -0.7703779718692908,
            1.068439524875969,
            0.2749418576525592,
            0.8180670621079553,
            -1.0181825690295725,
            -0.6553755171971384,
            -0.6390668151707203,
            -0.7577029791864177,
            0.23716790085204797,
            -0.09460190098254292,
            -2.0720436994822684,
            0.911950704919794,
            1.6874855816201906,
            -0.7952113850761657,
            -0.7622926624294135,
            -0.4405250538468946,
            -0.27034501490076757,
            -0.09970810301930227,
            0.03153886037492665,
            3.643855841983429,
            -2.3387157974886694,
            1.2978559663694562,
            -1.7080990215105682,
            -0.7261923127790053,
            0.7393304987332624,
            0.07448692916218336,
            -1.3323491379437824,
            -0.1526906883818644,
            -2.139243033944816,
            -0.21997291198290675,
            1.9178011411519376,
            0.6742491628806693,
            -0.15182424889394103,
            0.06640227407196025,
            1.971243619187179,
            -2.115794230032727,
            0.4696361460314551,
            -0.9206726193481405,
            2.8412999781787986,
            -0.3354582763391249,
            -0.8044069650289362,
            -0.541505217127948,
            -0.09333283716417386,
            0.49112559024249947,
            1.376721321392663,
            -2.0385093368558302,
            2.4230732340387435,
            0.03454916460050442,
            2.0822690003756663,
            -1.1893219331766824,
            -0.23124678516041075,
            3.16296022384491,
            -0.8221071241347524,
            0.14182431658367212,
            0.21471416590356873,
            0.7302162202774678,
            2.3999802970217177,
            -1.2244714672356936,
            -1.4303347573531815,
            0.6990591680830522,
            0.8394951591412418,
            -0.4147482135407416,
            0.09012943951703545,
            -1.7895205584201455,
            -2.0147782338703126,
            0.7606053512261978,
            0.25279061402295444,
            0.42340088620015404,
            -1.2732881040450976,
            -0.5007349763718567,
            -2.390648122768898,
            -0.4797353312015743,
            -0.6006080004396261,
            -3.5010928135747013,
            -0.11520974849713883,
            0.22351592344996374,
            1.5537004595262653,
            0.45748526224426234,
            -0.36456033124974924,
            0.7631251102416627,
            0.0025057935151672206,
            -0.4513468834893434,
            -0.43998093751833134,
            -0.6371825677290575,
            0.020041244268743208,
            -0.41897141684312045,
            0.9258685444492522,
            0.47013920650324775,
            -0.5485245134231812,
            -2.3478578438373914,
            -0.43775009768518264,
            1.0504635419601027,
            -1.8032790408282464,
            0.1244818698608594,
            -1.5880459487186367,
            -2.1214579156048012,
            0.05132933816060822,
            -0.8183102434780951,
            1.8852688956630117,
            1.9452576494468095,
            -0.5950709292905223,
            -1.8785499157543883,
            0.42842888558000913,
            0.09960520606135162,
            0.31051920993564575,
            1.1072511501413604,
            -0.1887680353662264,
            -0.07956796318667392,
            -1.6808757586654024,
            1.378162305388166,
            -0.9952522884189612,
            -0.05160969526277366,
            -1.0533724234678004,
            2.47111580933061,
            4.394684711328534E-5,
            -1.5062324656784891,
            0.1056629869788791,
            -0.41653772398828304,
            1.7999587257905096,
            0.6997030701593274,
            0.508900518751146,
            -1.7387107079956787,
            -0.7134556081897413,
            1.6013528355779674,
            0.23542743426364987,
            1.620624558732402,
            1.6225811305204538,
            0.2603183993097493,
            -0.09351919094993799,
            -0.8885029624879848,
            -1.8401900017275028,
            -1.1258087776041448,
            0.49815117910855267,
            -2.568736894813556,
            -0.08779917318568727,
            0.711253656642576,
            -2.1768038067138118E-4,
            -1.6954238927340652,
            -0.10068904890909236,
            3.1291395245150455,
            -0.1829317980656075,
            -0.03736835384566317,
            0.17812738620564553,
            2.7537441199876773,
            0.619824981468029,
            1.0029522187942814,
            -0.562829078881237,
            1.497057138298744,
            2.3779135343166606,
            -0.2893977684574044,
            -0.14588985164236137,
            -0.9559306606641632,
            1.670586372813502,
            -0.6282592985632556,
            -0.04150606214755259,
            0.2092607372224246,
            -0.9996467450659161,
            2.4560948111325476,
            -2.5752795576109486,
            0.08567542388559679,
            -0.4171235857722536,
            -0.7860814118509422,
            -0.3679999656031244,
            -0.9374022035411914,
            -1.5137118452591705,
            -0.6924125065638435,
            0.8083744093938883,
            -2.5599039291525054,
            3.4586222927333066,
            -1.2019356206089273,
            -0.48509159772230975,
            -0.8673400262664452,
            -1.0811070677205303,
            2.813082710466506,
            1.2270265260909914,
            0.8250323627815717,
            1.0282123487221866,
            1.9413312379963403,
            -0.9566147397827185,
            -0.4427466668504244,
            -0.6266157945822015,
            -0.23339150079851673,
            -0.6024829707567592,
            1.5834013503028084,
            0.591543689454225,
            0.03440075548424243,
            -1.3093051710749102,
            0.40981057184023345,
            -1.146949266172077,
            0.7207909859267667,
            -0.5213981659541589,
            -0.15992331352350792,
            2.7368296930701748,
            1.7371964694836994,
            0.6480654676417222,
            2.0362597160765907,
            -0.05034193239554963,
            -0.003423350870158104,
            -1.5987034530266984,
            -0.1301255436453748,
            -1.1220908073515092,
            -0.3188009158933684,
            -1.0833723116738359,
            0.8908756002801768,
            -0.4708956316541326,
            -2.257407359133824,
            0.43605875011263695,
            -1.4739351200788877,
            -1.0498085734793596,
            0.1640483520739845,
            -0.8981887017552597
          ],
          "numRows": 16,
          "numCols": 45
        }
      },
      "ops": {
        "type": "org.ejml.simple.ops.SimpleOperations_DDRM",
        "data": {}
      }
    },
    {
      "mat": {
        "type": "org.ejml.data.DMatrixRMaj",
        "data": {
          "data": [
            0.5469402127617494,
            -0.45859114051174493,
            1.8442440028222242,
            1.1686431804642785,
            -0.049406878275264465,
            0.02361944564751725,
            -0.3620076940080314,
            -0.10069276508436031,
            -2.20215770613425,
            -1.3092457115824645,
            -2.0576818121596845,
            4.476632758486643E-4,
            0.4621613041301439,
            0.6515539851739889,
            -0.8806489219826439,
            0.4923994493107797,
            -2.1139521723693813,
            -0.8417122916906817,
            0.9738170145660022,
            0.5781569619201025,
            0.5066584101432126,
            1.546563973455303,
            -0.7469664903810456,
            0.4125778735697771,
            -3.0867060329107705,
            0.4525200924867588,
            -0.7360251727462213,
            -0.63360509926531,
            0.11466072807435779,
            0.9971400331602627,
            1.5021284833812982,
            0.8358465333377004,
            0.9412937209632303,
            0.16766433747510878,
            1.9067799481418206,
            3.835688973872541,
            0.4868717284737475,
            0.6710929862669022,
            0.25918539764578163,
            0.5144591381782692,
            -0.13431533575495896,
            -1.3352948411478807,
            0.6372944694437394,
            0.2544862598716409,
            0.9275132160866957,
            -1.116912775049651,
            0.7547487077637038,
            -1.2581079280383218,
            0.4826839123205364,
            0.5135479498954083,
            -0.48269801142625995,
            1.9473394172645697,
            0.7155656935616201,
            -0.13867892129848652,
            -0.35038695318375074,
            -1.8527330352814153,
            -2.8632402635721617,
            -2.022129083310922,
            -0.45334565504941093,
            0.7876910776478795,
            -1.2935601779592334,
            -0.7105608772665531,
            0.29229513645315597,
            1.7846222174479438,
            0.34979817081922643,
            -0.5567022212106448,
            0.7545307941108137,
            1.0683060479932642,
            -0.2378987123874855,
            0.6414284238639949,
            1.1434614601098931,
            0.2697983939564755,
            -0.05802203632334857,
            0.4784455345789867,
            -0.5830391181050383,
            1.4781121658800722,
            -1.7797088266659362,
            -0.5727466323256439,
            0.04779468090088265,
            -2.2473959761864535,
            0.6189641642836332,
            -1.9811198558095593,
            -0.9957761032376338,
            1.01108531206197,
            0.1190954368383707,
            -0.349951353766933,
            -0.5124965038055407,
            -0.17583659196438922,
            -0.9015054044255413,
            -0.5263692853452784,
            1.5720935170404013,
            0.4561921882198322,
            -0.48579331199547815,
            -2.5505041743209325,
            -0.38393000303059704,
            -0.5901741591072192,
            1.2302365647471216,
            -0.8115677341194091,
            0.026224390570987022,
            2.923637546368639,
            -0.25544800981389826,
            -0.9972558729198431,
            -0.450367234012511,
            -0.48572832766486135,
            -2.4647593911785273,
            -0.14608849396023568,
            1.7383384101746508,
            1.0234694853091988,
            3.524040201271266,
            0.3450185095655443,
            0.6258926345521885,
            -1.1157618180517033,
            1.5038339751657572,
            0.9230843153193065,
            1.2881304081375333,
            -0.49081896488583665,
            -0.6571352354492971,
            0.16576763226219143,
            1.5500074036854814,
            -0.7786735472426051,
            1.599169052505935,
            -0.4211272271033795,
            1.21077445652996,
            -0.927810131846052,
            0.5282705077670867,
            0.3138318903603037,
            -0.542632554130991,
            -0.06701841675255821,
            0.3306547922225135,
            -0.07218363964820962,
            0.6825618477954241,
            1.6067754909732979,
            -2.6832719981250004,
            -1.5696691977975634,
            2.2224873104182032,
            0.9507336188408924,
            0.5454093412523298,
            -1.8203416594002455,
            -0.15948414894131363,
            0.7569632818375345,
            0.6876411387629898,
            1.1575861903009756,
            -0.5011763707747631,
            0.317961841891784,
            1.021262938043209,
            -3.4954200932416,
            -0.42052057629266615,
            -1.2013812594080064,
            1.7359980372428792,
            0.9430718760843962,
            0.20251679185771454,
            -0.7616959407972568,
            1.7875765971364925,
            -1.0536647361745266,
            -0.8458222053894344,
            -2.0932497868929567,
            1.544903940292265,
            -0.4364716015648336,
            1.2597065232753182,
            -1.02294210981543,
            -0.8783660588925857,
            -1.0863229845826103,
            0.3090505152020773,
            -0.9997211793383414,
            0.40009060443995853,
            1.4246448534543104,
            -0.31567572579816294,
            -0.19629700624756696,
            -1.123686668115296,
            0.5104534260586406,
            -1.1754356391774425,
            1.8689308127943562,
            0.32243248009940384,
            -1.7639601948789139,
            0.6318304181797647,
            0.5469245678207161,
            0.255421297550483,
            0.26371790806270706,
            -0.014444667310181458,
            1.625125937527233,
            0.10286443749749408,
            1.3817894464571978,
            -0.21945541860488169,
            -1.6933485837745286,
            0.9453621254538174,
            -0.06630897140396469,
            0.3047265832747686,
            1.3638573008219153,
            -0.020282624430584595,
            -1.0873251197530016,
            1.4134977101848065,
            0.0023261869997794893,
            1.2853799234137226,
            -0.6380437012598092,
            1.8962660187549936,
            3.4261954563616634,
            -0.0854947212833498,
            -0.09667496843645798,
            0.5109346634558181,
            0.8044547585884377,
            -0.07545793414896693,
            -0.01210258453762264,
            -0.17997739421735687,
            0.6955442661218894,
            -0.23914005240599534,
            -2.7327996420477296,
            0.17444947371572994,
            -0.31417737713794014,
            -0.4532072006099199,
            -0.9781899551537889,
            -0.4310468162087988,
            0.3731958349935736,
            2.818414750247999,
            -0.2354324715826741,
            -0.11792957821567301,
            3.001099872579341,
            -1.1864560400177264,
            -1.6081702751923983,
            -1.242834732320631,
            0.9507226800331998,
            -0.40058395786386003,
            0.38265341587739987,
            -1.3012327944291178,
            -0.07187093630705318,
            1.431224728732803,
            1.3741596544999335,
            0.6048342353986647,
            -1.0297619100708875,
            -0.36943283567597474,
            0.7864618953388023,
            0.7152489010374884,
            0.47276995539815597,
            0.5067229346873224,
            1.8084642422677748,
            1.4188849709839269,
            1.2796611937793856,
            2.151308588763971,
            0.6731372989140328,
            1.8410482382180091,
            2.1479361033512223,
            -0.1673051890139109,
            -0.3747170915265451,
            -0.3606396563752583,
            -0.24086950975015198,
            -0.6959970611010261,
            -0.10993647524547567,
            -0.1402818548560847,
            0.3645064954955642,
            1.094438374558496,
            -0.2426464249858497,
            0.4321729885246729,
            0.9211050328433632,
            -0.06087159804529252,
            0.4232717646227541,
            1.035866135703894,
            -0.0012203275968382388
          ],
          "numRows": 16,
          "numCols": 16
        }
      },
      "ops": {
        "type": "org.ejml.simple.ops.SimpleOperations_DDRM",
        "data": {}
      }
    },
    {
      "mat": {
        "type": "org.ejml.data.DMatrixRMaj",
        "data": {
          "data": [
            1.615403457239785,
            0.7863363817272236,
            1.067353855288766,
            -0.1621994462979902,
            0.540789495199497,
            -0.14567259172646918,
            -0.22376435588903332,
            0.6691549918472852,
            0.2873607514107849,
            0.7274352908325187,
            -0.7152148845502999,
            -0.2265711660517985,
            0.20171723775144057,
            0.8265619510168088,
            -0.022533121929329214,
            -0.3462784359537021,
            -0.2714217040752237,
            4.441763181018424,
            -1.0530859741140415,
            -1.9927840693602872,
            -0.5616729062046162,
            -0.7785581049002573,
            0.7061445668501172,
            1.6532719225372203,
            -0.1965879841444189,
            -2.304351777821294,
            -0.24915751068511738,
            -1.1274697984259001,
            -0.88095367138484,
            -3.4633482582058406,
            -0.8422731306511084,
            1.3549730061147778,
            -0.9222601336304972,
            -0.6824503214424944,
            0.12032263626636157,
            0.025950138596607553,
            0.04203651324741586,
            -0.8956600347331125,
            1.0548712853701032,
            2.0011068451501446,
            1.6435733506895787,
            1.9995381409564377,
            3.0862213019453764,
            1.386213940556714,
            0.8778853565645593,
            0.9209857628823557,
            0.8858183692485139,
            1.8462018395481443,
            0.15535582232578865,
            0.1948231489503282,
            2.1201009205114887,
            0.9612301416764937,
            0.022447132125498648,
            -0.42582436949468594,
            1.0963988266214493,
            3.669910841499523,
            2.103582183694021,
            -0.11450793878057802,
            0.053574041070364564,
            0.5896583027937102,
            0.46989935171131103,
            -0.5944090696018589,
            0.29879421875920625,
            -0.23986665362402726,
            1.0189843547183997,
            -2.389171122386495,
            -0.6409977771143328,
            -1.430874822942608,
            0.20954850908134204,
            -0.9074095621644762,
            -0.939833024334207,
            -1.902189105052753,
            -0.41046254349105926,
            -0.6823327604010148,
            -0.1429360459183111,
            -0.5613196622581983,
            -1.8487504330574207,
            0.22471024052779803,
            -2.663016391718884,
            -0.4357253176530232,
            0.5099016765956903,
            -1.0522759708625062,
            1.1319638765665754,
            0.626665486470983,
            1.1467171177962403,
            1.6931004038719526,
            0.34785501501223476,
            0.10459202815278651,
            -0.3930735626855311,
            0.3926568886605374,
            0.7691180416906915,
            0.5752676164458563,
            1.6582356491792865,
            0.973727798341928,
            -1.879723383253347,
            1.6961993738813765,
            2.537845277564033,
            2.0357320739550744,
            -1.2174640002230357,
            0.4600122088599932,
            2.8768657221864213,
            2.4490014805006344,
            -0.2767261354702298,
            0.5678523787617002,
            2.4405904210024696,
            -0.7793132932209424,
            0.6012874542301729,
            1.2785310188948262,
            0.1283018881261193,
            -1.22438079814803,
            3.406925204757677,
            -0.09737128670336404,
            0.42907842494736803,
            0.2745115999657256,
            -0.8625003445498747,
            0.3266291637542242,
            -1.6419523307553308,
            0.03716095349906917,
            -1.2955732821570234,
            0.3152781434104044,
            -1.0186096825648023,
            -1.6404596147092698,
            0.30698884512583335,
            -0.39958416134395036,
            -1.0687758438131638,
            -0.16372724427728524,
            -2.1184354039415694,
            -0.10236243540611657
          ],
          "numRows": 8,
          "numCols": 16
        }
      },
      "ops": {
        "type": "org.ejml.simple.ops.SimpleOperations_DDRM",
        "data": {}
      }
    }
  ],
  "biases": [
    {
      "mat": {
        "type": "org.ejml.data.DMatrixRMaj",
        "data": {
          "data": [
            -0.43273548705359166,
            0.019137915429902064,
            1.675084923571085,
            1.0562696310550614,
            -0.5074957525168903,
            0.6516273757108058,
            0.971377993250394,
            -0.9349349890787262,
            -0.24009923894033197,
            -0.03275998208387823,
            0.7349516421867498,
            0.47481913304011225,
            1.4705732313097308,
            1.1173144092567513,
            -1.2188881709734953,
            -0.14092433257271705
          ],
          "numRows": 16,
          "numCols": 1
        }
      },
      "ops": {
        "type": "org.ejml.simple.ops.SimpleOperations_DDRM",
        "data": {}
      }
    },
    {
      "mat": {
        "type": "org.ejml.data.DMatrixRMaj",
        "data": {
          "data": [
            0.33827240313358053,
            2.5129614578890673,
            -1.2812640482753042,
            -0.8975488555564686,
            -1.2346343326336189,
            1.8903057740336369,
            0.3629313794852671,
            0.9560489336240703,
            1.905517271159596,
            -0.19768662185816405,
            2.1842812252667905,
            -0.6648596260357356,
            0.9526954411302511,
            0.8715491605030043,
            -0.5982526061326134,
            0.495084994809327
          ],
          "numRows": 16,
          "numCols": 1
        }
      },
      "ops": {
        "type": "org.ejml.simple.ops.SimpleOperations_DDRM",
        "data": {}
      }
    },
    {
      "mat": {
        "type": "org.ejml.data.DMatrixRMaj",
        "data": {
          "data": [
            0.275181614921312,
            -0.4262376663998283,
            3.020070462349708,
            1.4465996519261695,
            -0.2908893303031101,
            0.38163676660622026,
            1.118065594396729,
            -1.8814654951314747
          ],
          "numRows": 8,
          "numCols": 1
        }
      },
      "ops": {
        "type": "org.ejml.simple.ops.SimpleOperations_DDRM",
        "data": {}
      }
    }
  ],
  "learningRate": 0.1,
  "activationFunctionKey": "SIGMOID"
}