{
  "activationFunctionFactory": {
    "activationFunctionMap": {
      "TANH": {
        "type": "basicneuralnetwork.activationfunctions.TanhActivationFunction",
        "data": {}
      },
      "RELU": {
        "type": "basicneuralnetwork.activationfunctions.ReLuActivationFunction",
        "data": {}
      },
      "SIGMOID": {
        "type": "basicneuralnetwork.activationfunctions.SigmoidActivationFunction",
        "data": {}
      }
    }
  },
  "random": {
    "seed": 30637923829253,
    "nextNextGaussian": -0.8248025198187275,
    "haveNextNextGaussian": false
  },
  "inputNodes": 45,
  "hiddenLayers": 2,
  "hiddenNodes": 16,
  "outputNodes": 8,
  "weights": [
    {
      "mat": {
        "type": "org.ejml.data.DMatrixRMaj",
        "data": {
          "data": [
            0.21578215319737348,
            1.067342412664061,
            0.18678289738286824,
            0.5145355173076782,
            0.234374597383242,
            -0.7634190895305051,
            0.5576521696804048,
            0.4807050028230526,
            0.6175441613825114,
            1.7702685878553919,
            0.4004495569691106,
            -1.742186135895614,
            -1.6324448856165663,
            -0.6254271319838619,
            0.5296931017119808,
            0.9929479461134247,
            1.2657718751952787,
            0.6457309763261787,
            -1.5942374103065378,
            -1.2603205539547535,
            0.6516714837087959,
            -1.0514725737951223,
            -0.6654752722886161,
            0.47173191149089244,
            0.1375699301726978,
            -1.447270445958304,
            0.08095649660537624,
            -0.39270246882077164,
            -0.6131400009837733,
            -0.47720055630815694,
            -0.26830803760821764,
            -0.2076223070110903,
            1.3125661166204903,
            -0.0742589948669168,
            0.6161831816294139,
            -0.9411294386588018,
            -0.6517287775734615,
            0.24189605871494568,
            0.8844879106702848,
            -1.4654827641836201,
            0.14761020781924344,
            0.1421736173554536,
            -1.646473343286819,
            0.5035109383415074,
            -0.2914203495933726,
            1.161274709282511,
            -0.10177600438925027,
            -1.6643224874071272,
            -0.9797792546439305,
            0.5521664881472323,
            0.0763843459341181,
            -0.5893257208779542,
            -1.3947606689205654,
            0.5853531027981889,
            2.4172960438187623,
            -0.42631730608080853,
            0.310020071444379,
            -0.3378502087045212,
            0.5667221965115474,
            0.06044418606258739,
            0.3467218617125657,
            0.10596568421135347,
            0.01985663095854251,
            0.5039730801377872,
            -0.4898776019761998,
            1.1718488785626209,
            0.6938559936599485,
            -0.4952236941902499,
            1.1012476475196609,
            0.20303847194548785,
            -1.351687399522931,
            -0.6538086590978573,
            -0.7526101793215205,
            0.845995062582887,
            -0.43730785483855034,
            0.06905961810493566,
            -1.610365715546129,
            1.0689165927686213,
            0.2077209026388105,
            -0.24674973016646665,
            1.5518823917616162,
            -0.1852323606123536,
            0.6527223594178502,
            -1.5485586744891096,
            -0.35215528579189576,
            -1.9561449417430168,
            -0.8730814379727752,
            -1.2700373615142189,
            -0.11731658760510241,
            -0.151844984131563,
            -0.4550269946800947,
            -0.9383417293467007,
            0.19479634683886488,
            -0.004541759502603299,
            -0.7295952906331022,
            1.0996135824970936,
            0.11978030897534048,
            -1.3443662751887426,
            -1.5075237864286175,
            1.7773297621947906,
            0.46033925757170313,
            -0.09697378802472623,
            0.2434638564560354,
            -0.610326146362667,
            -0.07554942548516935,
            0.872097223563782,
            -1.101194073404908,
            -0.5559638482345317,
            0.5443350297563145,
            0.21032281463043076,
            -0.5800552024429588,
            0.3021627568915046,
            0.23285420038058696,
            1.2756228857967806,
            -3.015044573827083,
            0.9566860709193747,
            0.6834889380774513,
            0.9302966472468464,
            -0.6075973533862691,
            -0.9460173848391189,
            -0.44703929485683624,
            -0.1287615642967282,
            -0.5246036690192837,
            2.262398165875711,
            -0.1961744452348761,
            -0.5514972693478251,
            -0.7724545336439667,
            1.1244422226947965,
            2.2563848458911098,
            0.5980421851399871,
            0.5943246299701533,
            -1.1511910095962445,
            -0.07623596698864554,
            -0.37891874673509796,
            0.8271014651044115,
            1.2307860058716056,
            -0.5042755424601253,
            -1.0012966630533329,
            -0.05449510283793069,
            0.1644550754946855,
            0.39152376594470106,
            -0.4669032197717533,
            1.1625785454512356,
            1.4277394553929668,
            1.0034073731566622,
            -1.2263678344500466,
            0.37332991774230445,
            -1.8129900554680753,
            0.6688946306892527,
            0.7451591350900502,
            -0.006896273425551325,
            -1.225824440526595,
            0.7108063562667313,
            0.8279017225574536,
            0.06034577080205772,
            0.2582957241637884,
            0.30725337997389923,
            0.32696924098503666,
            -1.3020401136863502,
            1.6649477906974433,
            0.19235041932975627,
            -0.46210623066444456,
            0.40905023837027943,
            0.09324710609240228,
            0.3629044540682721,
            1.3224553721815406,
            0.019654678734056352,
            1.85113327267615,
            -1.548907695932312,
            -0.253156318049381,
            -0.8713482822950143,
            -0.8109932296211009,
            -0.5490205888282295,
            -1.309669497449043,
            -2.5242650777630793,
            -0.43882062816801465,
            0.3080388027414215,
            -0.7631282787263531,
            -0.0608817396393235,
            -3.2417276482267536,
            -0.009658287308940978,
            0.7518819110018427,
            -0.5001208386683031,
            -0.728228861478867,
            -0.2851871888905937,
            -0.40048741759241746,
            0.5283628095573766,
            -0.5079315339804562,
            -1.7155928768502533,
            -1.625006866377601,
            1.921993440962059,
            0.8718388886615521,
            -0.35106822888649236,
            1.3170002126577167,
            1.3697517571249642,
            0.7694546486008838,
            0.18624943913569936,
            -0.17258471035507617,
            0.5245635656076089,
            -1.9251357216322016,
            -0.7671532300209476,
            -0.6666127615794536,
            0.02871763916593889,
            0.6136102682675957,
            0.17467472211631124,
            -0.44570836324672103,
            0.32470405367603117,
            -0.09344516754266635,
            1.8290546850174434,
            1.0407413822248983,
            -0.5797336345244916,
            0.4460920011952212,
            -0.7656371174714657,
            0.0286968691450675,
            -0.6174297987894322,
            -0.5231205449412902,
            0.3328731371944538,
            -0.6267577054133006,
            0.216452335063535,
            0.09976565824222139,
            0.19421759837476177,
            0.9598174661540875,
            -0.12606695801498358,
            -0.9572551758486721,
            0.5658462341302641,
            0.6724261170443339,
            1.177226493395981,
            -0.5552819987066607,
            0.8148233275349787,
            1.5420313076265215,
            -0.228754374566849,
            0.7653133939549492,
            -0.2366460411583281,
            -0.26770115142021766,
            0.2779167213465175,
            -0.24953548081881705,
            -0.3177512008712723,
            -0.6984846828148057,
            -1.6421290265055706,
            1.0988187411650479,
            -1.9436599009776094,
            0.5193745367895878,
            0.23998130140266716,
            -1.7647337263133518,
            1.8989853494177205,
            0.43880219231892964,
            -0.032928849091588344,
            0.16041454769812868,
            1.8141601629340334,
            0.14728464657131973,
            -0.6728889210109152,
            0.5218683446568018,
            -0.5617165224467716,
            -0.012767800955845066,
            0.33535117424691385,
            -0.2494393552496826,
            0.5518327115110916,
            -0.21952440903503323,
            -0.6267999871814255,
            0.24012201309710515,
            0.48049412825083715,
            0.16050344330456867,
            1.3428497432539703,
            0.2980073759266575,
            -0.24556328648967865,
            0.6248499456767397,
            -0.3512457146957664,
            0.4402017353264135,
            0.7967574188987355,
            0.12029116582478228,
            0.12493232496176541,
            0.1473041836055657,
            0.9472069836717154,
            -0.8485731624115531,
            0.7513954826856266,
            1.1711219212496156,
            1.8208677062324325,
            0.2557389506143086,
            0.7772691823542924,
            0.08296912610311602,
            -0.6737085163611043,
            0.9310245639941135,
            0.2650093712909626,
            0.5743515377208658,
            0.8625913188109282,
            0.2694699499808272,
            0.8164706361476716,
            -1.6507759836218625,
            -0.8709446200142059,
            -0.06178133366451437,
            -0.2548400181161698,
            0.15500383603406193,
            -0.20321125548981367,
            -0.15791111869744867,
            -1.276305676956255,
            -0.9201533400403035,
            -0.5225347838025398,
            0.8143812139518857,
            0.014329518498008037,
            -0.6153408972009691,
            0.18049037212959934,
            -0.35424151985378977,
            0.237128704201909,
            0.15559481470743114,
            0.41555909149911846,
            -0.6885957220776835,
            0.6991843025203452,
            0.07186083586058067,
            0.0027743183145783057,
            -0.7278230972127063,
            0.083311685544883,
            0.8627151655623904,
            0.19195987663394098,
            -0.9384200598727923,
            0.46910307654552486,
            -1.0925741977890764,
            1.9783915702889199,
            -0.6485861382673099,
            0.9499942526356844,
            0.9819997490365013,
            1.81367133707918,
            0.7771150827616671,
            0.8125719870603472,
            -1.2744376889449667,
            -0.06864275771261696,
            -0.2824385770845995,
            0.7756792487106746,
            -0.4409155287296953,
            -0.9228219575912592,
            -1.4958159052612368,
            -0.3651909665320401,
            -1.0780806500349258,
            -0.22574594253528746,
            1.273325214948905,
            -0.051197775716314495,
            0.4401229513261955,
            1.9671928972743697,
            0.2743871598738056,
            0.3698024172157828,
            -0.22257694524787874,
            1.1611274327505807,
            1.414276811375541,
            -0.4689660357373231,
            -0.06192744364141389,
            0.26451514695806777,
            -0.20466020097706017,
            0.6232717443527506,
            -0.31773873703935335,
            -0.7262399101751211,
            0.39038210354598146,
            -1.9737885612147206,
            -0.3087789752452963,
            0.11194203947150505,
            -0.5603673218919417,
            -0.3377099143323122,
            0.6801162961001671,
            -0.37543015372592825,
            1.2003881821938296,
            0.40575482008278363,
            1.5480475047307511,
            1.5714129416390799,
            -0.3837088642089488,
            -0.22377332489567875,
            -0.6910129666796532,
            0.8173856668068944,
            0.999502146322348,
            -2.38583054347614,
            -0.5973028942249994,
            -0.9955052880134736,
            1.7189754834562476,
            -0.34933966818981804,
            0.8247383110490644,
            0.18428724988596257,
            -0.27601844767312134,
            -0.45683998399018066,
            -2.2966963543324592,
            -0.9400092152690771,
            -0.5572936753881612,
            -0.42761915335796286,
            -0.5332229169830849,
            -0.6619119924142465,
            -0.7396777370424503,
            -1.1983801159539014,
            -0.17769428718973312,
            -0.05185764130812397,
            -0.545459217882821,
            -0.8401874077193081,
            -1.519133571793906,
            0.8544509365879451,
            -1.562477966082373,
            0.8848975408271251,
            -0.8035219325850501,
            0.21326889504317337,
            0.3282873097097234,
            -0.255475512505906,
            0.8656975360307051,
            -0.13361257969652207,
            -0.7606982026120648,
            1.198732937143092,
            0.2075966838600647,
            -0.3309087917266125,
            1.885597172031865,
            0.013158471606277478,
            -1.121002184138479,
            0.1706708374520741,
            -0.9901909270848746,
            -2.3197153096329655,
            0.23208936744390096,
            -0.49203616580345033,
            2.4394395986924557,
            -0.8321015652259469,
            0.6087886314682045,
            0.42298116617067877,
            -0.7262990261292659,
            -0.37515932202836355,
            1.5445209783025695,
            -0.03891200882159879,
            -0.34451104579038255,
            0.5843161950185765,
            0.44929603578077815,
            -0.17775958515590734,
            1.5364490865243137,
            -0.3462705503160135,
            0.10927947575325386,
            -0.30040878854007047,
            -1.166534676263444,
            -0.3754633312917046,
            0.10765635220463177,
            0.5711308787825258,
            -0.33654822134170287,
            -1.644577739345059,
            0.03891013782306052,
            -0.36597503948576166,
            -0.893641187484512,
            -0.06560275889342759,
            0.6776717335631687,
            -2.395833042963073,
            -0.06383311676039466,
            -0.26350176671165926,
            0.6682109227932691,
            0.6068995857990924,
            -0.5736530646108787,
            0.5178144745045148,
            0.6095068144402123,
            -0.7468657431907046,
            0.5362203380572077,
            -0.5139339364255058,
            0.07337480320141854,
            -1.1130059754064467,
            -0.6303624543086869,
            -0.21605302483572947,
            -0.8807337274620002,
            -0.11556840216084324,
            -0.913711716986824,
            0.3265605879639244,
            0.759666224531828,
            0.2859420051633227,
            0.03022726834786127,
            -0.2771174854074074,
            2.2333234834921525,
            0.06394140373687307,
            -0.04230589716043176,
            -0.30484786226717886,
            -2.0439192401570048,
            0.17454275559431398,
            0.04022895742986815,
            -0.6499878937839091,
            0.7376851365100372,
            0.5465040402539787,
            0.8218349486223312,
            -0.2556818818386016,
            -0.8941555808529731,
            2.127016487543975,
            -0.3401397827511213,
            -0.7765845267288196,
            -0.4206617481492613,
            -0.05397258476515343,
            1.3834142405578542,
            1.630502059480324,
            0.33981694518230665,
            -0.7694666952874489,
            0.06616849222218402,
            0.45481597894642445,
            -1.65287284493565,
            0.7221481145249691,
            -0.5196602948719291,
            -0.015256196988678639,
            0.17170532665034538,
            0.01148431657739421,
            0.927680272784902,
            0.4955029060946486,
            -0.5269855695923931,
            -0.9896581752699676,
            0.14320633817625394,
            0.3739074688954873,
            -1.1049547949778868,
            1.090542586270858,
            0.18838505376997647,
            0.1761138286762426,
            -0.5376274594902684,
            0.02946928195594218,
            -0.9306694326784529,
            -0.5686115205955555,
            -1.2132879481076793,
            -0.6242922528068846,
            0.6239268057670704,
            -0.3491934469495901,
            -0.05670859607480003,
            -0.5091150003583764,
            -0.5744488368716386,
            0.7122028901995869,
            0.6859774731371746,
            -1.9051818644409384,
            0.7657610553127506,
            0.34051101967071196,
            0.48123284696744345,
            -0.4422232224366253,
            -1.1821409812604131,
            -0.9386534974317371,
            0.09887976225195405,
            -0.9786409092369828,
            0.6295362874479719,
            0.5035017673470734,
            -1.4206600038230852,
            0.025889555265617425,
            -0.1749211289984166,
            -0.9323218988916945,
            -0.36885855205164564,
            0.21898301933142217,
            -1.1281091686919893,
            -0.5545552458357472,
            -0.002987164179371171,
            1.6161108901920302,
            -0.9790191457349788,
            -0.020547333985151184,
            -0.07294612412770984,
            -0.39711032954402953,
            -0.7799417657447679,
            0.37816722827793925,
            -1.4414806334527823,
            0.40876115227688153,
            -0.3369321626914408,
            1.7764565330930766,
            -0.9386016468503301,
            -0.19719702853548005,
            0.0906141096636841,
            0.22006068286729996,
            0.9700921726803717,
            0.6550834409357131,
            -0.2513288759392196,
            -0.8074197949179995,
            -0.6849900303110961,
            -0.1925414959587709,
            -0.44882918095197294,
            -0.3148067195845573,
            0.3870160472253459,
            -1.744103524387718,
            0.3136647352963147,
            0.3936625972078488,
            -0.7509629149678912,
            1.0151214269018976,
            0.8193496151732302,
            0.38284230421401155,
            0.2587071297101118,
            -0.7582891936822972,
            -0.28698017866831227,
            0.27242081324180895,
            -0.26273285803377006,
            -1.1287313652029725,
            -0.8568967533584281,
            -0.45801224238219607,
            0.5438067721266449,
            -0.6655915481875256,
            0.30236027246071717,
            0.45643197653907075,
            -0.0753363525996987,
            -1.5323487940514997,
            1.355687180109301,
            -1.0103975225988746,
            0.3974958526950245,
            -0.5831999393137492,
            0.2839561916373984,
            0.43537003463336643,
            -0.2757975461680736,
            -0.8768168260246575,
            -1.1711559509230265,
            -0.1160865678953868,
            0.02032019297010909,
            0.5707503139829793,
            0.5769101930428036,
            -0.38388252508463616,
            -0.2575942314637022,
            0.46559896103410015,
            -0.9855683599175342,
            1.0785906623607018,
            2.018159116218471,
            0.4850371160240693,
            0.21311017726857362,
            -0.12639673703831167,
            0.39686326274753575,
            -0.30764242180930373,
            0.3880138193257379,
            0.23862411804643824,
            0.3470886261907479,
            -0.5897910942152551,
            0.030102721692436607,
            0.18497435104293863,
            0.14799593578665715,
            0.12446747751780413,
            -1.1275111798503286,
            0.40926231963730614,
            -1.3849165585433387,
            -1.8997890372617419,
            -0.8414649199373943,
            0.48073598293205577,
            0.09037665355911059,
            0.8682935964168546,
            0.25523051799113794,
            -0.9872454701315285,
            -0.06166041769405406,
            0.5542266900943937,
            -0.8958302682724991,
            0.48494418730880573,
            1.6309378001543136,
            1.4823180667149323,
            -0.09873342511272984,
            0.6258797336146378,
            0.8457867707853803,
            -0.2655054576328714,
            -0.3718559509547924,
            2.8418688924590256,
            -0.9207234851883549,
            -0.8031502304349385,
            0.7298815662985108,
            -0.7675345131794126,
            0.5004949386219998,
            0.3980296285375509,
            0.6944869254040527,
            0.25033530248720887,
            0.9483918392773483,
            -0.09931965153407174,
            0.4648084923709781,
            -0.5123062632690509,
            0.311634629625742,
            0.09226811739506241,
            -0.05836892952624742,
            -1.5781599335754475,
            0.3840347134153087,
            -1.51019364751357,
            0.5653260459812723,
            -0.039786882045447725,
            1.1251971545222803,
            1.801533074032768,
            2.766839747886064,
            -0.0696859464983568,
            0.714715959506555,
            -0.2982551323054079,
            -0.37511056325114484,
            -1.3091419083655096,
            -1.2112658105414653,
            -0.7052745644709162,
            -0.6035334008895796,
            -0.6460488709106258,
            -0.01371025559679162,
            0.1195221082241944,
            0.584421583263753,
            1.4447577772353277,
            -0.7429897070437295,
            0.0539443932283854,
            -1.6809870593884795,
            -1.0322615771159882,
            -1.0005730346241999,
            0.6642909579309297,
            -0.7811251027128061,
            0.4086383142062142,
            -0.3723161287497811,
            -0.13744975106185975,
            -0.6015630169538899,
            -0.3447672160897747,
            -0.8783080627687956,
            -0.46220108098232787,
            -1.6258149486940554,
            -0.3875749555909477,
            0.5124048847393927,
            -0.9773367441714403,
            -1.8369224039152137,
            0.2749860316097805,
            0.4221798796815638,
            0.7552409812969734,
            -0.3936240067598604,
            0.8950694586482407,
            -0.48770456932539274,
            -0.8767804940757007,
            0.536217557408405,
            0.7178000417568846,
            0.6280569755953058,
            1.247503300316621,
            0.26165247451922563,
            -0.2321174591371304,
            -0.6126401709539504,
            -1.1994982378667622,
            -0.15902953931093777,
            -0.5885388805654479,
            0.29880983209212686,
            -0.5056466862651733,
            0.7588053830260727,
            0.35102720688427036,
            -1.3063202363393414,
            2.1867607143612653,
            0.38671154883836123,
            -0.8063105911283391,
            0.6428159066128655,
            1.8610055484360617,
            -1.4348139190143017,
            0.13509201845484187,
            -0.8243652340069734,
            0.5851563537541538,
            0.4230932439993782,
            -0.5764523026316937,
            -0.251074310714413
          ],
          "numRows": 16,
          "numCols": 45
        }
      },
      "ops": {
        "type": "org.ejml.simple.ops.SimpleOperations_DDRM",
        "data": {}
      }
    },
    {
      "mat": {
        "type": "org.ejml.data.DMatrixRMaj",
        "data": {
          "data": [
            0.13909854813758682,
            1.3134413989929632,
            -0.2716243196814626,
            0.21969493593505873,
            0.5628689552952668,
            -0.5241311775577354,
            -1.3346788246869121,
            0.6118637625358386,
            0.5942640275795417,
            -0.19844201845187848,
            -1.7846896621736688,
            -1.32838493972059,
            0.8078500889679505,
            0.17963456892020568,
            1.6637172284546833,
            -0.8585700854628017,
            -0.4809539934676221,
            -1.3504737246758904,
            0.14323023765857418,
            0.7868151145189146,
            0.5282164400632331,
            -1.0260053461124605,
            0.6301394388048018,
            1.6801375641169547,
            -0.921222559297574,
            -0.6567486880302275,
            1.0453801812234382,
            -0.15414094856423266,
            -0.06286120257988177,
            0.9724774783928166,
            0.04148902980431246,
            0.4586345070424387,
            1.6230102880492292,
            0.41615688543302515,
            1.1215030515111646,
            0.5909823313295051,
            0.9497631306210316,
            1.526864521532741,
            0.5021796246063182,
            0.9247231072006998,
            -1.6400809222872392,
            0.8605479052379374,
            0.517363463528793,
            -0.7874607309489732,
            -0.5523272307399891,
            1.1657561872895723,
            0.2800230598971348,
            -0.22740889264891648,
            0.03948065999437933,
            0.16182240299639564,
            1.4627346153467253,
            -0.0025459047724681882,
            0.9363055050238019,
            -0.642385919253601,
            0.6373754690892349,
            0.7777274497460415,
            -0.029856369621015455,
            0.7306974504821382,
            0.11169823361014619,
            0.7754212644156506,
            -0.3156974304921638,
            -0.7958350621864996,
            -0.27209023221999606,
            0.7628403287241761,
            -0.916171776921799,
            0.22430690378300502,
            -1.5036213908842724,
            -0.429492037887736,
            -0.21192406998696306,
            -1.1039678487281872,
            -0.24440594640927657,
            -0.3719931966183585,
            1.2771044795895787,
            -2.9145444842115356,
            -0.6671723007527617,
            0.45598815788198693,
            -0.39689445499491427,
            0.4591448408276808,
            1.3887426335768052,
            -1.0897555399709322,
            0.9628261864344121,
            -1.0295798626382402,
            -0.31355015226945526,
            -0.28353284465121154,
            0.5752971574146143,
            0.3880465840880566,
            1.0180289628962589,
            0.7887239952144971,
            -0.8473864095396572,
            0.7243819051551745,
            -0.21527061681118875,
            0.44231865805987614,
            1.3075579750011903,
            -0.2625752871643322,
            -0.7722042212211894,
            -0.9537076593173763,
            -0.2975443357898804,
            1.11150450672481,
            0.16173087777220996,
            0.6447237343741472,
            0.5590825690869109,
            -0.7911515402707365,
            1.088759152833098,
            -1.2053776671224876,
            0.11759617555199864,
            1.510186668101253,
            -1.4003570690937779,
            -1.8519582527393195,
            -2.22363269099779,
            -0.4211292387706893,
            -0.13522902520378163,
            -0.9361510917572277,
            -0.06987603321402092,
            0.1691431069374254,
            -0.5063325382085857,
            0.24713678785644172,
            0.8601604200423383,
            0.35248232186162,
            1.2733001862678603,
            -1.1331962747104207,
            -0.8482677783638288,
            1.1338145030617037,
            -0.36638410302906355,
            -0.6388609830418879,
            0.8000660171677627,
            -0.1364524984039338,
            -1.6512837662176338,
            -0.6515819218352367,
            -0.11707078327913722,
            -0.9960704050913218,
            -0.46318040711995867,
            2.1536701417216353,
            -0.17120222099720733,
            -0.4322222604022817,
            -0.46110564031799917,
            0.48180317996202693,
            -1.2936246064048311,
            1.3125909798657376,
            -0.12287813723761654,
            -1.4139246146829805,
            -0.4088111884212115,
            -1.3385373856502767,
            0.4305930692223387,
            -0.2517332360612713,
            -0.8873769887413013,
            0.47544978698911183,
            -0.2186305968607115,
            0.49901307200202366,
            -0.09385142067795216,
            0.6149665903145709,
            1.1117017078863967,
            -0.0336936805783023,
            0.3570051627750237,
            0.1937344432634085,
            -0.9073196678781315,
            -0.7216185527562103,
            0.5905181772615771,
            0.18848574931255224,
            -0.44418995916306175,
            0.19526942801980862,
            -0.9011574853183627,
            1.4853090528797193,
            0.4181926288207505,
            -1.2138881736826508,
            -0.7502233550452195,
            0.4867848123221573,
            -1.1236157123606474,
            0.683614959299369,
            0.11998426703609011,
            -0.7647275263075959,
            1.502223538063479,
            1.2398836153175992,
            0.6003811423565661,
            0.5288768853186936,
            -0.8841132730510515,
            -0.7328890960861171,
            -0.07798283975829834,
            -0.4541794914065205,
            -0.8009797586478582,
            -0.8235961898490958,
            -1.0547832049798949,
            0.45119988613851225,
            1.8663468885989873,
            1.3846376812679766,
            -0.3403296940539665,
            0.21117109146830737,
            1.4294139459739699,
            0.5594669394435394,
            -1.6943356384176065,
            0.22724941259212134,
            -0.415683495608672,
            0.10198308476725704,
            0.983296044816349,
            0.7242553351384795,
            0.6332046442528636,
            1.9635916344554483,
            0.021075885408809114,
            0.08889618603641414,
            0.007125159158180683,
            0.12072245961149286,
            0.3084143717576058,
            -0.11959259114043785,
            0.10417415367834348,
            0.2430241049173245,
            0.7927565882167528,
            0.13944301551984514,
            0.9826629965251267,
            -0.7966874444672631,
            2.769886631184445,
            0.7152669796747055,
            0.3150946089226774,
            -0.8746452575517469,
            0.15660995640281228,
            0.33709082944587765,
            -0.15908794123546047,
            0.40941421323919525,
            -0.13351331722908744,
            0.7433893388568902,
            0.33954065365640884,
            0.6942042700292814,
            -0.03271200792405138,
            -1.4341428274738477,
            -0.0656946602657078,
            0.9191474634696757,
            0.9429004252332133,
            -1.1136165863082486,
            0.7531315853566852,
            -0.002421673583370587,
            0.38090117173721205,
            -0.08708930199237008,
            0.30670049042621383,
            -0.11052535709014932,
            -1.549666012012231,
            -0.7250555537576532,
            0.21499084888113126,
            1.2603105841064337,
            1.0329085335229597,
            -0.5463492621012699,
            -0.5056390414527336,
            2.805231669438666,
            0.9281859867322686,
            0.6687991773453676,
            0.3650776460401626,
            0.9853967097656255,
            -0.31336078062329975,
            -0.43447759827789456,
            0.8928489494097704,
            0.4425517325085512,
            -0.578457423742994,
            0.7527189169258527,
            -1.351578987416819,
            1.5294641487573488,
            0.4459025543627462,
            0.4185089797513968,
            0.7694045880741651,
            0.23054348711915196
          ],
          "numRows": 16,
          "numCols": 16
        }
      },
      "ops": {
        "type": "org.ejml.simple.ops.SimpleOperations_DDRM",
        "data": {}
      }
    },
    {
      "mat": {
        "type": "org.ejml.data.DMatrixRMaj",
        "data": {
          "data": [
            0.41478463567762197,
            1.0484125686011074,
            0.6447063788586207,
            0.8485574672753646,
            0.18712589333964214,
            1.317919061520653,
            1.0780715084590482,
            0.3892638954810975,
            -2.359670816409467,
            1.7347870747438798,
            1.3012278791822778,
            1.3901527204049309,
            0.9098362620353764,
            1.3359318515268566,
            1.7139730598512357,
            -0.3040912034244643,
            0.034292181937316576,
            -1.293576077902658,
            0.5149652463522283,
            0.651746159504268,
            1.1161044718472959,
            -0.041109737859905175,
            0.7603571547001511,
            1.191118489565865,
            -0.44299056931513303,
            1.374474342450008,
            0.3787150959949277,
            1.729969160530041,
            2.5662297974960757,
            1.4058153924474572,
            1.5807685997157157,
            0.7117832237807769,
            -0.24952625177501345,
            0.4291388157408762,
            -1.3643823951692706,
            -0.6706134093867351,
            -0.9868756979780466,
            -0.18761477206615304,
            0.3730619182157215,
            0.14146169299040418,
            0.8919588788028793,
            0.028550239381552746,
            -0.15562435234157335,
            -1.3801200048838287,
            -0.43924295306121197,
            -1.5632297330170488,
            0.9345817313383311,
            -1.1952745437864394,
            0.3116930513489097,
            -1.482000672159984,
            -1.2725021768024414,
            0.4866836705844509,
            -1.2684468262803037,
            0.6200426836782242,
            0.5048181187943107,
            -1.386067725834855,
            -1.7371303923891366,
            0.2635514984926456,
            0.7553188514823856,
            -1.511760942942485,
            1.1757800255486803,
            -0.7516679391304419,
            0.055626396188170224,
            0.41206148715183577,
            -0.5439437748348129,
            -0.2952428861944323,
            -0.19362448587478825,
            -0.6765825887814914,
            0.7563887995079278,
            -0.07372721385890024,
            -1.0097701029719315,
            -0.039937283308152965,
            0.03998181986925286,
            0.09475569297847819,
            0.6838110968433427,
            1.275072931319117,
            0.39556081787905994,
            -1.347450272960564,
            -1.1164316763854483,
            -1.0443293284670006,
            0.7458448779424155,
            -0.5492965994650842,
            0.9521867951856935,
            2.4492666301221293,
            0.9481430076013908,
            -2.1518834769721855,
            1.070877360441004,
            1.8163604548579513,
            -0.8745659811076827,
            0.8738799278866622,
            0.3573669523837086,
            0.4562178696612179,
            -1.1729795681563342,
            1.7040127748985625,
            8.509430444156307E-4,
            -2.62858862620746,
            -0.6280614284754769,
            -0.20057774188193356,
            -0.504303811848426,
            1.9474151362359957,
            0.2827334363756904,
            0.9672498636583764,
            0.18959005126382278,
            0.15287632492747294,
            -0.7093796962276511,
            1.2629964271043488,
            -0.2978582669942845,
            -1.172467230177418,
            -0.589088122009897,
            0.5845837850103034,
            0.3465375954699529,
            0.31156330001138266,
            0.11228115587758847,
            -0.9912677047008965,
            -1.1599823281771746,
            0.6602695927804649,
            1.1896446134147554,
            0.6119422678900864,
            0.03613616053708711,
            -0.37428276442498337,
            -0.7213161005715603,
            -0.08086006833843307,
            -0.34942480762948136,
            -1.3737823821478061,
            1.3687331473934752,
            1.198854966648012,
            0.35265598309511403,
            0.8928506771102286
          ],
          "numRows": 8,
          "numCols": 16
        }
      },
      "ops": {
        "type": "org.ejml.simple.ops.SimpleOperations_DDRM",
        "data": {}
      }
    }
  ],
  "biases": [
    {
      "mat": {
        "type": "org.ejml.data.DMatrixRMaj",
        "data": {
          "data": [
            0.4323317851026338,
            1.5336952421479257,
            -0.9440531709204529,
            1.3798622640743394,
            0.48789060761133923,
            0.6649320307514162,
            -1.8577797048928941,
            0.3126170441459591,
            -0.1065800081354858,
            -0.5213674349733454,
            0.21855588409914406,
            1.3277779907977125,
            1.2633355998992488,
            -0.1263481395840692,
            1.1982655655697878,
            -1.3406142338890112
          ],
          "numRows": 16,
          "numCols": 1
        }
      },
      "ops": {
        "type": "org.ejml.simple.ops.SimpleOperations_DDRM",
        "data": {}
      }
    },
    {
      "mat": {
        "type": "org.ejml.data.DMatrixRMaj",
        "data": {
          "data": [
            0.8361898947409989,
            1.3768325781948447,
            0.003692141801449944,
            2.0125001617962273,
            0.7681638080062088,
            -0.6425773462121729,
            -0.7220825802592864,
            -0.2520073213153251,
            1.8497173035044807,
            1.862948373218619,
            -0.9970472055679095,
            0.3888148967501598,
            1.9257380462561535,
            -0.07925852869205241,
            -0.20773070243006225,
            -1.7299058468850865
          ],
          "numRows": 16,
          "numCols": 1
        }
      },
      "ops": {
        "type": "org.ejml.simple.ops.SimpleOperations_DDRM",
        "data": {}
      }
    },
    {
      "mat": {
        "type": "org.ejml.data.DMatrixRMaj",
        "data": {
          "data": [
            0.5406547806897437,
            1.6378359604731427,
            -1.53971865058569,
            -0.13745836126398192,
            -0.362349516702609,
            2.7676877623710303,
            1.66992628914071,
            1.4317400442113883
          ],
          "numRows": 8,
          "numCols": 1
        }
      },
      "ops": {
        "type": "org.ejml.simple.ops.SimpleOperations_DDRM",
        "data": {}
      }
    }
  ],
  "learningRate": 0.1,
  "activationFunctionKey": "SIGMOID"
}