{
  "activationFunctionFactory": {
    "activationFunctionMap": {
      "TANH": {
        "type": "basicneuralnetwork.activationfunctions.TanhActivationFunction",
        "data": {}
      },
      "RELU": {
        "type": "basicneuralnetwork.activationfunctions.ReLuActivationFunction",
        "data": {}
      },
      "SIGMOID": {
        "type": "basicneuralnetwork.activationfunctions.SigmoidActivationFunction",
        "data": {}
      }
    }
  },
  "random": {
    "seed": 234344398466389,
    "nextNextGaussian": 2.190507682810786,
    "haveNextNextGaussian": true
  },
  "inputNodes": 45,
  "hiddenLayers": 2,
  "hiddenNodes": 16,
  "outputNodes": 8,
  "weights": [
    {
      "mat": {
        "type": "org.ejml.data.DMatrixRMaj",
        "data": {
          "data": [
            -0.09167837374412224,
            0.3823291982291698,
            -0.711417686219487,
            0.15118502887604696,
            -0.0293463573621231,
            -0.7354101714175739,
            0.004185167387520727,
            0.9370332572854836,
            0.33035021371834294,
            0.6338494784595943,
            0.8119677200740207,
            1.0875159708895676,
            -0.9650863948482993,
            -0.9164809631395083,
            0.29867432016557927,
            1.095314117275895,
            0.6710586773294818,
            0.5563039156225198,
            -0.9523112138934313,
            -0.4717480655172671,
            0.2346450579966246,
            0.5145023956319683,
            -0.2981107301197419,
            1.6870532936509746,
            -0.6282499328317188,
            0.03859912447121028,
            0.5740760700189791,
            0.6772438163295667,
            -0.5760232000229304,
            -1.2816619430375948,
            -0.7382635178326593,
            0.12306627943724124,
            0.11655798060181533,
            0.3758629187411735,
            0.3747398625097407,
            -0.9411294386588018,
            -0.0010703590775965055,
            0.059328061361961226,
            0.046447562546351184,
            0.16390707184879405,
            0.8250481830739855,
            0.382747567222828,
            0.9897119085587844,
            -0.2520191184659099,
            -0.5103831274351283,
            -0.15157955931862843,
            -1.621622204732755,
            0.9615431675096731,
            0.42605313656974575,
            0.44057966265031934,
            0.17818446666905352,
            -0.5893257208779542,
            -0.413548040882026,
            0.6157216031723954,
            -0.3719915986533564,
            1.1802706233761602,
            -0.10184394767866023,
            0.3801045987760428,
            -0.7908602963436355,
            0.19559987527080613,
            -0.01121199860691946,
            0.7042124655248686,
            0.6822509827288836,
            0.9044791974716828,
            -0.21419503293475795,
            -0.002093011190940297,
            -0.8731532375387465,
            -0.885993976109952,
            0.33482449701144357,
            0.6159482429565655,
            0.2565948367254143,
            -0.4695438097356279,
            0.4896576798236658,
            0.10340220117908361,
            0.16243262798063363,
            -0.2064947677084441,
            -1.0079469966189398,
            0.37971585653024637,
            0.2077209026388105,
            0.028069370273028804,
            -0.8594139818880169,
            -0.1852323606123536,
            0.1344782558033082,
            -1.5485586744891096,
            -0.35215528579189576,
            0.5078560515323349,
            -0.8730814379727752,
            -0.6656193556983265,
            -0.01143216815202952,
            -0.39084741776802007,
            -0.7392262438948762,
            -0.8355770466780015,
            -0.10497544757326352,
            -1.4610656641704165,
            0.1661830285793473,
            0.4168568730330098,
            -0.10131935168533035,
            0.2039062159858076,
            -0.37416942434264133,
            0.052882544917375096,
            -1.0025550742827176,
            -0.2620035223460035,
            0.046120495390202354,
            -0.610326146362667,
            -0.3023607345662276,
            -1.2159389654691006,
            -1.1487307245483158,
            0.08191652667187976,
            -1.2989651995829214,
            0.6293796673440464,
            0.9653482611966255,
            -0.8158393147608642,
            0.21493461010877102,
            0.40620889229892554,
            -0.4964249395411955,
            -0.5007235987273619,
            1.1786540356652413,
            -0.04503963070015449,
            -0.9769708690844712,
            0.5787157181244127,
            -0.7242817320054573,
            0.8047067503858216,
            0.1986001795571124,
            0.5528630987593472,
            -0.3415610205440258,
            0.8578585943941053,
            0.2489661427900478,
            -0.0931634421441756,
            -0.2832151006601143,
            0.5679385784255837,
            0.043145168440834825,
            -0.010886714669681163,
            -0.9089471470364574,
            -0.921416411133755,
            -0.08463162678491498,
            0.6010839039109808,
            -0.7230138582476369,
            -0.5418357570741499,
            1.1609282293215464,
            0.7042140310949465,
            0.6413047266180374,
            -0.8528709672870576,
            0.15191078175431194,
            -0.27297434967795664,
            -0.13145117576723298,
            -1.2263678344500466,
            -0.2299512278107989,
            -0.5304985422951314,
            0.7339447420150123,
            -0.13398509850292423,
            0.562309626163429,
            -1.036194733910957,
            -0.7389780629285096,
            -1.036247543023479,
            -0.9742744431560506,
            -0.3032694677543504,
            -0.6869237600840254,
            0.13358861483103723,
            0.45879679793979466,
            -0.24146475024651726,
            -0.44960180179472253,
            -0.46210623066444456,
            -0.8989846465227362,
            1.2763130995343976,
            -0.467935362340016,
            0.8301246581311739,
            0.5170524051588916,
            0.7717587039651269,
            0.6110055011385955,
            -0.3079924589238822,
            -0.09453840812282466,
            -0.617561567999253,
            0.2974476568774418,
            -0.02047740083461025,
            -0.6795631851212675,
            -0.4847846173713548,
            -0.34834834500566747,
            -0.2015302187724357,
            1.5344430609425332,
            0.03939766337042094,
            2.1577133590886564,
            0.7518819110018427,
            0.8444060101252635,
            1.47047714130472,
            0.1967226161249087,
            0.5805350489715733,
            -0.8529372314507966,
            -0.19424445913576438,
            -0.322785852113218,
            0.012069693383678803,
            0.34549642468483666,
            -0.9692721853336357,
            -0.07048816699379432,
            -1.0784832739119927,
            1.241886374581285,
            -0.3783439024468067,
            0.3590457351762597,
            -0.11751602214307408,
            0.1614306599146076,
            -0.37522459697321064,
            0.7634484451777399,
            0.47530525154733416,
            1.6589203228282958,
            -0.08052009947810779,
            0.33975006653253903,
            -0.1426103324204686,
            0.8477884108974374,
            -0.08800078475155551,
            0.8409655860600055,
            1.5829575263176423,
            1.0667133725257019,
            0.4696799212178647,
            -0.22721183855788518,
            -0.5180226022291836,
            -0.6927820886927039,
            0.27859455277789413,
            -1.3167649143234472,
            -0.6213984136693564,
            -0.04200155561584129,
            -0.5182161211876346,
            0.2641688616165718,
            1.0897185986024442,
            -0.4533963135304841,
            -0.8524495127166748,
            0.01935992704985745,
            -0.9385944593715803,
            0.7448053629507828,
            -0.3280074863090212,
            0.14200768906420236,
            0.6858848107609419,
            0.6550475768682105,
            -0.0013093392048125485,
            -0.2048640247031841,
            -0.3878078331860324,
            0.2779167213465175,
            -0.9361728003209222,
            -0.7238068546924528,
            -0.5746256390237174,
            -1.6692781420158624,
            0.7706513100884911,
            -0.42843605054339085,
            -0.8619031164445465,
            -0.5198642514524647,
            -0.3978864889907514,
            0.6349357466817065,
            -0.009111607214964623,
            0.2937457762531926,
            0.2714304653092736,
            -0.6270619494559588,
            0.6038742992610803,
            0.5461944798055329,
            0.8281025066608674,
            -0.7372188390965704,
            1.4213945411906388,
            1.0419672353592195,
            -0.13188651293040787,
            0.27465357329364626,
            -0.41347655076505885,
            -0.08867254418174686,
            0.020094847000684757,
            -1.1623727786676117,
            1.2945124938256907,
            -0.3003753286904523,
            0.2980073759266575,
            0.6054542238376552,
            -0.16036147402358103,
            0.2393418363997173,
            0.4100544313678307,
            0.5112847910741359,
            -0.459106913873611,
            -1.0390999753390138,
            0.1976093967973368,
            -0.016515143629008744,
            0.7693678818697061,
            -0.5388842090765786,
            0.4725904756264041,
            0.9458764060924519,
            -0.8820942566280414,
            0.5357283356559035,
            -1.6707135214511777,
            -0.6737085163611043,
            0.050813752819976576,
            0.6384142515628557,
            -0.3823648192861355,
            -1.3578599432007106,
            0.4610510927006479,
            -0.3125891174248665,
            0.6231913133885193,
            -0.7891894276046935,
            0.4672978426579031,
            0.3515772880678272,
            0.15500383603406193,
            -0.944368526348152,
            0.7746503038369119,
            0.22342363681026445,
            -0.1143088928031386,
            -0.5225347838025398,
            1.723649198252355,
            -0.04340930728667103,
            1.412383321794929,
            0.26010330413223537,
            0.5709439175825207,
            0.9424407217398312,
            -0.6764874246781489,
            -0.6827978981526452,
            0.9448173360082972,
            0.8143437994684686,
            -1.6160604462158246,
            0.5923495790696098,
            -0.7262177378298036,
            -0.24111570209525723,
            -0.9205895304612488,
            0.5638694395976032,
            0.731675185901177,
            -0.23292810007428782,
            -0.04902958721289319,
            0.22872254457273555,
            -0.10183513547094925,
            -1.1021635648896424,
            0.9819997490365013,
            1.5023803834880232,
            0.4878847314180854,
            -0.9813091875099376,
            0.8762779243521872,
            -0.06864275771261696,
            0.47211145310427316,
            -0.35280475760116947,
            -0.12142844073767822,
            0.12246965431175855,
            0.18938118747844074,
            0.26987089820765775,
            0.8587009197561066,
            -0.26183262666539725,
            -0.13756458113019585,
            0.20188848358821487,
            0.4401229513261955,
            1.167762977579694,
            0.626023536859365,
            0.5042090246560533,
            0.915871158321106,
            0.1196118475922649,
            -0.061328433841371766,
            -0.5582539197217713,
            -0.5531171939905906,
            -0.7752418062566622,
            -0.8644673888773704,
            -0.0019502280648251435,
            -0.8561060745173974,
            -0.8664625965037562,
            -0.3028576115742921,
            -0.9931117670366669,
            0.4862898803366418,
            -0.4276612635662016,
            -0.5589311804096979,
            -0.4146763962320774,
            0.3495877242427514,
            -0.16986011174318436,
            0.7294142674477477,
            0.0978506466704776,
            0.6907045233172822,
            0.29449690471843115,
            -0.07674093133680948,
            -0.02227781414290586,
            0.9281284216287988,
            -0.043946783675203216,
            0.6349529513456615,
            -0.2143158559872389,
            0.08408180766998874,
            -0.7047635377640449,
            0.9429620114789663,
            0.1541940371803059,
            -1.1227426836198817,
            0.9297265576964133,
            -0.41108151570554075,
            0.6599951059386997,
            -1.018804848433905,
            0.7944273520212336,
            0.06494156673255991,
            0.6280006282546708,
            -0.2333792988478307,
            0.24497868228332131,
            -0.7396777370424503,
            0.34566866448298517,
            0.19672961783115572,
            0.3114472139513407,
            -0.14945302712229425,
            -1.5898818837961928,
            1.337712587258243,
            0.7263353410137279,
            0.10362543471662233,
            -0.5058917066455968,
            0.8044492173422468,
            -0.4556068771645705,
            0.3825892306238533,
            -0.8016130221902158,
            -0.6350517672947258,
            0.36533894975587344,
            0.8772059019677967,
            0.9354639547544628,
            0.13392839070092255,
            0.5576878811656841,
            -0.8365719568002707,
            0.6538245745188911,
            -1.121002184138479,
            0.13168336430175454,
            -0.600426726726218,
            -0.48847532370168056,
            -0.2683556882478344,
            -0.762057997680972,
            0.036249812641911294,
            -0.9000806556858669,
            -0.41006329697762506,
            -0.044239871509092865,
            0.27200894106400964,
            0.6834592188251136,
            0.9969782327660996,
            -1.642387132874128,
            -0.10459721397142663,
            0.7836153058267753,
            0.4440961448234669,
            -1.292803606974416,
            0.8268061089376899,
            -0.3462705503160135,
            0.6742679764175965,
            -0.592398055434925,
            0.6694533557088675,
            0.1279044577938513,
            0.32910249655187096,
            -1.0523345515854448,
            -0.17855440686704904,
            -0.06189195774246792,
            0.4750718946866599,
            -0.008315398354999726,
            -0.3499551713132603,
            0.6373214407828509,
            0.06843580953358974,
            -1.779446074586452,
            -0.23926052351974336,
            0.6285271270371842,
            -0.3861662985105103,
            0.6068995857990924,
            -0.6251827066473531,
            -0.2758206944396355,
            -0.059208253032996705,
            0.8158201377843528,
            0.008208392595015601,
            0.006769978095679585,
            0.8198251028762429,
            -0.9343658937323256,
            0.6285968469111209,
            -0.6528385396739758,
            0.42393919468930674,
            0.22610015875590683,
            -0.48090837177296186,
            0.3265605879639244,
            -0.5680007133072267,
            0.8059529056466963,
            -0.11282929787964235,
            -0.5374292289397002,
            0.5157880829800356,
            0.06394140373687307,
            -0.21801235909912453,
            -0.4288887317009714,
            -0.06583368588146432,
            0.8674379908779959,
            -0.8228880612259315,
            -0.38225512639148196,
            0.6965983741538739,
            -0.23383375272139642,
            -1.1349188862088369,
            -0.8809992955831729,
            0.5655078933473197,
            1.301332005175449,
            -0.3970869205895817,
            0.04660154502086544,
            0.07847008456081017,
            -0.3732703195771292,
            0.11368759746386049,
            0.39299600891341513,
            -0.6160390802505367,
            -0.8537301402260866,
            -0.944345847009974,
            0.6622677856497858,
            -0.7644328066842978,
            0.3187229745110738,
            -0.3998271870156711,
            0.5710742356427152,
            -0.8544731301954329,
            0.36030265104321124,
            0.7097117259210155,
            0.07151932669679129,
            -0.056797687416423104,
            -0.937269250356064,
            -0.31735362070046613,
            -0.3565705878299643,
            -0.43575211960442095,
            -0.14808381465669584,
            -0.503174671545705,
            -1.2413098302090302,
            1.0869974032603502,
            0.1974397936497282,
            -0.780750909096124,
            0.295859672219664,
            -0.19910338818754303,
            1.3378376094502746,
            0.03713546527962099,
            0.40193863072332014,
            0.41174987764133464,
            0.19565429319942784,
            0.5014771575649846,
            0.39463687633097133,
            -0.49701466611677936,
            1.3708089475490857,
            -0.4095086915417021,
            0.1890298465309601,
            0.031224958104347444,
            0.7309487338260328,
            0.10437575400053678,
            0.7436575743853528,
            0.6397341830503269,
            -0.5513722973248077,
            -0.012697849785881454,
            -0.6336722432532689,
            -0.09737914726997388,
            0.24815276782079998,
            -0.9762361204288662,
            0.022603521377520863,
            -0.9594673254352413,
            -0.8224268844807665,
            -0.377136464434527,
            -1.1508520592259703,
            -0.23155624454787593,
            0.8985876716828554,
            -1.0203782647135018,
            -0.020547333985151184,
            -0.07294612412770984,
            0.06267245739895938,
            0.5156263175654414,
            -0.04544718447363616,
            -0.8189667763740054,
            0.8505004487678296,
            -0.5101438121625317,
            0.9447288614428628,
            -1.0827865614253007,
            -0.6297557870017811,
            0.6912181983344902,
            0.8979305732325775,
            0.734551624275396,
            1.0628573421033607,
            -0.0963068861360259,
            -0.11111572890977078,
            -0.3616412874759585,
            -0.13216510452913655,
            0.001385133970596364,
            -0.716291266187225,
            0.13557376205921273,
            0.9473078787406624,
            -0.647832591810074,
            0.31726452137786043,
            0.43054315437480883,
            0.7565693479644999,
            -0.04645954195045279,
            -0.4967849467521166,
            0.5485799317453035,
            0.17936180885200592,
            -0.8518587740009347,
            0.7049189661871382,
            -0.8086493899297922,
            0.04510582943687158,
            0.6970463896046559,
            0.2723256974201227,
            -0.2699823671615344,
            0.377390567425548,
            -1.6753479671736196,
            0.014478548098037058,
            0.4535512950329228,
            -0.4219832825846719,
            0.08878252417808641,
            0.531514518243446,
            -1.4944715610569959,
            -0.5831999393137492,
            0.714012910271355,
            -1.1392244431642846,
            -0.388537501716379,
            -0.19659834104995433,
            0.1927333123637851,
            0.9685124159247984,
            0.7905259457408678,
            -0.5846050882549978,
            -0.173945804447048,
            -0.3819024009997838,
            0.003664889774093405,
            -0.5139529192680441,
            -0.9855683599175342,
            0.18077202608242018,
            -1.389479946456784,
            -0.7063801742752167,
            -0.41616834944079395,
            -0.377696156653998,
            -0.5091982140442513,
            -0.11679686886114304,
            0.9208800752022512,
            0.402063717294596,
            -0.8906464385524886,
            -0.4425839821185571,
            0.3079614412809947,
            0.4821840052048336,
            0.8390091101743271,
            -0.27335340763717597,
            -0.2822553790797395,
            -0.7259625320964451,
            0.36143584770907466,
            -1.5293031813236926,
            0.25125873493248363,
            0.25469857847995525,
            0.2766931141696827,
            -0.3334433268635135,
            0.739655242695933,
            0.25249442409809,
            -0.06166041769405406,
            0.033326364447893386,
            -0.008009653643576087,
            -0.27862728589923536,
            0.49884379283501556,
            0.04119197466957403,
            0.14411904998434566,
            0.4412688568941656,
            0.8457867707853803,
            0.9049054778907151,
            -1.0367269832616173,
            0.9811329245335365,
            -0.8661162876127289,
            -0.6280510982472836,
            -0.8548381572296917,
            0.04333033045405488,
            0.5594342326741799,
            0.4446158967981637,
            0.0487469289924356,
            0.7226129484144495,
            0.652839915026846,
            -0.09931965153407174,
            -0.648033560484244,
            0.15216732546167,
            -0.8320375959756365,
            -0.6055200052986112,
            -0.13262883835504602,
            -1.1118433272745694,
            -0.07423986299933905,
            0.12889786095363798,
            0.15865725764133765,
            0.2064781941732985,
            -0.6038627416536837,
            0.9880927849950054,
            0.5339635765404825,
            -0.7730838945462173,
            0.8642887964968897,
            -1.3615894260592996,
            0.8929943913538247,
            -0.8778112427114204,
            -0.17083253152558386,
            -1.1265652371293973,
            -0.11020132265397603,
            0.8698763915084504,
            -0.5604006617616112,
            0.1195221082241944,
            -0.9330393560568853,
            0.1270651569554316,
            0.018390846295989194,
            1.4959798298204339,
            -0.4896116212867294,
            0.3765164022906562,
            -0.0794527457358726,
            0.09253415839024304,
            0.906909335298334,
            -0.8470466135536915,
            0.7136081023381078,
            0.027892761751915796,
            0.14874247202587443,
            0.44638848382828167,
            0.5047745374840509,
            1.8408371229725597,
            -0.07674360335389907,
            -0.6602460315745524,
            -0.6465394339429311,
            0.19564800016986816,
            0.1855496723429922,
            -0.9139694140970009,
            -0.18170967544742855,
            0.07993184758524197,
            0.08877158756198344,
            0.940568488385054,
            0.7074594332992059,
            -0.7183471034730746,
            -1.0585923868744795,
            -0.778065685467574,
            0.20576957066175636,
            0.2536762905587089,
            0.18969148355368426,
            -0.6310260900378981,
            -0.6861098815805062,
            -0.957180336839248,
            0.017397468969651886,
            -1.1824925764838268,
            -0.3794998827621713,
            -0.5039697342835587,
            -0.7208115338316888,
            -0.0820870961456529,
            -0.7093324948486712,
            -0.9980123148167914,
            -0.8908551766545065,
            -0.38202885914108287,
            0.1871354779310539,
            -0.8465129265606515,
            0.8657864354688511,
            0.5492988599085646,
            0.5466216532225927,
            0.9102198899360723,
            -0.9609351138959965,
            -0.4924062622448356,
            0.751968991461998
          ],
          "numRows": 16,
          "numCols": 45
        }
      },
      "ops": {
        "type": "org.ejml.simple.ops.SimpleOperations_DDRM",
        "data": {}
      }
    },
    {
      "mat": {
        "type": "org.ejml.data.DMatrixRMaj",
        "data": {
          "data": [
            0.5740702298207578,
            -0.3685035402113961,
            0.12115695218980166,
            0.9398369877106736,
            -0.16807096669718571,
            0.9856283833786226,
            0.31452853074048703,
            -0.020050416618922984,
            -0.06011226870624968,
            0.10135626411276821,
            -0.7218652482689603,
            0.2576072886103775,
            0.05358448307236707,
            -0.9893057274256227,
            -0.7502961483653409,
            -0.7624514863734737,
            0.723342107617807,
            0.7155145430665988,
            0.8124508315963284,
            -0.30436152412189776,
            -0.42393159145582826,
            0.4789765147813676,
            -0.7504722801546938,
            0.2659637486345756,
            -1.134885321975454,
            0.03461060545532302,
            0.954690445382514,
            0.9037115234970448,
            0.7201670489802905,
            0.3698977152224858,
            0.1101598632815407,
            0.3051154331637608,
            0.3708536412537231,
            -1.554176558468241,
            0.5406599522754603,
            0.3849791997202323,
            0.9408039553882939,
            -1.1957176210910894,
            -0.3223871698626729,
            -0.5849236204376,
            -0.32769557286532236,
            0.36249420879403416,
            0.3610618053844852,
            1.101728254238536,
            -0.2375572576628786,
            -0.5104070944824242,
            -1.2135679699128847,
            -0.3238347639367296,
            -0.08156826772362857,
            -1.1183145803460528,
            -0.6757414214866113,
            0.3879684082255957,
            0.8577026027228785,
            0.4954015972117849,
            0.40775950582434395,
            -0.2617104905915979,
            -1.1854620970789727,
            0.31640022317840066,
            0.27457049038424763,
            1.0149507822711166,
            1.0483208346783213,
            -0.6205621278455613,
            0.6679130016183006,
            0.7628403287241761,
            0.5140623045920609,
            -0.7961492560297572,
            0.533164111763194,
            0.5253316224206168,
            -0.011459754462948668,
            2.175562322199892,
            0.3346163266433386,
            -0.04261768180316272,
            0.7137736246842239,
            -0.9736033091081615,
            -0.4449852652376054,
            -0.8112519642747957,
            -0.6924482505800609,
            -0.6880573910702543,
            0.48535546307396826,
            -0.6971436463967272,
            -0.9775529651440774,
            -0.5216281072479477,
            0.6809719252597737,
            -0.28353284465121154,
            1.0511074939477778,
            -0.2429471644281117,
            0.9247845228883691,
            -1.4150921955779414,
            1.040802282159862,
            0.42949785948985464,
            0.32748095481485695,
            0.8032536332173807,
            -0.17221769160796485,
            0.08172466787142721,
            0.9707004032426387,
            0.7871588353940391,
            -0.950270384777665,
            0.13775224034265643,
            0.25454689423547744,
            0.22164799236828658,
            0.4068687674884184,
            -1.6444762905382773,
            0.2783162582856562,
            -0.24898453386497987,
            -0.5910582996430211,
            0.16805185083336105,
            -0.656986394826762,
            -0.36522829469074763,
            0.13141060582093989,
            -0.7089863755800567,
            -0.1695518203969324,
            0.12897583728971207,
            -0.08164370801174403,
            -0.2124991700021881,
            -0.8810172884320454,
            0.74244062911702,
            -0.07584140032032605,
            -0.49526676374253936,
            0.32695196135190185,
            -1.148664173627871,
            -0.19065721408686032,
            -0.475228169379325,
            0.018320251981251312,
            0.8084363117832897,
            0.6680840935549228,
            0.2606724419020223,
            -0.13307328547362784,
            0.9637160360078125,
            0.8453188526633721,
            -0.5182353703360392,
            -0.10644809513085018,
            -0.801291885593097,
            -0.5998001721800625,
            -0.6145066369128112,
            -0.24529607283957205,
            -0.5045016813304901,
            0.22886345510830666,
            -0.004129452282424895,
            0.7700620345354001,
            -0.029276708594112577,
            -0.7791318561724876,
            0.662515421686033,
            0.59744275837736,
            0.07328318755535351,
            -0.2016555301395857,
            -0.09695785845029736,
            0.037599086667920334,
            -0.9153634101131543,
            -0.09610566165593504,
            0.6869169315665435,
            0.8790720731788217,
            -0.9744689785647571,
            0.8903074668529569,
            0.31013372991453303,
            0.777458226032201,
            -0.186001300753031,
            -0.08611534137449972,
            0.18848574931255224,
            -0.2891469967256646,
            0.6163349524481823,
            -0.6397613575067191,
            -0.02794333913330216,
            0.0783861589412275,
            1.2425919919880881,
            -0.3826232526091602,
            0.20074956736626537,
            -0.5805043632514577,
            -1.2135277083695828,
            -0.7417444631732466,
            0.002035847205073882,
            0.4225194506208811,
            -0.6102450298907729,
            0.27985234014220384,
            -0.24556326036474863,
            0.33883766854811426,
            -0.015175028167403237,
            -0.07798283975829834,
            0.8152215571964736,
            -0.8009797586478582,
            -0.4506391976799673,
            0.7655256384890836,
            0.7308054071084278,
            -0.14456094577979017,
            0.8770293390751329,
            0.3105894364879209,
            -0.06313565269394328,
            1.2425920815237017,
            0.8582822203790386,
            -0.9085013939534159,
            1.052279067542159,
            -1.185184605492071,
            -0.8834552606193871,
            -0.47216665567895866,
            -0.8688893915114938,
            -0.73752042773193,
            0.7848868438530303,
            -0.27325275636533264,
            0.7384508109193664,
            -0.24209905964958728,
            0.6286269842266035,
            -0.6353924827294444,
            -0.11319780559002701,
            -0.7848295387991917,
            -0.4557187765324564,
            0.008546348215623834,
            -0.18389865862545451,
            -0.9462789552209283,
            -0.9695024485357302,
            -0.10502976881159065,
            0.2878808575792684,
            0.7144678058925416,
            -0.11546924011228277,
            1.5031638194023715,
            -2.1871188368448577,
            -0.8859402033507935,
            -0.1806866667148641,
            0.7307888072421692,
            0.5031409593405551,
            0.42203787359547085,
            -0.8289713089929254,
            -0.2893226416875485,
            -0.12075262776482815,
            0.4348435618349009,
            0.8572424891328758,
            0.3571147707828026,
            0.12664285906943273,
            -0.9994196003375638,
            1.2386729803359653,
            0.7149212495778403,
            -0.9064037641739302,
            0.30670049042621383,
            -0.38534460539015547,
            -0.06216426537941988,
            -0.95988255940745,
            -0.44221041208535405,
            0.797286188394307,
            0.5314041114921244,
            -0.5205152810189198,
            -0.5056390414527336,
            -1.0378900487244396,
            0.7660165973368679,
            -0.850904197814544,
            0.3650776460401626,
            0.7943291960254366,
            -0.73373250353026,
            0.2685594776745499,
            0.779395080549983,
            0.6998145305545338,
            -0.11664448301578455,
            0.48794617936622225,
            -0.5776578449694503,
            1.2771361467160784,
            0.8759414142649449,
            -0.14700388811037712,
            0.8011661796927101,
            0.21326240292594356
          ],
          "numRows": 16,
          "numCols": 16
        }
      },
      "ops": {
        "type": "org.ejml.simple.ops.SimpleOperations_DDRM",
        "data": {}
      }
    },
    {
      "mat": {
        "type": "org.ejml.data.DMatrixRMaj",
        "data": {
          "data": [
            0.7475718203633173,
            0.8991946858064135,
            0.7142627967897167,
            1.4090296697276692,
            -0.3738861143603004,
            0.9049181773794979,
            -0.6773344640968676,
            0.8452425261168295,
            -0.34437042950457974,
            -0.2852854012703531,
            0.8133872002728932,
            -0.5878843442405799,
            0.9098362620353764,
            0.4618867452039798,
            1.2151073417841654,
            0.4843103353624447,
            0.9178393255649924,
            -0.39975755667128166,
            1.299213205940394,
            0.43262598189593304,
            -0.07612067751183726,
            -0.02054077190454473,
            -2.3172420625560077,
            0.8582777188603585,
            0.18903254261498303,
            0.8821909086217956,
            -0.11580291932807918,
            0.049220471767035034,
            1.2794445049346197,
            0.5239684523645303,
            0.686790828226012,
            0.24112386880072645,
            -0.6290616751603768,
            0.871275760392327,
            -1.1086022734544831,
            1.434086880456867,
            -0.34709552063869603,
            -0.09090152909066274,
            0.703508460009902,
            0.1774258230689374,
            -0.35611857498858046,
            0.8641516076203143,
            0.5131421008445276,
            1.019840882534296,
            -0.06522472547990632,
            0.8172050015481577,
            0.6342760371990146,
            0.411961984847351,
            -1.0468257215767758,
            0.6854670589698053,
            -1.2664461512809773,
            0.06186806825773239,
            0.005589822359349378,
            0.1375616473310186,
            -0.08036237551525072,
            -1.386067725834855,
            -0.4892409693055708,
            0.1671442983457032,
            0.3316382848163122,
            -0.9916591905309726,
            0.18512237478139426,
            0.9717435398264339,
            -0.27495605959773606,
            0.22160452391604968,
            -0.1825232425824388,
            -1.1221107044934733,
            -0.21298040538618168,
            -0.991443554948825,
            0.5115272499287561,
            -0.07372721385890024,
            -0.44234573152540724,
            0.2081944209731954,
            -0.810319317336186,
            -0.16916856060507024,
            -0.6959874855967558,
            0.7678170150254504,
            0.42541249852377616,
            0.25758732824600417,
            0.4755162781093733,
            -0.44559167716358505,
            -0.7322751208775164,
            -0.5928871291339708,
            0.7508340133137466,
            0.39414326048301507,
            0.5251560604232295,
            0.46905844077068676,
            0.6245224839359416,
            0.8888573931572507,
            0.6453614669895429,
            0.9906573732565076,
            -0.25906296274883156,
            0.10638465173939038,
            0.9035581672005772,
            0.6737201138646183,
            -0.04211794057092555,
            0.5214821955836912,
            0.6468961113057539,
            0.09864380276872531,
            1.1827673605651015,
            0.5957377499120446,
            -0.3805965838661084,
            0.8440357169708115,
            -0.05184261757966091,
            0.438508541712916,
            0.9219404533065036,
            0.46890617808345514,
            0.566804030007759,
            0.541948219204851,
            -0.828256538612362,
            -0.9171270303938419,
            -0.07756944792750109,
            -0.748528180877736,
            0.7589766427878775,
            -0.9649945564912801,
            -0.3474695085724593,
            0.27666443812640606,
            0.36839122304170924,
            0.07647009260178761,
            -0.039722086483567676,
            0.6939569884907679,
            0.0037099472996534877,
            0.5723804093039149,
            0.5969484508400572,
            -0.9684929731972194,
            0.44933137175837873,
            0.8255068065224602,
            0.35265598309511403,
            -1.2347524382979165
          ],
          "numRows": 8,
          "numCols": 16
        }
      },
      "ops": {
        "type": "org.ejml.simple.ops.SimpleOperations_DDRM",
        "data": {}
      }
    }
  ],
  "biases": [
    {
      "mat": {
        "type": "org.ejml.data.DMatrixRMaj",
        "data": {
          "data": [
            0.12096474207976216,
            -0.9194968848793657,
            -0.14970900946078203,
            0.8761514177291783,
            -0.6059613912799271,
            0.6504160427709205,
            0.8007488749345979,
            0.5237938532084827,
            -0.6877059950570408,
            -0.433431836479262,
            0.7284152669143775,
            -0.38248079633493237,
            -0.5842482014812671,
            0.7617129470819162,
            0.3425630509556,
            -0.5003154147060298
          ],
          "numRows": 16,
          "numCols": 1
        }
      },
      "ops": {
        "type": "org.ejml.simple.ops.SimpleOperations_DDRM",
        "data": {}
      }
    },
    {
      "mat": {
        "type": "org.ejml.data.DMatrixRMaj",
        "data": {
          "data": [
            0.27570320134928034,
            -0.46538143573165686,
            -0.8613578703064181,
            0.8649810342204458,
            1.6408375557365171,
            -0.9270035787606739,
            0.38022697788730153,
            0.6131585855263628,
            0.7564334462992981,
            0.8875439219423322,
            -0.9041462827641151,
            0.7971430368850108,
            0.8771096183742595,
            -0.07925852869205241,
            -0.24133146836980068,
            0.46195642704756446
          ],
          "numRows": 16,
          "numCols": 1
        }
      },
      "ops": {
        "type": "org.ejml.simple.ops.SimpleOperations_DDRM",
        "data": {}
      }
    },
    {
      "mat": {
        "type": "org.ejml.data.DMatrixRMaj",
        "data": {
          "data": [
            0.27284778965896295,
            0.32404954208295067,
            -0.634769351922345,
            -1.1053906505936946,
            -0.3193107870854499,
            -0.011466004863964874,
            -0.9168953840599445,
            0.9124222646695468
          ],
          "numRows": 8,
          "numCols": 1
        }
      },
      "ops": {
        "type": "org.ejml.simple.ops.SimpleOperations_DDRM",
        "data": {}
      }
    }
  ],
  "learningRate": 0.1,
  "activationFunctionKey": "SIGMOID"
}