{
  "activationFunctionFactory": {
    "activationFunctionMap": {
      "TANH": {
        "type": "basicneuralnetwork.activationfunctions.TanhActivationFunction",
        "data": {}
      },
      "RELU": {
        "type": "basicneuralnetwork.activationfunctions.ReLuActivationFunction",
        "data": {}
      },
      "SIGMOID": {
        "type": "basicneuralnetwork.activationfunctions.SigmoidActivationFunction",
        "data": {}
      }
    }
  },
  "random": {
    "seed": 147270200419181,
    "nextNextGaussian": 0.26398722853288836,
    "haveNextNextGaussian": true
  },
  "inputNodes": 45,
  "hiddenLayers": 2,
  "hiddenNodes": 16,
  "outputNodes": 8,
  "weights": [
    {
      "mat": {
        "type": "org.ejml.data.DMatrixRMaj",
        "data": {
          "data": [
            -0.619118815517129,
            1.0026878216488608,
            -0.25997186147462764,
            2.0206041280395106,
            1.6983129233948708,
            0.9414258878253924,
            -0.11447416439928043,
            0.2713996279466474,
            0.2847743890494374,
            -0.02090465360483551,
            -1.612452149589974,
            -1.0101259284651147,
            0.6720739362109787,
            -0.2866978208059593,
            -1.4124509240321212,
            0.866622375895312,
            -0.27866861711428204,
            -0.24077729876225493,
            -0.24886566864905046,
            -1.558900292120458,
            0.19906426898768675,
            0.43143080628697816,
            2.3716655387288426,
            -0.5762743228452325,
            -0.5561430876655011,
            -0.18196200543681165,
            -1.4203081175711079,
            -1.4820020125788893,
            -1.73061017987096,
            0.03490358456502052,
            0.43049505660062704,
            0.8405795859079723,
            -0.7720454149619563,
            1.5303212657552248,
            0.2158628175150033,
            -0.34674356214964075,
            1.4551718633809556,
            1.1716688283072436,
            -1.1295259944776188,
            0.37435091131590276,
            -0.5958088879765975,
            0.45536852767433544,
            1.3570276037598517,
            1.9790118209679741,
            1.52450192889845,
            0.21737571520559235,
            2.5637780094471023,
            0.6706602118597748,
            -1.5904910133393066,
            -1.3217033727615206,
            -1.7195509715052193,
            -0.6700729218459839,
            -1.323418614079217,
            0.5780810888723522,
            -0.7678627715719433,
            0.3993560811385698,
            1.7619061458444716,
            -1.4069169452962498,
            1.0875033209928293,
            -0.3164715101366934,
            0.541594970768668,
            0.6514789258959751,
            0.16057008759839891,
            0.7867495654427354,
            0.501504726402076,
            -1.4326904508502931,
            1.0478629228741687,
            -1.641029101436819,
            -1.1613684388694376,
            -0.32828936838173245,
            1.229892243988751,
            -1.1561166765101543,
            1.2226970050683974,
            -0.7202866746394134,
            -1.718096965128597,
            -0.09278677285332687,
            0.47193926953838444,
            1.8794116206445417,
            0.848846088293177,
            0.8580485205340775,
            -0.9477288303382738,
            0.7614364953065126,
            -0.03398137191009766,
            -1.1864184816783525,
            1.125447328834843,
            -3.2485816517245345,
            -0.7551925461752813,
            1.3861063447516675,
            -0.45731092214630215,
            0.9121703703690225,
            -2.078671787698936,
            -1.6666134592138064,
            0.3025305647637457,
            0.5508359557397249,
            -2.8296112580566013,
            -0.39139258267665306,
            0.4653829534137892,
            0.7327289178684802,
            0.5722033348875316,
            2.3313422791746197,
            0.07149926780383753,
            -2.0158242186571256,
            1.994634752683304,
            0.6267452705738457,
            -0.1389182395608067,
            0.4660261246216938,
            1.9512695848958688,
            2.5020111446767035,
            0.45045159488671116,
            1.1580434269101203,
            -1.8980772425535224,
            -0.22684673141605316,
            0.5283647038272941,
            0.8512002168612169,
            -0.8302197417794958,
            -0.40846859593861085,
            0.20550888491227481,
            0.7547870675605481,
            -0.08340810358507805,
            -1.3808137764402024,
            0.9074693366901101,
            1.0369282325289144,
            -2.9566572496646066,
            -0.6301135909172342,
            0.44256124872830244,
            -1.7728007402244659,
            -1.5425877407035586,
            1.2886682094894752,
            0.24895216863197842,
            -0.7016082746506361,
            1.2990366542698477,
            -0.06503192835329476,
            0.23660794098619442,
            -0.5859736379512144,
            -1.790237447556048,
            -1.6433534723222976,
            0.5252934727032935,
            1.474354812896021,
            -0.4503642730619722,
            -0.15798120629909274,
            0.8198628629128859,
            -0.23508032691298586,
            0.8500665174534316,
            0.27937251064544183,
            1.7715127133953752,
            1.8499202002189825,
            -0.06854832225345575,
            -0.8266775088849848,
            0.17161786468525975,
            -0.3200115429638098,
            0.2084929525608613,
            -1.2398137547637271,
            -1.5165421380842674,
            -1.374592418064666,
            -0.9134766703536662,
            1.5152690133354074,
            -1.4925711112276818,
            -0.9389677418672036,
            -0.8387747865360289,
            0.9141205542017048,
            0.1643945532406716,
            -1.0793045570820907,
            1.364379469773256,
            0.7669266995676476,
            0.04028672424689034,
            -0.25598572454213653,
            1.6310138504805844,
            -1.6822810266372796,
            -1.44910145855769,
            -0.738035254419977,
            0.2010552359294271,
            0.7609020510903595,
            -0.030930364118814724,
            1.1203036628810266,
            -0.13327756363282472,
            1.824045411778152,
            -1.022483017060163,
            -0.7173267949373694,
            -0.0030810087645553458,
            0.2891467337156861,
            -1.9580724392701123,
            1.4505793871561954,
            0.7515351773453312,
            0.8987840840293249,
            -0.13837550267414386,
            1.118144293117358,
            -0.9508335917829565,
            -1.4494818692001636,
            1.2062690666823526,
            -0.889270383844017,
            2.6016983066403605,
            0.5717024167085942,
            -1.1700565431707997,
            -0.42433889178189804,
            -1.1302138439830522,
            0.15002422884855326,
            0.48034515628618557,
            -0.17319068409234073,
            -2.8565693496711386,
            -0.9456953113402582,
            0.9244170277131589,
            0.6453041475405593,
            0.021903388493502374,
            -1.3590109856344652,
            1.6004964753532673,
            -1.9982304446504007,
            -0.9200788246974851,
            0.2525618448972502,
            1.4379272733417494,
            2.0766672969507587,
            -1.7558603873758956,
            1.1218056283524351,
            0.1643354555830565,
            0.4777165290297468,
            0.8204670209105006,
            -0.2586881596421011,
            0.2741847477010817,
            0.42671581417178833,
            0.4930394733270301,
            0.560173419504109,
            -0.5471393008495113,
            -0.1326490573745886,
            -0.4600809747673995,
            0.6022087598980392,
            -0.684182408010892,
            0.06500361160642411,
            -0.6089510371502422,
            -0.8276559729432418,
            -0.46862399596145143,
            -0.8470762248538771,
            -1.1394023026486793,
            -1.1071204844080405,
            0.026439143508360186,
            -0.285187737383203,
            -2.1760194116000102,
            -2.6542405849223787,
            0.9078693074784023,
            -0.9653154768331234,
            -0.39856639400950644,
            -0.500884748700801,
            1.517337220848328,
            0.5877231236523531,
            -0.5951195487244588,
            0.7735471067343026,
            0.5615602923297522,
            0.40629567526181687,
            -0.46546831240839076,
            -1.3904489521986623,
            -0.08322796896932119,
            2.416123498680886,
            0.4618227892166658,
            0.639816289821224,
            -0.45551954520466914,
            -0.22938218837899754,
            0.6412873430389628,
            1.607415228369668,
            -0.14662380717792228,
            1.7752074174627779,
            0.36696807577125146,
            -1.6394151757515654,
            -1.6638614447843152,
            -1.4654913460451913,
            0.03937767523243685,
            -0.21318613565000982,
            -1.2330578271528134,
            -1.7475553986592993,
            0.6253685066649532,
            1.6662233685804178,
            0.7663830083813508,
            0.19728404056315735,
            -1.245660783477005,
            -0.10981432332196206,
            -0.2991545438991025,
            1.0389655588464835,
            -1.425947140689349,
            2.440882119845613,
            0.4107504285205418,
            0.8113622415488182,
            -0.40025863475911516,
            -0.39596194001183194,
            0.2582563162605358,
            -0.8368966770439197,
            -0.056884753287260725,
            -3.2831727098704437,
            0.8943991160926745,
            1.7387660287057443,
            -3.155393264912168,
            -0.8171252453059005,
            1.930500548714651,
            1.653577165296765,
            -0.9318984437882418,
            3.6860257959118803,
            -1.1586517331030957,
            -0.17362499631287542,
            -1.8094633018367232,
            -1.2416066967123895,
            -0.5104999899676768,
            1.315358293752782,
            -0.45715808800380264,
            -0.6305654313562761,
            0.4030171879707584,
            0.8463928301546456,
            -1.1025050728758639,
            -0.7570405830010792,
            0.20566538229123632,
            -0.362458499771836,
            -0.008528044096420495,
            0.194849004884996,
            0.7768473568241725,
            -1.233619926950905,
            0.4116141770059327,
            -1.4383799542308984,
            0.5733034559065258,
            -0.6174198218574367,
            -0.347083322634005,
            -1.6647253088942708,
            1.349684281511268,
            1.1111527590114407,
            -0.7006297578828944,
            -0.11240119459446168,
            -0.7626175128215704,
            -0.7231239804298576,
            -0.3180866190713157,
            0.128207332959958,
            -1.3055429005592987,
            0.6730254432878195,
            1.192737413368909,
            0.7565138705683943,
            -1.2647891315236564,
            0.011793931529258006,
            0.21853695675032989,
            0.4319675840672903,
            -1.0732473777599967,
            0.13479028314802663,
            -0.19067658828012213,
            -0.03729652743709877,
            0.9072507692328563,
            -1.1490267257015685,
            -0.4648338688012168,
            -0.9020004330274953,
            1.3867521095681792,
            1.9115129703678073,
            0.7186903788878186,
            -0.15399742795768645,
            -0.2503853512747749,
            0.39730050249167814,
            -0.5193687633724832,
            0.2626023598396036,
            -1.5573819793513382,
            -0.6694583857412689,
            -0.27328263145980586,
            -0.7597534548223455,
            -0.22366163900359076,
            0.26456393247886073,
            -1.0979959264446768,
            -1.5365100036670603,
            -0.029565541028432063,
            0.20246519544547437,
            0.8660232341782321,
            -0.4698580370985176,
            -0.8734608258810631,
            -1.0210020022297246,
            1.3689285765518173,
            0.5033192079972386,
            0.12394147381937415,
            0.5207114574135316,
            1.0109131674182064,
            -0.32568366709199237,
            1.467558464396575,
            -1.3754894089353127,
            -0.8708962466690646,
            -0.5996695193650821,
            -0.6667337191704898,
            0.415451143022859,
            1.1815291069640614,
            0.6470709191655478,
            -0.9960659854841891,
            2.4889000861170514,
            -0.08864352615619767,
            -0.3900978541200272,
            0.5278958467479361,
            0.34914679429410506,
            1.4177580077817526,
            -0.8289378162317558,
            0.8014786685745316,
            -0.7037612025904059,
            -0.11548098238290494,
            1.2184785032770533,
            -0.2670275048210032,
            -3.5737707071109273,
            0.3045346972001178,
            0.8872744497597587,
            0.721225967290841,
            0.33015565728270246,
            0.5202233935028912,
            -0.7607805134470951,
            -0.21057112287108082,
            -0.2042589923816545,
            -0.15215377903840716,
            1.7160544285616297,
            3.6639333215204815,
            -0.08259482482803188,
            -0.5367776328022809,
            0.6708615031818325,
            -0.33531081815250263,
            1.3962927102390614,
            0.3491176860468725,
            0.17989572722011804,
            1.946033394050856,
            0.4797638101299131,
            1.5128571140180243,
            -0.5886917403373163,
            -1.18786152046968,
            -0.5670626100295958,
            0.8450543118379934,
            0.02733429827942957,
            1.0498123170245472,
            -0.91744233905753,
            -1.2157792025583067,
            -1.0003550618846664,
            -0.6128584941934659,
            0.4130929342356856,
            0.04790360471637106,
            -0.3874616553796167,
            2.632545826214498,
            -0.5386356549798398,
            1.9255066366404963,
            -0.6249046602357705,
            1.0402196743197263,
            -1.387744608181091,
            0.18099190146235816,
            0.4105457370782556,
            1.3710427040697206,
            -1.604738945484859,
            -0.21118984919182693,
            0.11702247752217732,
            -1.3572080874438506,
            0.715313369763491,
            1.376963436766376,
            0.8583286663248221,
            1.8742888208014767,
            1.238681350155884,
            0.9707554384104291,
            0.17756522330164368,
            0.21229589192421805,
            1.8438640196882403,
            -1.046987627781042,
            -0.754091063477808,
            0.24244776450141223,
            1.0401696414212038,
            0.4732790457456453,
            -0.30461367285604996,
            0.0445917925950739,
            -0.5748755198792013,
            -0.7020086195373335,
            0.1629760716161266,
            0.6333265132899267,
            1.6347136638524424,
            -1.5804301034579302,
            -0.6175551816165025,
            0.5104630467966226,
            -0.020181710813016895,
            -0.7265899717004626,
            0.4030698785961412,
            0.2584955271900634,
            0.33983630106792917,
            -0.3713828001558466,
            -0.010752718556339247,
            1.615918730051007,
            -1.821612689743295,
            -1.7731479048713001,
            -0.35760461740187255,
            1.3321001383053515,
            -1.2144596793101508,
            0.20119225893173087,
            3.5758991370449964,
            -0.9191969482957028,
            -0.6230412371429381,
            -0.19246939203678415,
            -0.910708931693467,
            0.5335921232377904,
            -1.3984596231724558,
            -0.5636139461485131,
            0.6063974468234248,
            -1.1939383034467088,
            -0.14282755304030725,
            -0.35086378468768975,
            0.35431227953411193,
            -0.4474352680302112,
            -0.18207559921115823,
            0.8514658935225607,
            -1.352406756033911,
            -0.02620808970819699,
            -0.5920831803016786,
            0.2529585015185994,
            0.12089799410471475,
            -0.9769055495859116,
            -0.4499395311340585,
            -2.8277209325511925,
            -1.6780134178096175,
            -0.39750794228358205,
            -1.6640118522272334,
            -2.728136466167822,
            -0.4218952241128746,
            -1.3093570469947347,
            -0.9212114534878009,
            0.4773421763412407,
            1.0206972454927379,
            -1.404093838988592,
            -0.7703779718692908,
            1.733698781833098,
            -0.3093121054873746,
            0.9385912797273415,
            -1.9727169341691255,
            -0.6341235142565023,
            -0.07404535073335275,
            -0.9710311221180254,
            0.6114644707139626,
            -0.44559382933424674,
            -2.50973361364286,
            0.5242636303444911,
            0.7258780606897057,
            -0.8695850575982439,
            -1.3521203019126053,
            -0.4405250538468946,
            -0.8550826349048077,
            -0.0497906650768124,
            -0.7572047348591715,
            -1.186141638088292,
            -0.6153826113465503,
            1.2195869585476518,
            -0.8982357504884363,
            -0.6321982845097454,
            0.554067161817229,
            -0.5495599569971121,
            -1.1318277893023203,
            -0.1526906883818644,
            -2.139243033944816,
            1.9852722740173208,
            1.9178011411519376,
            0.6742491628806693,
            0.051709840339070834,
            0.06640227407196025,
            0.1528262912436843,
            1.8161136845326413,
            0.4696361460314551,
            -0.7679546722952223,
            0.2407417899529703,
            1.3822691840138956,
            -0.18912761475153075,
            -0.541505217127948,
            -0.09333283716417386,
            -0.20928634387860567,
            0.522841899638465,
            1.0059356715654064,
            2.4230732340387435,
            -0.5086056291189741,
            1.3004636195591734,
            -1.1893219331766824,
            -0.5181227105046295,
            3.16296022384491,
            -0.9292616768620876,
            0.7620574137769658,
            0.2813284313366196,
            1.0802289896474246,
            0.3651832439109442,
            -1.2244714672356936,
            -1.4307479813548993,
            1.238588666108173,
            1.1495785778645051,
            0.24911202962300233,
            1.930385862135131,
            -1.3475314944266081,
            -2.0590704291242052,
            0.7606053512261978,
            0.8109495417491557,
            0.42340088620015404,
            -2.0048462656477453,
            -0.5007349763718567,
            -0.8470336284598383,
            -0.4797353312015743,
            -1.4472741418121882,
            -2.690006397710367,
            0.37409606594535294,
            0.22351592344996374,
            1.6455027769779818,
            0.45748526224426234,
            -0.36456033124974924,
            0.7631251102416627,
            0.0025057935151672206,
            -0.98166882432214,
            -0.33443245254789533,
            -2.475391020749792,
            0.08773164169944964,
            -0.2899546694228632,
            0.3599403989666814,
            1.308778870206591,
            -0.04755146223288731,
            -0.3681891020101321,
            -3.3479339159249637,
            1.0356668450725666,
            -1.9680726648982398,
            -0.47788959317873014,
            -1.5880459487186367,
            -0.3068661429597772,
            0.05132933816060822,
            0.47874395297793215,
            0.4114676761999827,
            -1.294560406717546,
            0.1674062685468528,
            -0.264299297493111,
            1.3370623736265337,
            0.8911541707955365,
            0.5408745057037717,
            0.006389102239294314,
            0.26948199969685005,
            -0.2838496262881992,
            -1.6808757586654024,
            0.5709429126139323,
            0.06634158907012377,
            0.7572413915934038,
            -0.45610412265809613,
            2.47111580933061,
            0.26041066097485965,
            -1.3636623604424223,
            0.705642182897837,
            1.656480671336436,
            0.009742808432970956,
            0.2965854679790947,
            2.0035578293034475,
            -2.109094728577311,
            -0.10801030334781431,
            0.7933215458364051,
            0.7357275430553587,
            1.0494945354531628,
            0.505157547995028,
            1.6051369012054422,
            -0.6093511085703711,
            1.9741397897278317,
            -0.5907613935493569,
            -2.0503883811180863,
            1.1690041573991794,
            -1.2465896210658187,
            0.5775072427333846,
            0.711253656642576,
            0.8936413328470312,
            -1.4417420340286045,
            -0.5578112058043377,
            2.339769044109067,
            1.453549713416889,
            -0.5519853593269897,
            -1.3992270249864884,
            2.421882005186868,
            -1.7010135172811591,
            1.0968913264675302,
            -0.562829078881237,
            0.5317443051118982,
            1.462823468448078,
            -2.679751062698577,
            -0.14588985164236137,
            -0.8732717801309181,
            2.050228886995327,
            -0.7901283884287807,
            0.18485085880617796,
            -0.25814774316204103,
            -0.7953610007809607,
            1.2800466097269392,
            -1.898050161292891,
            0.4823188890584314,
            0.6929811350603672,
            -1.2635156141966566,
            0.3455102409935255,
            -1.3502779851577271,
            -1.872675000139112,
            -0.8694803010870884,
            0.673397200194791,
            -2.5599039291525054,
            3.021319311522315,
            -0.24212272144112626,
            -1.2330236526671399,
            -0.6947539351255734,
            -1.9675978539180434,
            2.813082710466506,
            1.737082837371711,
            0.8250323627815717,
            2.008925080403848,
            1.4639639344942972,
            1.0712593692311998,
            -0.4427466668504244,
            -1.5472741580252665,
            -0.2193789154532142,
            -0.10850973743357079,
            1.2467236315843329,
            0.591543689454225,
            -0.0911084146173426,
            -1.3093051710749102,
            -0.7944939347683235,
            0.7443956405833482,
            1.1626382616390263,
            -0.7236151329100144,
            -0.7646258363910998,
            2.7368296930701748,
            1.7371964694836994,
            0.6480654676417222,
            2.0362597160765907,
            -0.568481218082857,
            -0.003423350870158104,
            -1.5147596481263363,
            -0.8879227643910454,
            -1.8315190738493854,
            0.47166394025735486,
            -1.0833723116738359,
            0.6775902459559933,
            -0.4820240518108785,
            -1.853933330604141,
            0.989280562367782,
            -1.738815787340895,
            -1.0498085734793596,
            -0.5784240362881501,
            0.1454810784937755
          ],
          "numRows": 16,
          "numCols": 45
        }
      },
      "ops": {
        "type": "org.ejml.simple.ops.SimpleOperations_DDRM",
        "data": {}
      }
    },
    {
      "mat": {
        "type": "org.ejml.data.DMatrixRMaj",
        "data": {
          "data": [
            0.42954915642243935,
            -0.45859114051174493,
            1.8442440028222242,
            0.4220255665600976,
            0.8121052073854508,
            1.6024490307247516,
            0.1265779894372489,
            -1.5478658943361672,
            -0.13499170940528105,
            -1.1870169209204053,
            -1.707001411176618,
            -0.6580542258856501,
            0.37099453796894605,
            0.6515539851739889,
            -0.8806489219826439,
            -0.12352759533297356,
            -0.16328753111932348,
            -0.8417122916906817,
            0.5463308036256042,
            -0.20225532978408395,
            0.4418117485229384,
            1.0923253703638625,
            -0.704993188107512,
            1.2473420337745125,
            -2.180557384101718,
            0.8835507724815201,
            -1.4760577495600247,
            -1.1379658051987098,
            1.0212486746338745,
            1.866136692016407,
            2.7057544325129186,
            1.6285942249238046,
            -0.4989413317137128,
            0.7140496818211057,
            1.9975406897970938,
            3.2279686664288043,
            -0.1803281335162776,
            -0.6999044265253792,
            0.25918539764578163,
            0.35802035962796047,
            -0.4207272691892107,
            -1.6076294713703327,
            0.43148212332393343,
            0.4902644692606862,
            0.21217459365573632,
            -1.116912775049651,
            -0.08089938706511943,
            0.34484935059926203,
            1.46588373622184,
            0.38733509725799253,
            0.09489613461504792,
            1.2669430828500836,
            0.3351714201718452,
            -0.13867892129848652,
            -0.35038695318375074,
            -1.8527330352814153,
            -0.4432307998897339,
            -0.9978136438889931,
            0.021766965888060597,
            0.7876910776478795,
            -1.4159716149505988,
            -0.08626768982280451,
            0.08529409187235228,
            1.7846222174479438,
            0.27238319668868255,
            -0.45817864651960705,
            0.7545307941108137,
            1.558561313818526,
            -0.2378987123874855,
            0.7669070555893871,
            0.7500513875761254,
            0.5572020129478792,
            -0.613562117216785,
            0.03630656553578409,
            -0.8746757404646215,
            0.7357081163050782,
            -2.4937376751489353,
            -0.9104513336386472,
            0.07273116738117044,
            -1.8817329875936524,
            2.223108884844689,
            -1.6268393332172502,
            -0.2284142447432646,
            0.35498524020270916,
            -0.1362742842498322,
            -0.04745663578494266,
            -0.5124965038055407,
            -0.40817646394251317,
            -0.8286912381578039,
            -0.6983845932444692,
            0.6610730795358651,
            0.7110272951452439,
            -0.48579331199547815,
            -1.2892068224779574,
            -0.38393000303059704,
            -0.5901741591072192,
            0.6495563174569725,
            -0.5592245151895783,
            -0.6766465402870755,
            2.967442621688332,
            -0.6196845866739034,
            -1.0096147358586278,
            -0.03722983238440981,
            -0.9017376936725046,
            0.26580927901814166,
            0.5332261110938128,
            2.0373249986842903,
            0.8313587717609782,
            2.6756579774290477,
            0.34396628323347034,
            0.6757187701375887,
            -0.0824377447789661,
            0.7388318147910333,
            0.5971791040788317,
            0.9101989416463578,
            0.14084213137053453,
            0.21815774648653397,
            0.6176269136482332,
            2.066344566858497,
            -0.308971918182364,
            1.599169052505935,
            -0.4211272271033795,
            1.21077445652996,
            -0.927810131846052,
            1.3357626337361703,
            -0.6027566539405528,
            0.4324767486795793,
            -2.116735749086583,
            0.8472209478863043,
            0.1960328689097226,
            0.6825618477954241,
            0.7118788552355763,
            -3.0078614370619965,
            -1.4286216087236514,
            2.443835026245493,
            0.9507336188408924,
            0.5454093412523298,
            -0.7879236312957366,
            -0.7145466155263409,
            -0.030480827223900275,
            1.2505379792837021,
            0.965671842837859,
            -0.5011763707747631,
            -0.7331713333887366,
            0.8187055526333169,
            -3.0058779120106944,
            -0.8031378942972314,
            -1.155267774122304,
            0.9382743915444999,
            0.9430718760843962,
            0.20251679185771454,
            0.8535029415227139,
            1.7875765971364925,
            -3.105334615179787,
            0.8192135137870489,
            -2.3055942190658123,
            1.7142305365579547,
            -1.9546122649500286,
            1.8751257794472815,
            -1.7336177017293588,
            -0.4781495135300531,
            -1.2085327728246706,
            0.3090505152020773,
            -0.622852399393608,
            0.40009060443995853,
            1.7088402088737484,
            0.4210464539353103,
            1.9145989231008165,
            1.1590915221800178,
            0.38607537200251685,
            -1.8237350683091023,
            2.7292215826385067,
            0.1392005766847606,
            -0.7763105440108364,
            2.2989751388767523,
            0.08547816483344278,
            0.255421297550483,
            0.25827219658758027,
            0.6108382009260991,
            2.493887333219822,
            -0.3765328012246901,
            1.4179791892151268,
            -0.6937499340814273,
            -2.2842101863969617,
            0.15771660507934304,
            1.3863204044275466,
            0.5730357591050004,
            1.3638573008219153,
            0.8925536253131378,
            0.6645966043401559,
            0.8052964017746246,
            0.8191884322455127,
            1.2853799234137226,
            -0.22003457372111765,
            -1.3193007883649717,
            3.1006975513448736,
            -0.23249847990323314,
            -0.09667496843645798,
            0.6273552825354775,
            0.35667125627574725,
            -0.041250061016666825,
            0.2955935292014937,
            0.33474268600567625,
            1.131567399461777,
            -0.917059158461255,
            -2.7327996420477296,
            0.17444947371572994,
            -0.4200616563408578,
            0.17968971213932208,
            -0.9084968699216427,
            -0.4310468162087988,
            0.34548135879569253,
            1.6791131987857555,
            1.031074766566805,
            0.4222608961522828,
            2.0027969458125936,
            -1.1864560400177264,
            -1.6081702751923983,
            -1.6934788455178114,
            0.4007859258485442,
            -0.5800868451944473,
            1.4170970580495557,
            -1.8579777969316058,
            -0.04248694673755171,
            -0.560710664795706,
            0.9751763957316809,
            1.280511725833335,
            -1.0297619100708875,
            -0.04675117084371094,
            0.7864618953388023,
            0.9899438689556561,
            0.47276995539815597,
            0.5067229346873224,
            0.8444644601700911,
            1.1813870904007067,
            1.2796611937793856,
            1.527276938619297,
            1.6053152652915803,
            -1.1588282827546643,
            0.5166811432702786,
            0.171575247417934,
            -0.5160485619898105,
            0.953674569656656,
            1.0270450840336822,
            -0.1851620505533188,
            -0.6644250013101138,
            -0.7088018738558477,
            -0.5900990115497295,
            1.094438374558496,
            0.5113039128700376,
            0.4321729885246729,
            0.9806995751582499,
            0.01610648788595348,
            0.07659854357640249,
            1.1436160061479659,
            -0.0012203275968382388
          ],
          "numRows": 16,
          "numCols": 16
        }
      },
      "ops": {
        "type": "org.ejml.simple.ops.SimpleOperations_DDRM",
        "data": {}
      }
    },
    {
      "mat": {
        "type": "org.ejml.data.DMatrixRMaj",
        "data": {
          "data": [
            1.0384664144061002,
            0.25771897046801584,
            1.1268613824540121,
            0.20449711602984916,
            0.540789495199497,
            -0.769946201946857,
            -0.22376435588903332,
            0.6708990266335328,
            1.187618051483086,
            1.4025997955194704,
            0.03510342839158209,
            0.006508223663996879,
            0.20171723775144057,
            0.701815486949598,
            -0.2383241269175758,
            -0.23500372565093944,
            0.25301478735105143,
            4.441763181018424,
            -2.0267939345073214,
            -2.5068718441190523,
            -0.17361797181718136,
            0.18346021887759464,
            -0.1105630107787331,
            1.5764080652354657,
            -0.1965879841444189,
            -1.3739778916189802,
            0.38612619596613407,
            0.08829569728412243,
            -0.9656293719966577,
            -2.6808409382810368,
            -0.6977641516764945,
            1.7317896759002334,
            -0.5125904092711764,
            0.5116638412283394,
            0.12032263626636157,
            0.025950138596607553,
            0.296931583418446,
            -0.5168534528443418,
            0.0633241083939404,
            0.3477612182150911,
            2.253661601796617,
            2.405030270853778,
            3.0862213019453764,
            1.386213940556714,
            1.8830191747869716,
            0.8852720184055275,
            0.9786895244738611,
            2.2030582819927553,
            -0.3104354438972076,
            0.1948231489503282,
            1.8977403001603494,
            1.269134352292418,
            -0.6463567927068816,
            0.261306425681718,
            0.7348514882537514,
            3.669910841499523,
            1.5665312260769313,
            -0.11450793878057802,
            0.8099334226278322,
            1.2060846594343013,
            -0.3801417103888556,
            -0.2570527889143192,
            -0.16165967226952205,
            -0.23986665362402726,
            -1.4321281594816937,
            -1.9165315704965995,
            -0.8790095782434271,
            -1.5790745807921012,
            0.27659357557284037,
            -0.9074095621644762,
            -0.2243258153131497,
            -2.289805566601675,
            -0.06718506323716278,
            -1.1446407339968776,
            -0.1429360459183111,
            -0.511955213455198,
            -1.8487504330574207,
            0.08902180909536696,
            -2.663016391718884,
            -0.4357253176530232,
            0.5099016765956903,
            -0.18828507786612553,
            -0.2545042429995218,
            -1.086534698351339,
            0.814176669684079,
            1.5794496242292944,
            -0.2947415238968431,
            0.10459202815278651,
            0.8605064357182698,
            -0.2557733210602188,
            0.7691180416906915,
            0.5752676164458563,
            1.6582356491792865,
            0.973727798341928,
            -1.879723383253347,
            2.2166237350262006,
            2.8422126073121428,
            2.0357320739550744,
            -2.5294950115654355,
            -0.9101597244527084,
            1.9696114037142711,
            2.66316205938169,
            -0.24590624169432743,
            0.5678523787617002,
            3.3892947114420373,
            -0.7793132932209424,
            0.6012874542301729,
            0.7689778973283505,
            -0.2998859633977743,
            0.967639552893991,
            2.4354618285695717,
            -0.7817349454151112,
            1.204927681716869,
            0.2745115999657256,
            -0.8625003445498747,
            0.011249923855782995,
            -1.7002539166184123,
            1.1358430306876788,
            -0.5108341434905493,
            0.3152781434104044,
            1.1376701464277577,
            0.04808625143077186,
            0.30698884512583335,
            0.2858521642279327,
            -1.0687758438131638,
            0.7073649798231693,
            -0.8565886196026697,
            -0.10236243540611657
          ],
          "numRows": 8,
          "numCols": 16
        }
      },
      "ops": {
        "type": "org.ejml.simple.ops.SimpleOperations_DDRM",
        "data": {}
      }
    }
  ],
  "biases": [
    {
      "mat": {
        "type": "org.ejml.data.DMatrixRMaj",
        "data": {
          "data": [
            -0.43273548705359166,
            0.3270540897356906,
            1.902857915286726,
            0.3753966325308815,
            -0.6100097683280716,
            0.6516273757108058,
            0.42235515511953203,
            -1.1990569354817797,
            -0.7671498456439305,
            -0.03275998208387823,
            1.0334420284920358,
            -0.29177386530137583,
            1.7415504822139913,
            0.7305254974806552,
            -0.1869075328979557,
            -0.1480725804025944
          ],
          "numRows": 16,
          "numCols": 1
        }
      },
      "ops": {
        "type": "org.ejml.simple.ops.SimpleOperations_DDRM",
        "data": {}
      }
    },
    {
      "mat": {
        "type": "org.ejml.data.DMatrixRMaj",
        "data": {
          "data": [
            0.8627895981079552,
            2.5129614578890673,
            -1.0950707715832682,
            -0.8975488555564686,
            -0.484671281223434,
            2.1206724750660264,
            -0.858408125704851,
            1.0259158654087288,
            1.1745971244520508,
            0.6139621180454173,
            2.1842812252667905,
            -0.6648596260357356,
            3.1952009193472506,
            1.074875720852338,
            -0.5982526061326134,
            0.495084994809327
          ],
          "numRows": 16,
          "numCols": 1
        }
      },
      "ops": {
        "type": "org.ejml.simple.ops.SimpleOperations_DDRM",
        "data": {}
      }
    },
    {
      "mat": {
        "type": "org.ejml.data.DMatrixRMaj",
        "data": {
          "data": [
            0.9335583079841907,
            -0.030863728872977975,
            2.5474731130227997,
            1.322720729457904,
            0.3446414279676438,
            -0.2441859287800568,
            1.118065594396729,
            -1.9256429828800106
          ],
          "numRows": 8,
          "numCols": 1
        }
      },
      "ops": {
        "type": "org.ejml.simple.ops.SimpleOperations_DDRM",
        "data": {}
      }
    }
  ],
  "learningRate": 0.1,
  "activationFunctionKey": "SIGMOID"
}